SVM-light Version V5.01-TK-1.5
5 # kernel type
3 # kernel parameter -d 
1 # kernel parameter -g 
1 # kernel parameter -s 
1 # kernel parameter -r 
empty# kernel parameter -u 
0.4 # kernel parameter -L 
1 # kernel parameter -T 
T # kernel parameter -C 
3 # kernel parameter -F 
1 # kernel parameter -S 
0.400000 # kernel parameter -M 
3 # kernel parameter -N 
S # kernel parameter -V 
S # kernel parameter -W 
0 # kernel parameter -U 
0 # highest feature index 
6920 # number of training documents 
1445 # number of support vectors plus 1 
-0.076495038 # threshold b, each following line is a SV (starting with alpha*y)
-1  |BT| (1 (3 (3 (#))(2 (#)))(1 (1 (1 (2 (#))(2 (#)))(2 (2 (2 (2 (2 (2 (2 (#))(2 (#)))(2 (2 (#))(2 (2 (#))(2 (3 (#))(3 (#))))))(2 (#)))(2 (#)))(2 (#)))(2 (1 (1 (3 (2 (2 (2 (#))(2 (#)))(2 (#)))(2 (2 (#))(2 (#))))(2 (#)))(2 (#)))(1 (2 (#))(3 (#))))))(2 (#)))) |ET| 
-1  |BT| (0 (1 (3 (#))(0 (1 (2 (#))(1 (2 (#))(2 (2 (#))(2 (2 (#))(2 (#))))))(2 (2 (#))(2 (2 (#))(2 (2 (#))(2 (2 (#))(3 (2 (#))(2 (2 (#))(2 (2 (#))(2 (#)))))))))))(1 (1 (2 (2 (2 (#))(2 (#)))(2 (#)))(2 (2 (#))(2 (2 (2 (#))(2 (#)))(2 (2 (#))(3 (3 (2 (#))(4 (3 (#))(2 (#))))(2 (2 (#))(3 (3 (#))(3 (2 (#))(2 (#))))))))))(2 (#)))) |ET| 
-1  |BT| (1 (2 (2 (#))(2 (2 (2 (#))(1 (1 (#))(2 (2 (3 (2 (#))(2 (3 (#))(2 (3 (#))(2 (#)))))(2 (#)))(2 (2 (#))(2 (2 (#))(3 (#)))))))(2 (2 (#))(1 (2 (2 (#))(2 (#)))(2 (#))))))(1 (2 (#))(1 (2 (#))(1 (1 (#))(1 (1 (3 (2 (3 (#))(3 (2 (#))(3 (4 (#))(2 (#)))))(2 (2 (#))(2 (2 (#))(2 (#)))))(1 (2 (#))(2 (2 (#))(2 (2 (2 (2 (#))(2 (1 (#))(2 (2 (#))(2 (#)))))(2 (2 (#))(2 (#))))(2 (2 (#))(2 (3 (#))(2 (2 (#))(3 (2 (#))(2 (#))))))))))(2 (#))))))) |ET| 
-1  |BT| (1 (2 (2 (#))(3 (2 (#))(2 (#))))(2 (2 (2 (#))(2 (1 (#))(2 (2 (#))(2 (2 (2 (#))(2 (#)))(2 (2 (#))(2 (2 (#))(2 (3 (#))(2 (2 (#))(2 (#))))))))))(2 (#)))) |ET| 
-1  |BT| (1 (2 (#))(2 (1 (1 (2 (2 (#))(2 (#)))(2 (2 (#))(2 (2 (#))(2 (#)))))(2 (2 (#))(2 (2 (3 (#))(2 (2 (#))(1 (2 (#))(2 (2 (#))(2 (2 (#))(2 (2 (#))(2 (#))))))))(3 (4 (3 (2 (#))(3 (#)))(2 (#)))(2 (#))))))(2 (#)))) |ET| 
1  |BT| (3 (1 (2 (#))(2 (#)))(4 (2 (2 (#))(3 (2 (2 (#))(1 (#)))(3 (2 (#))(2 (2 (#))(2 (2 (#))(2 (2 (2 (#))(2 (#)))(2 (2 (#))(2 (2 (#))(2 (2 (#))(2 (#)))))))))))(2 (#)))) |ET| 
0.42324485105224507464072303264402  |BT| (3 (2 (2 (#))(1 (2 (2 (#))(2 (#)))(1 (2 (#))(2 (2 (2 (#))(1 (4 (#))(3 (#))))(2 (2 (#))(2 (#)))))))(3 (2 (#))(3 (2 (#))(4 (4 (3 (2 (#))(3 (0 (#))(4 (#))))(2 (2 (#))(2 (#))))(2 (#)))))) |ET| 
1  |BT| (3 (3 (2 (2 (2 (2 (2 (#))(2 (2 (#))(2 (#))))(2 (2 (#))(2 (2 (2 (#))(2 (#)))(2 (2 (#))(2 (#))))))(2 (2 (#))(2 (2 (2 (2 (#))(2 (2 (#))(3 (#))))(2 (2 (2 (#))(2 (#)))(2 (2 (2 (#))(2 (#)))(1 (1 (2 (#))(1 (2 (#))(2 (#))))(2 (2 (#))(2 (2 (#))(2 (#))))))))(2 (#)))))(2 (#)))(3 (4 (2 (#))(3 (2 (#))(2 (#))))(2 (3 (#))(3 (2 (#))(2 (1 (2 (#))(2 (2 (2 (#))(2 (2 (#))(2 (2 (#))(2 (#)))))(3 (#))))(2 (2 (#))(2 (2 (#))(2 (#)))))))))(2 (#))) |ET| 
1  |BT| (3 (4 (2 (#))(4 (#)))(2 (2 (#))(1 (2 (2 (#))(3 (2 (2 (2 (#))(2 (2 (2 (#))(2 (2 (#))(1 (#))))(2 (2 (#))(2 (2 (#))(2 (#))))))(2 (#)))(3 (3 (2 (#))(2 (2 (#))(2 (2 (#))(3 (2 (#))(2 (2 (#))(2 (#)))))))(2 (2 (#))(1 (2 (2 (2 (#))(2 (#)))(2 (#)))(2 (2 (#))(2 (#))))))))(2 (#))))) |ET| 
1  |BT| (3 (3 (2 (#))(3 (2 (#))(2 (2 (#))(3 (3 (#))(2 (2 (#))(2 (2 (2 (#))(2 (#)))(2 (#))))))))(3 (3 (2 (#))(2 (2 (#))(3 (2 (#))(2 (2 (#))(1 (2 (#))(0 (2 (2 (#))(2 (#)))(1 (2 (#))(3 (2 (2 (#))(1 (#)))(2 (2 (#))(2 (1 (#))(2 (2 (#))(2 (2 (#))(2 (2 (#))(3 (2 (#))(2 (#))))))))))))))))(2 (#)))) |ET| 
-1  |BT| (1 (3 (2 (#))(4 (#)))(2 (2 (#))(2 (2 (2 (#))(2 (#)))(3 (2 (#))(3 (2 (#))(3 (2 (#))(4 (2 (#))(3 (3 (2 (#))(3 (#)))(3 (2 (#))(4 (4 (2 (#))(4 (#)))(3 (#)))))))))))) |ET| 
1  |BT| (3 (2 (#))(1 (2 (#))(2 (1 (2 (#))(1 (4 (#))(1 (2 (#))(1 (2 (#))(1 (0 (#))(2 (#)))))))(2 (#))))) |ET| 
-1  |BT| (0 (2 (1 (#))(2 (2 (#))(2 (2 (#))(3 (2 (#))(3 (3 (2 (#))(3 (#)))(3 (2 (#))(3 (2 (#))(3 (2 (2 (#))(2 (2 (#))(2 (#))))(3 (2 (#))(3 (#)))))))))))(2 (#))) |ET| 
1  |BT| (3 (3 (3 (#))(1 (2 (#))(1 (2 (2 (#))(1 (1 (#))(1 (2 (#))(2 (1 (#))(2 (#))))))(2 (2 (#))(2 (#))))))(2 (#))) |ET| 
-1  |BT| (1 (4 (4 (2 (2 (#))(4 (2 (#))(3 (#))))(2 (#)))(3 (2 (#))(4 (#))))(1 (0 (#))(2 (#)))) |ET| 
1  |BT| (3 (1 (2 (1 (2 (1 (2 (2 (#))(2 (#)))(2 (2 (#))(3 (2 (0 (#))(2 (#)))(4 (#)))))(2 (#)))(1 (2 (#))(2 (2 (2 (#))(2 (#)))(3 (#)))))(2 (#)))(2 (2 (#))(1 (2 (3 (#))(2 (#)))(3 (#)))))(2 (#))) |ET| 
-1  |BT| (1 (2 (#))(2 (2 (2 (2 (#))(2 (2 (#))(2 (2 (#))(2 (2 (#))(2 (#))))))(2 (2 (#))(2 (2 (2 (2 (#))(2 (2 (#))(2 (#))))(2 (2 (#))(2 (2 (#))(2 (2 (#))(2 (2 (#))(2 (#)))))))(2 (#)))))(2 (#)))) |ET| 
1  |BT| (3 (1 (2 (#))(2 (1 (#))(2 (#))))(2 (2 (2 (2 (#))(2 (2 (#))(2 (#))))(2 (2 (#))(3 (2 (#))(2 (3 (#))(2 (#))))))(2 (#)))) |ET| 
-1  |BT| (1 (2 (#))(2 (2 (2 (2 (#))(3 (#)))(2 (2 (#))(2 (2 (#))(2 (2 (#))(3 (2 (#))(2 (2 (#))(2 (2 (#))(3 (#)))))))))(2 (2 (2 (#))(2 (2 (#))(2 (#))))(2 (#))))) |ET| 
1  |BT| (3 (2 (1 (2 (2 (2 (#))(2 (2 (#))(2 (2 (#))(2 (#)))))(2 (2 (2 (#))(2 (#)))(2 (2 (#))(2 (#)))))(2 (#)))(2 (2 (#))(2 (2 (2 (#))(2 (#)))(2 (2 (#))(2 (2 (#))(2 (2 (#))(2 (2 (#))(2 (2 (#))(2 (2 (#))(2 (2 (2 (#))(2 (#)))(2 (2 (#))(3 (#)))))))))))))(2 (#))) |ET| 
-1  |BT| (1 (2 (2 (2 (#))(2 (#)))(2 (2 (#))(2 (2 (#))(2 (2 (#))(2 (#))))))(2 (2 (#))(2 (2 (2 (#))(2 (2 (2 (#))(2 (2 (#))(2 (2 (#))(2 (#)))))(2 (2 (#))(2 (3 (2 (#))(3 (2 (#))(2 (#))))(2 (2 (#))(2 (2 (#))(2 (#))))))))(3 (2 (#))(3 (2 (#))(2 (4 (3 (2 (#))(4 (2 (#))(4 (2 (#))(3 (4 (#))(2 (#))))))(3 (2 (#))(2 (#))))(2 (#)))))))) |ET| 
1  |BT| (3 (2 (#))(3 (2 (1 (2 (#))(1 (#)))(0 (2 (#))(0 (0 (#))(2 (#)))))(2 (#)))) |ET| 
-1  |BT| (1 (2 (3 (4 (2 (#))(4 (#)))(2 (#)))(1 (2 (#))(2 (#))))(2 (#))) |ET| 
1  |BT| (3 (1 (2 (#))(0 (#)))(1 (2 (#))(0 (1 (#))(1 (0 (1 (1 (2 (#))(1 (0 (#))(2 (2 (#))(2 (#)))))(2 (#)))(2 (2 (#))(2 (2 (#))(2 (2 (#))(2 (2 (#))(2 (#)))))))(2 (#)))))) |ET| 
-1  |BT| (1 (3 (2 (2 (#))(2 (#)))(3 (2 (#))(4 (4 (4 (2 (#))(4 (2 (#))(4 (4 (#))(2 (2 (#))(3 (#))))))(2 (#)))(3 (2 (2 (#))(2 (2 (#))(2 (#))))(3 (3 (#))(2 (2 (#))(2 (#))))))))(1 (2 (#))(2 (0 (2 (#))(2 (0 (#))(2 (#))))(2 (#))))) |ET| 
1  |BT| (3 (2 (2 (#))(2 (#)))(2 (2 (1 (2 (#))(1 (#)))(0 (0 (2 (#))(1 (2 (#))(0 (#))))(2 (2 (#))(1 (#)))))(2 (#)))) |ET| 
-1  |BT| (1 (1 (3 (3 (3 (2 (2 (#))(2 (#)))(3 (2 (#))(4 (#))))(2 (#)))(2 (#)))(1 (1 (2 (#))(2 (#)))(1 (2 (#))(1 (4 (#))(1 (#))))))(2 (#))) |ET| 
1  |BT| (3 (3 (2 (2 (#))(1 (2 (2 (#))(2 (#)))(2 (2 (#))(2 (2 (2 (#))(2 (#)))(2 (#))))))(2 (2 (#))(2 (2 (#))(2 (2 (#))(2 (2 (#))(2 (#)))))))(2 (3 (2 (#))(2 (2 (#))(2 (2 (#))(2 (#)))))(2 (#)))) |ET| 
-1  |BT| (0 (2 (2 (#))(3 (2 (#))(4 (2 (#))(3 (2 (2 (#))(2 (#)))(4 (3 (2 (2 (#))(2 (#)))(4 (4 (2 (#))(4 (3 (#))(2 (#))))(4 (2 (#))(4 (2 (#))(4 (2 (#))(4 (2 (#))(4 (3 (2 (#))(3 (3 (#))(2 (#))))(3 (2 (#))(4 (2 (#))(3 (3 (3 (#))(3 (#)))(3 (#))))))))))))(2 (#)))))))(0 (0 (2 (#))(0 (0 (0 (#))(2 (2 (#))(2 (#))))(0 (2 (#))(0 (2 (2 (#))(2 (#)))(1 (2 (#))(1 (#)))))))(2 (#)))) |ET| 
1  |BT| (3 (2 (#))(2 (1 (#))(2 (2 (3 (#))(0 (2 (#))(2 (3 (2 (#))(2 (2 (#))(1 (3 (2 (#))(1 (#)))(2 (2 (#))(2 (#))))))(1 (2 (#))(0 (1 (#))(0 (2 (2 (#))(2 (2 (#))(2 (#))))(0 (1 (#))(1 (2 (#))(1 (1 (#))(1 (2 (#))(1 (2 (#))(1 (2 (#))(1 (#))))))))))))))(2 (#))))) |ET| 
-1  |BT| (0 (2 (#))(0 (0 (2 (#))(1 (2 (#))(2 (2 (#))(2 (2 (1 (#))(2 (2 (2 (#))(2 (#)))(3 (#))))(2 (1 (1 (2 (#))(2 (1 (#))(2 (#))))(2 (2 (#))(2 (2 (2 (#))(2 (#)))(2 (2 (#))(2 (2 (#))(2 (2 (#))(2 (#))))))))(2 (2 (#))(2 (2 (3 (#))(2 (#)))(2 (3 (2 (#))(2 (3 (#))(2 (2 (#))(2 (2 (#))(3 (#))))))(2 (2 (#))(3 (2 (#))(2 (3 (#))(2 (2 (#))(2 (2 (#))(2 (2 (#))(2 (#))))))))))))))))(2 (#)))) |ET| 
1  |BT| (3 (3 (3 (3 (2 (#))(3 (3 (#))(2 (2 (#))(2 (#)))))(1 (2 (2 (#))(2 (#)))(2 (2 (#))(2 (#)))))(2 (2 (#))(2 (2 (2 (#))(2 (#)))(1 (2 (#))(1 (2 (2 (#))(2 (2 (#))(1 (#))))(3 (2 (#))(2 (2 (#))(2 (#)))))))))(2 (#))) |ET| 
-1  |BT| (0 (3 (2 (#))(2 (2 (#))(2 (#))))(1 (3 (2 (#))(2 (2 (2 (#))(2 (3 (#))(3 (3 (#))(2 (#)))))(3 (3 (2 (#))(4 (3 (4 (#))(2 (#)))(3 (#))))(2 (2 (#))(2 (#))))))(2 (#)))) |ET| 
1  |BT| (3 (3 (#))(1 (1 (2 (#))(1 (2 (#))(1 (#))))(2 (#)))) |ET| 
-1  |BT| (1 (3 (3 (2 (#))(3 (3 (#))(3 (#))))(2 (#)))(0 (2 (#))(4 (3 (2 (#))(3 (2 (#))(1 (#))))(2 (#))))) |ET| 
1  |BT| (3 (0 (2 (2 (#))(2 (#)))(2 (2 (#))(0 (1 (2 (#))(1 (1 (#))(0 (2 (#))(1 (1 (#))(3 (#))))))(2 (2 (#))(2 (2 (2 (#))(2 (#)))(2 (1 (2 (#))(1 (#)))(2 (2 (#))(2 (2 (#))(2 (2 (#))(2 (#)))))))))))(2 (#))) |ET| 
-1  |BT| (1 (2 (#))(2 (2 (2 (#))(2 (2 (2 (#))(2 (#)))(2 (2 (2 (2 (#))(2 (2 (#))(2 (2 (#))(2 (#)))))(2 (2 (2 (#))(3 (#)))(2 (2 (#))(2 (#)))))(2 (2 (#))(2 (2 (#))(2 (2 (#))(2 (2 (#))(2 (2 (#))(2 (#))))))))))(2 (#)))) |ET| 
1  |BT| (3 (1 (3 (#))(1 (#)))(2 (#))) |ET| 
-1  |BT| (1 (2 (2 (2 (#))(2 (2 (#))(2 (3 (#))(2 (2 (#))(2 (2 (#))(2 (#)))))))(2 (2 (#))(2 (#))))(1 (1 (2 (2 (2 (2 (2 (#))(2 (2 (2 (#))(2 (#)))(2 (2 (2 (#))(2 (#)))(2 (#)))))(2 (#)))(2 (#)))(2 (#)))(1 (1 (2 (#))(1 (#)))(3 (2 (#))(2 (4 (#))(2 (2 (#))(2 (2 (#))(2 (2 (#))(2 (2 (#))(2 (#))))))))))(2 (#)))) |ET| 
1  |BT| (3 (2 (#))(2 (2 (2 (#))(2 (2 (2 (#))(2 (2 (#))(2 (2 (#))(2 (2 (#))(2 (#))))))(2 (2 (#))(2 (2 (2 (2 (2 (2 (#))(2 (#)))(2 (#)))(2 (#)))(2 (#)))(2 (2 (#))(2 (2 (#))(2 (2 (#))(2 (2 (2 (#))(2 (2 (#))(2 (#))))(2 (#))))))))))(2 (#)))) |ET| 
-1  |BT| (0 (3 (2 (2 (#))(1 (#)))(2 (2 (#))(2 (2 (#))(2 (#)))))(3 (2 (2 (#))(2 (2 (#))(2 (2 (#))(2 (2 (#))(2 (2 (2 (#))(2 (#)))(2 (3 (#))(2 (2 (#))(2 (2 (2 (#))(2 (#)))(2 (2 (2 (#))(2 (2 (#))(2 (2 (#))(2 (#)))))(2 (2 (#))(2 (2 (#))(2 (#)))))))))))))(2 (#)))) |ET| 
1  |BT| (3 (3 (3 (4 (3 (3 (#))(2 (#)))(4 (#)))(2 (#)))(3 (2 (#))(1 (4 (#))(1 (2 (#))(1 (1 (#))(1 (2 (#))(1 (1 (1 (#))(2 (#)))(1 (#)))))))))(2 (#))) |ET| 
-1  |BT| (1 (3 (3 (2 (#))(3 (3 (#))(2 (#))))(2 (#)))(1 (1 (1 (2 (#))(2 (#)))(3 (3 (#))(3 (2 (#))(3 (2 (#))(3 (2 (#))(3 (2 (#))(2 (3 (#))(2 (#)))))))))(2 (#)))) |ET| 
1  |BT| (3 (3 (2 (2 (3 (2 (2 (#))(2 (#)))(2 (2 (#))(2 (2 (#))(1 (#)))))(2 (#)))(2 (2 (2 (#))(2 (#)))(2 (2 (#))(2 (2 (2 (2 (#))(2 (#)))(2 (#)))(2 (2 (#))(2 (#)))))))(2 (#)))(2 (2 (2 (2 (#))(2 (2 (2 (2 (#))(2 (2 (2 (#))(2 (#)))(2 (2 (#))(2 (2 (2 (#))(2 (#)))(2 (#))))))(2 (#)))(2 (#))))(2 (2 (#))(2 (2 (2 (2 (#))(2 (#)))(2 (#)))(2 (2 (#))(2 (2 (2 (#))(2 (#)))(2 (2 (#))(2 (2 (#))(2 (1#)))))))))(2 (#)))) |ET| 
-1  |BT| (0 (2 (2 (2 (1 (#))(2 (#)))(2 (2 (#))(2 (#))))(2 (#)))(2 (2 (#))(2 (2 (2 (#))(2 (2 (#))(2 (2 (#))(2 (2 (2 (2 (#))(2 (#)))(2 (#)))(2 (2 (#))(1 (#)))))))(2 (#))))) |ET| 
1  |BT| (3 (3 (#))(1 (1 (1 (1 (#))(2 (#)))(3 (#)))(3 (2 (#))(2 (#))))) |ET| 
-1  |BT| (0 (2 (2 (#))(2 (2 (#))(2 (#))))(2 (2 (#))(1 (2 (#))(2 (1 (2 (#))(2 (2 (2 (#))(2 (#)))(2 (2 (#))(1 (2 (2 (#))(2 (#)))(2 (2 (#))(2 (2 (2 (#))(2 (2 (#))(3 (#))))(2 (2 (#))(2 (2 (2 (2 (#))(2 (2 (#))(2 (#))))(2 (#)))(2 (2 (#))(2 (3 (#))(2 (#))))))))))))(2 (#)))))) |ET| 
1  |BT| (3 (2 (2 (#))(2 (2 (#))(2 (#))))(2 (2 (2 (#))(2 (2 (2 (2 (#))(2 (2 (2 (#))(2 (#)))(2 (2 (#))(2 (2 (#))(3 (#))))))(2 (2 (2 (#))(2 (2 (#))(2 (2 (#))(2 (2 (#))(2 (#))))))(2 (2 (#))(2 (2 (#))(2 (2 (2 (#))(2 (2 (#))(2 (#))))(2 (2 (#))(2 (2 (#))(2 (#)))))))))(2 (2 (#))(3 (2 (#))(2 (#))))))(2 (#)))) |ET| 
-1  |BT| (1 (1 (#))(2 (3 (2 (2 (#))(2 (2 (#))(4 (2 (2 (2 (#))(2 (#)))(2 (#)))(3 (2 (#))(3 (2 (#))(3 (3 (3 (3 (4 (2 (2 (#))(2 (2 (2 (#))(2 (#)))(3 (#))))(3 (2 (#))(3 (2 (3 (#))(2 (#)))(3 (4 (#))(2 (#))))))(2 (#)))(2 (#)))(2 (#)))(2 (2 (#))(2 (2 (#))(2 (3 (2 (#))(3 (2 (#))(3 (#))))(2 (2 (#))(2 (2 (#))(2 (2 (#))(2 (2 (2 (2 (2 (#))(2 (#)))(2 (#)))(2 (#)))(2 (#)))))))))))))))(2 (#)))(2 (#)))) |ET| 
1  |BT| (3 (3 (1 (1 (1 (2 (#))(1 (0 (1 (#))(1 (2 (#))(2 (#))))(2 (2 (#))(3 (#)))))(2 (#)))(2 (#)))(3 (2 (#))(3 (2 (2 (#))(1 (#)))(1 (0 (#))(2 (#))))))(2 (#))) |ET| 
-1  |BT| (1 (1 (2 (#))(0 (4 (2 (#))(4 (4 (#))(3 (2 (#))(4 (2 (#))(3 (2 (#))(3 (1 (#))(3 (3 (2 (#))(2 (#)))(3 (#)))))))))(2 (2 (#))(0 (2 (#))(1 (0 (#))(2 (#)))))))(2 (#))) |ET| 
1  |BT| (4 (2 (1 (2 (#))(2 (2 (#))(2 (#))))(2 (2 (#))(3 (2 (1 (2 (2 (2 (#))(2 (#)))(2 (#)))(1 (2 (#))(2 (3 (#))(2 (#)))))(2 (#)))(2 (2 (#))(2 (2 (#))(2 (2 (#))(2 (2 (2 (#))(2 (#)))(2 (#)))))))))(4 (3 (2 (#))(4 (2 (2 (#))(2 (#)))(4 (2 (#))(4 (4 (#))(4 (2 (#))(3 (2 (#))(3 (2 (2 (2 (#))(2 (2 (#))(2 (#))))(2 (#)))(2 (2 (#))(2 (2 (#))(3 (2 (2 (#))(2 (#)))(2 (2 (#))(2 (#)))))))))))))(2 (#)))) |ET| 
-1  |BT| (1 (2 (#))(2 (2 (2 (#))(2 (2 (2 (2 (2 (#))(2 (#)))(2 (2 (#))(2 (2 (#))(2 (#)))))(2 (#)))(2 (2 (#))(2 (2 (#))(2 (2 (2 (#))(2 (3 (2 (2 (2 (2 (#))(2 (#)))(2 (#)))(2 (#)))(2 (#)))(2 (2 (#))(2 (#)))))(2 (2 (2 (#))(2 (#)))(2 (2 (#))(2 (2 (#))(2 (#))))))))))(2 (#)))) |ET| 
0.69228472775310856413000237807864  |BT| (3 (2 (3 (2 (#))(3 (2 (#))(3 (#))))(2 (2 (#))(2 (2 (#))(1 (2 (2 (#))(2 (#)))(1 (#))))))(2 (#))) |ET| 
-1  |BT| (1 (3 (#))(1 (2 (#))(1 (1 (1 (2 (0 (#))(2 (#)))(2 (#)))(3 (2 (#))(3 (3 (3 (2 (#))(3 (3 (#))(3 (#))))(2 (#)))(2 (#)))))(2 (#))))) |ET| 
1  |BT| (3 (2 (2 (2 (2 (2 (#))(2 (2 (#))(2 (2 (#))(2 (2 (3 (#))(2 (2 (#))(2 (2 (#))(2 (#)))))(2 (2 (#))(2 (2 (2 (#))(2 (2 (#))(2 (#))))(2 (2 (2 (#))(2 (#)))(2 (2 (#))(3 (2 (#))(2 (2 (#))(2 (#))))))))))))(2 (#)))(2 (#)))(2 (2 (#))(2 (2 (2 (2 (#))(2 (#)))(2 (#)))(2 (2 (#))(2 (2 (#))(2 (2 (#))(2 (#))))))))(2 (#))) |ET| 
-1  |BT| (1 (2 (2 (2 (#))(2 (2 (#))(2 (#))))(2 (2 (2 (#))(2 (#)))(2 (#))))(2 (2 (2 (2 (2 (#))(2 (2 (#))(2 (2 (#))(2 (2 (#))(2 (2 (#))(2 (2 (#))(2 (#))))))))(2 (2 (#))(2 (2 (#))(2 (#)))))(2 (2 (#))(2 (2 (#))(2 (2 (#))(2 (#))))))(2 (#)))) |ET| 
1  |BT| (3 (3 (2 (3 (#))(2 (#)))(3 (#)))(0 (2 (2 (#))(1 (1 (1 (#))(2 (#)))(1 (#))))(2 (#)))) |ET| 
-1  |BT| (1 (1 (#))(3 (3 (3 (3 (#))(2 (#)))(2 (2 (#))(3 (2 (#))(2 (3 (#))(2 (#))))))(2 (#)))) |ET| 
1  |BT| (3 (2 (#))(1 (2 (2 (#))(2 (2 (3 (#))(2 (#)))(2 (2 (#))(2 (2 (#))(2 (2 (#))(2 (3 (2 (2 (#))(2 (2 (2 (#))(2 (#)))(2 (2 (2 (#))(2 (2 (#))(2 (#))))(2 (2 (#))(2 (2 (2 (2 (2 (#))(2 (2 (#))(2 (2 (#))(2 (2 (#))(2 (#))))))(2 (#)))(2 (2 (#))(2 (2 (#))(2 (2 (#))(2 (#))))))(2 (#)))))))(2 (2 (#))(2 (#))))(2 (2 (#))(2 (2 (#))(2 (#))))))))))(2 (#)))) |ET| 
-1  |BT| (0 (2 (#))(2 (2 (2 (#))(2 (2 (#))(2 (2 (2 (#))(2 (#)))(2 (2 (#))(2 (2 (#))(2 (#)))))))(2 (#)))) |ET| 
1  |BT| (3 (3 (2 (2 (#))(2 (2 (3 (2 (#))(3 (#)))(1 (2 (#))(2 (2 (2 (#))(1 (#)))(2 (#)))))(1 (#))))(2 (2 (#))(1 (2 (#))(2 (1 (#))(1 (2 (#))(2 (2 (#))(1 (#))))))))(2 (2 (#))(2 (#)))) |ET| 
-1  |BT| (0 (2 (#))(0 (0 (1 (2 (#))(2 (#)))(3 (3 (2 (#))(3 (#)))(3 (2 (#))(3 (2 (2 (#))(2 (#)))(3 (2 (#))(3 (2 (3 (#))(2 (#)))(3 (#))))))))(2 (#)))) |ET| 
1  |BT| (3 (2 (2 (2 (#))(2 (2 (#))(2 (#))))(2 (#)))(2 (2 (2 (2 (#))(2 (#)))(2 (2 (#))(1 (2 (#))(1 (2 (#))(2 (2 (#))(1 (2 (#))(1 (1 (#))(2 (2 (#))(2 (2 (#))(2 (2 (#))(2 (2 (2 (2 (#))(2 (2 (#))(2 (#))))(2 (2 (#))(2 (2 (#))(2 (#)))))(2 (#)))))))))))))(2 (#)))) |ET| 
-1  |BT| (1 (2 (#))(1 (2 (#))(3 (3 (3 (#))(2 (3 (#))(2 (2 (#))(2 (2 (2 (#))(2 (2 (#))(2 (3 (#))(2 (#)))))(2 (2 (#))(2 (2 (#))(2 (#))))))))(2 (#))))) |ET| 
1  |BT| (3 (2 (#))(2 (0 (2 (#))(1 (2 (#))(0 (2 (2 (#))(2 (#)))(0 (2 (#))(0 (2 (#))(0 (#)))))))(3 (2 (#))(3 (2 (#))(2 (3 (2 (2 (#))(2 (#)))(2 (#)))(2 (#))))))) |ET| 
-1  |BT| (1 (1 (2 (#))(1 (1 (1 (2 (1 (#))(2 (#)))(3 (2 (#))(4 (#))))(2 (#)))(1 (0 (0 (2 (#))(1 (2 (#))(0 (2 (#))(1 (0 (#))(2 (2 (#))(2 (#)))))))(3 (#)))(3 (2 (#))(3 (2 (#))(4 (2 (#))(3 (3 (3 (#))(3 (2 (#))(4 (3 (2 (#))(3 (#)))(2 (2 (#))(3 (2 (#))(2 (#)))))))(3 (2 (#))(4 (2 (#))(4 (3 (#))(2 (2 (#))(2 (#)))))))))))))(4 (2 (#))(4 (2 (#))(4 (2 (#))(3 (3 (2 (3 (#))(1 (#)))(3 (2 (#))(3 (2 (#))(4 (3 (#))(2 (2 (#))(3 (3 (#))(2 (4 (#))(2 (#)))))))))(2 (#))))))) |ET| 
1  |BT| (3 (2 (2 (#))(2 (#)))(2 (2 (#))(2 (2 (3 (2 (#))(2 (#)))(2 (2 (#))(2 (2 (2 (2 (#))(2 (#)))(2 (#)))(2 (2 (#))(2 (2 (#))(1 (2 (2 (2 (#))(2 (2 (#))(2 (#))))(1 (2 (#))(2 (2 (#))(1 (2 (#))(2 (2 (#))(2 (2 (#))(2 (#))))))))(2 (2 (#))(2 (1 (#))(2 (#))))))))))(2 (#))))) |ET| 
-1  |BT| (0 (2 (2 (2 (2 (2 (#))(2 (2 (#))(2 (#))))(2 (2 (#))(2 (2 (2 (#))(2 (#)))(2 (2 (#))(2 (#))))))(2 (#)))(1 (2 (2 (#))(2 (2 (2 (#))(2 (#)))(2 (2 (#))(2 (#)))))(2 (2 (2 (#))(2 (#)))(2 (2 (#))(2 (2 (#))(2 (2 (#))(2 (2 (#))(2 (#)))))))))(2 (#))) |ET| 
1  |BT| (3 (1 (3 (2 (#))(2 (3 (0 (#))(3 (2 (#))(4 (#))))(3 (#))))(1 (3 (2 (#))(2 (#)))(1 (2 (#))(1 (2 (#))(2 (0 (4 (#))(1 (#)))(2 (#)))))))(2 (#))) |ET| 
-1  |BT| (1 (2 (#))(2 (2 (#))(2 (2 (3 (2 (#))(2 (2 (2 (#))(2 (#)))(2 (2 (#))(2 (#)))))(2 (#)))(2 (#))))) |ET| 
1  |BT| (3 (2 (#))(3 (2 (2 (#))(2 (2 (2 (#))(2 (#)))(2 (2 (#))(2 (2 (2 (#))(2 (#)))(2 (2 (2 (#))(2 (2 (#))(2 (2 (#))(2 (#)))))(2 (2 (2 (#))(2 (2 (#))(2 (2 (2 (#))(2 (#)))(2 (#)))))(2 (2 (#))(2 (2 (#))(2 (#))))))))))(2 (#)))) |ET| 
-1  |BT| (1 (2 (1 (2 (2 (2 (#))(2 (2 (2 (2 (#))(2 (2 (#))(2 (2 (#))(2 (3 (#))(2 (#))))))(2 (#)))(2 (2 (2 (2 (#))(2 (2 (2 (#))(2 (#)))(2 (2 (#))(2 (2 (2 (#))(2 (#)))(2 (#))))))(2 (#)))(2 (2 (#))(2 (2 (#))(1 (2 (2 (#))(2 (#)))(3 (2 (#))(2 (2 (#))(2 (2 (#))(2 (2 (2 (2 (#))(2 (#)))(2 (#)))(2 (2 (#))(2 (#)))))))))))))(2 (#)))(2 (#)))(2 (2 (2 (#))(2 (2 (#))(2 (2 (#))(2 (#)))))(2 (2 (#))(2 (2 (#))(2 (2 (#))(2 (2 (#))(2 (2 (#))(3 (2 (#))(3 (2 (#))(2 (3 (2 (#))(2 (#)))(3 (2 (#))(2 (2 (2 (#))(2 (#)))(2 (2 (#))(2 (#)))))))))))))))(2 (#))) |ET| 
1  |BT| (3 (3 (#))(1 (1 (#))(2 (#)))) |ET| 
-1  |BT| (1 (1 (2 (3 (#))(2 (#)))(2 (2 (#))(2 (2 (#))(2 (2 (#))(2 (3 (2 (#))(2 (2 (#))(2 (3 (#))(2 (#)))))(2 (2 (#))(2 (2 (#))(2 (#)))))))))(2 (#))) |ET| 
1  |BT| (4 (4 (4 (#))(2 (2 (#))(2 (2 (2 (#))(2 (#)))(2 (2 (#))(2 (2 (2 (2 (2 (#))(2 (#)))(2 (#)))(2 (2 (#))(2 (2 (#))(2 (#)))))(2 (2 (2 (#))(2 (#)))(2 (#))))))))(2 (2 (2 (2 (#))(2 (2 (#))(2 (#))))(2 (2 (#))(2 (2 (#))(2 (#)))))(2 (#)))) |ET| 
-1  |BT| (1 (2 (#))(2 (2 (#))(2 (2 (1 (#))(2 (#)))(2 (2 (#))(2 (2 (2 (#))(2 (2 (#))(2 (2 (#))(2 (2 (#))(2 (2 (2 (#))(2 (2 (#))(2 (#))))(2 (2 (#))(2 (3 (2 (#))(3 (#)))(2 (2 (#))(2 (2 (#))(2 (2 (#))(3 (1#))))))))))))(2 (#))))))) |ET| 
1  |BT| (3 (2 (#))(0 (2 (#))(1 (1 (1 (3 (2 (#))(2 (2 (#))(2 (#))))(2 (2 (#))(1 (2 (2 (#))(2 (#)))(1 (2 (#))(1 (2 (#))(1 (2 (1 (0 (#))(2 (#)))(2 (#)))(2 (#))))))))(2 (2 (#))(1 (2 (#))(2 (2 (#))(2 (#))))))(2 (#))))) |ET| 
-1  |BT| (1 (1 (2 (#))(2 (2 (#))(2 (#))))(3 (3 (2 (#))(3 (2 (#))(3 (2 (#))(3 (2 (#))(1 (2 (#))(3 (2 (#))(3 (3 (#))(2 (2 (#))(2 (#))))))))))(2 (#)))) |ET| 
1  |BT| (3 (2 (2 (2 (#))(2 (#)))(2 (2 (#))(2 (2 (2 (2 (#))(2 (#)))(2 (#)))(2 (2 (#))(2 (#))))))(2 (2 (#))(3 (2 (#))(2 (2 (#))(1 (1 (2 (#))(1 (2 (2 (2 (#))(3 (#)))(1 (2 (#))(1 (1 (2 (#))(1 (0 (#))(2 (#))))(2 (2 (#))(2 (#))))))(1 (2 (#))(0 (2 (#))(1 (2 (#))(1 (0 (#))(2 (2 (#))(2 (2 (#))(2 (#))))))))))(2 (2 (#))(2 (2 (#))(1 (#))))))))) |ET| 
1  |BT| (3 (3 (2 (2 (3 (2 (2 (2 (#))(2 (#)))(2 (2 (#))(2 (#))))(2 (2 (#))(2 (2 (2 (#))(3 (#)))(2 (2 (#))(2 (2 (2 (#))(2 (2 (2 (2 (#))(2 (#)))(2 (2 (#))(2 (2 (#))(3 (#)))))(2 (#))))(2 (2 (#))(2 (2 (#))(2 (2 (#))(2 (#))))))))))(2 (#)))(2 (#)))(3 (2 (2 (#))(2 (2 (#))(2 (1 (#))(2 (2 (#))(3 (#))))))(3 (2 (#))(3 (3 (#))(2 (2 (#))(2 (2 (#))(2 (#))))))))(2 (#))) |ET| 
1  |BT| (3 (3 (1 (1 (2 (2 (#))(2 (2 (#))(2 (2 (#))(2 (2 (#))(2 (#))))))(0 (2 (#))(0 (#))))(2 (#)))(3 (2 (#))(3 (2 (2 (#))(2 (#)))(3 (2 (#))(4 (3 (#))(4 (#)))))))(2 (#))) |ET| 
-1  |BT| (1 (3 (3 (3 (2 (#))(3 (#)))(2 (#)))(2 (2 (#))(2 (#))))(2 (#))) |ET| 
1  |BT| (3 (2 (#))(2 (2 (2 (#))(2 (2 (2 (#))(2 (2 (#))(2 (2 (#))(2 (3 (#))(2 (#))))))(2 (2 (#))(2 (2 (2 (#))(2 (#)))(2 (2 (#))(2 (2 (#))(1 (1 (#))(2 (2 (#))(2 (2 (3 (#))(2 (2 (#))(2 (2 (#))(2 (2 (#))(2 (2 (2 (#))(2 (#)))(2 (#)))))))(1 (1 (2 (#))(2 (#)))(2 (1 (#))(1 (2 (#))(0 (2 (#))(1 (2 (#))(1 (1 (3 (#))(2 (2 (#))(2 (#))))(2 (2 (#))(2 (2 (#))(2 (#)))))))))))))))))))(2 (#)))) |ET| 
-1  |BT| (1 (2 (#))(2 (1 (1 (#))(4 (2 (3 (3 (2 (#))(4 (3 (2 (#))(2 (2 (#))(3 (#))))(4 (#))))(2 (#)))(2 (2 (2 (2 (2 (#))(2 (#)))(2 (2 (#))(2 (#))))(2 (2 (#))(2 (#))))(2 (1 (#))(2 (2 (2 (#))(2 (#)))(3 (#))))))(3 (2 (2 (#))(2 (2 (#))(2 (#))))(3 (2 (#))(3 (2 (#))(2 (3 (#))(3 (#))))))))(2 (#)))) |ET| 
1  |BT| (3 (2 (1 (1 (0 (2 (#))(1 (2 (#))(1 (2 (#))(2 (2 (#))(0 (2 (1 (2 (#))(2 (2 (#))(2 (2 (#))(2 (#)))))(2 (#)))(1 (2 (#))(1 (2 (#))(1 (0 (#))(1 (2 (#))(2 (2 (#))(1 (1 (3 (#))(2 (#)))(2 (#)))))))))))))(2 (#)))(2 (#)))(3 (2 (#))(3 (2 (2 (#))(2 (#)))(3 (2 (#))(3 (2 (#))(4 (#)))))))(2 (#))) |ET| 
-1  |BT| (1 (2 (1 (1 (2 (#))(3 (#)))(2 (#)))(2 (2 (#))(3 (2 (#))(2 (2 (2 (#))(2 (2 (2 (#))(2 (2 (#))(2 (#))))(2 (2 (#))(2 (2 (#))(2 (2 (#))(1 (#)))))))(3 (2 (#))(2 (1 (#))(0 (0 (0 (#))(2 (#)))(2 (2 (#))(2 (1 (#))(2 (2 (2 (#))(2 (#)))(2 (2 (#))(2 (2 (#))(3 (#))))))))))))))(2 (#))) |ET| 
1  |BT| (4 (2 (3 (2 (#))(2 (2 (#))(2 (#))))(2 (2 (#))(2 (#))))(1 (2 (2 (2 (#))(2 (#)))(2 (2 (#))(2 (2 (2 (#))(3 (#)))(2 (2 (#))(2 (#))))))(2 (#)))) |ET| 
-1  |BT| (0 (0 (3 (2 (2 (2 (#))(2 (2 (#))(2 (2 (#))(2 (2 (2 (#))(2 (#)))(2 (2 (#))(3 (3 (#))(2 (2 (#))(2 (2 (#))(2 (#))))))))))(2 (#)))(2 (#)))(2 (2 (#))(2 (2 (2 (#))(2 (#)))(3 (2 (#))(2 (3 (#))(2 (2 (#))(2 (2 (2 (#))(2 (2 (#))(2 (2 (#))(2 (#)))))(2 (#)))))))))(2 (#))) |ET| 
1  |BT| (3 (2 (3 (2 (#))(2 (3 (#))(2 (#))))(2 (2 (#))(1 (1 (#))(1 (2 (#))(1 (3 (#))(1 (#)))))))(2 (#))) |ET| 
-1  |BT| (1 (2 (#))(2 (2 (#))(3 (2 (3 (1 (2 (1 (#))(3 (2 (#))(3 (2 (#))(3 (3 (3 (#))(2 (#)))(2 (2 (#))(2 (2 (#))(2 (2 (#))(2 (2 (#))(2 (#))))))))))(2 (#)))(2 (#)))(3 (2 (#))(3 (2 (#))(3 (3 (#))(3 (2 (#))(2 (2 (#))(3 (3 (#))(3 (2 (2 (#))(2 (#)))(2 (#))))))))))(2 (#))))) |ET| 
1  |BT| (3 (1 (#))(2 (2 (2 (#))(3 (#)))(2 (2 (2 (#))(1 (0 (2 (#))(0 (2 (#))(1 (2 (2 (#))(2 (2 (#))(2 (#))))(1 (1 (#))(2 (#))))))(2 (2 (#))(2 (2 (#))(2 (2 (#))(2 (#)))))))(2 (#))))) |ET| 
-1  |BT| (0 (2 (2 (#))(2 (2 (#))(2 (#))))(2 (1 (2 (#))(1 (2 (2 (#))(2 (2 (#))(2 (#))))(2 (2 (#))(2 (2 (2 (2 (#))(3 (#)))(2 (#)))(2 (2 (#))(3 (2 (2 (#))(2 (2 (#))(2 (2 (#))(2 (#)))))(2 (2 (#))(2 (#)))))))))(2 (#)))) |ET| 
1  |BT| (3 (2 (2 (#))(1 (2 (#))(2 (#))))(2 (3 (2 (#))(2 (2 (3 (2 (#))(3 (#)))(2 (#)))(2 (2 (#))(3 (2 (3 (2 (2 (#))(3 (#)))(2 (2 (#))(4 (#))))(2 (#)))(2 (2 (#))(1 (2 (3 (2 (#))(2 (2 (#))(2 (#))))(2 (#)))(2 (2 (#))(2 (#)))))))))(2 (#)))) |ET| 
-1  |BT| (0 (2 (#))(0 (0 (2 (2 (#))(1 (#)))(3 (3 (2 (#))(2 (3 (#))(3 (#))))(3 (2 (#))(3 (2 (#))(2 (2 (#))(3 (#)))))))(2 (#)))) |ET| 
1  |BT| (3 (2 (#))(2 (2 (#))(2 (2 (2 (2 (#))(2 (1 (#))(2 (#))))(2 (2 (#))(2 (2 (2 (#))(2 (#)))(2 (2 (#))(2 (1 (#))(2 (#)))))))(2 (2 (#))(2 (2 (2 (2 (2 (#))(2 (#)))(2 (#)))(1 (#)))(2 (#))))))) |ET| 
-1  |BT| (1 (2 (#))(2 (1 (2 (#))(3 (2 (#))(1 (2 (#))(4 (3 (3 (2 (2 (2 (#))(2 (2 (#))(2 (2 (#))(2 (2 (#))(2 (#))))))(2 (#)))(3 (3 (2 (#))(3 (2 (#))(3 (3 (#))(2 (#)))))(2 (2 (#))(2 (2 (#))(2 (2 (#))(2 (#)))))))(2 (#)))(4 (2 (#))(4 (3 (2 (#))(4 (#)))(2 (2 (#))(2 (2 (#))(2 (#))))))))))(2 (#)))) |ET| 
1  |BT| (3 (2 (#))(2 (2 (2 (3 (2 (#))(3 (2 (#))(2 (#))))(1 (2 (#))(1 (1 (2 (#))(1 (#)))(1 (2 (#))(1 (1 (2 (2 (#))(2 (2 (#))(2 (#))))(2 (#)))(0 (2 (2 (#))(1 (#)))(1 (2 (2 (#))(2 (#)))(1 (3 (#))(3 (#))))))))))(2 (#)))(2 (#)))) |ET| 
-1  |BT| (1 (2 (2 (#))(2 (#)))(2 (2 (#))(2 (2 (#))(2 (2 (#))(2 (2 (2 (2 (#))(2 (#)))(2 (#)))(3 (2 (#))(2 (2 (#))(2 (#))))))))) |ET| 
1  |BT| (4 (2 (#))(3 (4 (0 (1 (2 (#))(2 (#)))(2 (2 (#))(2 (2 (2 (#))(2 (3 (#))(2 (#))))(2 (2 (#))(2 (#))))))(3 (2 (#))(2 (2 (#))(2 (2 (#))(3 (2 (#))(2 (2 (#))(3 (2 (2 (#))(2 (#)))(2 (2 (#))(2 (2 (#))(2 (#)))))))))))(2 (#)))) |ET| 
-1  |BT| (1 (2 (2 (2 (2 (2 (#))(2 (#)))(2 (#)))(2 (2 (2 (2 (#))(2 (#)))(2 (#)))(2 (2 (#))(2 (2 (2 (#))(3 (#)))(2 (2 (#))(2 (2 (#))(2 (2 (#))(2 (#)))))))))(2 (2 (#))(2 (3 (2 (#))(3 (2 (#))(3 (#))))(2 (2 (#))(2 (#))))))(2 (#))) |ET| 
1  |BT| (3 (1 (3 (#))(1 (2 (#))(1 (2 (#))(0 (1 (1 (#))(2 (#)))(1 (#))))))(2 (3 (2 (#))(3 (2 (#))(2 (2 (#))(3 (2 (#))(4 (#))))))(2 (#)))) |ET| 
-1  |BT| (1 (2 (2 (4 (3 (2 (#))(3 (2 (#))(3 (2 (#))(2 (2 (#))(3 (4 (#))(3 (2 (#))(2 (#))))))))(3 (2 (#))(3 (3 (4 (3 (2 (#))(2 (2 (#))(4 (#))))(2 (#)))(3 (2 (#))(3 (2 (#))(2 (#)))))(2 (#)))))(2 (#)))(3 (2 (#))(1 (2 (#))(2 (2 (2 (2 (#))(2 (#)))(2 (#)))(2 (2 (#))(3 (2 (#))(2 (2 (#))(2 (#)))))))))(2 (#))) |ET| 
1  |BT| (3 (2 (2 (#))(2 (#)))(1 (1 (2 (#))(1 (2 (#))(1 (2 (#))(2 (2 (#))(2 (2 (2 (#))(2 (#)))(2 (2 (#))(2 (2 (#))(2 (#)))))))))(2 (#)))) |ET| 
-1  |BT| (0 (3 (#))(2 (3 (2 (2 (2 (#))(2 (#)))(3 (#)))(2 (2 (#))(2 (2 (#))(3 (2 (#))(3 (#))))))(2 (#)))) |ET| 
1  |BT| (3 (1 (2 (#))(2 (2 (2 (#))(2 (#)))(1 (1 (#))(0 (2 (#))(0 (0 (1 (1 (1 (1 (2 (#))(2 (1 (#))(2 (#))))(2 (#)))(2 (#)))(2 (#)))(2 (#)))(1 (1 (#))(2 (2 (#))(2 (#)))))))))(3 (2 (#))(3 (2 (#))(4 (2 (2 (#))(3 (2 (#))(3 (3 (4 (4 (2 (#))(3 (#)))(2 (#)))(2 (#)))(3 (3 (#))(2 (#))))))(2 (#)))))) |ET| 
-1  |BT| (1 (2 (#))(1 (1 (2 (2 (#))(1 (#)))(4 (2 (#))(4 (4 (#))(2 (2 (#))(2 (#))))))(2 (#)))) |ET| 
1  |BT| (3 (2 (2 (#))(2 (2 (#))(2 (#))))(3 (2 (#))(2 (3 (2 (2 (2 (2 (#))(2 (2 (#))(2 (#))))(2 (3 (#))(2 (#))))(2 (2 (#))(2 (2 (#))(2 (#)))))(2 (#)))(2 (2 (2 (2 (2 (#))(2 (#)))(2 (2 (#))(2 (#))))(2 (#)))(2 (2 (#))(2 (2 (2 (#))(2 (#)))(2 (2 (#))(2 (2 (2 (#))(2 (#)))(2 (2 (#))(2 (2 (#))(2 (2 (#))(2 (#))))))))))))) |ET| 
-1  |BT| (1 (2 (2 (#))(2 (2 (#))(2 (2 (2 (2 (#))(2 (#)))(2 (#)))(2 (2 (#))(2 (2 (#))(2 (#)))))))(2 (2 (2 (#))(2 (2 (#))(2 (2 (2 (20))(2 (#)))(2 (#)))))(2 (#)))) |ET| 
1  |BT| (3 (4 (1 (3 (2 (2 (#))(2 (#)))(2 (2 (#))(2 (2 (#))(2 (2 (2 (#))(2 (#)))(2 (1 (2 (2 (#))(2 (#)))(2 (2 (#))(2 (2 (#))(1 (2 (#))(1 (#))))))(2 (2 (#))(3 (2 (#))(2 (#)))))))))(2 (#)))(4 (2 (#))(3 (2 (#))(4 (2 (#))(2 (#))))))(2 (#))) |ET| 
-1  |BT| (0 (2 (1 (1 (2 (2 (#))(3 (#)))(1 (2 (2 (#))(2 (#)))(4 (2 (#))(3 (3 (#))(2 (#))))))(2 (#)))(2 (2 (2 (#))(2 (#)))(4 (2 (#))(4 (2 (#))(3 (2 (#))(4 (2 (#))(4 (2 (#))(4 (#)))))))))(2 (#))) |ET| 
1  |BT| (3 (2 (2 (#))(2 (2 (#))(2 (2 (1 (1 (#))(2 (#)))(2 (#)))(2 (#)))))(3 (2 (#))(2 (2 (#))(2 (2 (2 (2 (#))(2 (2 (#))(2 (2 (#))(2 (#)))))(2 (2 (#))(2 (2 (2 (2 (2 (#))(2 (2 (#))(2 (#))))(2 (2 (2 (#))(2 (#)))(2 (#))))(2 (#)))(2 (2 (3 (#))(2 (2 (#))(2 (#))))(2 (2 (1 (#))(2 (2 (#))(2 (#))))(2 (#)))))))(2 (#)))))) |ET| 
-1  |BT| (1 (2 (4 (3 (2 (#))(4 (4 (2 (#))(4 (2 (#))(4 (4 (#))(2 (2 (#))(2 (#))))))(2 (#))))(2 (#)))(1 (1 (#))(1 (2 (#))(2 (2 (#))(2 (2 (#))(2 (2 (#))(2 (1#))))))))(2 (#))) |ET| 
1  |BT| (3 (2 (1 (1 (2 (#))(2 (2 (#))(2 (#))))(2 (#)))(1 (2 (#))(3 (3 (#))(2 (2 (#))(1 (2 (2 (#))(1 (2 (1 (#))(2 (#)))(1 (#))))(1 (2 (#))(1 (2 (#))(1 (1 (2 (#))(0 (#)))(2 (2 (#))(2 (2 (#))(2 (2 (#))(2 (#)))))))))))))(2 (#))) |ET| 
-1  |BT| (1 (3 (2 (#))(3 (2 (#))(3 (3 (#))(3 (#)))))(2 (2 (#))(3 (2 (2 (#))(2 (2 (#))(2 (2 (#))(2 (2 (#))(2 (#))))))(2 (2 (2 (#))(2 (2 (#))(2 (2 (#))(1 (#)))))(2 (#)))))) |ET| 
1  |BT| (4 (2 (1 (1 (2 (#))(2 (1 (0 (2 (#))(1 (2 (#))(1 (1 (1 (#))(2 (#)))(2 (2 (#))(2 (2 (#))(0 (1 (#))(2 (#))))))))(2 (#)))(2 (2 (#))(2 (3 (#))(2 (#))))))(2 (#)))(3 (2 (#))(3 (2 (#))(4 (3 (#))(4 (2 (#))(3 (2 (#))(3 (2 (#))(3 (#)))))))))(2 (#))) |ET| 
-1  |BT| (1 (1 (2 (2 (#))(2 (#)))(1 (2 (2 (2 (#))(2 (2 (#))(2 (3 (2 (#))(2 (#)))(2 (#)))))(2 (#)))(2 (2 (#))(1 (2 (#))(2 (2 (#))(3 (2 (#))(2 (2 (#))(2 (2 (#))(2 (2 (#))(2 (2 (#))(2 (2 (#))(2 (2 (2 (#))(2 (2 (#))(2 (#))))(2 (2 (#))(2 (#)))))))))))))))(2 (#))) |ET| 
1  |BT| (3 (2 (2 (2 (#))(2 (2 (#))(2 (#))))(3 (#)))(2 (2 (2 (#))(2 (2 (#))(2 (2 (#))(2 (2 (1#))(2 (2 (#))(2 (#)))))))(2 (#)))) |ET| 
-1  |BT| (1 (2 (#))(2 (2 (2 (#))(2 (2 (2 (#))(2 (2 (#))(2 (2 (#))(3 (#)))))(2 (2 (#))(2 (2 (2 (#))(2 (#)))(2 (2 (#))(2 (2 (#))(2 (2 (#))(2 (2 (#))(2 (#))))))))))(2 (#)))) |ET| 
1  |BT| (3 (3 (2 (#))(3 (3 (3 (#))(2 (2 (#))(1 (2 (#))(1 (2 (#))(1 (1 (#))(2 (#)))))))(2 (#))))(2 (#))) |ET| 
-1  |BT| (1 (3 (3 (3 (2 (#))(3 (3 (2 (#))(3 (#)))(2 (2 (#))(2 (#)))))(2 (#)))(4 (4 (#))(2 (#))))(0 (1 (2 (2 (#))(0 (#)))(1 (#)))(2 (#)))) |ET| 
1  |BT| (3 (2 (2 (2 (2 (2 (#))(2 (#)))(2 (#)))(2 (2 (#))(2 (#))))(2 (#)))(2 (1 (2 (#))(2 (4 (2 (#))(3 (4 (#))(2 (#))))(0 (2 (2 (2 (#))(2 (#)))(2 (2 (#))(2 (1 (#))(2 (2 (#))(1 (1 (#))(2 (#)))))))(1 (2 (#))(0 (1 (#))(0 (2 (2 (#))(2 (2 (#))(2 (#))))(2 (2 (#))(2 (3 (#))(2 (2 (#))(2 (2 (#))(2 (2 (2 (1 (2 (2 (2 (#))(2 (#)))(2 (#)))(2 (2 (#))(2 (2 (#))(2 (#)))))(2 (#)))(2 (#)))(1 (2 (2 (#))(2 (#)))(2 (2 (#))(2 (2 (#))(2 (#))))))))))))))))(2 (#)))) |ET| 
-1  |BT| (1 (2 (2 (#))(2 (2 (2 (#))(2 (2 (#))(2 (#))))(2 (#))))(3 (2 (#))(3 (2 (#))(2 (2 (2 (2 (3 (2 (2 (2 (2 (3 (2 (#))(2 (2 (#))(2 (2 (#))(2 (#)))))(1 (#)))(2 (2 (#))(2 (2 (#))(2 (2 (#))(2 (#))))))(2 (#)))(2 (2 (2 (#))(2 (#)))(2 (#))))(2 (#)))(2 (#)))(2 (#)))(1 (2 (2 (2 (#))(2 (#)))(2 (2 (#))(2 (#))))(2 (2 (#))(2 (2 (#))(2 (2 (#))(2 (#)))))))(2 (#)))))) |ET| 
1  |BT| (4 (0 (2 (#))(1 (2 (2 (#))(2 (#)))(1 (2 (#))(1 (1 (#))(1 (#))))))(4 (2 (#))(3 (2 (2 (#))(2 (3 (#))(2 (#))))(4 (4 (2 (#))(3 (4 (#))(3 (1 (#))(3 (#)))))(2 (#)))))) |ET| 
-1  |BT| (0 (2 (2 (#))(2 (3 (#))(2 (#))))(1 (0 (1 (#))(3 (2 (#))(4 (4 (3 (#))(3 (#)))(2 (#)))))(2 (#)))) |ET| 
1  |BT| (3 (3 (2 (2 (2 (2 (2 (2 (#))(2 (#)))(2 (#)))(2 (2 (#))(2 (2 (2 (#))(1 (#)))(2 (2 (#))(2 (#))))))(2 (#)))(2 (#)))(3 (2 (2 (#))(2 (2 (#))(2 (#))))(2 (2 (2 (#))(2 (#)))(2 (2 (2 (2 (#))(2 (2 (2 (#))(2 (#)))(2 (2 (#))(2 (2 (2 (#))(2 (#)))(2 (2 (#))(2 (2 (#))(2 (2 (#))(2 (#)))))))))(2 (#)))(2 (2 (#))(3 (2 (2 (#))(2 (2 (#))(2 (#))))(2 (2 (#))(2 (2 (2 (#))(2 (#)))(2 (2 (#))(2 (2 (#))(2 (2 (2 (#))(2 (2 (#))(2 (#))))(2 (2 (#))(2 (#))))))))))))))(2 (#))) |ET| 
-1  |BT| (1 (2 (2 (#))(2 (2 (#))(2 (2 (#))(1 (1 (#))(2 (2 (#))(2 (2 (2 (#))(2 (#)))(2 (2 (#))(1 (2 (2 (#))(2 (2 (#))(3 (2 (#))(2 (#)))))(2 (2 (#))(2 (#)))))))))))(2 (2 (#))(1 (2 (#))(2 (2 (#))(3 (2 (2 (2 (#))(2 (#)))(2 (2 (#))(2 (2 (#))(2 (2 (#))(2 (2 (#))(2 (2 (2 (#))(2 (2 (#))(2 (#))))(2 (2 (#))(2 (2 (2 (#))(2 (#)))(2 (2 (#))(2 (2 (4 (#))(2 (#)))(2 (2 (#))(2 (2 (#))(2 (#))))))))))))))(2 (#))))))) |ET| 
1  |BT| (3 (2 (#))(1 (3 (2 (#))(2 (0 (2 (#))(1 (0 (#))(2 (#))))(2 (2 (#))(2 (1 (1 (2 (#))(0 (0 (#))(2 (#))))(2 (#)))(2 (3 (2 (#))(3 (3 (#))(3 (2 (#))(4 (2 (#))(3 (3 (#))(2 (#)))))))(3 (2 (#))(3 (3 (2 (#))(3 (3 (#))(2 (#))))(3 (1 (#))(1 (2 (#))(1 (2 (#))(0 (#))))))))))))(2 (#)))) |ET| 
-1  |BT| (1 (2 (#))(3 (2 (1 (2 (#))(1 (2 (#))(0 (#))))(3 (2 (#))(2 (3 (2 (#))(3 (3 (#))(2 (#))))(2 (1 (2 (#))(2 (#)))(3 (2 (#))(3 (#)))))))(2 (#)))) |ET| 
1  |BT| (3 (2 (2 (2 (#))(2 (2 (#))(2 (#))))(0 (2 (#))(2 (2 (2 (2 (2 (#))(2 (2 (#))(2 (#))))(2 (2 (#))(2 (#))))(2 (#)))(1 (2 (2 (2 (#))(2 (2 (#))(2 (#))))(2 (#)))(2 (2 (2 (#))(2 (2 (#))(2 (#))))(2 (2 (#))(2 (#))))))))(2 (2 (1 (1 (#))(4 (#)))(2 (2 (#))(2 (3 (#))(2 (#)))))(2 (#)))) |ET| 
-1  |BT| (1 (0 (2 (2 (2 (2 (#))(2 (2 (#))(2 (2 (2 (#))(2 (2 (#))(2 (#))))(2 (2 (#))(2 (2 (2 (#))(2 (2 (2 (#))(2 (#)))(2 (2 (2 (2 (2 (2 (#))(3 (2 (#))(3 (#))))(2 (#)))(2 (3 (#))(2 (1#))))(2 (#)))(2 (2 (#))(2 (2 (2 (2 (2 (2 (#))(2 (#)))(2 (#)))(2 (2 (#))(2 (#))))(2 (#)))(2 (#)))))))(2 (#)))))))(2 (#)))(2 (#)))(0 (2 (2 (2 (#))(2 (2 (#))(2 (#))))(2 (2 (#))(2 (2 (#))(2 (2 (#))(2 (#))))))(0 (2 (#))(1 (2 (2 (#))(2 (#)))(2 (2 (#))(1 (#)))))))(2 (#))) |ET| 
1  |BT| (3 (2 (3 (2 (#))(3 (2 (#))(2 (#))))(1 (2 (#))(1 (2 (#))(2 (1 (#))(1 (2 (#))(2 (2 (#))(3 (#))))))))(2 (#))) |ET| 
-1  |BT| (1 (2 (3 (4 (4 (2 (#))(4 (3 (3 (3 (3 (2 (3 (2 (#))(3 (#)))(2 (#)))(3 (3 (#))(2 (#))))(2 (#)))(2 (#)))(1 (#)))(2 (#))))(2 (#)))(2 (#)))(1 (2 (#))(1 (2 (2 (1 (#))(2 (#)))(2 (#)))(1 (2 (#))(2 (2 (2 (#))(3 (2 (#))(2 (#))))(3 (1 (2 (#))(1 (#)))(2 (2 (#))(2 (#)))))))))(2 (#))) |ET| 
1  |BT| (3 (4 (2 (2 (2 (2 (2 (#))(2 (2 (#))(2 (2 (2 (#))(2 (2 (#))(2 (#))))(2 (2 (#))(2 (2 (#))(3 (2 (#))(2 (#))))))))(2 (2 (#))(2 (2 (2 (#))(2 (#)))(2 (4 (#))(2 (#))))))(2 (#)))(3 (2 (#))(2 (2 (#))(3 (2 (#))(2 (2 (#))(4 (2 (#))(2 (2 (#))(2 (2 (#))(2 (2 (#))(2 (2 (#))(2 (2 (2 (2 (2 (#))(2 (2 (#))(2 (2 (#))(2 (2 (#))(2 (#))))))(2 (2 (#))(2 (2 (2 (2 (2 (#))(2 (2 (#))(2 (2 (#))(2 (#)))))(2 (2 (#))(2 (#))))(2 (#)))(3 (2 (3 (#))(2 (#)))(2 (#))))))(2 (#)))(2 (#)))))))))))))(2 (#)))(2 (2 (#))(2 (2 (#))(2 (2 (#))(2 (2 (#))(2 (2 (2 (#))(2 (#)))(1 (#)))))))) |ET| 
-1  |BT| (1 (1 (#))(3 (2 (#))(2 (2 (3 (#))(2 (#)))(2 (2 (2 (#))(2 (2 (#))(2 (2 (2 (#))(2 (#)))(2 (2 (#))(2 (2 (#))(2 (#)))))))(2 (#)))))) |ET| 
1  |BT| (3 (4 (4 (4 (4 (3 (2 (#))(3 (2 (#))(3 (3 (#))(3 (#)))))(2 (#)))(2 (#)))(2 (2 (#))(2 (2 (2 (#))(3 (2 (#))(3 (#))))(2 (#)))))(3 (2 (#))(2 (2 (2 (#))(2 (#)))(0 (1 (2 (#))(1 (2 (#))(0 (1 (#))(1 (2 (#))(1 (2 (#))(1 (2 (#))(0 (2 (#))(2 (1 (2 (0 (1 (1 (1 (1 (2 (1 (#))(2 (#)))(2 (#)))(2 (#)))(1 (#)))(2 (#)))(2 (#)))(2 (#)))(2 (#)))(2 (2 (#))(1 (2 (#))(2 (2 (#))(1 (2 (#))(1 (1 (#))(2 (#)))))))))))))))(2 (2 (#))(2 (2 (#))(1 (1 (#))(3 (2 (#))(2 (#))))))))))(2 (#))) |ET| 
-1  |BT| (1 (2 (2 (#))(2 (2 (2 (#))(2 (2 (#))(2 (#))))(2 (2 (#))(2 (2 (2 (#))(2 (2 (#))(2 (#))))(2 (2 (#))(2 (2 (#))(2 (#))))))))(1 (2 (#))(0 (2 (#))(1 (0 (2 (#))(1 (2 (#))(2 (2 (2 (#))(3 (#)))(0 (2 (#))(2 (1 (2 (2 (2 (#))(3 (2 (#))(2 (2 (2 (#))(2 (#)))(2 (2 (#))(2 (#))))))(2 (2 (#))(2 (2 (#))(2 (2 (#))(2 (#))))))(2 (#)))(2 (3 (2 (#))(2 (#)))(3 (2 (#))(3 (4 (#))(2 (2 (#))(2 (#)))))))))))(2 (#)))))) |ET| 
1  |BT| (4 (2 (2 (#))(2 (2 (#))(3 (#))))(1 (2 (#))(1 (2 (2 (#))(2 (2 (2 (#))(2 (2 (2 (#))(2 (2 (#))(2 (2 (#))(2 (#)))))(2 (#))))(2 (2 (#))(2 (2 (2 (#))(3 (#)))(2 (2 (#))(2 (2 (2 (#))(2 (2 (#))(2 (#))))(3 (2 (#))(2 (2 (#))(3 (2 (#))(2 (2 (#))(2 (2 (#))(4 (#)))))))))))))(2 (#))))) |ET| 
-1  |BT| (1 (2 (2 (3 (4 (2 (2 (2 (#))(2 (#)))(2 (#)))(4 (2 (#))(4 (4 (4 (#))(2 (#)))(3 (2 (#))(3 (2 (2 (2 (2 (2 (2 (#))(2 (#)))(2 (#)))(2 (#)))(2 (#)))(2 (2 (2 (#))(2 (#)))(2 (#))))(3 (2 (#))(3 (2 (#))(3 (4 (#))(2 (2 (#))(2 (#)))))))))))(2 (#)))(2 (#)))(1 (2 (#))(1 (2 (#))(1 (2 (#))(2 (2 (#))(2 (2 (#))(2 (2 (#))(3 (#)))))))))(2 (#))) |ET| 
1  |BT| (3 (3 (1 (1 (1 (2 (#))(1 (2 (2 (#))(1 (#)))(3 (3 (2 (#))(3 (2 (#))(3 (2 (4 (#))(2 (#)))(3 (#)))))(2 (2 (#))(2 (2 (#))(2 (#)))))))(2 (#)))(2 (#)))(3 (2 (#))(2 (2 (#))(2 (2 (#))(1 (3 (#))(2 (2 (#))(1 (2 (#))(1 (3 (2 (#))(2 (#)))(1 (2 (#))(1 (2 (#))(0 (0 (2 (#))(0 (3 (#))(1 (#))))(2 (2 (#))(2 (#))))))))))))))(2 (#))) |ET| 
-1  |BT| (1 (3 (2 (2 (3 (2 (2 (#))(2 (#)))(2 (2 (#))(3 (2 (2 (#))(2 (2 (#))(2 (#))))(2 (2 (#))(2 (2 (#))(2 (#)))))))(2 (#)))(2 (#)))(2 (2 (#))(2 (2 (#))(2 (2 (#))(3 (1 (2 (#))(2 (2 (#))(2 (#))))(2 (2 (#))(3 (2 (#))(3 (2 (#))(3 (2 (2 (#))(2 (#)))(3 (1 (#))(3 (2 (#))(3 (3 (2 (#))(3 (3 (#))(2 (2 (#))(2 (3 (2 (#))(2 (#)))(3 (#))))))(2 (2 (#))(2 (2 (#))(2 (#))))))))))))))))(2 (#))) |ET| 
1  |BT| (3 (2 (#))(1 (2 (2 (3 (#))(2 (2 (2 (#))(2 (#)))(2 (#))))(1 (2 (#))(1 (2 (#))(1 (2 (#))(0 (1 (1 (2 (#))(1 (1 (1 (1 (2 (1 (#))(2 (#)))(1 (2 (#))(2 (2 (#))(3 (#)))))(2 (#)))(2 (#)))(2 (2 (#))(2 (#)))))(2 (2 (#))(2 (2 (#))(3 (2 (#))(2 (2 (#))(2 (#)))))))(2 (2 (#))(2 (3 (2 (#))(2 (2 (#))(3 (2 (#))(2 (#)))))(2 (2 (#))(2 (2 (#))(2 (2 (#))(2 (#))))))))))))(2 (#)))) |ET| 
-1  |BT| (1 (3 (2 (#))(2 (2 (2 (#))(2 (#)))(4 (2 (#))(3 (2 (2 (#))(3 (#)))(3 (2 (#))(3 (3 (2 (#))(3 (#)))(3 (1 (#))(3 (3 (2 (#))(3 (3 (2 (#))(3 (#)))(2 (2 (#))(2 (2 (#))(2 (2 (#))(2 (#)))))))(3 (#))))))))))(1 (2 (#))(1 (2 (2 (#))(2 (#)))(1 (1 (2 (2 (#))(2 (#)))(1 (2 (#))(1 (2 (#))(1 (2 (#))(1 (4 (#))(1 (2 (#))(2 (#))))))))(2 (#)))))) |ET| 
1  |BT| (4 (2 (2 (#))(2 (2 (#))(3 (2 (#))(2 (2 (#))(2 (2 (#))(3 (2 (#))(3 (2 (#))(2 (3 (#))(2 (2 (#))(2 (3 (#))(2 (2 (#))(3 (#)))))))))))))(2 (2 (#))(2 (2 (2 (#))(2 (#)))(2 (3 (2 (#))(2 (2 (#))(3 (#))))(2 (#)))))) |ET| 
-1  |BT| (0 (2 (3 (#))(2 (2 (2 (2 (#))(1 (#)))(1 (#)))(2 (2 (#))(2 (#)))))(2 (2 (3 (2 (2 (2 (#))(2 (2 (#))(2 (2 (#))(2 (#)))))(2 (#)))(2 (#)))(2 (2 (2 (#))(3 (#)))(2 (2 (2 (#))(2 (2 (#))(2 (#))))(2 (2 (#))(2 (2 (#))(2 (#)))))))(2 (#)))) |ET| 
1  |BT| (4 (2 (2 (#))(2 (2 (#))(2 (#))))(4 (2 (2 (#))(3 (4 (3 (3 (2 (2 (#))(2 (#)))(3 (#)))(2 (#)))(2 (#)))(3 (2 (#))(2 (1 (#))(2 (2 (#))(3 (2 (#))(2 (1 (2 (2 (2 (#))(3 (2 (#))(2 (2 (#))(2 (#)))))(2 (#)))(2 (2 (#))(1 (2 (2 (2 (#))(2 (#)))(2 (#)))(2 (#)))))(2 (#)))))))))(2 (#)))) |ET| 
-1  |BT| (1 (1 (2 (#))(2 (1 (1 (2 (#))(2 (#)))(1 (2 (#))(2 (1 (#))(3 (3 (#))(2 (#))))))(3 (3 (#))(2 (2 (#))(2 (#))))))(3 (2 (#))(3 (2 (#))(3 (2 (2 (#))(2 (#)))(3 (3 (2 (#))(3 (2 (#))(3 (4 (#))(2 (2 (#))(2 (#))))))(2 (#))))))) |ET| 
1  |BT| (3 (2 (#))(2 (2 (2 (#))(2 (2 (#))(2 (2 (#))(2 (2 (2 (#))(2 (2 (2 (#))(2 (2 (2 (#))(1 (#)))(2 (2 (#))(2 (4 (#))(2 (2 (#))(2 (2 (#))(2 (#))))))))(2 (#))))(2 (2 (#))(2 (2 (2 (#))(1 (#)))(2 (4 (#))(2 (2 (#))(2 (#))))))))))(2 (#)))) |ET| 
-1  |BT| (1 (1 (2 (#))(0 (2 (2 (2 (2 (#))(2 (2 (#))(2 (#))))(2 (2 (#))(2 (2 (#))(2 (2 (#))(2 (2 (2 (#))(2 (2 (2 (#))(2 (#)))(2 (2 (#))(2 (2 (#))(2 (#))))))(2 (2 (#))(2 (2 (#))(2 (2 (#))(2 (2 (#))(2 (2 (#))(2 (#))))))))))))(2 (#)))(0 (#))))(2 (#))) |ET| 
1  |BT| (3 (3 (1 (1 (1 (2 (#))(1 (2 (#))(1 (3 (2 (2 (#))(2 (3 (#))(2 (#))))(2 (2 (#))(3 (2 (2 (#))(2 (#)))(2 (#)))))(1 (2 (#))(1 (2 (2 (#))(2 (#)))(1 (2 (#))(1 (2 (1 (2 (#))(1 (#)))(2 (#)))(2 (#)))))))))(2 (#)))(2 (#)))(3 (2 (#))(3 (2 (2 (#))(2 (#)))(3 (#)))))(2 (#))) |ET| 
-1  |BT| (1 (3 (#))(0 (2 (1 (2 (#))(2 (2 (#))(1 (2 (#))(1 (1 (#))(2 (#))))))(3 (2 (#))(2 (2 (#))(3 (2 (#))(3 (3 (4 (#))(2 (#)))(2 (#)))))))(2 (#)))) |ET| 
1  |BT| (4 (2 (#))(1 (2 (2 (2 (#))(2 (2 (#))(2 (3 (3 (#))(2 (2 (#))(2 (2 (#))(2 (#)))))(2 (2 (#))(2 (2 (#))(2 (2 (#))(2 (2 (#))(2 (2 (#))(2 (2 (2 (#))(2 (#)))(2 (2 (#))(2 (#))))))))))))(2 (2 (#))(3 (2 (#))(2 (2 (#))(3 (2 (#))(3 (2 (#))(2 (2 (2 (#))(2 (#)))(1 (2 (#))(1 (2 (#))(2 (2 (2 (#))(2 (#)))(2 (2 (2 (#))(2 (#)))(2 (2 (#))(2 (2 (#))(2 (2 (#))(2 (2 (#))(2 (2 (#))(2 (2 (#))(2 (2 (#))(2 (2 (#))(2 (#)))))))))))))))))))))(2 (#)))) |ET| 
-1  |BT| (1 (2 (2 (#))(2 (#)))(1 (2 (1 (2 (#))(2 (#)))(2 (2 (#))(2 (2 (2 (#))(2 (2 (#))(2 (2 (#))(2 (4 (#))(2 (2 (2 (#))(2 (#)))(2 (#)))))))(3 (2 (#))(2 (2 (#))(3 (2 (#))(2 (2 (2 (#))(2 (2 (#))(2 (2 (#))(2 (#)))))(2 (2 (#))(2 (2 (2 (#))(1 (#)))(2 (2 (#))(2 (2 (#))(2 (2 (#))(2 (2 (#))(2 (2 (#))(2 (#))))))))))))))))(2 (#)))) |ET| 
1  |BT| (4 (4 (3 (4 (2 (2 (#))(2 (2 (#))(2 (2 (#))(2 (2 (#))(2 (2 (#))(2 (#)))))))(4 (2 (#))(4 (#))))(2 (#)))(2 (2 (2 (#))(2 (2 (#))(2 (2 (#))(1 (#)))))(1 (2 (#))(2 (2 (#))(2 (2 (#))(2 (#)))))))(2 (#))) |ET| 
-1  |BT| (1 (2 (2 (2 (2 (3 (2 (#))(2 (#)))(2 (#)))(2 (#)))(2 (2 (#))(2 (#))))(2 (#)))(2 (2 (2 (#))(2 (2 (#))(2 (2 (#))(2 (#)))))(2 (#)))) |ET| 
1  |BT| (3 (2 (#))(2 (2 (#))(2 (2 (2 (#))(2 (2 (2 (#))(2 (#)))(2 (2 (#))(3 (1 (#))(2 (2 (#))(2 (2 (2 (2 (2 (#))(2 (#)))(2 (#)))(2 (#)))(2 (2 (#))(2 (3 (2 (2 (2 (1 (#))(2 (#)))(4 (#)))(2 (#)))(2 (#)))(2 (2 (#))(2 (2 (#))(2 (2 (#))(2 (2 (#))(2 (2 (#))(2 (2 (#))(2 (2 (#))(2 (2 (2 (2 (#))(2 (#)))(2 (#)))(2 (#))))))))))))))))))(2 (#))))) |ET| 
-1  |BT| (1 (1 (#))(2 (2 (2 (2 (2 (2 (#))(2 (2 (#))(2 (2 (#))(2 (2 (#))(2 (#))))))(2 (#)))(2 (2 (#))(2 (2 (#))(1 (1 (#))(2 (#))))))(2 (2 (#))(2 (2 (2 (2 (#))(2 (#)))(2 (#)))(2 (2 (#))(2 (2 (#))(3 (#)))))))(2 (#)))) |ET| 
1  |BT| (3 (1 (2 (#))(1 (2 (#))(1 (2 (#))(2 (2 (2 (#))(2 (#)))(1 (2 (2 (#))(2 (#)))(1 (3 (2 (3 (#))(2 (2 (#))(2 (#))))(1 (2 (#))(2 (3 (2 (#))(2 (#)))(2 (2 (#))(2 (2 (#))(2 (#)))))))(0 (1 (#))(1 (1 (2 (2 (#))(2 (3 (#))(2 (#))))(0 (1 (1 (1 (#))(1 (0 (#))(2 (2 (#))(2 (#)))))(3 (2 (#))(2 (#))))(1 (2 (#))(1 (2 (#))(1 (2 (2 (#))(2 (#)))(1 (1 (#))(2 (#))))))))(3 (#))))))))))(3 (2 (#))(3 (2 (2 (#))(2 (#)))(3 (2 (2 (#))(2 (#)))(3 (3 (2 (#))(3 (2 (#))(2 (3 (#))(2 (#)))))(2 (#))))))) |ET| 
-1  |BT| (1 (2 (#))(2 (2 (#))(2 (2 (#))(2 (3 (2 (#))(2 (2 (2 (#))(2 (4 (#))(2 (#))))(3 (2 (#))(3 (4 (2 (#))(3 (4 (#))(3 (2 (#))(4 (4 (3 (#))(2 (#)))(2 (#))))))(2 (2 (#))(2 (1 (2 (#))(2 (2 (#))(3 (#))))(2 (2 (#))(3 (2 (#))(4 (3 (#))(2 (2 (#))(2 (#))))))))))))(2 (#)))))) |ET| 
1  |BT| (3 (2 (2 (2 (1 (#))(2 (#)))(2 (#)))(2 (3 (#))(2 (#))))(2 (2 (3 (2 (2 (#))(2 (2 (#))(3 (#))))(2 (2 (#))(2 (2 (2 (#))(2 (2 (#))(2 (3 (#))(2 (#)))))(2 (2 (#))(2 (2 (#))(2 (#)))))))(0 (2 (#))(0 (2 (#))(1 (2 (2 (#))(2 (2 (#))(2 (2 (#))(2 (1 (#))(2 (2 (#))(2 (3 (#))(2 (#))))))))(2 (2 (#))(0 (2 (#))(2 (2 (#))(1 (#)))))))))(2 (#)))) |ET| 
-1  |BT| (1 (3 (3 (3 (4 (2 (2 (#))(2 (2 (#))(2 (2 (#))(2 (2 (#))(2 (#))))))(4 (3 (#))(4 (3 (3 (3 (#))(2 (#)))(3 (#)))(2 (#)))))(2 (#)))(2 (#)))(1 (2 (#))(2 (2 (#))(3 (2 (#))(2 (2 (2 (#))(1 (2 (#))(2 (#))))(2 (2 (#))(3 (2 (#))(2 (2 (#))(2 (2 (#))(3 (2 (#))(3 (2 (2 (#))(2 (2 (#))(2 (#))))(3 (2 (#))(1 (2 (#))(2 (2 (#))(2 (2 (2 (#))(2 (#)))(2 (#)))))))))))))))))(2 (#))) |ET| 
1  |BT| (3 (3 (3 (#))(1 (2 (#))(1 (2 (2 (#))(2 (2 (#))(2 (#))))(0 (#)))))(1 (0 (0 (#))(2 (2 (#))(3 (2 (#))(1 (2 (#))(2 (2 (#))(1 (2 (#))(2 (2 (2 (#))(2 (0 (2 (#))(0 (#)))(1 (2 (#))(1 (#)))))(2 (2 (#))(2 (2 (#))(2 (#)))))))))))(2 (#)))) |ET| 
-1  |BT| (1 (2 (2 (2 (2 (1 (2 (2 (#))(2 (3 (2 (#))(4 (#)))(3 (3 (#))(2 (2 (#))(2 (2 (#))(2 (2 (#))(2 (2 (#))(3 (2 (#))(2 (#))))))))))(2 (#)))(2 (#)))(2 (2 (#))(2 (2 (#))(2 (1 (#))(2 (2 (#))(2 (2 (2 (#))(2 (#)))(2 (2 (#))(2 (2 (#))(2 (#))))))))))(2 (#)))(0 (2 (#))(2 (0 (2 (#))(1 (1 (2 (#))(1 (0 (#))(2 (#))))(2 (2 (#))(2 (2 (#))(2 (2 (2 (#))(2 (#)))(2 (#)))))))(2 (2 (#))(2 (2 (#))(2 (#)))))))(2 (#))) |ET| 
1  |BT| (3 (2 (#))(3 (2 (#))(3 (2 (2 (2 (#))(2 (#)))(2 (2 (#))(3 (0 (1 (3 (#))(0 (2 (#))(0 (1 (#))(2 (3 (2 (#))(2 (#)))(2 (#))))))(2 (#)))(3 (2 (#))(4 (3 (#))(4 (#)))))))(2 (#))))) |ET| 
-1  |BT| (0 (2 (2 (#))(2 (2 (#))(1 (#))))(3 (2 (#))(2 (2 (2 (2 (2 (#))(2 (2 (#))(2 (#))))(2 (#)))(3 (2 (#))(3 (3 (2 (#))(2 (#)))(2 (2 (#))(3 (3 (4 (#))(2 (#)))(2 (2 (2 (#))(2 (#)))(2 (#))))))))(2 (#))))) |ET| 
1  |BT| (3 (2 (2 (#))(2 (#)))(1 (1 (2 (2 (#))(2 (#)))(1 (1 (#))(2 (#))))(2 (#)))) |ET| 
-1  |BT| (0 (2 (#))(4 (3 (2 (#))(2 (3 (2 (2 (#))(2 (#)))(3 (2 (#))(2 (#))))(4 (2 (#))(3 (1 (2 (2 (#))(2 (2 (#))(3 (#))))(2 (2 (#))(3 (#))))(3 (2 (#))(3 (4 (#))(2 (2 (#))(2 (2 (#))(3 (2 (#))(2 (#)))))))))))(0 (2 (#))(0 (2 (#))(0 (1 (2 (#))(1 (2 (2 (#))(2 (#)))(4 (2 (#))(4 (2 (#))(4 (4 (3 (#))(3 (#)))(2 (#)))))))(2 (#))))))) |ET| 
1  |BT| (3 (2 (#))(4 (3 (3 (#))(2 (2 (2 (#))(2 (2 (#))(2 (#))))(2 (2 (#))(2 (2 (2 (2 (#))(2 (#)))(2 (#)))(2 (2 (#))(2 (2 (#))(2 (2 (#))(2 (2 (#))(2 (2 (#))(2 (2 (2 (#))(2 (#)))(2 (2 (#))(2 (2 (2 (#))(2 (#)))(2 (2 (#))(2 (2 (2 (#))(2 (#)))(1 (#))))))))))))))))(2 (#)))) |ET| 
-1  |BT| (1 (1 (#))(1 (2 (#))(2 (2 (2 (#))(2 (2 (2 (#))(2 (#)))(2 (#))))(2 (2 (#))(2 (2 (#))(2 (2 (2 (2 (2 (#))(2 (2 (#))(2 (#))))(2 (#)))(2 (2 (#))(2 (2 (#))(2 (#)))))(2 (#)))))))) |ET| 
1  |BT| (3 (2 (2 (#))(2 (1 (#))(2 (#))))(2 (3 (2 (#))(1 (2 (2 (3 (2 (#))(3 (2 (#))(2 (#))))(2 (2 (#))(2 (#))))(2 (#)))(3 (2 (2 (#))(2 (#)))(2 (2 (#))(2 (2 (#))(2 (2 (#))(2 (2 (#))(3 (2 (2 (#))(1 (1 (#))(3 (2 (#))(3 (#)))))(2 (2 (#))(2 (2 (2 (#))(2 (#)))(1 (#))))))))))))(2 (#)))) |ET| 
-1  |BT| (1 (0 (1 (2 (#))(0 (#)))(2 (2 (#))(2 (2 (2 (#))(2 (#)))(3 (2 (#))(3 (2 (#))(3 (2 (#))(3 (2 (#))(3 (2 (#))(4 (3 (#))(3 (2 (#))(2 (#))))))))))))(2 (#))) |ET| 
1  |BT| (4 (2 (#))(4 (2 (3 (#))(2 (2 (#))(2 (2 (2 (#))(2 (2 (#))(2 (#))))(2 (2 (#))(2 (2 (#))(2 (2 (2 (2 (2 (#))(1 (#)))(2 (#)))(2 (#)))(2 (#))))))))(2 (2 (2 (#))(2 (#)))(2 (#))))) |ET| 
-1  |BT| (1 (1 (2 (2 (2 (2 (#))(4 (2 (#))(3 (2 (2 (2 (#))(2 (#)))(1 (2 (#))(2 (#))))(3 (3 (#))(3 (#))))))(2 (#)))(2 (#)))(1 (2 (2 (#))(2 (2 (#))(2 (2 (2 (2 (2 (2 (#))(2 (2 (#))(2 (#))))(2 (2 (#))(2 (2 (#))(2 (#)))))(2 (#)))(2 (#)))(2 (2 (#))(2 (2 (#))(2 (2 (#))(2 (2 (#))(2 (#)))))))))(1 (2 (#))(2 (2 (#))(2 (1 (#))(3 (3 (3 (2 (#))(2 (#)))(2 (2 (#))(2 (#))))(4 (2 (#))(4 (2 (#))(3 (3 (2 (#))(2 (#)))(3 (2 (#))(4 (#))))))))))))(2 (#))) |ET| 
1  |BT| (3 (0 (2 (#))(1 (1 (2 (1 (0 (2 (#))(1 (2 (2 (#))(2 (2 (#))(2 (#))))(1 (2 (#))(1 (2 (#))(1 (2 (#))(1 (2 (#))(0 (0 (#))(2 (#)))))))))(2 (#)))(2 (#)))(2 (#)))(2 (2 (#))(2 (#)))))(2 (2 (#))(3 (2 (2 (1 (1 (2 (#))(1 (#)))(2 (2 (#))(2 (#))))(2 (#)))(2 (2 (#))(2 (2 (#))(2 (3 (3 (#))(2 (2 (#))(2 (3 (3 (#))(2 (#)))(2 (2 (#))(2 (#))))))(2 (2 (#))(2 (2 (#))(2 (#))))))))(2 (#))))) |ET| 
-1  |BT| (1 (2 (3 (4 (3 (2 (2 (#))(2 (2 (#))(2 (2 (#))(2 (#)))))(3 (2 (#))(4 (2 (#))(3 (2 (#))(3 (2 (#))(3 (2 (#))(4 (4 (#))(2 (2 (#))(2 (#))))))))))(2 (#)))(2 (#)))(2 (2 (2 (2 (2 (#))(3 (2 (#))(2 (2 (#))(2 (#)))))(2 (#)))(2 (2 (#))(2 (2 (#))(2 (#)))))(1 (2 (#))(2 (2 (#))(3 (#))))))(2 (#))) |ET| 
1  |BT| (3 (3 (2 (0 (2 (2 (2 (#))(2 (#)))(1 (2 (#))(2 (1 (#))(2 (2 (#))(1 (1 (2 (#))(2 (2 (#))(2 (#))))(2 (2 (#))(1 (2 (#))(2 (#)))))))))(2 (#)))(2 (#)))(2 (2 (#))(3 (1 (2 (#))(2 (#)))(2 (1 (#))(0 (2 (#))(1 (2 (2 (#))(2 (#)))(2 (2 (#))(2 (2 (#))(2 (2 (#))(2 (#)))))))))))(2 (#))) |ET| 
-1  |BT| (1 (2 (2 (#))(2 (2 (#))(2 (2 (#))(2 (2 (#))(2 (2 (#))(2 (2 (#))(2 (#))))))))(1 (2 (#))(1 (1 (2 (#))(2 (3 (2 (2 (#))(2 (2 (#))(2 (#))))(3 (3 (#))(2 (#))))(1 (2 (#))(2 (2 (2 (#))(2 (#)))(2 (2 (#))(2 (2 (#))(2 (2 (#))(2 (2 (#))(2 (#))))))))))(2 (#))))) |ET| 
1  |BT| (3 (2 (#))(3 (2 (#))(3 (3 (2 (1 (2 (#))(2 (2 (#))(1 (2 (#))(2 (2 (2 (#))(3 (#)))(2 (2 (#))(2 (#)))))))(2 (#)))(2 (2 (#))(2 (2 (#))(4 (3 (#))(2 (2 (#))(2 (2 (2 (2 (#))(2 (#)))(2 (#)))(2 (2 (#))(2 (#)))))))))(2 (#))))) |ET| 
-1  |BT| (1 (3 (2 (2 (#))(2 (#)))(3 (2 (2 (#))(2 (#)))(3 (3 (2 (#))(3 (4 (3 (#))(3 (3 (2 (2 (#))(2 (#)))(2 (#)))(2 (#))))(3 (#))))(2 (3 (#))(2 (#))))))(0 (0 (2 (#))(0 (0 (#))(1 (#))))(2 (#)))) |ET| 
1  |BT| (3 (3 (2 (2 (#))(2 (#)))(4 (#)))(1 (2 (#))(2 (2 (#))(2 (2 (#))(2 (1 (2 (#))(2 (2 (#))(2 (2 (2 (#))(2 (2 (#))(2 (#))))(2 (2 (#))(2 (2 (#))(1 (2 (2 (#))(2 (#)))(2 (2 (#))(1 (1 (2 (#))(2 (#)))(2 (2 (#))(2 (2 (#))(2 (2 (#))(2 (2 (2 (#))(2 (#)))(2 (#))))))))))))))(2 (#))))))) |ET| 
-1  |BT| (1 (2 (#))(2 (1 (2 (2 (#))(2 (2 (#))(2 (#))))(2 (2 (2 (#))(2 (#)))(2 (#))))(3 (2 (2 (#))(2 (2 (2 (#))(2 (#)))(2 (2 (2 (#))(2 (2 (#))(2 (2 (#))(2 (#)))))(2 (2 (#))(2 (2 (#))(2 (2 (#))(2 (#))))))))(2 (#))))) |ET| 
1  |BT| (3 (3 (2 (#))(2 (2 (#))(2 (2 (#))(2 (1 (#))(2 (4 (#))(1 (1 (#))(2 (#))))))))(2 (2 (#))(3 (2 (3 (#))(2 (2 (#))(1 (#))))(2 (2 (1 (2 (#))(0 (2 (#))(0 (3 (#))(1 (#)))))(3 (2 (#))(3 (2 (#))(4 (1 (2 (#))(3 (#)))(3 (#))))))(2 (#)))))) |ET| 
-1  |BT| (1 (2 (1 (1 (2 (2 (3 (#))(2 (2 (#))(1 (#))))(0 (2 (#))(2 (3 (#))(2 (2 (#))(1 (2 (#))(1 (2 (#))(2 (2 (#))(1 (2 (#))(1 (1 (#))(2 (#)))))))))))(2 (#)))(2 (#)))(3 (2 (#))(3 (2 (#))(3 (2 (#))(3 (3 (2 (#))(3 (3 (#))(2 (#))))(1 (2 (#))(1 (#))))))))(2 (#))) |ET| 
1  |BT| (3 (3 (2 (#))(4 (4 (#))(3 (#))))(2 (2 (#))(2 (2 (2 (#))(2 (#)))(2 (2 (2 (2 (2 (#))(2 (2 (2 (#))(2 (#)))(2 (#))))(2 (2 (#))(2 (2 (#))(2 (2 (2 (#))(2 (#)))(2 (2 (#))(2 (#)))))))(2 (2 (#))(2 (2 (2 (2 (2 (2 (#))(2 (#)))(2 (#)))(2 (2 (#))(2 (2 (#))(2 (#)))))(2 (#)))(2 (2 (#))(2 (#))))))(2 (#)))))) |ET| 
-1  |BT| (1 (2 (2 (#))(2 (2 (#))(2 (2 (#))(2 (2 (#))(2 (2 (#))(2 (2 (#))(2 (#))))))))(3 (2 (#))(2 (2 (2 (#))(2 (2 (1#))(2 (#))))(3 (2 (2 (#))(2 (2 (#))(2 (2 (2 (#))(3 (#)))(2 (#)))))(2 (#)))))) |ET| 
1  |BT| (3 (4 (3 (4 (#))(2 (#)))(3 (#)))(1 (2 (#))(2 (2 (#))(1 (1 (2 (2 (#))(2 (#)))(1 (2 (#))(1 (#))))(2 (#)))))) |ET| 
-1  |BT| (1 (2 (#))(2 (1 (2 (2 (#))(2 (#)))(1 (2 (2 (2 (#))(2 (#)))(3 (2 (#))(2 (#))))(2 (2 (#))(2 (2 (#))(2 (3 (#))(2 (2 (#))(2 (2 (#))(2 (2 (2 (2 (#))(2 (1 (#))(2 (#))))(2 (#)))(2 (2 (#))(2 (2 (#))(2 (#))))))))))))(2 (#)))) |ET| 
1  |BT| (3 (2 (2 (#))(2 (#)))(1 (2 (2 (2 (2 (#))(3 (2 (#))(2 (2 (#))(2 (#)))))(2 (#)))(2 (2 (2 (#))(2 (2 (#))(2 (#))))(1 (2 (#))(1 (2 (2 (#))(2 (2 (#))(2 (#))))(0 (0 (#))(1 (2 (2 (#))(2 (#)))(2 (#))))))))(2 (#)))) |ET| 
-1  |BT| (1 (2 (#))(2 (2 (#))(3 (2 (2 (2 (#))(2 (2 (#))(2 (2 (2 (#))(2 (2 (#))(1 (#))))(2 (2 (#))(3 (2 (2 (2 (#))(2 (2 (#))(2 (#))))(2 (#)))(2 (3 (2 (#))(2 (#)))(2 (2 (2 (#))(2 (2 (#))(3 (2 (2 (#))(2 (#)))(2 (2 (#))(2 (#))))))(2 (2 (#))(1 (2 (#))(2 (2 (2 (#))(2 (#)))(2 (2 (2 (#))(2 (2 (#))(2 (#))))(2 (2 (#))(2 (#))))))))))))))(2 (#)))(2 (#))))) |ET| 
1  |BT| (4 (2 (#))(3 (1 (2 (#))(1 (1 (2 (#))(1 (1 (2 (#))(2 (#)))(2 (#))))(1 (1 (#))(2 (#)))))(4 (2 (#))(4 (2 (3 (#))(2 (#)))(4 (3 (4 (2 (#))(4 (3 (#))(3 (#))))(2 (2 (#))(2 (#))))(2 (#))))))) |ET| 
-1  |BT| (1 (4 (2 (#))(3 (2 (2 (#))(3 (#)))(4 (3 (2 (#))(3 (#)))(3 (2 (#))(3 (2 (#))(3 (3 (#))(3 (2 (#))(3 (#)))))))))(0 (2 (#))(1 (2 (#))(2 (0 (2 (#))(1 (2 (2 (#))(2 (2 (#))(2 (2 (#))(3 (#)))))(1 (4 (#))(1 (2 (#))(2 (#))))))(2 (#)))))) |ET| 
1  |BT| (4 (2 (2 (#))(2 (2 (#))(2 (2 (2 (2 (#))(2 (#)))(2 (#)))(2 (#)))))(2 (2 (2 (#))(3 (2 (2 (2 (#))(2 (#)))(2 (#)))(3 (2 (#))(2 (2 (#))(2 (2 (2 (2 (#))(2 (2 (2 (#))(2 (3 (#))(2 (#))))(2 (2 (#))(2 (2 (#))(2 (#))))))(2 (#)))(1 (1 (1 (2 (2 (#))(2 (#)))(1 (2 (#))(1 (2 (#))(1 (2 (#))(1 (#))))))(2 (#)))(2 (2 (#))(2 (2 (#))(2 (2 (#))(2 (2 (#))(2 (#))))))))))))(2 (#)))) |ET| 
-1  |BT| (1 (2 (1 (2 (#))(1 (1 (#))(2 (#))))(4 (2 (#))(4 (2 (#))(4 (2 (#))(3 (2 (#))(4 (4 (#))(2 (#))))))))(2 (2 (#))(2 (2 (2 (#))(2 (#)))(2 (2 (#))(2 (2 (2 (2 (#))(2 (#)))(2 (1 (#))(2 (#))))(2 (#))))))) |ET| 
1  |BT| (3 (3 (2 (1 (1 (1 (#))(2 (2 (#))(2 (1 (2 (#))(1 (2 (#))(2 (#))))(2 (2 (#))(2 (2 (2 (#))(2 (#)))(2 (#)))))))(2 (#)))(2 (#)))(3 (3 (2 (#))(2 (#)))(4 (2 (#))(4 (3 (4 (#))(2 (#)))(3 (#))))))(2 (#))) |ET| 
-1  |BT| (1 (2 (2 (#))(1 (2 (#))(2 (#))))(1 (1 (2 (2 (#))(2 (#)))(3 (3 (2 (#))(3 (2 (2 (#))(2 (#)))(3 (2 (#))(3 (4 (#))(3 (2 (#))(2 (3 (#))(2 (#))))))))(3 (2 (#))(3 (2 (#))(2 (2 (#))(3 (2 (#))(2 (2 (#))(4 (#)))))))))(2 (#)))) |ET| 
1  |BT| (3 (2 (1 (1 (1 (2 (2 (#))(2 (2 (#))(2 (1 (#))(2 (#)))))(1 (2 (#))(1 (0 (2 (#))(2 (1 (2 (#))(1 (1 (#))(2 (#))))(2 (2 (#))(3 (#)))))(2 (2 (#))(2 (2 (#))(2 (2 (#))(1 (2 (#))(2 (2 (#))(2 (2 (#))(2 (2 (#))(2 (#))))))))))))(2 (#)))(2 (#)))(3 (2 (#))(2 (2 (2 (#))(1 (#)))(2 (#)))))(2 (#))) |ET| 
-1  |BT| (1 (2 (3 (3 (3 (2 (#))(3 (2 (#))(3 (2 (#))(4 (3 (#))(3 (2 (#))(2 (2 (#))(2 (2 (#))(2 (2 (#))(2 (2 (#))(2 (2 (#))(2 (#))))))))))))(2 (#)))(2 (#)))(2 (2 (#))(2 (1 (2 (#))(2 (#)))(2 (#)))))(2 (#))) |ET| 
1  |BT| (3 (2 (1 (#))(2 (2 (#))(3 (#))))(2 (3 (2 (2 (#))(3 (#)))(2 (2 (#))(1 (3 (#))(1 (2 (#))(2 (2 (2 (#))(3 (2 (#))(2 (2 (#))(3 (2 (#))(2 (#))))))(2 (2 (#))(1 (2 (#))(1 (2 (#))(1 (2 (#))(1 (2 (1 (2 (#))(1 (#)))(2 (#)))(1 (3 (#))(2 (3 (#))(1 (2 (#))(1 (1 (1 (1 (2 (#))(1 (1 (#))(1 (#))))(2 (2 (#))(2 (2 (#))(2 (2 (2 (#))(2 (#)))(2 (2 (#))(2 (1 (#))(2 (2 (1#))(3 (#)))))))))(2 (#)))(2 (2 (#))(2 (2 (2 (2 (2 (#))(2 (#)))(2 (#)))(2 (#)))(1 (2 (2 (2 (#))(2 (2 (2 (1 (#))(2 (#)))(2 (#)))(3 (#))))(2 (#)))(2 (2 (#))(2 (2 (#))(2 (#)))))))))))))))))))))(2 (#)))) |ET| 
-1  |BT| (1 (1 (2 (1 (#))(2 (2 (2 (2 (4 (#))(2 (#)))(1 (#)))(2 (2 (#))(2 (2 (#))(2 (2 (2 (2 (2 (2 (2 (#))(2 (#)))(2 (#)))(2 (#)))(2 (2 (#))(2 (#))))(2 (#)))(2 (2 (#))(2 (2 (#))(2 (#))))))))(2 (#))))(1 (2 (#))(2 (1 (#))(2 (#)))))(2 (1 (1 (#))(2 (1 (1 (#))(2 (2 (#))(2 (2 (#))(2 (#)))))(2 (2 (#))(2 (2 (#))(2 (2 (#))(3 (#)))))))(2 (#)))) |ET| 
1  |BT| (3 (1 (4 (2 (#))(4 (3 (3 (3 (#))(2 (#)))(4 (#)))(2 (#))))(1 (2 (#))(1 (1 (3 (3 (3 (2 (#))(3 (2 (#))(3 (#))))(2 (2 (#))(2 (2 (#))(2 (2 (#))(2 (2 (#))(2 (#)))))))(2 (#)))(2 (#)))(0 (2 (#))(0 (2 (#))(0 (0 (#))(1 (#))))))))(2 (2 (#))(2 (2 (#))(2 (2 (#))(2 (#)))))) |ET| 
-1  |BT| (1 (2 (2 (2 (#))(2 (#)))(2 (2 (#))(2 (#))))(1 (1 (2 (#))(1 (2 (#))(1 (2 (2 (2 (2 (#))(3 (2 (#))(3 (4 (#))(2 (2 (#))(2 (2 (#))(2 (2 (#))(2 (#))))))))(2 (#)))(2 (#)))(0 (4 (2 (#))(4 (4 (#))(2 (#))))(2 (2 (#))(1 (2 (#))(1 (#))))))))(2 (#)))) |ET| 
1  |BT| (4 (2 (#))(4 (3 (2 (2 (#))(2 (2 (2 (#))(3 (#)))(2 (2 (#))(2 (#)))))(2 (2 (#))(2 (2 (2 (#))(2 (2 (#))(2 (2 (2 (#))(2 (2 (2 (2 (2 (2 (2 (2 (#))(2 (#)))(2 (#)))(2 (2 (#))(2 (#))))(2 (#)))(2 (2 (#))(3 (2 (#))(2 (#)))))(2 (#)))(2 (2 (#))(2 (2 (#))(2 (#))))))(2 (#)))))(2 (3 (2 (#))(2 (#)))(2 (2 (2 (#))(2 (#)))(2 (2 (#))(2 (2 (#))(2 (#)))))))))(2 (#)))) |ET| 
-1  |BT| (1 (0 (2 (#))(2 (2 (2 (#))(2 (2 (#))(2 (2 (#))(2 (2 (#))(3 (2 (2 (#))(2 (#)))(2 (2 (#))(2 (#))))))))(2 (2 (#))(2 (2 (2 (#))(2 (#)))(2 (2 (2 (#))(2 (#)))(2 (2 (#))(2 (2 (#))(2 (2 (#))(2 (2 (#))(2 (#)))))))))))(1 (2 (#))(2 (2 (2 (#))(2 (2 (#))(2 (#))))(2 (2 (2 (2 (#))(1 (#)))(2 (2 (#))(2 (2 (#))(2 (#)))))(2 (#)))))) |ET| 
1  |BT| (3 (3 (2 (3 (#))(2 (#)))(3 (2 (2 (#))(2 (#)))(4 (2 (#))(3 (2 (#))(2 (3 (3 (#))(2 (2 (#))(3 (3 (#))(3 (#)))))(1 (2 (#))(1 (2 (#))(1 (2 (#))(1 (2 (#))(1 (1 (#))(2 (#))))))))))))(2 (#))) |ET| 
-1  |BT| (1 (2 (#))(1 (1 (3 (3 (3 (3 (3 (3 (2 (#))(4 (3 (#))(2 (2 (#))(2 (#)))))(2 (#)))(3 (#)))(2 (#)))(2 (2 (#))(2 (#))))(2 (#)))(2 (2 (#))(2 (3 (2 (#))(2 (#)))(2 (#)))))(2 (#)))) |ET| 
1  |BT| (3 (2 (#))(1 (2 (2 (1 (1 (2 (#))(2 (3 (2 (2 (2 (2 (2 (#))(2 (#)))(2 (#)))(2 (2 (#))(2 (#))))(2 (#)))(2 (#)))(1 (2 (#))(2 (#)))))(2 (2 (#))(3 (#))))(2 (#)))(2 (2 (2 (#))(2 (#)))(2 (2 (#))(2 (2 (#))(2 (2 (2 (2 (#))(2 (#)))(2 (#)))(2 (2 (#))(2 (2 (#))(2 (#)))))))))(2 (#)))) |ET| 
-1  |BT| (0 (1 (2 (#))(4 (2 (#))(3 (2 (#))(2 (#)))))(3 (2 (#))(3 (2 (#))(2 (2 (2 (2 (#))(2 (#)))(2 (2 (#))(2 (2 (2 (#))(2 (#)))(2 (#)))))(2 (#)))))) |ET| 
1  |BT| (3 (4 (3 (2 (#))(3 (3 (3 (#))(3 (#)))(2 (2 (#))(2 (#)))))(2 (2 (#))(2 (2 (#))(2 (#)))))(0 (1 (2 (#))(1 (1 (2 (2 (#))(2 (2 (#))(2 (#))))(1 (2 (#))(2 (2 (#))(2 (#)))))(1 (2 (#))(2 (2 (#))(1 (1 (2 (#))(0 (#)))(2 (#)))))))(2 (#)))) |ET| 
-1  |BT| (1 (1 (2 (2 (#))(2 (#)))(1 (1 (#))(1 (2 (#))(2 (#)))))(1 (2 (2 (3 (#))(2 (#)))(2 (#)))(2 (2 (#))(2 (2 (#))(3 (2 (#))(2 (2 (2 (#))(3 (#)))(3 (2 (#))(2 (2 (3 (2 (2 (2 (#))(2 (#)))(3 (2 (#))(3 (4 (#))(2 (#)))))(2 (2 (#))(2 (#))))(2 (2 (#))(2 (2 (#))(2 (#)))))(2 (#)))))))))) |ET| 
1  |BT| (3 (2 (2 (#))(2 (#)))(3 (3 (2 (2 (#))(2 (#)))(3 (3 (2 (#))(1 (1 (2 (#))(1 (2 (#))(2 (#))))(2 (2 (#))(2 (2 (#))(2 (#))))))(2 (2 (#))(3 (3 (#))(2 (2 (#))(2 (2 (#))(1 (2 (2 (#))(1 (#)))(2 (#)))))))))(2 (#)))) |ET| 
-1  |BT| (1 (2 (2 (#))(2 (#)))(1 (1 (1 (#))(1 (2 (#))(3 (2 (#))(3 (3 (3 (2 (#))(3 (2 (#))(3 (3 (#))(2 (2 (#))(2 (3 (#))(2 (#)))))))(2 (#)))(2 (2 (#))(3 (2 (#))(3 (2 (#))(4 (2 (2 (#))(3 (2 (2 (#))(2 (3 (#))(3 (3 (#))(2 (2 (#))(2 (#))))))(3 (2 (#))(3 (#)))))(2 (2 (#))(2 (2 (20))(2 (#))))))))))))(2 (#)))) |ET| 
1  |BT| (3 (3 (0 (2 (1 (2 (#))(1 (2 (2 (#))(2 (#)))(2 (2 (#))(2 (2 (#))(1 (#))))))(1 (2 (#))(0 (2 (2 (#))(2 (#)))(0 (#)))))(2 (#)))(4 (2 (#))(4 (2 (#))(2 (2 (2 (#))(2 (#)))(2 (2 (#))(2 (2 (#))(2 (2 (2 (#))(2 (#)))(2 (#)))))))))(2 (#))) |ET| 
-1  |BT| (1 (2 (3 (3 (2 (3 (3 (3 (2 (2 (#))(2 (2 (#))(2 (2 (#))(2 (2 (#))(2 (#))))))(3 (2 (#))(2 (#))))(2 (#)))(2 (#)))(3 (3 (2 (#))(3 (4 (#))(2 (#))))(3 (3 (3 (#))(3 (2 (#))(3 (#))))(1 (2 (#))(2 (2 (#))(1 (1 (2 (#))(1 (#)))(2 (#))))))))(2 (#)))(2 (#)))(2 (2 (2 (#))(2 (2 (#))(2 (#))))(1 (2 (#))(2 (2 (#))(2 (2 (#))(1 (#)))))))(2 (#))) |ET| 
1  |BT| (3 (2 (#))(2 (2 (2 (#))(2 (4 (#))(0 (2 (#))(2 (2 (#))(2 (2 (#))(2 (2 (#))(2 (#))))))))(2 (#)))) |ET| 
-1  |BT| (1 (3 (2 (#))(3 (2 (#))(2 (3 (3 (3 (2 (#))(4 (2 (#))(3 (4 (#))(2 (#)))))(2 (2 (#))(2 (2 (#))(2 (#)))))(2 (#)))(2 (3 (1 (#))(2 (2 (#))(3 (#))))(2 (2 (#))(2 (2 (#))(2 (2 (2 (#))(2 (#)))(2 (2 (#))(2 (2 (2 (#))(2 (#)))(2 (2 (#))(2 (2 (#))(2 (3 (#))(2 (#))))))))))))))(2 (2 (#))(1 (2 (#))(1 (2 (2 (2 (#))(2 (#)))(2 (2 (2 (#))(2 (#)))(2 (2 (#))(2 (2 (#))(4 (3 (#))(2 (#)))))))(2 (#)))))) |ET| 
1  |BT| (3 (1 (3 (1 (2 (2 (4#))(0 (2 (#))(1 (2 (2 (#))(3 (2 (#))(2 (2 (#))(3 (#)))))(2 (2 (#))(2 (2 (#))(2 (#)))))))(2 (#)))(2 (#)))(2 (2 (#))(2 (2 (3 (3 (2 (#))(2 (#)))(2 (2 (#))(2 (2 (#))(2 (2 (#))(2 (#))))))(2 (#)))(1 (0 (2 (#))(2 (#)))(1 (2 (#))(2 (#)))))))(2 (#))) |ET| 
-1  |BT| (1 (2 (3 (2 (3 (3 (3 (2 (#))(3 (1 (#))(4 (3 (3 (#))(2 (#)))(3 (#)))))(2 (#)))(2 (#)))(2 (2 (#))(2 (2 (#))(4 (4 (#))(2 (#))))))(2 (#)))(1 (2 (#))(1 (2 (2 (#))(2 (2 (#))(2 (#))))(1 (2 (#))(2 (2 (2 (#))(2 (#)))(2 (2 (#))(2 (2 (#))(2 (#)))))))))(2 (#))) |ET| 
1  |BT| (3 (1 (2 (#))(0 (2 (2 (#))(2 (#)))(0 (2 (#))(2 (2 (#))(0 (2 (#))(1 (2 (#))(1 (2 (2 (2 (#))(3 (#)))(1 (#)))(2 (2 (2 (#))(1 (#)))(2 (2 (3 (3 (#))(2 (#)))(2 (2 (#))(2 (#))))(2 (#)))))))))))(4 (2 (#))(3 (2 (2 (2 (#))(3 (2 (#))(2 (#))))(3 (#)))(3 (3 (4 (#))(2 (2 (#))(2 (2 (#))(2 (2 (#))(2 (#))))))(2 (#)))))) |ET| 
-1  |BT| (1 (3 (2 (#))(4 (3 (2 (#))(2 (3 (#))(3 (#))))(2 (2 (#))(2 (2 (#))(2 (#))))))(2 (2 (#))(1 (2 (2 (#))(2 (#)))(2 (2 (#))(4 (3 (2 (#))(3 (2 (#))(2 (2 (#))(3 (3 (2 (#))(2 (#)))(2 (2 (#))(3 (2 (#))(2 (#))))))))(2 (#))))))) |ET| 
1  |BT| (4 (2 (2 (2 (#))(2 (#)))(2 (2 (2 (#))(2 (#)))(2 (2 (#))(2 (2 (#))(2 (#))))))(4 (2 (#))(3 (4 (3 (2 (#))(4 (3 (4 (3 (3 (2 (#))(2 (#)))(2 (#)))(3 (3 (3 (#))(2 (#)))(3 (#))))(2 (#)))(2 (3 (#))(2 (#)))))(2 (2 (#))(3 (2 (#))(2 (2 (#))(0 (2 (#))(0 (2 (#))(1 (2 (#))(0 (2 (#))(0 (2 (#))(1 (2 (3 (#))(2 (2 (#))(2 (2 (#))(2 (#)))))(0 (2 (#))(2 (2 (#))(1 (0 (#))(2 (#)))))))))))))))(2 (#))))) |ET| 
-1  |BT| (1 (2 (#))(2 (2 (3 (#))(2 (#)))(3 (1 (2 (2 (#))(2 (2 (2 (#))(2 (1 (#))(2 (2 (#))(3 (#)))))(2 (2 (2 (#))(2 (#)))(2 (2 (2 (#))(2 (2 (#))(2 (2 (#))(2 (2 (2 (#))(2 (#)))(2 (2 (#))(2 (#)))))))(3 (2 (#))(3 (2 (2 (2 (#))(2 (#)))(2 (#)))(4 (2 (#))(2 (4 (2 (#))(3 (#)))(2 (2 (#))(2 (2 (#))(2 (#))))))))))))(2 (#)))(2 (#))))) |ET| 
1  |BT| (3 (3 (2 (#))(3 (2 (#))(3 (2 (#))(3 (2 (#))(3 (#))))))(2 (2 (#))(1 (1 (2 (#))(1 (2 (#))(1 (2 (#))(1 (#)))))(3 (2 (#))(3 (2 (2 (#))(3 (2 (#))(2 (2 (#))(3 (2 (#))(3 (2 (#))(3 (2 (#))(2 (1 (2 (#))(1 (1 (2 (1 (#))(2 (#)))(2 (#)))(2 (#))))(2 (2 (#))(2 (2 (#))(2 (3 (#))(2 (#))))))))))))(2 (#))))))) |ET| 
-1  |BT| (0 (3 (2 (#))(3 (2 (#))(4 (2 (#))(4 (3 (#))(3 (2 (2 (2 (#))(2 (#)))(3 (#)))(3 (#)))))))(1 (2 (#))(1 (1 (2 (#))(1 (1 (#))(2 (2 (#))(1 (2 (#))(2 (1 (1 (2 (#))(1 (#)))(2 (#)))(2 (2 (#))(1 (2 (#))(2 (#)))))))))(2 (#))))) |ET| 
1  |BT| (3 (4 (2 (2 (3 (2 (#))(2 (2 (#))(2 (2 (12#))(2 (2 (#))(2 (2 (#))(2 (2 (#))(2 (2 (#))(2 (#)))))))))(2 (#)))(2 (#)))(2 (2 (#))(2 (2 (#))(2 (2 (#))(2 (2 (2 (#))(2 (#)))(2 (2 (#))(2 (2 (#))(2 (#)))))))))(2 (#))) |ET| 
-1  |BT| (1 (2 (2 (#))(3 (3 (2 (2 (2 (2 (#))(3 (2 (#))(2 (#))))(2 (#)))(2 (2 (#))(2 (2 (#))(2 (#)))))(2 (#)))(2 (2 (2 (#))(2 (#)))(2 (2 (#))(3 (2 (#))(3 (#)))))))(3 (2 (#))(1 (2 (2 (2 (#))(2 (2 (#))(2 (#))))(2 (2 (#))(2 (2 (#))(2 (2 (#))(2 (#))))))(2 (2 (2 (#))(2 (2 (#))(2 (2 (#))(3 (2 (#))(2 (2 (#))(3 (2 (#))(2 (1 (#))(2 (2 (#))(2 (2 (#))(2 (2 (#))(2 (#))))))))))))(2 (#)))))) |ET| 
1  |BT| (4 (3 (4 (3 (2 (#))(2 (#)))(2 (2 (#))(2 (#))))(2 (2 (#))(3 (1 (#))(1 (1 (1 (3 (#))(2 (2 (#))(2 (2 (#))(1 (2 (#))(2 (#))))))(2 (#)))(2 (1 (2 (2 (#))(1 (2 (#))(1 (2 (#))(2 (#)))))(2 (2 (#))(0 (1 (#))(3 (#)))))(2 (2 (#))(2 (#))))))))(2 (#))) |ET| 
-1  |BT| (1 (2 (2 (#))(2 (#)))(2 (3 (2 (2 (#))(1 (#)))(2 (2 (#))(3 (2 (3 (3 (2 (#))(3 (2 (1 (#))(2 (2 (2 (#))(2 (#)))(3 (3 (#))(3 (#)))))(3 (2 (#))(3 (2 (2 (#))(2 (2 (#))(2 (2 (#))(2 (#)))))(3 (2 (#))(3 (#)))))))(2 (#)))(2 (#)))(2 (2 (#))(1 (2 (#))(1 (2 (#))(1 (2 (#))(2 (#)))))))))(2 (#)))) |ET| 
1  |BT| (3 (2 (2 (#))(2 (1 (#))(2 (2 (#))(2 (2 (#))(2 (#))))))(2 (2 (#))(2 (2 (#))(2 (3 (2 (#))(2 (3 (#))(1 (2 (#))(2 (2 (#))(1 (2 (2 (2 (#))(2 (#)))(2 (#)))(1 (0 (0 (2 (#))(1 (#)))(2 (#)))(1 (2 (#))(1 (#)))))))))(2 (#)))))) |ET| 
-1  |BT| (0 (2 (#))(3 (0 (2 (#))(3 (1 (2 (#))(1 (2 (#))(1 (2 (#))(2 (#)))))(2 (2 (#))(2 (2 (#))(2 (2 (1 (#))(2 (#)))(2 (2 (#))(2 (3 (2 (#))(1 (#)))(1 (2 (#))(3 (2 (2 (#))(2 (#)))(2 (2 (#))(2 (2 (#))(1 (2 (#))(2 (2 (#))(2 (#)))))))))))))))(2 (#)))) |ET| 
1  |BT| (3 (2 (2 (#))(2 (#)))(3 (4 (2 (#))(4 (3 (4 (3 (3 (2 (3 (3 (2 (#))(2 (#)))(1 (#)))(2 (2 (#))(3 (2 (2 (#))(3 (#)))(2 (2 (2 (#))(2 (#)))(2 (2 (#))(2 (#)))))))(2 (#)))(3 (3 (3 (#))(2 (#)))(3 (2 (#))(2 (2 (#))(3 (#))))))(2 (#)))(2 (#)))(2 (1 (#))(2 (2 (#))(1 (2 (#))(2 (2 (3 (3 (2 (#))(4 (2 (#))(3 (2 (#))(3 (2 (#))(2 (2 (#))(2 (2 (#))(2 (#))))))))(2 (#)))(2 (#)))(2 (2 (#))(1 (2 (#))(1 (2 (#))(0 (2 (2 (#))(1 (#)))(1 (2 (#))(1 (2 (#))(1 (2 (2 (#))(2 (#)))(2 (2 (#))(1 (2 (2 (#))(1 (#)))(2 (2 (#))(2 (2 (#))(2 (#)))))))))))))))))))(2 (#)))) |ET| 
-1  |BT| (1 (1 (#))(3 (2 (#))(3 (3 (2 (#))(3 (#)))(2 (2 (#))(2 (2 (#))(2 (#))))))) |ET| 
1  |BT| (3 (2 (2 (#))(2 (#)))(1 (1 (2 (#))(2 (1 (2 (#))(1 (1 (#))(1 (2 (#))(2 (1 (#))(2 (#))))))(3 (2 (#))(2 (2 (#))(2 (2 (#))(2 (2 (#))(2 (2 (#))(2 (2 (#))(2 (#))))))))))(2 (#)))) |ET| 
-1  |BT| (1 (2 (3 (3 (2 (2 (#))(2 (3 (#))(2 (#))))(3 (2 (#))(4 (2 (2 (#))(2 (#)))(4 (2 (2 (#))(2 (#)))(4 (2 (2 (#))(3 (#)))(2 (2 (#))(2 (#))))))))(2 (#)))(2 (2 (2 (#))(2 (#)))(1 (2 (#))(1 (#)))))(2 (#))) |ET| 
1  |BT| (3 (2 (1 (1 (1 (1 (0 (1 (2 (2 (#))(2 (2 (#))(2 (#))))(3 (2 (#))(2 (2 (3 (#))(2 (#)))(4 (#)))))(2 (#)))(2 (#)))(2 (3 (#))(2 (2 (1 (2 (#))(2 (#)))(2 (#)))(2 (#)))))(2 (#)))(2 (#)))(4 (2 (#))(4 (2 (2 (#))(2 (#)))(1 (1 (2 (#))(2 (#)))(2 (2 (2 (#))(2 (2 (#))(2 (#))))(3 (2 (#))(2 (#))))))))(2 (2 (#))(2 (2 (2 (#))(2 (#)))(2 (#))))) |ET| 
-1  |BT| (1 (2 (#))(2 (2 (2 (#))(1 (2 (#))(2 (2 (2 (3 (2 (#))(2 (2 (#))(2 (2 (2 (2 (#))(2 (1 (#))(2 (2 (1 (2 (#))(1 (#)))(2 (#)))(2 (2 (#))(2 (#))))))(2 (2 (#))(2 (2 (#))(2 (2 (#))(2 (#))))))(2 (2 (#))(2 (2 (#))(2 (2 (#))(2 (2 (#))(2 (#)))))))))(2 (#)))(2 (#)))(2 (2 (#))(1 (2 (#))(2 (2 (#))(1 (2 (#))(1 (2 (#))(1 (2 (2 (#))(1 (#)))(2 (2 (#))(2 (2 (#))(2 (#)))))))))))))(2 (#)))) |ET| 
1  |BT| (3 (3 (3 (3 (2 (2 (#))(2 (#)))(3 (3 (#))(3 (2 (#))(2 (2 (2 (#))(2 (#)))(3 (2 (#))(2 (2 (#))(2 (3 (#))(3 (2 (2 (3 (#))(2 (2 (#))(2 (2 (#))(1 (#)))))(2 (#)))(2 (4 (#))(2 (2 (#))(2 (#))))))))))))(2 (#)))(2 (2 (#))(3 (2 (2 (#))(2 (2 (#))(2 (#))))(2 (2 (#))(3 (2 (#))(3 (2 (#))(0 (0 (2 (#))(1 (2 (#))(0 (0 (#))(1 (2 (#))(2 (2 (#))(0 (1 (#))(2 (#))))))))(2 (2 (#))(2 (2 (#))(2 (#)))))))))))(2 (#))) |ET| 
-1  |BT| (1 (2 (2 (#))(2 (#)))(2 (1 (1 (2 (#))(2 (2 (#))(3 (4 (#))(3 (2 (#))(2 (2 (#))(3 (2 (#))(3 (2 (#))(2 (#)))))))))(2 (2 (#))(3 (3 (2 (#))(2 (#)))(3 (2 (#))(2 (3 (#))(2 (#)))))))(2 (#)))) |ET| 
1  |BT| (3 (2 (#))(1 (2 (2 (2 (#))(2 (2 (#))(2 (3 (#))(1 (2 (1 (3 (#))(0 (2 (#))(1 (1 (2 (2 (#))(2 (2 (#))(2 (#))))(2 (1 (#))(2 (#))))(2 (2 (#))(3 (1 (2 (#))(2 (#)))(3 (#)))))))(2 (#)))(1 (2 (#))(1 (2 (2 (#))(2 (2 (#))(2 (#))))(1 (2 (#))(1 (2 (#))(1 (1 (#))(2 (2 (#))(2 (2 (2 (#))(3 (3 (#))(2 (#))))(2 (2 (#))(2 (2 (2 (#))(2 (#)))(2 (2 (#))(2 (2 (#))(2 (2 (#))(2 (2 (#))(2 (2 (#))(2 (2 (#))(2 (#)))))))))))))))))))))(2 (#)))(2 (#)))) |ET| 
-1  |BT| (1 (1 (3 (2 (2 (#))(2 (1 (#))(2 (#))))(2 (2 (#))(2 (2 (2 (#))(2 (#)))(2 (2 (#))(2 (2 (2 (#))(2 (#)))(2 (#)))))))(2 (2 (#))(2 (2 (2 (#))(2 (#)))(2 (2 (#))(2 (2 (2 (#))(2 (#)))(2 (2 (#))(2 (2 (#))(2 (2 (#))(2 (#))))))))))(1 (2 (#))(2 (2 (#))(2 (2 (#))(2 (2 (2 (2 (#))(2 (#)))(2 (#)))(3 (1 (2 (#))(2 (#)))(2 (2 (#))(1 (#))))))))) |ET| 
1  |BT| (3 (2 (2 (#))(1 (2 (2 (#))(2 (#)))(2 (2 (#))(1 (2 (#))(2 (2 (#))(2 (2 (#))(2 (#))))))))(3 (2 (#))(2 (2 (2 (#))(2 (2 (#))(2 (#))))(3 (3 (2 (#))(3 (2 (2 (#))(2 (#)))(3 (2 (#))(2 (2 (#))(3 (3 (#))(2 (#)))))))(2 (#)))))) |ET| 
-1  |BT| (1 (3 (2 (#))(3 (2 (#))(3 (2 (#))(4 (#)))))(1 (2 (#))(0 (3 (2 (#))(3 (2 (#))(2 (2 (#))(2 (#)))))(1 (2 (#))(2 (#)))))) |ET| 
1  |BT| (3 (3 (2 (#))(2 (#)))(1 (2 (2 (#))(2 (2 (#))(2 (2 (#))(2 (2 (#))(2 (2 (2 (#))(2 (2 (#))(2 (2 (#))(3 (#)))))(2 (2 (#))(2 (2 (2 (2 (2 (2 (3 (#))(2 (#)))(2 (#)))(2 (2 (#))(2 (#))))(2 (#)))(2 (#)))(2 (2 (#))(2 (#))))))))))(2 (#)))) |ET| 
-1  |BT| (1 (1 (2 (#))(2 (2 (#))(2 (3 (#))(2 (#)))))(2 (2 (#))(1 (2 (2 (#))(2 (2 (#))(2 (2 (#))(2 (#)))))(2 (2 (2 (#))(2 (3 (3 (#))(2 (#)))(2 (2 (#))(2 (2 (#))(2 (2 (#))(2 (2 (#))(2 (2 (#))(2 (2 (2 (#))(2 (2 (#))(2 (2 (#))(2 (2 (2 (#))(2 (2 (#))(2 (#))))(2 (#))))))(2 (2 (#))(2 (2 (#))(2 (#))))))))))))(2 (#)))))) |ET| 
1  |BT| (3 (3 (2 (#))(3 (2 (#))(3 (4 (#))(2 (#)))))(1 (2 (#))(2 (1 (2 (#))(1 (2 (#))(1 (2 (#))(2 (1 (2 (#))(2 (#)))(2 (3 (#))(2 (2 (#))(1 (#))))))))(2 (#))))) |ET| 
-1  |BT| (1 (3 (2 (#))(4 (2 (2 (#))(3 (#)))(3 (3 (3 (2 (#))(3 (2 (#))(2 (#))))(1 (1 (#))(2 (2 (2 (#))(2 (2 (#))(2 (#))))(3 (#)))))(3 (2 (#))(3 (2 (#))(3 (3 (#))(2 (#))))))))(1 (2 (#))(1 (2 (2 (#))(2 (#)))(1 (2 (1 (1 (2 (#))(1 (2 (1 (2 (2 (#))(2 (#)))(1 (#)))(2 (#)))(1 (#))))(2 (#)))(2 (#)))(2 (#)))))) |ET| 
1  |BT| (4 (2 (#))(3 (3 (2 (#))(3 (2 (2 (#))(2 (2 (2 (3 (#))(2 (2 (#))(2 (2 (#))(2 (#)))))(2 (#)))(2 (2 (#))(2 (#)))))(2 (2 (#))(2 (2 (2 (2 (2 (#))(2 (#)))(2 (#)))(2 (2 (#))(2 (2 (#))(2 (#)))))(2 (2 (2 (#))(2 (#)))(2 (2 (#))(2 (2 (#))(2 (#)))))))))(2 (#)))) |ET| 
-1  |BT| (1 (0 (2 (2 (2 (#))(2 (#)))(2 (#)))(2 (2 (2 (2 (#))(2 (2 (#))(2 (#))))(2 (#)))(2 (2 (#))(2 (2 (#))(2 (2 (2 (#))(2 (#)))(2 (2 (#))(2 (2 (#))(2 (3 (#))(2 (#))))))))))(2 (#))) |ET| 
1  |BT| (3 (1 (2 (#))(1 (2 (#))(1 (2 (2 (#))(2 (#)))(1 (1 (#))(1 (2 (2 (2 (#))(2 (#)))(3 (2 (#))(2 (#))))(1 (1 (#))(1 (2 (#))(1 (#)))))))))(4 (2 (#))(4 (3 (3 (2 (#))(2 (2 (#))(2 (#))))(2 (#)))(3 (4 (2 (#))(3 (2 (#))(3 (4 (#))(2 (#)))))(2 (#)))))) |ET| 
-1  |BT| (1 (2 (3 (#))(4 (3 (#))(2 (#))))(1 (3 (#))(1 (1 (2 (2 (#))(2 (#)))(4 (2 (#))(3 (2 (#))(3 (2 (#))(3 (2 (#))(3 (2 (#))(2 (2 (1 (#))(2 (2 (2 (#))(2 (#)))(3 (#))))(1 (4 (#))(2 (#))))))))))(2 (#))))) |ET| 
1  |BT| (3 (3 (2 (2 (2 (2 (2 (#))(2 (2 (#))(2 (2 (#))(2 (#)))))(2 (2 (2 (#))(2 (2 (#))(2 (2 (#))(2 (#)))))(2 (2 (#))(2 (2 (#))(2 (#))))))(2 (#)))(2 (#)))(2 (2 (#))(2 (2 (2 (#))(2 (#)))(2 (1 (2 (#))(2 (2 (#))(2 (2 (#))(2 (#)))))(2 (2 (#))(2 (2 (#))(3 (2 (#))(2 (2 (#))(2 (3 (#))(2 (#)))))))))))(2 (#))) |ET| 
-1  |BT| (1 (1 (2 (#))(2 (2 (#))(2 (1 (#))(2 (#)))))(2 (2 (#))(2 (2 (2 (#))(2 (2 (#))(2 (#))))(2 (2 (#))(4 (3 (3 (2 (#))(2 (#)))(2 (2 (#))(3 (2 (2 (2 (#))(2 (2 (2 (#))(2 (#)))(2 (#))))(2 (#)))(2 (2 (2 (#))(2 (2 (#))(2 (2 (#))(2 (#)))))(2 (2 (#))(2 (2 (#))(2 (2 (#))(2 (#)))))))))(2 (#))))))) |ET| 
1  |BT| (3 (2 (#))(2 (2 (3 (3 (2 (#))(3 (2 (1 (2 (2 (#))(2 (#)))(1 (#)))(2 (#)))(3 (2 (#))(3 (#)))))(2 (#)))(1 (2 (#))(0 (2 (#))(0 (3 (#))(1 (#))))))(2 (#)))) |ET| 
-1  |BT| (0 (1 (0 (1 (1 (2 (2 (2 (2 (2 (1 (#))(2 (#)))(2 (#)))(2 (#)))(2 (2 (#))(2 (#))))(2 (#)))(2 (2 (#))(2 (2 (2 (#))(2 (2 (#))(2 (#))))(2 (2 (#))(2 (#))))))(2 (#)))(2 (#)))(1 (2 (2 (2 (2 (2 (#))(2 (#)))(2 (#)))(3 (2 (#))(2 (2 (#))(2 (2 (2 (2 (#))(2 (2 (#))(2 (2 (#))(2 (#)))))(2 (#)))(2 (2 (#))(2 (2 (#))(2 (2 (#))(2 (2 (#))(2 (#))))))))))(2 (#)))(2 (2 (#))(1 (2 (#))(2 (#))))))(2 (#))) |ET| 
1  |BT| (3 (2 (2 (#))(2 (2 (#))(2 (#))))(2 (2 (#))(3 (2 (2 (#))(2 (#)))(3 (2 (2 (2 (2 (2 (#))(2 (#)))(2 (1 (#))(2 (2 (2 (#))(2 (2 (#))(2 (#))))(3 (#)))))(2 (2 (#))(2 (2 (2 (#))(2 (2 (#))(2 (#))))(1 (2 (#))(2 (1 (3 (#))(2 (2 (#))(2 (1 (#))(2 (#)))))(2 (2 (#))(2 (2 (#))(2 (2 (2 (#))(2 (2 (#))(2 (2 (#))(2 (#)))))(2 (2 (#))(2 (2 (#))(2 (#))))))))))))(2 (#)))(2 (#)))))) |ET| 
-1  |BT| (1 (1 (2 (2 (#))(2 (#)))(2 (2 (#))(3 (#))))(2 (2 (2 (2 (2 (2 (#))(2 (#)))(2 (2 (#))(2 (2 (2 (#))(2 (#)))(2 (2 (#))(2 (#))))))(2 (#)))(2 (2 (2 (#))(2 (2 (#))(2 (#))))(2 (2 (#))(2 (2 (#))(3 (2 (#))(3 (2 (2 (#))(2 (#)))(2 (2 (#))(2 (3 (#))(2 (2 (#))(2 (2 (2 (#))(2 (2 (#))(2 (#))))(2 (3 (#))(2 (#)))))))))))))(2 (#)))) |ET| 
1  |BT| (3 (1 (2 (2 (#))(2 (#)))(0 (2 (#))(1 (2 (#))(1 (2 (#))(2 (4 (#))(2 (3 (#))(1 (2 (#))(1 (2 (#))(2 (2 (#))(1 (2 (#))(2 (2 (#))(2 (1 (2 (2 (#))(1 (2 (#))(2 (2 (#))(2 (#)))))(2 (#)))(2 (2 (#))(3 (2 (#))(3 (#))))))))))))))))(2 (3 (2 (#))(2 (2 (#))(1 (4 (#))(1 (2 (#))(2 (2 (#))(4 (2 (#))(3 (3 (#))(2 (#)))))))))(2 (#)))) |ET| 
-1  |BT| (1 (2 (#))(1 (0 (2 (2 (#))(2 (#)))(4 (2 (#))(3 (2 (#))(4 (2 (#))(3 (2 (2 (#))(2 (#)))(2 (2 (#))(3 (4 (#))(3 (2 (2 (#))(2 (2 (1#))(2 (#))))(3 (2 (#))(3 (2 (#))(2 (2 (#))(2 (3 (#))(2 (#))))))))))))))(2 (#)))) |ET| 
1  |BT| (3 (1 (1 (1 (1 (2 (#))(0 (2 (#))(1 (2 (#))(0 (2 (#))(0 (2 (2 (2 (#))(2 (#)))(2 (#)))(1 (1 (2 (2 (2 (2 (2 (#))(2 (#)))(2 (2 (#))(2 (2 (#))(2 (#)))))(2 (#)))(2 (2 (#))(2 (2 (2 (#))(2 (2 (#))(2 (#))))(2 (2 (#))(2 (#))))))(2 (#)))(1 (1 (#))(2 (2 (#))(2 (2 (#))(1 (2 (#))(2 (#))))))))))))(2 (#)))(2 (#)))(4 (2 (#))(4 (4 (2 (2 (#))(2 (2 (#))(2 (#))))(2 (2 (#))(3 (2 (2 (#))(2 (#)))(3 (2 (#))(3 (3 (#))(2 (2 (#))(3 (3 (2 (2 (#))(2 (2 (#))(2 (#))))(2 (#)))(2 (2 (#))(2 (2 (#))(2 (#)))))))))))(2 (2 (#))(2 (2 (#))(2 (2 (#))(2 (#))))))))(2 (#))) |ET| 
-1  |BT| (1 (1 (2 (2 (#))(1 (#)))(2 (2 (#))(2 (2 (#))(2 (#)))))(1 (1 (2 (#))(1 (2 (#))(2 (2 (3 (2 (2 (2 (#))(2 (#)))(2 (#)))(3 (3 (#))(2 (2 (#))(2 (#)))))(2 (#)))(1 (2 (#))(2 (2 (2 (#))(2 (2 (#))(2 (#))))(2 (2 (#))(2 (2 (2 (#))(2 (2 (#))(2 (#))))(2 (2 (#))(2 (1 (#))(2 (#)))))))))))(2 (#)))) |ET| 
1  |BT| (3 (2 (#))(2 (2 (3 (3 (2 (2 (#))(2 (3 (3 (2 (#))(3 (0 (2 (#))(0 (2 (#))(0 (#))))(3 (#))))(2 (#)))(3 (3 (3 (#))(2 (2 (#))(2 (#))))(0 (2 (#))(1 (2 (#))(3 (2 (#))(1 (2 (#))(3 (3 (#))(2 (2 (#))(2 (2 (#))(3 (#))))))))))))(2 (#)))(2 (#)))(3 (3 (2 (#))(3 (2 (#))(3 (2 (2 (#))(3 (#)))(2 (2 (#))(3 (2 (#))(2 (2 (2 (#))(2 (2 (#))(2 (#))))(2 (2 (#))(1 (2 (2 (#))(2 (#)))(1 (#))))))))))(2 (2 (#))(1 (#)))))(2 (#)))) |ET| 
-1  |BT| (1 (2 (#))(2 (2 (3 (3 (2 (#))(3 (2 (#))(3 (#))))(2 (2 (#))(2 (#))))(3 (2 (#))(2 (2 (2 (2 (#))(2 (#)))(3 (2 (#))(2 (2 (#))(3 (2 (#))(2 (3 (#))(1 (2 (#))(1 (3 (1 (#))(2 (#)))(1 (#)))))))))(2 (#)))))(2 (#)))) |ET| 
1  |BT| (3 (2 (2 (#))(3 (#)))(2 (1 (2 (2 (#))(2 (#)))(1 (2 (#))(2 (1 (1 (2 (#))(2 (2 (#))(2 (2 (#))(2 (#)))))(2 (#)))(2 (2 (2 (#))(2 (2 (#))(2 (#))))(2 (2 (#))(2 (2 (#))(2 (#))))))))(2 (#)))) |ET| 
-1  |BT| (1 (2 (#))(2 (1 (2 (3 (2 (#))(2 (2 (#))(2 (2 (#))(2 (2 (#))(2 (#))))))(2 (#)))(2 (2 (#))(2 (2 (2 (#))(2 (#)))(3 (2 (#))(3 (2 (#))(3 (2 (#))(3 (2 (#))(4 (4 (2 (#))(4 (3 (#))(2 (#))))(2 (2 (#))(2 (2 (#))(2 (2 (#))(2 (2 (2 (#))(2 (#)))(2 (2 (#))(2 (2 (#))(2 (#))))))))))))))))(2 (#)))) |ET| 
1  |BT| (3 (4 (3 (2 (#))(4 (2 (#))(4 (2 (#))(2 (#)))))(1 (2 (#))(1 (2 (2 (#))(2 (#)))(1 (2 (#))(2 (1 (#))(2 (2 (#))(2 (2 (#))(1 (2 (#))(1 (2 (#))(3 (2 (#))(2 (#))))))))))))(2 (#))) |ET| 
-1  |BT| (1 (2 (2 (#))(2 (2 (2 (#))(2 (#)))(2 (#))))(2 (2 (2 (#))(3 (2 (3 (#))(3 (#)))(2 (1 (2 (2 (#))(2 (#)))(2 (#)))(2 (2 (#))(2 (#))))))(2 (#)))) |ET| 
1  |BT| (3 (2 (2 (#))(1 (2 (2 (2 (2 (#))(2 (2 (#))(2 (#))))(2 (#)))(2 (2 (#))(2 (2 (#))(2 (2 (#))(2 (2 (#))(2 (2 (#))(2 (#))))))))(2 (2 (#))(2 (2 (2 (#))(2 (#)))(2 (#))))))(3 (2 (#))(3 (2 (2 (2 (#))(2 (#)))(2 (2 (#))(3 (2 (3 (#))(2 (#)))(2 (#)))))(3 (3 (2 (#))(3 (3 (3 (#))(2 (2 (#))(2 (2 (#))(2 (2 (#))(2 (#))))))(2 (2 (#))(2 (2 (2 (#))(3 (#)))(2 (2 (#))(2 (2 (#))(2 (3 (#))(2 (#)))))))))(2 (#)))))) |ET| 
-1  |BT| (1 (2 (2 (#))(2 (2 (#))(2 (2 (#))(2 (2 (#))(2 (2 (#))(2 (2 (#))(2 (#))))))))(2 (2 (#))(2 (2 (2 (2 (2 (2 (#))(2 (2 (#))(2 (#))))(2 (#)))(2 (2 (#))(2 (1 (3 (#))(2 (#)))(2 (2 (#))(1 (#))))))(2 (#)))(2 (3 (2 (#))(4 (2 (#))(3 (4 (#))(2 (#)))))(2 (#)))))) |ET| 
1  |BT| (3 (3 (1 (#))(2 (2 (#))(3 (1 (#))(2 (#)))))(1 (2 (1 (#))(2 (2 (#))(2 (2 (#))(1 (2 (#))(1 (2 (#))(2 (1 (#))(1 (2 (#))(1 (2 (#))(2 (2 (#))(2 (2 (#))(3 (#))))))))))))(2 (#)))) |ET| 
-1  |BT| (1 (2 (#))(1 (2 (2 (3 (3 (#))(2 (#)))(2 (#)))(1 (2 (#))(1 (2 (2 (#))(1 (#)))(3 (4 (3 (3 (#))(2 (#)))(2 (#)))(1 (2 (#))(1 (2 (#))(1 (1 (#))(2 (2 (#))(3 (2 (#))(2 (2 (#))(2 (#))))))))))))(2 (#)))) |ET| 
1  |BT| (4 (4 (2 (3 (2 (1 (1 (#))(2 (#)))(2 (2 (#))(2 (2 (#))(2 (#)))))(2 (2 (#))(2 (2 (#))(2 (2 (#))(2 (2 (2 (#))(2 (#)))(2 (2 (2 (#))(2 (#)))(2 (2 (#))(2 (2 (2 (2 (#))(2 (#)))(2 (2 (2 (#))(2 (#)))(2 (2 (#))(2 (#)))))(2 (#))))))))))(2 (#)))(3 (2 (1 (2 (#))(2 (2 (#))(2 (2 (#))(2 (2 (#))(2 (2 (#))(2 (#)))))))(2 (#)))(3 (2 (#))(2 (0 (2 (#))(2 (2 (#))(2 (#))))(2 (2 (#))(2 (2 (#))(2 (2 (#))(2 (#)))))))))(2 (#))) |ET| 
-1  |BT| (1 (2 (2 (2 (#))(2 (2 (#))(2 (#))))(2 (2 (#))(2 (2 (#))(2 (2 (2 (#))(2 (2 (#))(2 (#))))(2 (#))))))(2 (2 (2 (#))(2 (2 (#))(2 (2 (#))(2 (1 (#))(2 (2 (#))(2 (#)))))))(2 (#)))) |ET| 
-1  |BT| (1 (2 (1 (1 (2 (#))(3 (2 (#))(2 (3 (#))(2 (2 (#))(2 (#))))))(2 (#)))(2 (2 (#))(2 (2 (#))(2 (2 (#))(2 (#))))))(2 (2 (#))(2 (2 (2 (#))(2 (#)))(2 (1 (1 (2 (#))(2 (#)))(1 (2 (#))(2 (2 (#))(1 (2 (#))(2 (2 (2 (#))(2 (#)))(2 (2 (#))(2 (2 (#))(2 (2 (#))(2 (2 (#))(3 (2 (#))(3 (2 (#))(2 (#)))))))))))))(2 (#)))))) |ET| 
-1  |BT| (0 (2 (2 (#))(2 (#)))(0 (1 (1 (2 (#))(2 (#)))(3 (3 (#))(3 (2 (#))(2 (3 (2 (2 (3 (#))(2 (#)))(2 (#)))(2 (#)))(3 (2 (2 (#))(2 (2 (#))(3 (#))))(3 (2 (#))(4 (3 (#))(4 (#)))))))))(2 (#)))) |ET| 
1  |BT| (3 (1 (2 (2 (2 (2 (2 (#))(2 (#)))(3 (2 (#))(2 (2 (2 (2 (#))(2 (2 (#))(2 (#))))(2 (#)))(2 (2 (#))(2 (2 (2 (#))(2 (#)))(2 (2 (#))(2 (2 (#))(2 (#)))))))))(2 (#)))(2 (#)))(2 (2 (#))(1 (2 (#))(2 (2 (#))(2 (#))))))(2 (#))) |ET| 
-1  |BT| (1 (2 (#))(2 (2 (2 (#))(3 (2 (#))(2 (2 (#))(2 (2 (#))(2 (2 (#))(2 (#)))))))(4 (3 (3 (2 (#))(3 (2 (#))(4 (2 (#))(3 (#)))))(2 (2 (#))(2 (2 (#))(2 (2 (#))(2 (2 (#))(2 (#)))))))(2 (#))))) |ET| 
1  |BT| (3 (1 (3 (3 (#))(2 (2 (#))(2 (3 (#))(2 (#)))))(1 (2 (#))(2 (#))))(2 (2 (#))(2 (1 (2 (#))(1 (2 (2 (#))(2 (#)))(2 (2 (#))(2 (4 (#))(1 (2 (#))(1 (0 (2 (#))(1 (1 (#))(2 (#))))(2 (2 (#))(2 (2 (#))(2 (#))))))))))(2 (#))))) |ET| 
-1  |BT| (1 (3 (3 (3 (3 (2 (2 (2 (2 (#))(2 (#)))(2 (#)))(2 (2 (#))(2 (2 (#))(2 (3 (#))(2 (#))))))(3 (2 (#))(4 (2 (#))(4 (#)))))(2 (#)))(2 (#)))(4 (2 (2 (2 (#))(2 (#)))(2 (#)))(3 (2 (#))(2 (2 (#))(3 (#))))))(0 (2 (#))(0 (2 (#))(0 (0 (1 (2 (#))(0 (2 (#))(1 (3 (#))(1 (#)))))(1 (2 (#))(1 (2 (2 (2 (#))(2 (#)))(2 (2 (#))(2 (2 (#))(2 (#)))))(2 (2 (2 (#))(2 (2 (2 (#))(2 (2 (#))(2 (2 (#))(2 (2 (#))(2 (2 (#))(2 (#)))))))(2 (#))))(0 (2 (#))(1 (2 (#))(0 (2 (#))(1 (#)))))))))(2 (#)))))) |ET| 
1  |BT| (4 (2 (2 (3 (1 (2 (2 (#))(2 (2 (#))(2 (2 (#))(2 (#)))))(1 (3 (2 (2 (#))(2 (2 (2 (#))(3 (#)))(3 (2 (#))(2 (3 (#))(3 (2 (#))(3 (2 (#))(2 (3 (#))(2 (#)))))))))(2 (#)))(1 (#))))(2 (#)))(2 (#)))(3 (3 (2 (2 (2 (2 (2 (#))(2 (#)))(2 (2 (#))(2 (2 (#))(2 (#)))))(2 (#)))(2 (2 (#))(2 (2 (#))(2 (2 (2 (2 (#))(3 (#)))(2 (#)))(3 (#))))))(2 (#)))(2 (2 (#))(3 (2 (#))(3 (2 (#))(4 (2 (#))(3 (3 (#))(2 (#)))))))))(2 (#))) |ET| 
-1  |BT| (1 (2 (2 (#))(2 (#)))(2 (3 (3 (3 (2 (#))(2 (#)))(2 (#)))(1 (3 (2 (#))(2 (3 (2 (#))(2 (2 (2 (#))(2 (#)))(3 (2 (#))(2 (2 (2 (#))(3 (3 (2 (#))(4 (#)))(2 (#))))(2 (2 (#))(2 (2 (#))(2 (#))))))))(2 (#))))(2 (2 (#))(2 (2 (#))(3 (2 (#))(2 (2 (2 (2 (#))(2 (#)))(2 (#)))(2 (2 (#))(2 (2 (#))(3 (#))))))))))(2 (#)))) |ET| 
1  |BT| (3 (4 (3 (#))(2 (#)))(2 (1 (2 (2 (#))(2 (#)))(1 (2 (#))(1 (2 (#))(1 (2 (#))(2 (2 (#))(2 (#)))))))(2 (#)))) |ET| 
-1  |BT| (0 (2 (2 (#))(2 (2 (#))(2 (2 (#))(3 (2 (3 (2 (#))(2 (#)))(2 (#)))(2 (2 (2 (#))(2 (#)))(2 (2 (2 (#))(2 (2 (2 (#))(3 (2 (#))(3 (#))))(2 (2 (#))(2 (#)))))(4 (3 (3 (3 (4 (4 (#))(2 (#)))(3 (2 (#))(3 (#))))(2 (#)))(2 (#)))(3 (2 (#))(3 (3 (#))(3 (#)))))))))))(0 (2 (#))(1 (2 (2 (#))(2 (#)))(1 (2 (#))(1 (2 (#))(2 (0 (#))(2 (#)))))))) |ET| 
1  |BT| (3 (3 (2 (2 (#))(2 (2 (#))(2 (#))))(2 (3 (#))(2 (#))))(0 (1 (2 (#))(1 (2 (2 (#))(2 (2 (#))(1 (2 (#))(2 (2 (#))(1 (#))))))(2 (2 (#))(2 (2 (2 (#))(2 (2 (#))(1 (#))))(3 (2 (#))(2 (2 (#))(2 (2 (#))(2 (#)))))))))(2 (#)))) |ET| 
-1  |BT| (1 (2 (#))(1 (3 (2 (#))(3 (2 (2 (2 (#))(2 (4 (#))(2 (#))))(2 (2 (2 (2 (#))(2 (#)))(2 (2 (#))(2 (#))))(2 (#))))(4 (2 (#))(4 (4 (2 (#))(3 (2 (#))(4 (#))))(2 (2 (#))(2 (2 (#))(2 (2 (#))(1 (#)))))))))(1 (2 (#))(1 (2 (2 (2 (#))(2 (#)))(2 (2 (#))(2 (2 (#))(2 (#)))))(1 (1 (#))(2 (#))))))) |ET| 
1  |BT| (3 (3 (3 (2 (#))(3 (4 (#))(1 (2 (#))(2 (2 (#))(2 (#))))))(2 (2 (#))(2 (3 (3 (3 (2 (#))(2 (2 (#))(2 (2 (#))(2 (2 (#))(2 (2 (#))(2 (2 (#))(2 (2 (#))(2 (#)))))))))(2 (#)))(2 (#)))(1 (3 (2 (#))(1 (#)))(1 (2 (#))(1 (2 (#))(2 (1 (#))(2 (3 (2 (#))(3 (2 (#))(3 (#))))(2 (#))))))))))(2 (#))) |ET| 
-1  |BT| (1 (0 (1 (#))(3 (3 (#))(3 (2 (2 (#))(2 (#)))(2 (#)))))(2 (#))) |ET| 
1  |BT| (3 (2 (2 (1 (2 (2 (2 (#))(2 (#)))(2 (2 (#))(2 (2 (#))(2 (2 (#))(2 (2 (#))(2 (#)))))))(2 (#)))(2 (#)))(2 (2 (#))(2 (2 (#))(2 (1 (#))(2 (#))))))(2 (#))) |ET| 
-1  |BT| (1 (1 (2 (2 (3 (2 (2 (#))(2 (2 (2 (2 (#))(2 (2 (#))(3 (2 (#))(2 (#)))))(2 (#)))(2 (2 (#))(2 (#)))))(3 (2 (2 (#))(2 (#)))(3 (2 (#))(3 (2 (2 (2 (#))(2 (#)))(2 (#)))(2 (2 (#))(4 (2 (2 (2 (#))(2 (#)))(2 (2 (#))(2 (2 (#))(2 (2 (#))(2 (#))))))(3 (2 (2 (#))(2 (#)))(3 (2 (2 (#))(2 (#)))(3 (#))))))))))(2 (#)))(2 (#)))(2 (2 (2 (#))(2 (#)))(2 (2 (#))(1 (3 (2 (#))(2 (#)))(2 (2 (#))(2 (2 (#))(2 (2 (#))(1 (2 (#))(2 (2 (#))(2 (#)))))))))))(2 (#))) |ET| 
1  |BT| (3 (2 (2 (#))(2 (2 (#))(2 (1 (1 (2 (#))(1 (1 (2 (#))(1 (#)))(1 (1 (2 (2 (1 (#))(2 (#)))(2 (2 (#))(3 (#))))(3 (#)))(2 (#)))))(2 (#)))(2 (2 (#))(2 (#))))))(2 (3 (2 (#))(3 (2 (#))(2 (#))))(2 (#)))) |ET| 
-1  |BT| (1 (2 (2 (#))(2 (#)))(3 (1 (3 (2 (#))(2 (#)))(2 (2 (#))(2 (3 (#))(2 (2 (#))(3 (1 (2 (#))(1 (2 (#))(3 (2 (#))(3 (2 (#))(1 (1 (#))(2 (#)))))))(2 (2 (#))(3 (2 (#))(2 (2 (#))(2 (#))))))))))(2 (#)))) |ET| 
1  |BT| (4 (1 (2 (#))(2 (2 (#))(2 (2 (#))(2 (2 (#))(2 (#))))))(3 (2 (#))(3 (2 (2 (2 (#))(2 (2 (#))(2 (#))))(2 (#)))(3 (3 (3 (2 (2 (2 (#))(2 (2 (#))(2 (#))))(3 (4 (#))(2 (2 (#))(2 (#)))))(2 (#)))(1 (2 (#))(2 (2 (#))(2 (2 (#))(1 (2 (#))(2 (2 (#))(2 (2 (0 (#))(0 (2 (#))(2 (2 (#))(0 (2 (#))(1 (#))))))(2 (2 (#))(2 (2 (#))(2 (2 (#))(2 (2 (#))(2 (2 (#))(2 (#))))))))))))))(2 (#)))))) |ET| 
-1  |BT| (1 (2 (2 (2 (#))(2 (#)))(2 (2 (#))(2 (2 (#))(2 (2 (2 (#))(2 (2 (#))(2 (#))))(2 (2 (#))(2 (2 (#))(2 (2 (#))(3 (3 (#))(2 (2 (#))(2 (2 (#))(2 (#))))))))))))(2 (2 (2 (2 (#))(2 (#)))(2 (3 (#))(2 (2 (#))(1 (2 (2 (2 (#))(2 (#)))(2 (#)))(2 (2 (2 (#))(2 (2 (#))(2 (#))))(2 (2 (#))(2 (3 (#))(1 (2 (#))(1 (2 (#))(2 (2 (#))(2 (2 (#))(2 (2 (#))(2 (2 (#))(2 (2 (#))(2 (2 (#))(2 (2 (#))(2 (#))))))))))))))))))(2 (#)))) |ET| 
1  |BT| (3 (2 (#))(2 (1 (2 (#))(0 (1 (2 (1 (1 (1 (#))(3 (2 (#))(3 (#))))(2 (#)))(2 (#)))(2 (#)))(2 (3 (2 (#))(2 (3 (2 (3 (3 (2 (#))(4 (#)))(2 (#)))(2 (#)))(2 (2 (#))(2 (#))))(2 (2 (#))(2 (2 (#))(2 (#))))))(2 (#)))))(3 (2 (#))(3 (2 (#))(3 (3 (1 (2 (#))(2 (#)))(0 (#)))(2 (#))))))) |ET| 
-1  |BT| (1 (2 (3 (3 (2 (2 (2 (#))(1 (2 (#))(2 (#))))(2 (#)))(3 (3 (2 (#))(2 (#)))(3 (2 (#))(3 (2 (#))(3 (#))))))(2 (#)))(2 (2 (#))(2 (2 (#))(1 (2 (#))(2 (2 (#))(2 (#)))))))(2 (#))) |ET| 
1  |BT| (3 (2 (2 (#))(2 (#)))(2 (3 (2 (#))(2 (2 (#))(2 (2 (2 (#))(2 (#)))(2 (2 (#))(2 (3 (2 (#))(3 (#)))(2 (2 (#))(1 (2 (#))(2 (2 (#))(2 (2 (2 (#))(2 (#)))(2 (2 (#))(2 (2 (2 (2 (2 (#))(2 (#)))(2 (#)))(2 (2 (#))(2 (2 (#))(2 (2 (#))(2 (2 (#))(2 (#)))))))(1 (2 (2 (#))(1 (#)))(2 (2 (#))(2 (2 (#))(2 (2 (#))(2 (#)))))))))))))))))(2 (#)))) |ET| 
-1  |BT| (1 (3 (2 (#))(2 (2 (#))(2 (2 (#))(2 (2 (#))(2 (2 (2 (#))(2 (#)))(2 (2 (#))(2 (2 (#))(2 (2 (1 (#))(2 (2 (#))(2 (2 (#))(2 (#)))))(2 (#))))))))))(1 (2 (#))(1 (2 (#))(3 (2 (#))(2 (2 (#))(2 (2 (2 (#))(2 (2 (#))(2 (2 (3 (#))(2 (#)))(2 (#)))))(2 (#)))))))) |ET| 
1  |BT| (3 (2 (2 (1 (1 (2 (#))(1 (1 (1 (2 (2 (#))(2 (#)))(2 (#)))(2 (#)))(2 (2 (#))(1 (2 (#))(2 (2 (#))(2 (#)))))))(2 (#)))(2 (#)))(3 (2 (1 (#))(0 (2 (2 (#))(2 (2 (#))(2 (#))))(1 (0 (#))(2 (#)))))(3 (2 (#))(3 (2 (2 (#))(2 (2 (#))(2 (#))))(3 (#))))))(2 (#))) |ET| 
-1  |BT| (0 (2 (2 (#))(2 (3 (#))(2 (#))))(2 (2 (2 (2 (#))(2 (2 (#))(2 (#))))(2 (#)))(2 (3 (#))(2 (#))))) |ET| 
1  |BT| (3 (3 (3 (3 (3 (2 (2 (2 (2 (2 (#))(2 (#)))(2 (#)))(2 (2 (#))(2 (2 (#))(2 (2 (#))(2 (#))))))(2 (2 (2 (2 (#))(2 (2 (#))(2 (3 (#))(2 (#)))))(2 (2 (2 (2 (#))(2 (#)))(2 (#)))(2 (2 (#))(2 (#)))))(2 (#))))(2 (2 (#))(3 (3 (2 (#))(2 (3 (#))(2 (#))))(2 (2 (#))(2 (2 (2 (#))(2 (#)))(2 (#)))))))(2 (#)))(2 (#)))(2 (2 (#))(2 (2 (2 (#))(2 (#)))(2 (2 (#))(2 (2 (2 (#))(2 (#)))(2 (2 (#))(2 (2 (2 (#))(2 (#)))(2 (2 (#))(2 (2 (#))(2 (1 (#))(2 (#))))))))))))(2 (#))) |ET| 
-1  |BT| (0 (2 (#))(2 (1 (2 (2 (2 (#))(2 (#)))(2 (#)))(2 (3 (2 (2 (#))(2 (2 (#))(2 (2 (#))(2 (2 (#))(2 (2 (#))(2 (#)))))))(2 (#)))(2 (2 (#))(2 (2 (#))(2 (2 (#))(2 (2 (2 (#))(2 (#)))(2 (2 (#))(1 (2 (#))(2 (#))))))))))(2 (2 (2 (#))(2 (2 (#))(2 (2 (2 (#))(2 (#)))(3 (#)))))(2 (#))))) |ET| 
1  |BT| (3 (3 (1 (1 (0 (2 (#))(1 (1 (1 (1 (#))(2 (#)))(2 (#)))(3 (2 (#))(4 (2 (#))(3 (#))))))(2 (#)))(2 (#)))(4 (2 (#))(4 (2 (#))(4 (3 (#))(2 (2 (#))(2 (4 (#))(2 (#))))))))(2 (#))) |ET| 
-1  |BT| (1 (2 (#))(1 (0 (2 (#))(1 (1 (1 (#))(2 (#)))(3 (2 (#))(3 (3 (2 (2 (#))(2 (#)))(4 (2 (#))(4 (4 (#))(4 (2 (#))(3 (3 (#))(2 (3 (#))(2 (#))))))))(2 (2 (#))(0 (2 (#))(1 (2 (#))(1 (1 (#))(2 (#))))))))))(2 (#)))) |ET| 
1  |BT| (3 (3 (2 (2 (3 (2 (2 (#))(2 (#)))(2 (2 (#))(2 (2 (#))(3 (2 (2 (#))(2 (#)))(2 (2 (#))(2 (2 (#))(2 (2 (#))(2 (#)))))))))(2 (#)))(2 (#)))(2 (2 (2 (#))(2 (2 (#))(2 (2 (#))(2 (2 (#))(2 (2 (2 (2 (#))(3 (#)))(2 (2 (#))(2 (#))))(2 (2 (2 (#))(2 (#)))(2 (2 (#))(2 (#)))))))))(2 (2 (#))(2 (2 (2 (#))(2 (#)))(1 (2 (#))(2 (2 (2 (#))(2 (#)))(2 (2 (#))(2 (2 (#))(3 (2 (#))(2 (2 (#))(2 (#))))))))))))(2 (#))) |ET| 
-1  |BT| (1 (2 (2 (#))(2 (#)))(2 (2 (2 (2 (2 (2 (2 (#))(2 (2 (#))(2 (#))))(2 (2 (#))(2 (#))))(2 (2 (#))(2 (2 (#))(2 (2 (#))(2 (#))))))(2 (#)))(3 (2 (#))(3 (2 (#))(2 (2 (2 (#))(2 (#)))(3 (3 (3 (2 (#))(3 (2 (#))(3 (#))))(2 (3 (2 (1 (#))(2 (#)))(3 (#)))(3 (#))))(2 (2 (#))(2 (#))))))))(2 (#)))) |ET| 
1  |BT| (3 (2 (#))(2 (2 (2 (#))(1 (1 (1 (#))(2 (#)))(3 (3 (#))(1 (2 (#))(2 (0 (#))(1 (2 (#))(2 (3 (3 (#))(2 (#)))(2 (#)))))))))(2 (#)))) |ET| 
-1  |BT| (1 (4 (3 (#))(3 (3 (#))(2 (#))))(1 (1 (2 (#))(2 (#)))(3 (2 (2 (#))(2 (#)))(2 (2 (#))(2 (#)))))) |ET| 
1  |BT| (3 (1 (2 (#))(0 (2 (#))(1 (2 (2 (#))(2 (2 (#))(2 (#))))(1 (2 (#))(1 (1 (2 (2 (#))(2 (1 (#))(3 (2 (#))(2 (#)))))(3 (2 (#))(3 (2 (#))(3 (2 (3 (#))(2 (#)))(2 (#))))))(2 (2 (2 (#))(2 (2 (#))(2 (#))))(2 (#))))))))(2 (2 (#))(2 (2 (#))(2 (2 (2 (#))(3 (2 (2 (#))(2 (#)))(2 (2 (#))(2 (2 (2 (#))(3 (#)))(2 (2 (#))(2 (2 (2 (2 (2 (#))(2 (#)))(2 (2 (#))(2 (#))))(2 (#)))(2 (2 (2 (#))(2 (4 (#))(2 (#))))(2 (2 (#))(2 (#))))))))))(2 (#)))))) |ET| 
-1  |BT| (1 (2 (#))(1 (1 (2 (2 (#))(2 (#)))(2 (2 (#))(2 (2 (#))(1 (2 (#))(1 (2 (#))(2 (2 (#))(1 (2 (2 (#))(2 (2 (#))(2 (2 (#))(2 (#)))))(2 (2 (#))(2 (2 (#))(2 (2 (#))(2 (2 (2 (2 (2 (2 (2 (#))(2 (2 (#))(2 (2 (#))(2 (#)))))(2 (#)))(2 (2 (2 (#))(1 (#)))(2 (2 (#))(2 (2 (#))(2 (#))))))(2 (#)))(2 (#)))(2 (2 (#))(2 (2 (#))(2 (2 (#))(2 (#))))))))))))))))(2 (#)))) |ET| 
1  |BT| (3 (4 (3 (4 (2 (#))(4 (#)))(2 (#)))(0 (2 (2 (#))(2 (#)))(1 (2 (#))(2 (2 (#))(3 (#))))))(2 (#))) |ET| 
-1  |BT| (1 (1 (3 (4 (3 (2 (#))(4 (2 (#))(4 (2 (3 (#))(2 (#)))(4 (2 (#))(4 (4 (2 (#))(3 (#)))(2 (2 (#))(3 (#))))))))(2 (#)))(2 (#)))(2 (2 (#))(2 (2 (2 (#))(2 (#)))(0 (0 (2 (#))(0 (#)))(2 (2 (#))(2 (#)))))))(2 (#))) |ET| 
1  |BT| (3 (3 (2 (#))(3 (2 (#))(3 (2 (2 (#))(2 (#)))(2 (2 (#))(2 (#))))))(2 (2 (#))(1 (2 (2 (2 (#))(2 (2 (#))(2 (2 (#))(2 (2 (#))(2 (#))))))(2 (#)))(1 (1 (2 (#))(1 (2 (2 (2 (#))(1 (1 (#))(2 (#))))(2 (2 (#))(2 (2 (#))(2 (2 (#))(2 (#))))))(2 (2 (#))(2 (1 (2 (#))(2 (2 (2 (#))(2 (2 (#))(2 (3 (#))(2 (#)))))(1 (2 (#))(1 (#)))))(2 (2 (#))(2 (#)))))))(2 (#)))))) |ET| 
-1  |BT| (1 (3 (2 (2 (3 (2 (#))(2 (2 (#))(2 (#))))(2 (#)))(3 (2 (#))(3 (3 (2 (#))(2 (2 (#))(2 (#))))(3 (2 (#))(2 (2 (#))(3 (2 (2 (#))(3 (#)))(2 (2 (#))(2 (2 (2 (#))(3 (3 (#))(2 (#))))(2 (2 (#))(2 (2 (#))(2 (2 (#))(2 (#)))))))))))))(2 (#)))(2 (1 (2 (#))(2 (2 (#))(2 (2 (2 (#))(2 (#)))(2 (#)))))(2 (#)))) |ET| 
1  |BT| (4 (4 (2 (1 (0 (2 (#))(1 (2 (#))(1 (2 (#))(2 (2 (#))(2 (#))))))(2 (#)))(2 (#)))(4 (2 (#))(4 (2 (#))(4 (2 (#))(4 (3 (#))(2 (#)))))))(2 (#))) |ET| 
-1  |BT| (0 (1 (2 (#))(1 (1 (#))(2 (2 (#))(2 (2 (#))(2 (#))))))(2 (2 (#))(1 (2 (2 (#))(3 (2 (#))(2 (2 (2 (2 (#))(2 (2 (#))(3 (2 (#))(2 (#)))))(2 (#)))(2 (2 (#))(2 (2 (#))(2 (#)))))))(2 (2 (2 (#))(2 (2 (#))(2 (2 (#))(2 (2 (#))(2 (#))))))(2 (#)))))) |ET| 
1  |BT| (3 (3 (2 (2 (2 (2 (2 (1 (2 (#))(1 (1 (2 (#))(1 (#)))(3 (2 (#))(2 (2 (#))(2 (3 (#))(2 (#)))))))(2 (#)))(2 (#)))(2 (2 (2 (#))(2 (#)))(2 (2 (2 (#))(2 (#)))(2 (2 (#))(2 (2 (2 (#))(2 (#)))(2 (2 (#))(2 (2 (2 (#))(2 (#)))(2 (#)))))))))(2 (#)))(2 (#)))(3 (2 (2 (#))(2 (#)))(3 (2 (#))(3 (3 (2 (#))(3 (3 (2 (#))(3 (#)))(2 (#))))(2 (2 (#))(3 (2 (2 (#))(2 (#)))(2 (2 (#))(2 (2 (#))(2 (#))))))))))(2 (#))) |ET| 
-1  |BT| (1 (2 (2 (2 (#))(2 (#)))(3 (2 (#))(2 (2 (2 (#))(3 (2 (#))(2 (2 (#))(2 (2 (#))(2 (#))))))(2 (2 (#))(2 (2 (#))(2 (2 (2 (#))(2 (#)))(2 (2 (#))(2 (2 (#))(2 (#))))))))))(2 (#))) |ET| 
1  |BT| (3 (3 (1 (#))(2 (2 (#))(3 (#))))(3 (2 (2 (#))(2 (2 (#))(3 (3 (2 (#))(3 (#)))(1 (2 (#))(1 (2 (#))(1 (1 (2 (#))(1 (#)))(2 (#))))))))(2 (#)))) |ET| 
-1  |BT| (1 (2 (3 (3 (2 (2 (2 (#))(2 (#)))(3 (1 (2 (2 (#))(2 (2 (#))(2 (3 (#))(1 (#)))))(2 (#)))(3 (2 (2 (#))(2 (#)))(3 (2 (#))(3 (3 (2 (#))(3 (3 (#))(2 (#))))(2 (2 (#))(2 (#))))))))(2 (#)))(2 (#)))(1 (2 (#))(1 (2 (2 (#))(3 (#)))(0 (1 (2 (#))(2 (1 (#))(2 (#))))(3 (#))))))(2 (#))) |ET| 
1  |BT| (3 (2 (2 (2 (#))(2 (#)))(2 (#)))(2 (2 (#))(1 (2 (2 (#))(2 (#)))(1 (2 (1 (2 (#))(1 (2 (2 (#))(1 (2 (#))(2 (#))))(2 (2 (#))(2 (2 (2 (#))(2 (2 (#))(2 (#))))(2 (2 (#))(2 (#)))))))(3 (2 (#))(2 (2 (#))(2 (2 (#))(2 (2 (2 (#))(2 (#)))(2 (2 (#))(2 (2 (2 (#))(3 (2 (#))(2 (#))))(2 (2 (#))(2 (2 (#))(2 (#)))))))))))(2 (#)))))) |ET| 
-1  |BT| (0 (2 (2 (#))(2 (2 (#))(2 (4 (#))(2 (2 (#))(2 (#))))))(1 (2 (#))(2 (2 (2 (2 (#))(2 (#)))(2 (#)))(2 (2 (2 (2 (2 (2 (#))(2 (#)))(2 (2 (2 (#))(2 (#)))(1 (2 (#))(1 (2 (#))(2 (#))))))(2 (#)))(2 (2 (#))(3 (2 (2 (2 (#))(2 (2 (#))(3 (#))))(2 (2 (#))(2 (#))))(3 (3 (2 (#))(3 (2 (#))(2 (3 (#))(3 (2 (#))(4 (2 (#))(3 (2 (#))(3 (2 (#))(2 (2 (#))(4 (2 (#))(3 (3 (#))(2 (2 (#))(2 (#)))))))))))))(2 (2 (#))(2 (#)))))))(2 (#)))))) |ET| 
1  |BT| (4 (3 (3 (3 (2 (#))(3 (2 (#))(3 (2 (#))(3 (2 (#))(1 (2 (2 (#))(2 (2 (#))(2 (2 (#))(2 (#)))))(3 (2 (2 (#))(2 (#)))(3 (2 (#))(2 (2 (#))(4 (2 (2 (#))(1 (#)))(1 (2 (#))(1 (2 (#))(1 (1 (0 (1 (1 (1 (1 (#))(2 (#)))(2 (#)))(2 (2 (#))(4 (#))))(2 (#)))(2 (#)))(2 (2 (#))(2 (#)))))))))))))))(2 (#)))(2 (2 (#))(2 (2 (#))(2 (2 (2 (#))(3 (2 (#))(2 (#))))(2 (2 (#))(3 (2 (#))(2 (2 (#))(2 (#)))))))))(2 (#))) |ET| 
-1  |BT| (1 (3 (2 (#))(4 (2 (#))(2 (2 (#))(3 (2 (#))(3 (2 (#))(2 (2 (#))(3 (2 (2 (#))(2 (2 (#))(2 (#))))(3 (2 (#))(2 (2 (2 (#))(2 (2 (#))(2 (#))))(2 (2 (#))(3 (2 (#))(3 (2 (3 (3 (#))(2 (#)))(2 (#)))(2 (#))))))))))))))(1 (2 (#))(1 (2 (2 (#))(2 (#)))(2 (2 (#))(3 (3 (2 (#))(2 (3 (#))(2 (#))))(2 (#))))))) |ET| 
1  |BT| (3 (2 (#))(2 (2 (2 (#))(2 (3 (2 (#))(3 (#)))(2 (2 (#))(2 (2 (#))(2 (2 (#))(1 (2 (#))(2 (2 (#))(1 (2 (2 (0 (0 (2 (#))(1 (#)))(2 (#)))(3 (2 (#))(3 (#))))(2 (#)))(1 (2 (#))(1 (#)))))))))))(2 (#)))) |ET| 
-1  |BT| (1 (2 (2 (3 (3 (2 (2 (#))(2 (#)))(3 (2 (#))(3 (3 (#))(2 (2 (#))(1 (2 (#))(2 (2 (#))(1 (1 (#))(2 (1 (#))(1 (#))))))))))(2 (#)))(2 (#)))(1 (2 (2 (#))(2 (#)))(2 (2 (2 (#))(3 (#)))(1 (1 (#))(3 (2 (#))(2 (1)))))))(2 (#))) |ET| 
1  |BT| (4 (1 (3 (2 (#))(3 (2 (#))(3 (2 (2 (#))(2 (2 (#))(2 (#))))(3 (2 (#))(3 (2 (#))(2 (#)))))))(2 (2 (#))(3 (2 (2 (#))(2 (2 (2 (#))(2 (#)))(2 (2 (#))(2 (2 (#))(2 (#))))))(2 (2 (#))(1 (3 (2 (#))(2 (2 (#))(2 (#))))(2 (2 (#))(2 (2 (#))(2 (#)))))))))(2 (#))) |ET| 
-1  |BT| (1 (2 (2 (#))(2 (#)))(1 (2 (#))(2 (2 (3 (1 (2 (#))(2 (2 (#))(2 (2 (2 (#))(2 (2 (#))(2 (#))))(2 (2 (#))(2 (2 (#))(2 (#)))))))(2 (#)))(2 (2 (#))(2 (2 (#))(2 (2 (#))(2 (2 (4 (#))(2 (#)))(2 (2 (#))(2 (2 (#))(2 (2 (#))(2 (2 (#))(2 (2 (#))(2 (3 (2 (#))(2 (#)))(2 (#)))))))))))))(2 (#))))) |ET| 
1  |BT| (3 (2 (2 (#))(2 (#)))(2 (2 (#))(3 (1 (2 (#))(1 (2 (1 (2 (#))(1 (1 (#))(2 (#))))(2 (#)))(0 (2 (#))(2 (3 (#))(1 (2 (#))(1 (2 (#))(2 (2 (#))(2 (3 (#))(2 (#))))))))))(3 (2 (#))(3 (2 (2 (#))(3 (2 (2 (#))(2 (#)))(4 (#))))(2 (#))))))) |ET| 
-1  |BT| (1 (2 (3 (3 (3 (3 (2 (#))(3 (4 (#))(2 (2 (#))(3 (4 (#))(2 (#))))))(2 (#)))(2 (#)))(2 (#)))(1 (2 (2 (#))(1 (2 (#))(3 (2 (#))(3 (2 (#))(4 (4 (2 (#))(4 (#)))(2 (2 (#))(2 (2 (#))(2 (#)))))))))(1 (2 (#))(1 (2 (2 (#))(2 (#)))(0 (1 (3 (#))(2 (#)))(2 (2 (#))(2 (2 (#))(2 (#)))))))))(2 (#))) |ET| 
1  |BT| (3 (2 (2 (#))(2 (2 (#))(2 (3 (#))(2 (2 (#))(2 (2 (#))(2 (2 (2 (2 (2 (#))(2 (2 (#))(1 (2 (#))(2 (#)))))(2 (#)))(2 (#)))(2 (#))))))))(1 (1 (2 (#))(2 (2 (2 (2 (#))(2 (#)))(2 (#)))(2 (2 (#))(2 (3 (#))(3 (#))))))(2 (#)))) |ET| 
-1  |BT| (1 (2 (#))(1 (1 (2 (2 (#))(2 (#)))(1 (2 (#))(2 (2 (#))(3 (2 (#))(2 (2 (#))(2 (2 (2 (2 (#))(2 (2 (#))(2 (2 (2 (#))(2 (2 (#))(2 (#))))(1 (2 (#))(2 (#))))))(2 (#)))(2 (2 (2 (#))(2 (#)))(2 (2 (2 (#))(2 (#)))(2 (#))))))))))(3 (2 (2 (#))(2 (3 (2 (#))(2 (2 (#))(2 (2 (2 (#))(2 (#)))(2 (#)))))(2 (2 (#))(2 (3 (3 (3 (2 (3 (#))(2 (#)))(2 (#)))(2 (#)))(2 (#)))(2 (2 (#))(2 (2 (2 (2 (#))(3 (3 (2 (#))(3 (2 (#))(4 (3 (#))(2 (#)))))(3 (#))))(2 (#)))(3 (#))))))))(2 (#))))) |ET| 
1  |BT| (3 (1 (2 (#))(1 (3 (2 (#))(3 (#)))(2 (2 (#))(1 (#)))))(2 (2 (#))(3 (2 (#))(3 (3 (2 (#))(3 (3 (#))(3 (2 (#))(2 (2 (2 (2 (2 (2 (#))(2 (#)))(2 (#)))(2 (2 (#))(1 (1 (0 (#))(2 (#)))(2 (#)))))(2 (#)))(3 (2 (#))(3 (2 (#))(2 (4 (#))(2 (#)))))))))(2 (#)))))) |ET| 
-1  |BT| (0 (1 (2 (#))(1 (1 (#))(2 (2 (#))(3 (2 (#))(3 (2 (#))(4 (2 (#))(4 (3 (#))(2 (3 (#))(2 (#))))))))))(2 (3 (#))(2 (#)))) |ET| 
1  |BT| (4 (2 (#))(3 (3 (2 (#))(3 (3 (2 (#))(2 (#)))(2 (2 (#))(2 (2 (2 (#))(2 (#)))(2 (1 (2 (1 (2 (2 (2 (#))(2 (2 (#))(2 (2 (#))(2 (#)))))(2 (#)))(2 (2 (2 (2 (#))(2 (2 (#))(2 (#))))(1 (#)))(2 (2 (#))(2 (2 (#))(2 (#))))))(2 (#)))(2 (#)))(2 (2 (#))(2 (2 (#))(2 (2 (#))(2 (2 (#))(2 (#)))))))))))(2 (#)))) |ET| 
-1  |BT| (0 (2 (#))(1 (2 (#))(2 (2 (2 (#))(1 (2 (#))(2 (2 (2 (#))(2 (#)))(2 (2 (#))(2 (2 (#))(2 (2 (#))(2 (2 (3 (#))(2 (#)))(2 (2 (#))(1 (2 (#))(2 (2 (2 (3 (2 (#))(2 (2 (#))(2 (#))))(2 (#)))(2 (#)))(2 (2 (#))(2 (2 (#))(2 (2 (#))(2 (2 (#))(2 (1 (#))(3 (2 (#))(2 (2 (#))(2 (2 (#))(2 (2 (#))(2 (2 (#))(2 (2 (#))(2 (#)))))))))))))))))))))))(2 (#))))) |ET| 
1  |BT| (4 (2 (3 (1 (3 (2 (#))(2 (2 (2 (#))(3 (2 (#))(3 (#))))(2 (2 (#))(3 (3 (2 (#))(3 (4 (#))(3 (#))))(2 (2 (#))(2 (2 (2 (#))(2 (#)))(3 (2 (#))(1 (2 (2 (#))(3 (#)))(1 (2 (#))(1 (3 (2 (#))(2 (#)))(1 (2 (#))(1 (2 (#))(2 (2 (#))(1 (1 (#))(0 (#))))))))))))))))(2 (#)))(2 (#)))(2 (2 (2 (#))(2 (#)))(2 (2 (#))(3 (#)))))(2 (#))) |ET| 
-1  |BT| (0 (3 (2 (2 (#))(2 (2 (#))(2 (#))))(3 (2 (#))(3 (2 (#))(3 (2 (#))(3 (3 (2 (4 (#))(2 (#)))(2 (#)))(2 (#)))))))(0 (2 (1 (1 (#))(3 (2 (#))(2 (#))))(2 (2 (#))(2 (2 (#))(2 (#)))))(2 (#)))) |ET| 
1  |BT| (3 (2 (#))(3 (1 (1 (#))(2 (2 (#))(2 (2 (#))(2 (2 (#))(2 (2 (#))(2 (2 (#))(2 (2 (#))(1 (1 (1 (2 (#))(2 (2 (#))(2 (2 (#))(2 (#)))))(2 (#)))(1 (2 (#))(2 (2 (#))(3 (2 (#))(2 (2 (#))(1 (2 (#))(2 (2 (#))(1 (2 (#))(1 (2 (#))(2 (1 (#))(2 (2 (#))(2 (3 (#))(1 (2 (#))(0 (2 (#))(2 (2 (#))(3 (#))))))))))))))))))))))))(2 (#)))) |ET| 
-1  |BT| (1 (1 (1 (1 (2 (2 (2 (#))(2 (3 (#))(2 (#))))(2 (2 (2 (#))(2 (2 (#))(3 (#))))(3 (#))))(2 (#)))(2 (#)))(0 (3 (2 (2 (#))(2 (2 (#))(2 (#))))(2 (2 (#))(2 (2 (#))(2 (2 (2 (#))(2 (2 (#))(2 (#))))(2 (#))))))(2 (2 (#))(1 (3 (#))(1 (#))))))(2 (#))) |ET| 
1  |BT| (3 (1 (2 (#))(1 (2 (#))(1 (2 (#))(1 (3 (2 (#))(2 (2 (#))(3 (#))))(0 (2 (#))(0 (1 (1 (1 (#))(2 (2 (#))(2 (#))))(2 (#)))(2 (2 (#))(3 (#)))))))))(3 (2 (#))(4 (2 (#))(3 (2 (2 (#))(2 (#)))(3 (2 (#))(3 (3 (2 (2 (#))(3 (2 (#))(3 (#))))(2 (2 (#))(2 (2 (#))(2 (2 (#))(2 (2 (#))(2 (2 (#))(2 (2 (#))(2 (2 (#))(3 (3 (#))(2 (2 (#))(2 (#))))))))))))(2 (#)))))))) |ET| 
-1  |BT| (1 (2 (2 (#))(1 (1 (#))(3 (2 (#))(2 (2 (2 (#))(3 (2 (#))(3 (2 (#))(3 (2 (1 (#))(2 (#)))(2 (2 (4 (#))(2 (#)))(1 (#)))))))(2 (2 (#))(2 (2 (#))(3 (2 (#))(3 (#)))))))))(3 (3 (2 (2 (2 (2 (#))(2 (#)))(2 (2 (#))(2 (#))))(2 (#)))(3 (2 (#))(2 (2 (#))(2 (#)))))(2 (#)))) |ET| 
1  |BT| (4 (2 (2 (#))(2 (2 (#))(3 (#))))(1 (2 (#))(3 (2 (#))(2 (3 (2 (#))(1 (2 (#))(2 (3 (#))(2 (2 (#))(1 (2 (2 (#))(2 (2 (#))(2 (#))))(2 (2 (#))(2 (#))))))))(2 (#)))))) |ET| 
-1  |BT| (0 (2 (#))(1 (1 (1 (2 (#))(1 (#)))(4 (2 (#))(3 (2 (#))(4 (2 (2 (#))(2 (#)))(4 (2 (#))(3 (2 (#))(3 (2 (#))(2 (2 (#))(3 (2 (#))(1 (2 (#))(2 (2 (#))(1 (2 (#))(2 (2 (#))(2 (2 (#))(2 (2 (#))(2 (2 (#))(2 (#))))))))))))))))))(2 (#)))) |ET| 
1  |BT| (3 (2 (2 (#))(2 (2 (#))(2 (2 (#))(2 (2 (#))(2 (2 (#))(2 (2 (#))(2 (1 (#))(2 (2 (#))(2 (#))))))))))(3 (2 (#))(3 (2 (#))(3 (3 (2 (#))(2 (2 (#))(3 (1 (#))(2 (3 (#))(1 (2 (#))(1 (0 (1 (1 (2 (#))(0 (2 (#))(1 (#))))(2 (#)))(1 (2 (#))(1 (#))))(2 (#))))))))(2 (#)))))) |ET| 
-1  |BT| (1 (2 (#))(1 (1 (2 (#))(1 (2 (#))(2 (2 (#))(3 (3 (#))(2 (2 (#))(3 (2 (2 (#))(2 (#)))(3 (2 (#))(2 (2 (2 (#))(1 (2 (#))(2 (3 (#))(1 (#)))))(2 (1 (2 (#))(2 (#)))(3 (2 (#))(2 (2 (2 (#))(1 (2 (1 (#))(3 (#)))(2 (#))))(2 (2 (#))(2 (2 (#))(2 (1 (#))(2 (2 (#))(2 (2 (#))(2 (2 (#))(3 (2 (3 (2 (#))(2 (4 (#))(2 (2 (#))(2 (2 (#))(2 (2 (22#))(2 (#)))))))(2 (#)))(3 (2 (#))(3 (4 (2 (#))(4 (4 (#))(2 (2 (#))(2 (#)))))(2 (2 (1#))(2 (#)))))))))))))))))))))))(2 (#)))) |ET| 
1  |BT| (3 (3 (2 (2 (2 (1 (#))(2 (2 (#))(2 (2 (#))(1 (2 (2 (#))(1 (#)))(1 (2 (#))(1 (2 (#))(2 (2 (#))(4 (2 (2 (#))(2 (2 (#))(2 (#))))(3 (#))))))))))(2 (#)))(2 (#)))(2 (2 (#))(3 (2 (2 (#))(2 (#)))(3 (2 (2 (#))(2 (#)))(4 (2 (2 (3 (#))(2 (#)))(2 (#)))(2 (2 (#))(2 (2 (#))(2 (2 (#))(2 (#))))))))))(2 (#))) |ET| 
-1  |BT| (1 (3 (2 (#))(4 (4 (4 (2 (#))(4 (4 (#))(2 (#))))(2 (2 (#))(2 (2 (2 (#))(2 (#)))(2 (#)))))(2 (2 (#))(2 (2 (#))(2 (#))))))(1 (2 (#))(2 (2 (2 (2 (#))(2 (#)))(2 (2 (#))(2 (#))))(0 (1 (2 (#))(0 (1 (#))(2 (#))))(2 (#)))))) |ET| 
1  |BT| (3 (2 (2 (0 (1 (#))(1 (2 (#))(1 (1 (#))(2 (#)))))(3 (2 (#))(3 (3 (#))(2 (#)))))(2 (2 (1 (#))(2 (#)))(1 (2 (3 (2 (#))(3 (2 (2 (#))(2 (#)))(2 (#))))(2 (2 (#))(2 (#))))(2 (2 (#))(2 (2 (2 (#))(2 (#)))(2 (2 (#))(2 (2 (#))(2 (2 (#))(2 (#))))))))))(2 (#))) |ET| 
-1  |BT| (0 (2 (#))(1 (2 (#))(3 (3 (2 (2 (#))(3 (#)))(4 (2 (#))(3 (3 (2 (#))(3 (4 (#))(2 (#))))(2 (2 (#))(2 (#))))))(1 (2 (#))(2 (1 (1 (2 (#))(2 (#)))(2 (2 (#))(2 (2 (#))(2 (2 (#))(2 (2 (#))(3 (2 (#))(2 (#))))))))(2 (#))))))) |ET| 
1  |BT| (3 (2 (#))(2 (2 (1 (2 (1 (2 (2 (#))(1 (#)))(2 (2 (#))(2 (2 (#))(2 (3 (#))(2 (#))))))(2 (2 (#))(2 (2 (#))(2 (#)))))(2 (#)))(2 (2 (1 (#))(2 (2 (#))(2 (#))))(3 (2 (#))(2 (2 (#))(2 (2 (2 (#))(2 (#)))(2 (2 (#))(2 (2 (#))(2 (2 (#))(2 (2 (#))(2 (#)))))))))))(2 (#)))) |ET| 
-1  |BT| (1 (2 (2 (#))(2 (2 (2 (2 (#))(2 (2 (#))(2 (#))))(2 (2 (#))(2 (2 (#))(2 (2 (2 (3 (4 (#))(2 (#)))(2 (#)))(2 (#)))(2 (2 (#))(2 (2 (2 (#))(2 (2 (#))(2 (#))))(1 (#))))))))(1 (2 (#))(2 (2 (#))(2 (3 (#))(2 (#)))))))(2 (#))) |ET| 
1  |BT| (3 (1 (1 (0 (1 (2 (3 (#))(2 (2 (#))(2 (2 (#))(2 (2 (#))(2 (#))))))(1 (2 (#))(1 (2 (2 (#))(3 (#)))(0 (2 (#))(2 (1 (1 (2 (#))(2 (#)))(2 (#)))(1 (2 (#))(1 (#))))))))(2 (#)))(2 (#)))(3 (3 (3 (2 (#))(3 (3 (#))(2 (#))))(2 (2 (#))(2 (2 (2 (2 (2 (#))(2 (2 (#))(2 (#))))(3 (2 (#))(2 (#))))(2 (#)))(3 (1 (2 (#))(2 (2 (#))(2 (#))))(2 (#))))))(3 (2 (#))(2 (2 (#))(2 (3 (2 (#))(3 (#)))(2 (2 (#))(2 (#))))))))(2 (#))) |ET| 
-1  |BT| (1 (2 (#))(2 (2 (3 (#))(2 (2 (2 (#))(2 (#)))(1 (2 (#))(2 (3 (3 (3 (2 (2 (#))(2 (2 (#))(2 (3 (#))(2 (#)))))(4 (2 (#))(4 (2 (#))(3 (#)))))(2 (#)))(2 (#)))(1 (1 (#))(3 (2 (#))(2 (3 (#))(3 (2 (2 (#))(2 (#)))(3 (2 (#))(3 (2 (#))(2 (2 (#))(2 (2 (#))(2 (#))))))))))))))(2 (#)))) |ET| 
1  |BT| (3 (2 (2 (#))(2 (2 (#))(2 (2 (#))(2 (2 (#))(2 (#))))))(1 (2 (#))(1 (3 (2 (#))(2 (#)))(2 (2 (2 (#))(1 (2 (#))(1 (2 (#))(2 (2 (2 (2 (2 (#))(2 (#)))(2 (2 (#))(2 (#))))(2 (#)))(1 (2 (3 (2 (#))(2 (#)))(2 (2 (#))(2 (#))))(1 (2 (#))(1 (2 (2 (#))(2 (#)))(2 (#)))))))))(2 (#)))))) |ET| 
-1  |BT| (1 (2 (2 (3 (2 (#))(2 (2 (#))(2 (2 (2 (#))(2 (#)))(2 (2 (#))(2 (2 (#))(3 (2 (#))(2 (2 (#))(3 (#)))))))))(2 (#)))(2 (2 (#))(0 (2 (#))(1 (1 (#))(2 (2 (#))(2 (#)))))))(2 (#))) |ET| 
1  |BT| (3 (2 (2 (2 (#))(2 (2 (#))(2 (#))))(2 (#)))(2 (1 (2 (3 (2 (3 (#))(3 (2 (#))(3 (#))))(2 (2 (#))(2 (2 (#))(2 (#)))))(2 (#)))(2 (3 (2 (#))(3 (2 (#))(3 (2 (#))(3 (#)))))(0 (2 (#))(1 (2 (#))(1 (3 (#))(2 (#)))))))(2 (#)))) |ET| 
-1  |BT| (1 (2 (2 (#))(2 (2 (#))(3 (#))))(3 (2 (2 (#))(2 (2 (#))(2 (2 (2 (2 (#))(2 (#)))(2 (2 (#))(2 (2 (#))(2 (2 (#))(2 (#))))))(1 (2 (#))(2 (2 (#))(2 (3 (2 (#))(2 (2 (#))(3 (#))))(3 (2 (#))(3 (3 (3 (3 (#))(2 (2 (#))(2 (#))))(2 (#)))(3 (3 (#))(2 (#)))))))))))(2 (#)))) |ET| 
1  |BT| (3 (2 (1 (1 (1 (2 (2 (2 (#))(2 (#)))(2 (#)))(2 (2 (#))(1 (2 (2 (#))(2 (#)))(2 (2 (#))(1 (2 (#))(1 (1 (#))(2 (#))))))))(2 (#)))(2 (#)))(3 (2 (2 (#))(2 (#)))(2 (2 (#))(2 (2 (#))(3 (2 (#))(2 (2 (#))(2 (#))))))))(2 (#))) |ET| 
-1  |BT| (1 (2 (2 (2 (#))(2 (#)))(2 (2 (#))(2 (2 (#))(2 (#)))))(1 (3 (3 (#))(1 (2 (#))(2 (2 (#))(1 (4 (3 (2 (2 (#))(1 (2 (#))(2 (#))))(2 (2 (#))(3 (2 (#))(2 (#)))))(2 (#)))(2 (2 (2 (#))(1 (1 (#))(2 (1 (#))(2 (#)))))(2 (1 (1 (2 (#))(1 (0 (#))(2 (2 (#))(3 (2 (#))(3 (#))))))(2 (#)))(3 (2 (#))(3 (3 (#))(1 (2 (#))(1 (2 (#))(0 (#))))))))))))(2 (#)))) |ET| 
1  |BT| (4 (2 (2 (2 (2 (2 (1 (#))(2 (2 (#))(2 (#))))(2 (2 (#))(2 (2 (#))(2 (2 (#))(1 (3 (3 (2 (#))(2 (2 (#))(3 (#))))(2 (#)))(2 (2 (#))(2 (#))))))))(2 (#)))(2 (#)))(2 (2 (2 (#))(2 (2 (#))(2 (#))))(3 (2 (2 (#))(2 (#)))(3 (2 (2 (#))(3 (#)))(3 (2 (#))(3 (2 (#))(2 (#))))))))(2 (#))) |ET| 
-1  |BT| (1 (1 (2 (2 (2 (3 (2 (2 (#))(2 (#)))(2 (2 (#))(2 (2 (#))(3 (2 (#))(2 (#))))))(3 (2 (#))(2 (2 (#))(2 (2 (2 (#))(2 (#)))(3 (3 (#))(2 (#)))))))(2 (#)))(2 (#)))(2 (2 (#))(2 (2 (2 (2 (#))(2 (#)))(2 (#)))(2 (3 (3 (#))(2 (2 (#))(2 (2 (#))(2 (2 (#))(3 (#))))))(2 (2 (#))(3 (2 (2 (#))(2 (#)))(2 (2 (#))(2 (2 (#))(2 (2 (#))(2 (2 (#))(2 (#))))))))))))(2 (#))) |ET| 
1  |BT| (3 (1 (2 (3 (3 (2 (#))(4 (2 (#))(3 (2 (#))(3 (3 (#))(1 (2 (#))(2 (2 (#))(3 (2 (#))(1 (2 (#))(1 (2 (#))(2 (2 (#))(2 (2 (#))(2 (2 (#))(2 (#))))))))))))))(2 (#)))(2 (#)))(0 (3 (2 (#))(4 (#)))(0 (1 (#))(1 (2 (2 (#))(2 (2 (#))(2 (2 (2 (#))(1 (#)))(2 (#)))))(1 (2 (#))(1 (2 (#))(2 (2 (#))(1 (2 (1 (#))(2 (#)))(2 (#))))))))))(2 (#))) |ET| 
-1  |BT| (1 (2 (#))(2 (3 (2 (#))(3 (2 (#))(3 (3 (2 (#))(3 (2 (#))(3 (2 (#))(2 (#)))))(1 (2 (#))(1 (2 (2 (2 (2 (#))(2 (2 (#))(2 (#))))(1 (#)))(2 (#)))(2 (2 (#))(2 (2 (#))(1 (2 (#))(1 (1 (2 (#))(2 (#)))(2 (2 (#))(2 (#))))))))))))(2 (#)))) |ET| 
1  |BT| (3 (3 (1 (1 (2 (2 (#))(2 (2 (2 (2 (2 (#))(2 (#)))(2 (2 (#))(2 (2 (2 (#))(2 (2 (#))(2 (#))))(3 (#)))))(2 (#)))(3 (#))))(0 (2 (#))(1 (2 (#))(1 (2 (#))(2 (2 (2 (#))(2 (#)))(1 (#)))))))(2 (#)))(3 (2 (2 (#))(2 (2 (2 (#))(2 (#)))(2 (2 (#))(3 (2 (2 (#))(2 (#)))(2 (2 (#))(2 (2 (#))(2 (2 (1 (#))(3 (#)))(2 (2 (#))(2 (#))))))))))(2 (2 (#))(3 (2 (#))(2 (2 (#))(2 (2 (#))(2 (2 (#))(2 (#)))))))))(2 (#))) |ET| 
-1  |BT| (1 (0 (2 (2 (#))(1 (1 (#))(2 (2 (2 (#))(2 (#)))(2 (#)))))(2 (2 (#))(4 (4 (#))(2 (#)))))(2 (2 (2 (2 (2 (#))(2 (2 (#))(2 (#))))(2 (2 (#))(2 (2 (2 (#))(2 (2 (#))(2 (2 (#))(2 (#)))))(2 (2 (#))(2 (3 (#))(2 (#)))))))(2 (2 (#))(3 (2 (2 (#))(2 (#)))(3 (2 (#))(2 (2 (#))(2 (2 (#))(2 (#))))))))(2 (#)))) |ET| 
1  |BT| (3 (2 (2 (#))(1 (2 (#))(1 (2 (2 (#))(2 (2 (#))(2 (2 (#))(2 (#)))))(0 (2 (#))(1 (1 (2 (#))(2 (#)))(4 (#)))))))(3 (2 (1 (#))(1 (1 (2 (2 (#))(2 (#)))(2 (2 (#))(1 (4 (#))(1 (2 (#))(1 (#))))))(3 (#))))(3 (2 (#))(3 (2 (#))(3 (3 (2 (#))(3 (3 (2 (#))(3 (#)))(2 (2 (#))(2 (2 (#))(2 (#))))))(2 (#))))))) |ET| 
1  |BT| (3 (2 (2 (2 (#))(2 (#)))(2 (#)))(3 (4 (2 (#))(2 (2 (#))(3 (2 (#))(3 (2 (2 (2 (1 (#))(2 (2 (#))(2 (#))))(2 (#)))(2 (2 (#))(2 (#))))(1 (2 (2 (#))(1 (#)))(2 (2 (#))(2 (3 (#))(2 (#)))))))))(2 (#)))) |ET| 
1  |BT| (3 (3 (2 (2 (#))(2 (2 (#))(2 (#))))(2 (2 (#))(2 (2 (#))(2 (#)))))(2 (2 (2 (#))(2 (2 (#))(2 (2 (2 (2 (#))(2 (#)))(2 (#)))(3 (2 (#))(2 (2 (#))(2 (2 (#))(2 (2 (2 (#))(2 (#)))(2 (2 (#))(2 (2 (2 (2 (2 (2 (#))(2 (#)))(2 (#)))(2 (#)))(2 (#)))(3 (2 (#))(2 (#))))))))))))(2 (#)))) |ET| 
-1  |BT| (1 (2 (2 (2 (#))(2 (2 (#))(2 (#))))(2 (2 (#))(2 (2 (#))(2 (2 (#))(2 (2 (#))(2 (#)))))))(2 (2 (#))(3 (2 (#))(2 (2 (1 (#))(2 (2 (#))(2 (2 (#))(2 (2 (#))(2 (2 (#))(2 (2 (#))(2 (#))))))))(2 (#)))))) |ET| 
1  |BT| (3 (2 (2 (#))(2 (#)))(3 (4 (3 (#))(4 (2 (#))(3 (2 (2 (2 (2 (#))(2 (#)))(3 (2 (#))(2 (1 (1 (1 (1 (1 (1 (2 (#))(2 (2 (#))(1 (#))))(2 (#)))(1 (1 (#))(1 (2 (#))(2 (2 (#))(1 (2 (#))(2 (#)))))))(2 (#)))(2 (#)))(2 (#)))(3 (1 (#))(3 (3 (#))(2 (#)))))))(2 (#)))(4 (3 (#))(3 (2 (#))(3 (#)))))))(2 (#)))) |ET| 
-1  |BT| (1 (3 (#))(2 (1 (1 (#))(4 (2 (#))(3 (3 (#))(2 (#)))))(2 (2 (#))(3 (3 (2 (#))(3 (2 (#))(2 (2 (2 (#))(2 (#)))(2 (0 (#))(2 (#))))))(2 (#)))))) |ET| 
1  |BT| (3 (2 (2 (#))(2 (2 (#))(2 (#))))(2 (2 (#))(1 (2 (2 (#))(2 (2 (#))(2 (#))))(2 (1 (3 (#))(2 (2 (2 (#))(2 (#)))(1 (2 (#))(2 (2 (2 (#))(2 (2 (#))(2 (#))))(1 (2 (#))(2 (2 (#))(2 (2 (#))(2 (2 (#))(2 (2 (#))(2 (4 (#))(2 (#))))))))))))(2 (#)))))) |ET| 
-1  |BT| (1 (2 (2 (2 (2 (2 (2 (#))(2 (2 (#))(2 (#))))(2 (#)))(2 (#)))(2 (2 (#))(2 (2 (#))(2 (2 (#))(2 (#))))))(2 (#)))(2 (1 (2 (2 (2 (#))(4 (2 (#))(4 (4 (#))(2 (#)))))(2 (#)))(2 (2 (2 (#))(2 (#)))(2 (2 (#))(2 (2 (#))(1 (1 (#))(1 (2 (#))(2 (#))))))))(2 (#)))) |ET| 
1  |BT| (3 (3 (2 (#))(3 (#)))(2 (2 (#))(1 (2 (2 (#))(2 (2 (#))(2 (2 (#))(1 (#)))))(2 (#))))) |ET| 
-1  |BT| (1 (1 (#))(2 (3 (3 (4 (#))(2 (#)))(2 (2 (#))(3 (2 (#))(2 (3 (#))(2 (#))))))(2 (#)))) |ET| 
1  |BT| (4 (4 (4 (2 (#))(3 (4 (2 (#))(4 (#)))(2 (#))))(2 (2 (#))(2 (2 (2 (#))(2 (#)))(2 (2 (#))(2 (2 (2 (#))(2 (2 (1#))(2 (2 (#))(2 (#)))))(2 (2 (#))(2 (2 (#))(2 (#)))))))))(2 (2 (2 (2 (#))(2 (1 (1 (#))(2 (#)))(2 (#))))(2 (2 (#))(2 (2 (#))(2 (2 (2 (#))(2 (#)))(2 (2 (#))(2 (#)))))))(2 (#)))) |ET| 
-1  |BT| (1 (3 (3 (3 (3 (#))(2 (2 (2 (1 (2 (2 (#))(0 (#)))(2 (#)))(2 (2 (#))(2 (#))))(2 (#)))(3 (3 (2 (#))(4 (#)))(2 (2 (#))(2 (2 (#))(2 (#)))))))(2 (#)))(2 (2 (#))(2 (2 (#))(2 (2 (#))(2 (2 (#))(2 (2 (#))(2 (#))))))))(2 (#))) |ET| 
1  |BT| (3 (2 (1 (1 (1 (2 (2 (#))(2 (#)))(1 (2 (#))(1 (#))))(2 (#)))(2 (#)))(2 (2 (#))(3 (2 (#))(3 (2 (#))(2 (2 (#))(3 (#)))))))(2 (#))) |ET| 
-1  |BT| (1 (2 (#))(1 (4 (3 (3 (2 (#))(3 (2 (#))(2 (#))))(2 (#)))(2 (3 (#))(2 (#))))(2 (1 (2 (2 (#))(2 (#)))(1 (#)))(2 (#))))) |ET| 
1  |BT| (3 (2 (1 (1 (1 (2 (#))(1 (2 (2 (#))(2 (#)))(2 (2 (2 (#))(2 (#)))(2 (2 (#))(2 (2 (#))(2 (2 (#))(2 (#))))))))(2 (#)))(2 (#)))(2 (2 (2 (#))(2 (2 (#))(3 (#))))(3 (2 (#))(3 (2 (2 (2 (#))(2 (#)))(2 (#)))(1 (3 (#))(2 (2 (2 (#))(2 (0 (#))(3 (#))))(2 (2 (#))(2 (2 (#))(2 (2 (#))(2 (#)))))))))))(2 (#))) |ET| 
-1  |BT| (1 (2 (#))(1 (2 (#))(2 (2 (2 (#))(2 (2 (2 (#))(2 (#)))(2 (2 (#))(2 (2 (#))(2 (#))))))(2 (2 (#))(1 (2 (#))(1 (2 (2 (#))(2 (2 (#))(1 (2 (#))(2 (2 (#))(2 (2 (2 (#))(2 (2 (#))(2 (#))))(2 (2 (#))(2 (2 (#))(2 (2 (2 (#))(2 (2 (#))(2 (#))))(2 (2 (#))(2 (2002)))))))))))(2 (#)))))))) |ET| 
1  |BT| (4 (0 (0 (#))(2 (2 (#))(1 (2 (1 (#))(2 (#)))(2 (1 (#))(2 (#))))))(3 (2 (#))(4 (2 (2 (#))(2 (#)))(4 (3 (1 (2 (#))(1 (#)))(2 (2 (#))(2 (#))))(2 (#)))))) |ET| 
-1  |BT| (1 (2 (3 (4 (3 (2 (2 (#))(2 (#)))(2 (2 (#))(1 (#))))(4 (2 (#))(4 (#))))(2 (#)))(0 (2 (#))(1 (2 (2 (#))(3 (#)))(1 (3 (#))(2 (2 (#))(1 (1 (1 (#))(2 (#)))(2 (#))))))))(2 (#))) |ET| 
1  |BT| (3 (2 (#))(2 (3 (2 (#))(3 (3 (#))(2 (2 (#))(2 (2 (#))(2 (1 (2 (2 (#))(2 (2 (#))(3 (#))))(2 (2 (#))(2 (2 (2 (#))(2 (#)))(2 (2 (#))(2 (2 (#))(2 (2 (#))(2 (#))))))))(2 (2 (2 (#))(2 (#)))(2 (2 (#))(2 (2 (#))(2 (2 (#))(2 (#)))))))))))(2 (#)))) |ET| 
-1  |BT| (0 (2 (2 (#))(2 (2 (#))(2 (2 (#))(2 (2 (#))(2 (3 (#))(2 (2 (#))(2 (2 (2 (#))(2 (2 (#))(2 (#))))(2 (2 (#))(2 (2 (3 (#))(2 (#)))(2 (#)))))))))))(2 (1 (2 (2 (#))(1 (#)))(3 (3 (2 (#))(3 (#)))(2 (2 (#))(2 (2 (#))(2 (#))))))(2 (#)))) |ET| 
1  |BT| (3 (3 (3 (#))(4 (#)))(1 (2 (#))(2 (2 (2 (1 (#))(2 (2 (#))(2 (2 (#))(2 (#)))))(3 (2 (#))(3 (2 (3 (3 (2 (#))(3 (#)))(2 (#)))(2 (#)))(2 (2 (#))(2 (#))))))(1 (2 (1 (1 (2 (#))(1 (1 (2 (#))(2 (#)))(2 (#))))(2 (#)))(3 (2 (#))(2 (#))))(2 (#)))))) |ET| 
