SVM-light Version V5.01-TK-1.5
5 # kernel type
3 # kernel parameter -d 
1 # kernel parameter -g 
1 # kernel parameter -s 
1 # kernel parameter -r 
empty# kernel parameter -u 
0.4 # kernel parameter -L 
1 # kernel parameter -T 
T # kernel parameter -C 
6 # kernel parameter -F 
1 # kernel parameter -S 
0.400000 # kernel parameter -M 
3 # kernel parameter -N 
S # kernel parameter -V 
S # kernel parameter -W 
0 # kernel parameter -U 
0 # highest feature index 
6920 # number of training documents 
1289 # number of support vectors plus 1 
0.34630078 # threshold b, each following line is a SV (starting with alpha*y)
-1  |BT| (1 (2 (This))(2 (1 (1 (2 (is))(2 (n't)))(3 (2 (a))(2 (3 (new))(2 (idea)))))(2 (.)))) |ET| 
-1  |BT| (1 (1 (2 (3 (2 (2 (Made))(3 (me)))(2 (3 (unintentionally))(2 (famous))))(2 (--)))(0 (2 (as))(1 (2 (2 (the))(2 (1 (queasy-stomached))(2 (critic))))(1 (2 (who))(1 (2 (1 (2 (staggered))(2 (2 (from))(2 (2 (the))(3 (theater)))))(2 (and)))(1 (1 (2 (blacked))(1 (out)))(2 (2 (in))(2 (2 (the))(2 (lobby))))))))))(2 (.))) |ET| 
1  |BT| (3 (2 (2 (The))(2 (Rock)))(4 (3 (2 (is))(4 (2 (destined))(2 (2 (2 (2 (2 (to))(2 (2 (be))(2 (2 (the))(2 (2 (21st))(2 (2 (2 (Century))(2 ('s)))(2 (3 (new))(2 (2 (``))(2 (Conan)))))))))(2 ('')))(2 (and)))(3 (2 (that))(3 (2 (he))(3 (2 ('s))(3 (2 (going))(3 (2 (to))(4 (3 (2 (make))(3 (3 (2 (a))(3 (splash)))(2 (2 (even))(3 (greater)))))(2 (2 (than))(2 (2 (2 (2 (1 (2 (Arnold))(2 (Schwarzenegger)))(2 (,)))(2 (2 (Jean-Claud))(2 (2 (Van))(2 (Damme)))))(2 (or)))(2 (2 (Steven))(2 (Segal))))))))))))))(2 (.)))) |ET| 
0.99900956382971717317786897183396  |BT| (4 (4 (4 (2 (The))(4 (3 (gorgeously))(3 (2 (elaborate))(2 (continuation)))))(2 (2 (2 (of))(2 (``)))(2 (2 (The))(2 (2 (2 (Lord))(2 (2 (of))(2 (2 (the))(2 (Rings)))))(2 (2 (''))(2 (trilogy)))))))(2 (3 (2 (2 (is))(2 (2 (so))(2 (huge))))(2 (2 (that))(3 (2 (2 (2 (a))(2 (column)))(2 (2 (of))(2 (words))))(2 (2 (2 (2 (can))(1 (not)))(3 (adequately)))(2 (2 (describe))(2 (3 (2 (2 (co-writer/director))(2 (2 (Peter))(3 (2 (Jackson))(2 ('s)))))(3 (2 (expanded))(2 (vision))))(2 (2 (of))(2 (2 (2 (J.R.R.))(2 (2 (Tolkien))(2 ('s))))(2 (Middle-earth))))))))))(2 (.)))) |ET| 
1  |BT| (3 (3 (2 (2 (2 (2 (2 (Singer/composer))(2 (2 (Bryan))(2 (Adams))))(2 (2 (contributes))(2 (2 (2 (a))(2 (slew)))(2 (2 (of))(2 (songs))))))(2 (2 (--))(2 (2 (2 (2 (a))(2 (2 (few))(3 (potential))))(2 (2 (2 (hits))(2 (,)))(2 (2 (2 (a))(2 (few)))(1 (1 (2 (more))(1 (2 (simply))(2 (intrusive))))(2 (2 (to))(2 (2 (the))(2 (story))))))))(2 (--)))))(2 (but)))(3 (4 (2 (the))(3 (2 (whole))(2 (package))))(2 (3 (certainly))(3 (2 (captures))(2 (1 (2 (the))(2 (2 (2 (intended))(2 (2 (,))(2 (2 (er))(2 (,)))))(3 (spirit))))(2 (2 (of))(2 (2 (the))(2 (piece)))))))))(2 (.))) |ET| 
1  |BT| (3 (2 (Yet))(3 (2 (2 (the))(2 (act)))(3 (4 (3 (2 (is))(3 (2 (still))(4 (charming))))(2 (here)))(2 (.))))) |ET| 
-1  |BT| (0 (3 (2 (2 (The))(1 (problem)))(2 (2 (with))(2 (2 (ANTWONE))(2 (FISHER)))))(3 (2 (2 (is))(2 (2 (that))(2 (2 (it))(2 (2 (has))(2 (2 (2 (a))(2 (screenplay)))(2 (3 (written))(2 (2 (by))(2 (2 (2 (Antwone))(2 (Fisher)))(2 (2 (2 (based))(2 (2 (on))(2 (2 (the))(2 (book)))))(2 (2 (by))(2 (2 (Antwone))(2 (Fisher)))))))))))))(2 (.)))) |ET| 
1  |BT| (3 (1 (2 (While))(1 (1 (not))(3 (2 (for))(2 (2 (every))(2 (taste))))))(2 (2 (,))(3 (3 (2 (this))(3 (3 (2 (often))(4 (2 (very))(3 (funny))))(2 (2 (collegiate))(2 (2 (gross-out))(3 (comedy))))))(3 (3 (2 (2 (goes))(2 (2 (a))(2 (2 (long))(2 (way)))))(2 (2 (toward))(3 (2 (restoring))(2 (2 (2 (the))(2 (luster)))(1 (2 (of))(1 (3 (3 (2 (the))(2 (2 (National))(2 (2 (Lampoon))(2 (2 (film))(2 (franchise))))))(2 (,)))(1 (1 (2 (too))(2 (long)))(0 (2 (reduced))(1 (2 (to))(2 (2 (direct-to-video))(1 (irrelevancy))))))))))))(2 (.)))))) |ET| 
-1  |BT| (0 (2 (But))(4 (3 (2 (if))(2 (3 (2 (2 (the))(2 (essence)))(3 (2 (of))(2 (magic))))(4 (2 (is))(3 (1 (2 (2 (its))(2 (2 (make-believe))(3 (promise))))(2 (2 (of))(3 (life))))(3 (2 (that))(3 (4 (soars))(2 (2 (above))(2 (2 (the))(3 (2 (material))(2 (realm)))))))))))(0 (2 (,))(0 (2 (this))(0 (1 (2 (is))(1 (2 (2 (the))(2 (opposite)))(4 (2 (of))(4 (2 (a))(4 (4 (3 (truly))(3 (magical)))(2 (movie)))))))(2 (.))))))) |ET| 
1  |BT| (4 (3 (2 (2 (Just))(2 (2 (the))(2 (labour))))(3 (2 (involved))(3 (2 (in))(4 (2 (creating))(3 (3 (2 (the))(3 (3 (layered))(2 (richness))))(3 (2 (of))(3 (2 (2 (the))(2 (imagery)))(2 (2 (in))(3 (2 (2 (this))(2 (chiaroscuro)))(2 (2 (of))(2 (2 (2 (madness))(2 (and)))(2 (light)))))))))))))(3 (3 (2 (is))(4 (astonishing)))(2 (.)))) |ET| 
-1  |BT| (1 (3 (2 (A))(2 (3 (party-hearty))(2 (teen))))(1 (0 (2 (flick))(0 (2 (that))(1 (2 (scalds))(1 (2 (like))(2 (acid))))))(2 (.)))) |ET| 
1  |BT| (4 (2 (2 (Dramas))(2 (2 (like))(2 (this))))(2 (3 (2 (make))(2 (2 (it))(2 (human))))(2 (.)))) |ET| 
-1  |BT| (1 (2 (2 (The))(3 (2 (modern-day))(2 (royals))))(2 (2 (2 (have))(2 (1 (nothing))(2 (2 (on))(2 (2 (2 (these))(2 (guys)))(2 (2 (when))(2 (2 (it))(2 (3 (comes))(2 (2 (to))(2 (scandals))))))))))(2 (.)))) |ET| 
1  |BT| (3 (3 (3 (2 (A))(3 (3 (2 (reasonably))(4 (entertaining)))(2 (sequel))))(2 (2 (to))(2 (2 (2 (1994))(2 ('s)))(3 (2 (surprise))(3 (family))))))(1 (1 (3 (hit))(2 (2 (that))(1 (2 (may))(2 (1 (strain))(2 (2 (adult))(2 (credibility)))))))(2 (.)))) |ET| 
-1  |BT| (1 (3 (2 (Although))(3 (2 (fairly))(2 (2 (2 (involving))(2 (2 (as))(2 (far))))(2 (2 (as))(2 (2 (it))(2 (goes)))))))(1 (2 (,))(1 (2 (2 (the))(2 (film)))(1 (2 (1 (2 (does))(2 (n't)))(2 (2 (2 (end))(2 (up)))(3 (2 (having))(2 (2 (much))(2 (2 (that))(3 (2 (is))(1 (4 (fresh))(2 (2 (to))(2 (2 (say))(2 (2 (about))(2 (2 (2 (growing))(2 (up)))(2 (2 (2 (2 (Catholic))(2 (or)))(2 (2 (,))(2 (2 (really))(2 (,)))))(2 (anything))))))))))))))(2 (.)))))) |ET| 
1  |BT| (3 (2 (2 (2 (2 (Australian))(2 (2 (actor/director))(2 (2 (John))(2 (Polson)))))(2 (and)))(3 (4 (award-winning))(2 (2 (English))(2 (2 (cinematographer))(2 (2 (Giles))(2 (Nuttgens)))))))(2 (3 (3 (2 (make))(4 (2 (a))(4 (4 (terrific))(2 (effort)))))(2 (2 (at))(3 (2 (2 (disguising))(2 (2 (the))(1 (obvious))))(3 (2 (with))(3 (2 (3 (energy))(2 (and)))(3 (innovation)))))))(2 (.)))) |ET| 
-1  |BT| (1 (2 (It))(2 (1 (1 (2 (2 ('s))(2 (only)))(2 (2 (in))(2 (2 (fairy))(2 (tales)))))(2 (2 (that))(2 (2 (3 (princesses))(2 (2 (that))(1 (2 (are))(2 (2 (married))(2 (2 (for))(2 (2 (political))(2 (reason))))))))(3 (4 (3 (2 (live))(3 (happily)))(2 (ever)))(2 (after))))))(2 (.)))) |ET| 
1  |BT| (4 (3 (4 (2 (A))(4 (3 (2 (highly))(4 (spirited)))(3 (2 (,))(3 (4 (imaginative))(2 (2 (2 (kid))(2 ('s)))(2 (movie)))))))(2 (2 (that))(2 (2 (broaches))(3 (2 (2 (2 (neo-Augustinian))(2 (theology)))(2 (:)))(3 (2 (Is))(2 (God)))))))(1 (2 (2 (2 (stuck))(3 (2 (in))(3 (Heaven))))(2 (2 (because))(1 (2 (He))(2 (2 ('s))(2 (2 (afraid))(3 (2 (of))(4 (2 (His))(3 (2 (best-known))(2 (creation))))))))))(2 (?)))) |ET| 
-1  |BT| (1 (3 (2 (With))(3 (3 (2 (a))(2 (2 (romantic))(2 (3 (comedy))(2 (plotline)))))(3 (2 (straight))(3 (2 (from))(2 (2 (the))(2 (ages)))))))(1 (2 (,))(1 (3 (2 (this))(2 (3 (Cinderella))(2 (story))))(1 (1 (1 (2 (does))(2 (n't)))(2 (2 (2 (have))(3 (2 (a))(2 (2 (single))(2 (surprise)))))(2 (2 (up))(2 (2 (its))(2 (sleeve))))))(2 (.)))))) |ET| 
1  |BT| (3 (2 (You))(2 (2 (1 (2 (1 (2 (2 (walk))(1 (out)))(2 (2 (of))(2 (2 (The))(2 (3 (Good))(2 (Girl))))))(2 (2 (with))(2 (2 (mixed))(2 (emotions)))))(2 (--)))(2 (2 (1 (disapproval))(2 (2 (of))(2 (Justine))))(3 (2 (combined))(2 (2 (with))(2 (2 (2 (a))(2 (tinge)))(2 (2 (of))(2 (2 (understanding))(2 (2 (for))(2 (2 (her))(2 (actions)))))))))))(2 (.)))) |ET| 
-1  |BT| (1 (2 (2 (2 (2 (Lookin))(2 (')))(2 (2 (for))(1 (sin))))(2 (,)))(2 (2 (American-style))(2 (?)))) |ET| 
1  |BT| (4 (3 (4 (3 (Well-acted))(2 (,)))(3 (3 (3 (3 (well-directed))(2 (and)))(2 (2 (,))(2 (2 (2 (for))(1 (2 (all))(2 (2 (its))(1 (moodiness)))))(2 (,)))))(2 (1 (not))(2 (too)))))(1 (1 (pretentious))(2 (.)))) |ET| 
-1  |BT| (1 (0 (1 (1 (1 (2 (Though))(1 (2 (it))(0 (2 (2 ('s))(1 (not)))(4 (4 (4 (3 (2 (very))(3 (well)))(2 (shot)))(2 (or)))(1 (2 (2 (composed))(2 (or)))(2 (edited)))))))(1 (2 (,))(1 (2 (2 (the))(3 (score)))(1 (2 (is))(1 (2 (too))(2 (insistent)))))))(2 (and)))(0 (2 (2 (the))(2 (dialogue)))(1 (2 (2 (is))(2 (frequently)))(0 (1 (overwrought))(1 (2 (and))(1 (1 (crudely))(3 (literal))))))))(3 (2 (,))(4 (2 (2 (the))(2 (film)))(2 (2 (2 (2 (shatters))(2 (you)))(2 (2 (in))(2 (waves))))(2 (.)))))) |ET| 
1  |BT| (4 (2 (3 (Absorbing))(2 (character)))(2 (2 (2 (study))(2 (2 (by))(2 (2 (André))(2 (Turpin)))))(2 (.)))) |ET| 
-1  |BT| (1 (2 (Frida))(2 (1 (1 (2 (is))(2 (n't)))(2 (2 (2 (that))(2 (2 (much))(2 (different))))(2 (2 (from))(3 (2 (many))(2 (2 (a))(3 (2 (Hollywood))(3 (romance))))))))(2 (.)))) |ET| 
1  |BT| (4 (0 (0 (Painful))(2 (2 (,))(1 (2 (1 (horrifying))(2 (and)))(2 (1 (oppressively))(2 (tragic))))))(3 (2 (,))(4 (2 (2 (this))(2 (film)))(4 (3 (1 (2 (should))(1 (not)))(2 (2 (be))(2 (missed))))(2 (.)))))) |ET| 
-1  |BT| (0 (3 (Wedding))(1 (2 (2 (feels))(1 (2 (2 (a))(2 (bit)))(2 (anachronistic))))(2 (.)))) |ET| 
1  |BT| (3 (2 (1 (-LRB-))(2 (2 (City))(3 (-RRB-))))(2 (3 (2 (2 (reminds))(3 (us)))(2 (2 (how))(1 (3 (realistically))(1 (2 (nuanced))(2 (2 (2 (a))(3 (2 (Robert))(2 (2 (De))(3 (2 (Niro))(2 (performance))))))(2 (2 (can))(1 (2 (be))(1 (2 (when))(1 (2 (he))(1 (2 (1 (2 (is))(1 (not)))(2 (more)))(1 (3 (lucratively))(2 (3 (engaged))(1 (2 (in))(1 (1 (1 (1 (2 (the))(1 (1 (shameless))(1 (self-caricature))))(2 (2 (of))(2 (2 (`))(2 (2 (2 (Analyze))(2 (This)))(2 (2 ('))(2 (1 (-LRB-))(2 (2 (1999))(3 (-RRB-)))))))))(2 (and)))(2 (2 (`))(2 (2 (2 (2 (2 (Analyze))(2 (That)))(2 (,)))(2 (')))(1 (2 (2 (2 (promised))(2 (2 (2 (1 (-LRB-))(2 (or)))(2 (threatened)))(3 (-RRB-))))(2 (for)))(2 (2 (later))(2 (2 (this))(2 (year)))))))))))))))))))))(2 (.)))) |ET| 
-1  |BT| (1 (2 (2 (While))(1 (2 (some))(1 (2 (will))(2 (1 (2 (object))(2 (2 (to))(2 (2 (2 (the))(2 (idea)))(2 (2 (of))(2 (2 (a))(2 (2 (Vietnam))(2 (picture))))))))(1 (2 (with))(2 (2 (2 (2 (such))(2 (2 (a))(3 (rah-rah))))(2 (,)))(2 (3 (patriotic))(2 (tone)))))))))(2 (2 (,))(3 (2 (Soldiers))(3 (2 (ultimately))(3 (3 (3 (3 (2 (achieves))(2 (2 (its))(2 (2 (main))(2 (2 (strategic))(2 (objective))))))(2 (:)))(2 (2 (dramatizing))(3 (2 (2 (the))(2 (2 (human))(2 (cost))))(3 (2 (of))(2 (2 (2 (the))(1 (conflict)))(3 (2 (that))(2 (2 (came))(2 (2 (to))(3 (2 (define))(2 (2 (a))(2 (generation))))))))))))(2 (.))))))) |ET| 
1  |BT| (3 (3 (3 (2 (The))(3 (2 (quirky))(2 (2 (and))(2 (2 (recessive))(3 (charms))))))(2 (2 (of))(2 (3 (co-stars))(2 (2 (Martin))(2 (2 (Donovan))(2 (2 (and))(2 (2 (Mary-Louise))(2 (Parker)))))))))(1 (2 (2 (help))(1 (2 (overcome))(1 (2 (the))(1 (1 (problematic))(2 (script))))))(2 (.)))) |ET| 
-1  |BT| (1 (3 (2 (While))(3 (3 (2 (4 (2 (2 (Scorsese))(2 ('s)))(2 (3 (bold))(2 (images))))(2 (and)))(3 (3 (2 (generally))(4 (smart)))(2 (casting))))(2 (2 (ensure))(3 (2 (that))(3 (2 (``))(2 (2 (Gangs))(3 (2 (''))(3 (2 (2 (is))(2 (never)))(1 (lethargic))))))))))(0 (2 (,))(0 (2 (2 (the))(2 (movie)))(1 (0 (2 (is))(0 (1 (hindered))(0 (2 (by))(1 (2 (2 (a))(2 (2 (central))(2 (plot))))(1 (2 (that))(1 (2 ('s))(0 (1 (1 (2 (peppered))(1 (2 (with))(2 (1 (false))(2 (starts)))))(2 (and)))(0 (2 (populated))(0 (2 (by))(0 (2 (characters))(1 (2 (who))(1 (2 (are))(0 (2 (nearly))(1 (0 (impossible))(3 (2 (to))(2 (3 (care))(2 (about))))))))))))))))))(2 (.)))))) |ET| 
1  |BT| (3 (2 (1 (2 (2 (2 (Mention))(2 (2 (``))(2 (2 (Solaris))(2 ('')))))(2 (2 (2 (five))(2 (years)))(2 (2 (from))(2 (now)))))(2 (and)))(2 (2 (I))(2 (2 (2 ('m))(2 (sure)))(2 (2 (those))(2 (2 (who))(2 (2 (saw))(2 (2 (it))(2 (2 (will))(2 (2 (have))(2 (2 (2 (an))(2 (opinion)))(2 (2 (to))(3 (share)))))))))))))(2 (.))) |ET| 
-1  |BT| (1 (2 (2 (The))(2 (movie)))(2 (2 (2 (is))(3 (3 (well))(1 (2 (done))(1 (2 (2 (,))(2 (but)))(1 (slow))))))(2 (.)))) |ET| 
1  |BT| (4 (3 (4 (2 (Easily))(4 (2 (the))(4 (3 (2 (most))(4 (thoughtful)))(2 (2 (fictional))(2 (examination))))))(2 (2 (of))(2 (2 (the))(2 (root)))))(0 (2 (2 (causes))(1 (2 (of))(2 (2 (anti-Semitism))(2 (2 (ever))(2 (2 (seen))(2 (2 (on))(2 (screen))))))))(2 (.)))) |ET| 
-1  |BT| (1 (3 (2 (Even))(3 (2 (2 (3 (bigger))(2 (and)))(3 (2 (more))(3 (ambitious))))(2 (2 (than))(2 (2 (the))(2 (2 (first))(2 (installment)))))))(0 (2 (,))(1 (2 (2 (Spy))(2 (3 (Kids))(2 (2))))(1 (1 (2 (looks))(2 (2 (as))(2 (2 (if))(2 (2 (it))(1 (2 (were))(2 (2 (made))(2 (2 (by))(3 (3 (2 (a))(3 (2 (highly))(2 (3 (gifted))(2 (12-year-old)))))(2 (2 (instead))(2 (2 (of))(2 (2 (a))(2 (2 (grown))(2 (man))))))))))))))(2 (.)))))) |ET| 
1  |BT| (3 (2 (2 (High))(2 (Crimes)))(2 (2 (1 (1 (1 (2 (0 (steals))(3 (2 (so))(3 (freely))))(2 (2 (from))(2 (2 (other))(2 (movies)))))(2 (and)))(2 (2 (combines))(2 (2 (2 (enough))(2 (2 (disparate))(2 (types))))(2 (2 (of))(2 (films))))))(3 (2 (that))(4 (2 (it))(3 (2 (2 (ca))(2 (n't)))(3 (3 (2 (2 (help))(2 (but)))(3 (engage)))(2 (2 (an))(2 (audience))))))))(2 (.)))) |ET| 
-1  |BT| (1 (2 (2 (2 (2 (Made))(2 (2 (to))(2 (2 (be))(2 (Jaglomized)))))(2 (is)))(2 (2 (2 (2 (the))(2 (2 (Cannes))(3 (2 (Film))(3 (Festival)))))(2 (,)))(2 (2 (2 (the))(2 (2 (annual))(2 (2 (Riviera))(2 (spree)))))(2 (2 (of))(2 (2 (flesh))(2 (2 (,))(1 (2 (buzz))(2 (2 (,))(2 (1 (1 (blab))(2 (and)))(2 (money)))))))))))(2 (.))) |ET| 
1  |BT| (3 (3 (2 (2 (The))(2 (2 (picture))(2 ('s))))(2 (3 (fascinating))(2 (byways))))(0 (1 (2 (are))(1 (2 (2 (littered))(2 (2 (with))(1 (2 (trenchant))(2 (2 (satirical))(1 (jabs))))))(2 (2 (at))(2 (2 (2 (the))(2 (2 (peculiar))(1 (egocentricities))))(3 (2 (of))(2 (2 (the))(2 (2 (acting))(2 (breed)))))))))(2 (.)))) |ET| 
-1  |BT| (1 (1 (2 (If))(0 (2 (2 (3 (Divine))(2 (Secrets)))(3 (2 (of))(3 (2 (the))(2 (2 (Ya-Ya))(2 (Sisterhood))))))(2 (2 (suffers))(1 (2 (from))(3 (2 (a))(1 (2 (2 (ploddingly))(2 (melodramatic)))(2 (structure))))))))(3 (2 (,))(2 (2 (it))(3 (2 (3 (comes))(3 (2 (to))(4 (3 (life))(2 (2 (in))(2 (2 (the))(2 (performances)))))))(2 (.)))))) |ET| 
1  |BT| (3 (2 (I))(2 (2 (2 (will))(2 (be)))(2 (.)))) |ET| 
-1  |BT| (0 (2 (A))(2 (0 (1 (2 (decided))(1 (2 (lack))(3 (2 (of))(2 (3 (3 (2 (spontaneity))(2 (2 (in))(2 (2 (its))(2 (execution)))))(2 (and)))(2 (3 (2 (a))(2 (dearth)))(2 (2 (of))(3 (3 (real))(1 (poignancy)))))))))(2 (2 (in))(2 (2 (its))(3 (epiphanies)))))(2 (.)))) |ET| 
1  |BT| (3 (1 (2 (Their))(2 (2 (computer-animated))(2 (faces))))(3 (3 (2 (are))(3 (2 (very))(3 (expressive))))(2 (.)))) |ET| 
-1  |BT| (1 (3 (2 (The))(2 (2 (Piano))(2 (Teacher))))(1 (2 (1 (2 (is))(1 (not)))(3 (2 (an))(3 (2 (easy))(2 (film)))))(2 (.)))) |ET| 
1  |BT| (3 (2 (It))(2 (3 (2 (2 (is))(2 (also)))(3 (2 (2 (a))(2 (testament)))(3 (2 (to))(2 (3 (2 (the))(2 (2 (3 (integrity))(2 (and)))(2 (vision))))(3 (2 (of))(2 (2 (the))(2 (band))))))))(2 (.)))) |ET| 
-1  |BT| (1 (2 (1 (2 (The))(1 (2 (only))(2 (pain))))(2 (2 (you))(3 (2 ('ll))(2 (2 (feel))(2 (2 (as))(2 (2 (the))(2 (2 (credits))(2 (roll)))))))))(2 (2 (2 (is))(2 (2 (2 (your))(2 (stomach)))(2 (1 (grumbling))(2 (2 (for))(3 (2 (some))(2 (3 (tasty))(2 (grub))))))))(2 (.)))) |ET| 
1  |BT| (3 (3 (Exhilarating))(1 (1 (2 (but))(1 (2 (blatantly))(1 (biased))))(2 (.)))) |ET| 
-1  |BT| (1 (3 (2 (Where))(3 (2 (This))(3 (2 (was))(3 (2 (1 (lazy))(2 (but)))(3 (enjoyable))))))(1 (3 (2 (,))(3 (3 (1 (2 (a))(2 (2 (formula))(3 (comedy))))(3 (3 (redeemed))(2 (2 (by))(2 (2 (its))(2 (stars))))))(2 (,))))(0 (2 (That))(1 (0 (2 (is))(1 (1 (1 (2 (even))(1 (lazier)))(2 (and)))(1 (2 (far))(1 (2 (less))(3 (enjoyable))))))(2 (.)))))) |ET| 
1  |BT| (3 (2 (Nair))(2 (2 (1 (2 (does))(2 (n't)))(2 (2 (3 (treat))(2 (2 (the))(2 (issues))))(2 (lightly))))(2 (.)))) |ET| 
-1  |BT| (1 (2 (1 (2 (An))(1 (1 (obvious))(2 (copy))))(4 (2 (of))(4 (2 (one))(4 (2 (of))(3 (2 (the))(4 (4 (best))(2 (films))))))))(2 (2 (ever))(2 (2 (2 (made))(2 (,)))(2 (2 (how))(2 (2 (2 (2 (could))(2 (it)))(2 (1 (not))(2 (be))))(2 (?))))))) |ET| 
1  |BT| (3 (3 (Happily))(1 (2 (,))(2 (2 (2 (some))(2 (things)))(2 (3 (2 (are))(2 (2 (immune))(2 (2 (to))(2 (2 (2 (the))(2 (folly)))(2 (2 (of))(2 (2 (changing))(2 (2 (2 (taste))(2 (and)))(2 (attitude)))))))))(2 (.)))))) |ET| 
-1  |BT| (1 (3 (2 (Although))(2 (2 (I))(3 (2 (2 (did))(2 (n't)))(0 (0 (hate))(2 (2 (this))(2 (one)))))))(1 (2 (,))(0 (2 (it))(1 (1 (1 (2 (2 ('s))(1 (not)))(3 (2 (very))(3 (good))))(2 (either)))(2 (.)))))) |ET| 
1  |BT| (3 (2 (that))(2 (2 (it))(3 (2 (2 ('ll))(2 (probably)))(3 (2 (be))(4 (4 (4 (2 (the))(3 (4 (4 (4 (best))(2 (and)))(2 (2 (most))(3 (mature))))(3 (comedy))))(2 (2 (of))(2 (2 (the))(2 (2 (2002))(3 (2 (summer))(3 (season)))))))(1 (2 (speaks))(2 (2 (more))(2 (2 (of))(2 (2 (2 (the))(3 (season)))(2 (2 (than))(2 (2 (the))(2 (picture))))))))))))) |ET| 
-1  |BT| (1 (2 (...))(2 (2 (2 (while))(3 (2 (2 (2 (each))(3 (moment)))(2 (2 (of))(1 (2 (this))(1 (2 (broken))(2 (2 (character))(2 (study)))))))(3 (2 (is))(4 (3 (rich))(2 (2 (in))(2 (2 (emotional))(2 (texture))))))))(1 (2 (,))(0 (2 (2 (the))(2 (journey)))(1 (1 (2 (1 (2 (does))(2 (n't)))(2 (really)))(2 (2 (go))(2 (anywhere))))(2 (.))))))) |ET| 
1  |BT| (3 (3 (3 (Captivates))(2 (2 (as))(2 (it))))(1 (3 (3 (3 (2 (shows))(2 (2 (excess))(2 (2 (in))(3 (2 (2 (business))(2 (and)))(4 (pleasure))))))(2 (,)))(3 (3 (3 (2 (2 (allowing))(2 (3 (us))(3 (2 (to))(3 (2 (find))(3 (2 (the))(3 (2 (small))(3 (2 (,))(3 (2 (human))(2 (moments))))))))))(2 (,)))(2 (and)))(2 (2 (2 (leaving))(1 (off)))(1 (2 (with))(1 (2 (a))(2 (4 (grand))(1 (whimper))))))))(2 (.)))) |ET| 
-1  |BT| (1 (1 (1 (2 (Stripped))(2 (2 (almost))(2 (entirely))))(1 (2 (of))(2 (2 (2 (such))(2 (tools)))(1 (2 (as))(1 (1 (nudity))(2 (2 (,))(1 (2 (2 (profanity))(2 (and)))(0 (violence)))))))))(3 (2 (,))(3 (2 (LaBute))(2 (3 (2 (does))(2 (2 (manage))(2 (2 (to))(2 (2 (make))(3 (2 (2 (2 (2 (a))(1 (2 (few))(2 (points))))(2 (2 (about))(2 (2 (modern))(2 (man)))))(2 (and)))(2 (2 (2 (his))(1 (1 (problematic))(2 (quest))))(3 (2 (for))(2 (2 (human))(2 (connection))))))))))(2 (.)))))) |ET| 
1  |BT| (4 (2 (Others))(2 (2 (,))(3 (2 (2 (2 (3 (2 (more))(2 (3 (attuned))(2 (2 (to))(1 (2 (2 (the))(1 (2 (anarchist))(2 (maxim))))(2 (2 (2 (2 (that))(2 (`)))(2 (2 (the))(2 (2 (urge))(2 (2 (to))(1 (1 (destroy))(3 (2 (2 (is))(2 (also)))(3 (2 (a))(3 (4 (creative))(2 (urge))))))))))(2 (')))))))(2 (,)))(2 (or)))(2 (2 (more))(2 (2 (willing))(2 (2 (to))(2 (2 (see))(2 (2 (with))(2 (2 (their))(2 (2 (own))(2 (eyes))))))))))(3 (2 (,))(3 (4 (2 (will))(4 (3 (2 (find))(2 (2 (2 (2 (Morrison))(2 ('s)))(3 (2 (iconoclastic))(2 (uses))))(2 (2 (of))(2 (technology)))))(3 (2 (to))(3 (2 (be))(3 (liberating))))))(2 (.))))))) |ET| 
-1  |BT| (1 (2 (There))(2 (1 (2 (is))(1 (0 (0 (1 (1 (1 (no))(2 (2 (solace))(2 (here))))(2 (,)))(0 (1 (no))(2 (3 (entertainment))(2 (value)))))(2 (,)))(2 (2 (2 (merely))(2 (2 (a))(2 (3 (fierce))(2 (lesson)))))(2 (2 (in))(2 (2 (where))(2 (2 (filmmaking))(2 (2 (can))(2 (2 (take))(3 (us))))))))))(2 (.)))) |ET| 
1  |BT| (3 (1 (-LRB-))(3 (2 (2 (The))(2 (Cockettes)))(2 (3 (-RRB-))(3 (3 (3 (2 (3 (provides))(2 (2 (a))(2 (window))))(2 (2 (into))(3 (2 (2 (a))(2 (2 (subculture))(1 (hell-bent))))(3 (2 (on))(3 (2 (2 (expressing))(2 (itself)))(2 (2 (in))(2 (2 (every))(2 (2 (way))(3 (imaginable))))))))))(2 (.)))(2 (')))))) |ET| 
-1  |BT| (1 (1 (2 (A))(1 (1 (2 (2 (3 (3 (visually))(3 (flashy)))(2 (but)))(2 (2 (narratively))(2 (opaque))))(2 (and)))(1 (2 (emotionally))(1 (vapid)))))(3 (3 (2 (exercise))(2 (2 (in))(3 (3 (2 (style))(2 (and)))(2 (mystification)))))(2 (.)))) |ET| 
1  |BT| (3 (2 (2 (Told))(2 (just)))(2 (3 (2 (proficiently))(2 (2 (enough))(2 (2 (to))(2 (2 (trounce))(2 (2 (its))(2 (2 (2 (overly))(3 (comfortable)))(2 (trappings))))))))(2 (.)))) |ET| 
-1  |BT| (0 (2 (1 (0 (0 (2 (3 (Collateral))(2 (Damage)))(0 (2 (is))(0 (trash))))(2 (,)))(2 (but)))(3 (2 (it))(3 (3 (2 (earns))(3 (2 (extra))(2 (points))))(2 (2 (by))(2 (2 (acting))(2 (2 (as))(2 (2 (if))(2 (2 (it))(2 (2 (were))(2 (n't)))))))))))(2 (.))) |ET| 
1  |BT| (3 (1 (1 (1 (2 (Predictable))(2 (storyline)))(2 (and)))(2 (2 (by-the-book))(2 (scripting))))(3 (3 (2 (2 (is))(2 (2 (all))(2 (but))))(3 (1 (2 (washed))(2 (away)))(2 (2 (by))(3 (3 (3 (3 (sumptuous))(3 (2 (ocean))(2 (visuals))))(2 (and)))(3 (2 (2 (the))(2 (3 (cinematic))(2 (stylings))))(3 (2 (of))(2 (2 (director))(2 (2 (John))(2 (Stockwell))))))))))(2 (.)))) |ET| 
-1  |BT| (1 (3 (2 (While))(4 (2 (2 (the))(2 (performances)))(3 (2 (2 (are))(2 (often)))(4 (engaging)))))(1 (2 (,))(1 (1 (2 (2 (this))(2 (1 (loose))(2 (collection))))(2 (2 (of))(2 (1 (2 (largely))(2 (improvised)))(2 (numbers)))))(1 (1 (2 (2 (would))(2 (probably)))(2 (2 (have))(1 (2 (3 (worked))(4 (better)))(2 (2 (as))(2 (2 (a))(2 (2 (one-hour))(2 (3 (TV))(2 (documentary)))))))))(2 (.)))))) |ET| 
1  |BT| (3 (2 (2 (2 (This))(3 (3 (2 (bracingly))(2 (truthful)))(2 (antidote))))(2 (2 (to))(2 (2 (2 (Hollywood))(2 (2 (teenage))(2 (movies))))(1 (2 (that))(1 (2 (slather))(2 (2 (Clearasil))(2 (2 (over))(2 (2 (2 (the))(1 (blemishes)))(2 (2 (of))(2 (youth)))))))))))(2 (3 (2 (captures))(2 (2 (2 (the))(3 (2 (combustible))(2 (mixture))))(1 (2 (of))(2 (1 (2 (a))(2 (1 (chafing))(2 (2 (inner))(1 (1 (loneliness))(2 (2 (and))(2 (1 (desperate))(3 (grandiosity))))))))(2 (2 (that))(2 (2 (tend))(2 (2 (to))(2 (2 (characterize))(2 (puberty))))))))))(2 (.)))) |ET| 
-1  |BT| (1 (2 (Schrader))(2 (3 (2 (aims))(3 (2 (to))(3 (3 (2 (present))(3 (2 (an))(3 (2 (unflinching))(2 (look)))))(1 (2 (at))(1 (2 (2 (2 (2 (one))(2 (2 (man))(2 ('s))))(1 (downfall)))(2 (,)))(2 (2 (brought))(2 (2 (about))(1 (2 (by))(1 (1 (2 (his))(2 (lack)))(2 (2 (of))(2 (self-awareness))))))))))))(2 (.)))) |ET| 
1  |BT| (3 (3 (2 (2 (2 (The))(2 (2 (auteur))(2 ('s))))(2 (ear)))(2 (2 (for))(2 (2 (the))(1 (2 (way))(2 (2 (1 (fears))(2 (and)))(2 (slights)))))))(1 (3 (2 (are))(1 (2 (telegraphed))(3 (2 (in))(3 (2 (2 (the))(2 (2 (most))(3 (2 (blithe))(2 (exchanges)))))(3 (2 (2 (gives))(2 (2 (the))(2 (film))))(2 (2 (its))(2 (2 (lingering))(2 (tug)))))))))(2 (.)))) |ET| 
-1  |BT| (1 (3 (Sex))(1 (2 (ironically))(1 (0 (1 (1 (2 (2 (has))(2 (little)))(2 (2 (to))(2 (2 (do))(2 (2 (with))(2 (2 (the))(2 (story)))))))(2 (,)))(1 (2 (1 (2 (which))(1 (2 (becomes))(1 (2 (something))(1 (1 (2 (about))(0 (2 (how))(0 (lame))))(2 (2 (it))(2 (2 (is))(2 (2 (to))(2 (1 (2 (2 (try))(2 (and)))(2 (evade)))(2 (2 (your))(2 (responsibilities)))))))))))(2 (and)))(2 (2 (that))(1 (2 (you))(1 (1 (2 (2 (should))(2 (never)))(2 (2 (,))(2 (2 (ever))(2 (,)))))(2 (1 (2 (1 (leave))(2 (2 (a))(2 (2 (large))(3 (dog)))))(2 (alone)))(2 (2 (with))(2 (2 (a))(2 (toddler))))))))))(2 (.))))) |ET| 
1  |BT| (3 (2 (It))(2 (3 (2 ('s))(3 (2 (2 (2 (the))(2 (2 (filmmakers))(2 ('))))(2 (2 (post-camp))(2 (comprehension))))(3 (2 (of))(3 (2 (what))(2 (2 (made))(3 (2 (2 (old-time))(1 (2 (B))(2 (movies))))(3 (2 (good-bad))(3 (2 (that))(3 (2 (2 (makes))(2 (2 (Eight))(1 (2 (Legged))(2 (Freaks)))))(3 (2 (a))(4 (3 (4 (perfectly))(4 (entertaining)))(2 (2 (summer))(2 (diversion))))))))))))))(2 (.)))) |ET| 
-1  |BT| (0 (2 (It))(2 (0 (2 (would))(1 (1 (2 (take))(0 (2 (a))(0 (3 (complete))(1 (moron)))))(0 (2 (to))(2 (1 (1 (foul))(2 (up)))(2 (2 (2 (a))(2 (2 (screen))(2 (adaptation))))(3 (2 (of))(3 (2 (3 (Oscar))(2 (2 (Wilde))(2 ('s))))(4 (3 (classic))(2 (satire))))))))))(2 (.)))) |ET| 
1  |BT| (3 (3 (3 (Succeeds))(1 (2 (where))(1 (2 (2 (its))(2 (2 (recent))(2 (predecessor))))(0 (miserably)))))(1 (0 (0 (fails))(2 (2 (because))(3 (2 (it))(1 (2 (demands))(2 (2 (that))(1 (2 (you))(2 (2 (2 (suffer))(2 (0 (2 (the))(0 (dreadfulness)))(1 (2 (of))(1 (war)))))(2 (2 (from))(2 (2 (both))(2 (sides)))))))))))(2 (.)))) |ET| 
-1  |BT| (0 (3 (3 (2 (An))(2 (3 (erotic))(3 (thriller))))(2 (that)))(0 (2 (1 (2 (2 (2 ('s))(2 (neither)))(1 (1 (1 (2 (too))(3 (erotic)))(2 (nor)))(4 (2 (very))(4 (thrilling)))))(2 (,)))(2 (either)))(2 (.)))) |ET| 
1  |BT| (3 (2 (2 (2 (2 (2 (2 (2 (The))(2 (2 (film))(2 ('s))))(3 (strength)))(2 (1 (2 (is))(2 (n't)))(2 (2 (in))(2 (2 (its))(2 (details))))))(2 (,)))(2 (but)))(3 (2 (2 (in))(2 (2 (the))(2 (2 (larger))(2 (picture)))))(2 (2 (it))(2 (3 (1 (2 (2 (2 (paints))(2 (-)))(1 (2 (of))(2 (2 (2 (a))(2 (culture)))(2 (2 (in))(1 (conflict))))))(2 (2 (with))(2 (itself))))(2 (,)))(2 (2 (with))(2 (1 (1 (2 (the))(2 (2 (thin))(2 (veneer))))(2 (2 (of))(2 (nationalism))))(1 (2 (that))(2 (2 (covers))(1 (2 (2 (2 (our))(2 (deepest)))(2 (,)))(2 (1 (media-soaked))(1 (fears))))))))))))(2 (.))) |ET| 
-1  |BT| (1 (2 (2 (The))(2 (movie)))(2 (1 (1 (2 (is))(1 (not)))(0 (2 (as))(0 (1 (terrible))(3 (2 (as))(2 (2 (2 (the))(2 (2 (synergistic))(2 (impulse))))(2 (2 (that))(2 (2 (created))(2 (it)))))))))(2 (.)))) |ET| 
1  |BT| (3 (3 (2 (3 (Earnest))(2 (and)))(3 (heartfelt)))(0 (2 (2 (but))(1 (1 (1 (undernourished))(2 (and)))(1 (plodding))))(2 (.)))) |ET| 
-1  |BT| (1 (3 (3 (3 (2 (An))(3 (2 (2 (achingly))(4 (enthralling)))(2 (premise))))(2 (,)))(2 (2 (the))(2 (film))))(1 (0 (2 (is))(1 (1 (hindered))(0 (2 (by))(1 (1 (uneven))(1 (2 (dialogue))(2 (2 (and))(1 (2 (plot))(2 (lapses)))))))))(2 (.)))) |ET| 
1  |BT| (3 (2 (2 (What))(2 (sets)))(2 (2 (it))(3 (2 (apart))(2 (2 (2 (2 (is))(2 (2 (the))(2 (vision))))(2 (2 (that))(3 (2 (2 (2 (2 (Taymor))(2 (,)))(3 (2 (2 (the))(2 (2 (avant))(2 (1 (garde))(2 (director)))))(2 (2 (of))(2 (2 (3 (Broadway))(2 ('s)))(2 (2 (3 (2 (The))(2 (2 (Lion))(2 (King))))(2 (and)))(2 (2 (the))(2 (2 (film))(2 (Titus)))))))))(2 (,)))(2 (brings)))))(2 (.)))))) |ET| 
-1  |BT| (1 (2 (It))(2 (2 (2 ('s))(2 (2 (2 (2 (2 (one))(2 (thing)))(2 (2 (to))(2 (2 (read))(2 (about)))))(2 (or)))(2 (2 (rail))(2 (2 (against))(2 (2 (2 (the))(2 (3 (2 (2 (2 (2 (ongoing))(2 (-)))(2 (and)))(2 (unprecedented)))(2 (-)))(2 (2 (construction))(2 (project)))))(2 (2 (2 (going))(2 (on)))(2 (2 (over))(2 (2 (our))(2 (heads))))))))))(2 (.)))) |ET| 
1  |BT| (3 (3 (2 (2 (The))(2 (word)))(3 (2 (that))(2 (3 (comes))(3 (2 (to))(3 (3 (2 (mind))(2 (2 (,))(2 (2 (while))(2 (2 (watching))(2 (2 (3 (Eric))(2 (2 (Rohmer))(2 ('s))))(3 (tribute)))))))(2 (2 (to))(3 (2 (a))(3 (3 (courageous))(2 (2 (Scottish))(3 (lady)))))))))))(1 (2 (,))(3 (3 (2 (is))(2 (painterly)))(2 (.))))) |ET| 
-1  |BT| (1 (3 (2 (If))(3 (2 (you))(2 (2 (go))(2 (2 (into))(2 (2 (2 (the))(3 (theater)))(2 (2 (expecting))(3 (2 (a))(3 (2 (scary))(3 (2 (,))(3 (3 (action-packed))(2 (chiller))))))))))))(1 (2 (,))(2 (2 (you))(2 (2 (2 (2 (might))(2 (soon)))(2 (2 (be))(2 (2 (looking))(2 (2 (for))(2 (2 (a))(3 (sign)))))))(2 (.)))))) |ET| 
1  |BT| (3 (2 (Cineasts))(2 (3 (2 (will))(3 (3 (2 (revel))(2 (2 (in))(2 (3 (2 (3 (2 (those))(2 (2 (visual))(2 (in-jokes))))(2 (,)))(2 (2 (as))(2 (3 (2 (in))(2 (2 (2 (the))(2 (2 (film))(2 ('s))))(2 (2 (verbal))(2 (pokes)))))(2 (2 (at))(2 (2 (everything))(2 (2 (from))(2 (3 (2 (the))(3 (likes)))(2 (2 (of))(2 (2 (Miramax))(2 (chief)))))))))))(3 (2 (2 (Harvey))(2 (2 (Weinstein))(2 ('s))))(2 (1 (bluff))(2 (3 (personal))(2 (style))))))))(2 (2 (to))(2 (3 (2 (the))(2 (3 (stylistic))(2 (rigors))))(2 (2 (of))(2 (2 (2 (Denmark))(2 ('s)))(2 (2 (Dogma))(2 (movement)))))))))(2 (.)))) |ET| 
-1  |BT| (1 (2 (Why))(2 (?))) |ET| 
1  |BT| (3 (3 (2 (What))(3 (2 ('s))(3 (4 (invigorating))(2 (about)))))(1 (2 (it))(2 (1 (2 (is))(1 (2 (that))(1 (2 (it))(2 (1 (2 (does))(2 (n't)))(2 (3 (give))(2 (2 (a))(1 (damn))))))))(2 (.))))) |ET| 
-1  |BT| (1 (3 (2 (With))(2 (2 (2 (a))(2 (tone)))(2 (2 (as))(2 (3 (variable))(2 (2 (as))(2 (2 (the))(2 (cinematography))))))))(1 (2 (,))(0 (1 (1 (1 (1 (2 (2 (2 (Schaeffer))(2 ('s)))(2 (film)))(1 (2 (never))(3 (2 (settles))(2 (2 (into))(3 (3 (2 (the))(2 (2 (light-footed))(3 (enchantment))))(2 (2 (2 (the))(2 (material)))(2 (needs))))))))(2 (,)))(2 (and)))(1 (2 (2 (2 (the))(2 (2 (characters))(2 ('))))(2 (2 (2 (quirks))(2 (and)))(2 (foibles))))(2 (2 (never))(3 (2 (jell))(2 (2 (into))(3 (charm)))))))(2 (.))))) |ET| 
1  |BT| (3 (2 (there))(2 (3 (2 (is))(3 (truth)))(2 (here)))) |ET| 
-1  |BT| (1 (2 (It))(2 (2 (2 ('s))(0 (2 (2 (2 (a))(1 (1 (strange))(2 (film))))(2 (,)))(1 (2 (one))(1 (2 (that))(2 (1 (2 (was))(1 (2 (hard))(2 (2 (for))(3 (me)))))(2 (2 (to))(3 (2 (3 (warm))(2 (up)))(2 (to)))))))))(2 (.)))) |ET| 
1  |BT| (3 (3 (2 (Compulsively))(3 (watchable)))(1 (2 (,))(2 (2 (2 (2 (1 (no))(2 (matter)))(2 (how)))(2 (1 (2 (degraded))(2 (things)))(2 (get))))(2 (.))))) |ET| 
-1  |BT| (1 (3 (3 (Woo))(3 (2 (2 (has))(2 (2 (as))(2 (2 (much))(3 (right)))))(2 (2 (to))(3 (3 (2 (make))(3 (2 (a))(3 (2 (huge))(2 (2 (action))(2 (sequence))))))(2 (2 (as))(2 (2 (any))(2 (director))))))))(1 (2 (2 (2 (,))(2 (but)))(1 (1 (2 (2 (how))(2 (long)))(2 (2 (2 (will))(2 (filmmakers)))(2 (2 (copy))(2 (3 (2 (the))(2 (2 (``))(2 (2 (Saving))(2 (2 (Private))(2 (2 (Ryan))(2 (2 (''))(2 (2 (battle))(2 (scenes)))))))))(2 (2 (before))(2 (2 (realizing))(2 (2 (Steven))(2 (Spielberg)))))))))(3 (3 (2 (got))(2 (2 (it))(3 (right))))(2 (2 (the))(2 (2 (first))(2 (time)))))))(2 (?)))) |ET| 
1  |BT| (3 (2 (2 (2 (The))(2 (casting)))(3 (2 (of))(3 (3 (2 (2 (von))(2 (Sydow)))(2 (...)))(3 (2 (2 (is))(2 (itself)))(3 (2 (2 (Intacto))(2 ('s)))(3 (3 (luckiest))(1 (stroke))))))))(2 (.))) |ET| 
-1  |BT| (1 (2 (2 (3 (4 (2 (2 (Take))(3 (Care)))(4 (3 (2 (is))(3 (nicely)))(2 (2 (performed))(2 (2 (by))(2 (2 (2 (a))(2 (quintet)))(2 (2 (of))(2 (actresses))))))))(2 (,)))(2 (but)))(1 (2 (nonetheless))(0 (2 (it))(0 (1 (drags))(2 (2 (during))(1 (2 (its))(2 (3 (112-minute))(2 (length)))))))))(2 (.))) |ET| 
1  |BT| (3 (3 (3 (2 (An))(3 (3 (2 (1 (off-beat))(2 (and)))(3 (fanciful)))(2 (film))))(3 (2 (about))(2 (2 (2 (the))(2 (2 (human))(2 (need))))(2 (2 (for))(2 (2 (monsters))(2 (2 (to))(2 (2 (blame))(2 (2 (for))(2 (2 (all))(2 (that)))))))))))(1 (2 (2 (is))(2 (2 (amiss))(2 (2 (in))(2 (2 (the))(2 (world))))))(2 (.)))) |ET| 
-1  |BT| (1 (3 (2 (Just))(2 (2 (because))(2 (2 (A))(3 (2 (Walk))(2 (2 (to))(2 (Remember)))))))(1 (1 (2 (is))(1 (1 (2 (shrewd))(2 (enough)))(1 (2 (to))(2 (2 (activate))(1 (2 (girlish))(1 (2 (tear))(1 (2 (ducts))(1 (1 (2 (does))(2 (n't)))(3 (1 (mean))(3 (2 (2 (2 (it))(2 ('s)))(3 (3 (good))(2 (enough))))(2 (2 (for))(2 (2 (our))(2 (girls))))))))))))))(2 (.)))) |ET| 
1  |BT| (3 (2 (1 (1 (2 (2 (2 (Not))(2 (everyone)))(3 (2 (will))(3 (2 (2 (2 (2 (welcome))(2 (or)))(2 (accept)))(2 (2 (2 (The))(2 (Trials)))(2 (2 (of))(2 (2 (Henry))(2 (Kissinger))))))(4 (2 (as))(3 (3 (faithful))(2 (portraiture)))))))(2 (,)))(2 (but)))(2 (2 (few))(3 (2 (can))(2 (1 (argue))(3 (2 (that))(3 (2 (2 (2 (the))(2 (debate)))(2 (2 (it))(2 (joins))))(2 (2 (is))(3 (2 (a))(3 (3 (2 (2 (necessary))(2 (and)))(2 (timely)))(2 (one)))))))))))(2 (.))) |ET| 
-1  |BT| (1 (2 (2 (1 (2 (2 (2 (Suspend))(2 (2 (your))(1 (disbelief))))(2 (2 (2 (here))(2 (and)))(2 (now))))(2 (,)))(2 (or)))(1 (2 (you))(2 (2 ('ll))(0 (2 (be))(1 (1 (2 (shaking))(2 (2 (your))(2 (head))))(3 (3 (2 (all))(2 (2 (the))(2 (way))))(2 (2 (to))(2 (2 (the))(2 (credits))))))))))(2 (.))) |ET| 
1  |BT| (3 (3 (Deliciously))(1 (1 (1 (1 (mean-spirited))(2 (and)))(3 (wryly)))(3 (2 (observant))(2 (.))))) |ET| 
-1  |BT| (1 (3 (2 (As))(4 (3 (2 (an))(2 (3 (entertainment))(2 (destination))))(2 (2 (for))(2 (2 (the))(2 (2 (general))(2 (public)))))))(1 (2 (,))(0 (2 (2 (Kung))(3 (Pow)))(0 (1 (2 (sets))(0 (2 (2 (a))(3 (3 (new))(2 (benchmark))))(1 (2 (for))(1 (lameness)))))(2 (.)))))) |ET| 
1  |BT| (3 (2 (2 (Would))(3 (1 (2 (be))(2 (0 (2 (an))(0 (0 (unendurable))(2 (2 (viewing))(2 (experience)))))(2 (2 (for))(2 (2 (this))(2 (2 (ultra-provincial))(2 (3 (New))(2 (Yorker))))))))(2 (2 (if))(2 (2 (2 (26-year-old))(2 (2 (Reese))(2 (Witherspoon))))(2 (2 (2 (2 (were))(1 (not)))(2 (2 (on))(2 (hand))))(4 (2 (to))(4 (2 (inject))(3 (2 (2 (3 (3 (2 (her))(2 (4 (pure))(2 (3 (fantasy))(2 (character)))))(2 (,)))(2 (2 (Melanie))(3 (Carmichael))))(2 (,)))(3 (2 (with))(3 (1 (2 (a))(2 (2 (massive))(2 (infusion))))(3 (2 (of))(4 (2 (old-fashioned))(4 (2 (Hollywood))(2 (magic)))))))))))))))(2 (.))) |ET| 
-1  |BT| (1 (2 (You))(2 (2 (2 (may))(1 (2 (think))(2 (2 (2 (3 (2 (you))(2 (2 (have))(2 (2 (2 (2 (figured))(2 (1 (out))(2 (2 (1 (2 (the))(1 (con)))(2 (and)))(2 (2 (the))(2 (players))))))(2 (2 (in))(2 (2 (this))(2 (2 (debut))(2 (film))))))(2 (2 (by))(2 (2 (Argentine))(2 (2 (director))(2 (2 (Fabian))(2 (Bielinsky)))))))))(2 (,)))(2 (but)))(2 (2 (while))(1 (2 (you))(2 (2 (were))(1 (2 (thinking))(1 (2 (someone))(1 (2 (2 (made))(1 (off)))(2 (2 (with))(2 (2 (your))(2 (wallet)))))))))))))(2 (.)))) |ET| 
1  |BT| (3 (3 (3 (3 (3 (2 (This))(3 (3 (rich))(2 (2 (,))(2 (3 (bittersweet))(2 (2 (Israeli))(2 (documentary)))))))(2 (,)))(2 (3 (2 (about))(2 (2 (the))(3 (life))))(2 (2 (of))(2 (2 (2 (3 (song-and-dance-man))(2 (2 (Pasach))(3 (2 (`))(2 (3 (ke))(2 (Burstein))))))(2 (and)))(2 (2 (his))(3 (family)))))))(2 (,)))(1 (3 (3 (transcends))(2 (3 (ethnic))(2 (lines))))(2 (.)))) |ET| 
-1  |BT| (1 (3 (3 (3 (3 (2 (This))(3 (2 (misty-eyed))(2 (2 (Southern))(2 (2 (nostalgia))(2 (piece))))))(2 (,)))(1 (2 (in))(2 (2 (treading))(3 (2 (2 (the))(2 (line)))(2 (2 (between))(2 (2 (1 (sappy))(2 (and)))(2 (sanguine))))))))(2 (,)))(0 (2 (2 (2 (winds))(2 (up)))(1 (2 (mired))(2 (2 (in))(1 (3 (tear-drenched))(2 (quicksand))))))(2 (.)))) |ET| 
1  |BT| (3 (2 (It))(2 (2 (2 ('s))(3 (2 (a))(3 (2 (quirky))(2 (2 (,))(2 (1 (off-beat))(2 (project)))))))(2 (.)))) |ET| 
-1  |BT| (1 (2 (It))(2 (2 (2 (2 (2 ('s))(1 (not)))(2 (2 (2 (the))(1 (least)))(1 (2 (of))(1 (2 (Afghan))(1 (tragedies))))))(1 (2 (that))(1 (2 (2 (this))(2 (3 (noble))(2 (warlord))))(1 (2 (would))(1 (2 (be))(1 (2 (consigned))(1 (2 (to))(2 (2 (2 (the))(2 (dustbin)))(2 (2 (of))(2 (history)))))))))))(2 (.)))) |ET| 
1  |BT| (4 (0 (2 (By))(1 (2 (2 (the))(2 (standards)))(1 (2 (of))(1 (1 (knucklehead))(1 (swill))))))(4 (2 (,))(3 (2 (2 (The))(2 (3 (Hot))(2 (Chick))))(4 (4 (2 (is))(3 (4 (pretty))(3 (1 (damned))(3 (funny)))))(2 (.)))))) |ET| 
-1  |BT| (1 (1 (2 (By))(1 (1 (1 (2 (1 (no))(2 (means)))(3 (2 (a))(4 (slam-dunk))))(2 (and)))(1 (0 (0 (2 (sure))(1 (2 (to))(0 (2 (ultimately))(1 (0 (disappoint))(2 (2 (the))(2 (action)))))))(3 (fans)))(3 (2 (who))(3 (2 (will))(4 (2 (be))(3 (3 (3 (moved))(3 (2 (to))(4 (3 (2 (the))(3 (edge)))(2 (2 (of))(3 (2 (their))(2 (seats)))))))(3 (2 (by))(4 (2 (the))(4 (3 (dynamic))(2 (2 (first))(2 (act)))))))))))))(4 (2 (,))(4 (2 (it))(4 (2 (still))(3 (3 (2 (3 (comes))(1 (off)))(3 (2 (as))(3 (2 (a))(4 (3 (touching))(2 (2 (,))(3 (3 (transcendent))(2 (4 (love))(2 (story)))))))))(2 (.))))))) |ET| 
1  |BT| (3 (2 (2 (Films))(2 (2 (about))(2 (1 (loss))(2 (2 (,))(2 (2 (2 (grief))(2 (and)))(2 (recovery)))))))(2 (3 (3 (2 (are))(3 (4 (pretty))(3 (valuable))))(2 (2 (these))(2 (days))))(2 (.)))) |ET| 
-1  |BT| (1 (2 (2 (2 (Could))(2 (this)))(3 (2 (be))(2 (2 (2 (the))(3 (2 (first))(2 (2 (major))(2 (2 (studio))(2 (production))))))(2 (2 (shot))(2 (2 (on))(2 (2 (2 (video))(2 (tape)))(2 (2 (instead))(2 (2 (of))(2 (film))))))))))(2 (?))) |ET| 
0.98320102674064369097095550387166  |BT| (3 (1 (2 (Time))(2 (Out)))(4 (2 (2 (is))(3 (2 (2 (existential))(1 (drama)))(3 (2 (without))(2 (2 (any))(2 (2 (of))(2 (2 (2 (the))(2 (pretension)))(2 (2 (associated))(2 (2 (with))(2 (2 (the))(2 (term)))))))))))(2 (.)))) |ET| 
-1  |BT| (1 (4 (2 (Though))(3 (2 (2 (her))(3 (fans)))(4 (3 (2 (will))(3 (assuredly)))(3 (2 (have))(3 (2 (their))(3 (3 (funny))(3 (2 (bones))(3 (tickled)))))))))(0 (2 (,))(1 (2 (others))(2 (0 (2 (will))(1 (2 (2 (find))(2 (2 (their))(2 (2 (humor-seeking))(3 (dollars)))))(1 (4 (best))(1 (2 (spent))(2 (elsewhere))))))(2 (.)))))) |ET| 
1  |BT| (4 (2 (It))(2 (4 (2 (2 ('s))(1 (endlessly)))(3 (3 (4 (3 (3 (inventive))(2 (,)))(3 (2 (consistently))(3 (intelligent))))(2 (and)))(1 (1 (sickeningly))(2 (savage)))))(2 (.)))) |ET| 
-1  |BT| (1 (2 (I))(2 (0 (0 (2 (am))(1 (1 (2 (more))(0 (1 (offended))(2 (2 (by))(1 (1 (2 (his))(2 (lack)))(2 (2 (of))(2 (2 (faith))(2 (2 (in))(2 (2 (his))(2 (audience))))))))))(2 (2 (than))(1 (2 (by))(2 (2 (anything))(2 (2 (on))(2 (display))))))))(2 (here)))(2 (.)))) |ET| 
1  |BT| (3 (4 (3 (2 (A))(3 (3 (3 (uniquely))(3 (sensual)))(2 (2 (metaphorical))(2 (dramatization)))))(2 (2 (of))(2 (2 (sexual))(2 (obsession)))))(0 (1 (2 (that))(1 (1 (2 (2 (spends))(2 (2 (a))(2 (bit))))(1 (2 (too))(2 (2 (much))(2 (time)))))(1 (2 (on))(2 (2 (its))(1 (1 (2 (fairly))(0 (ludicrous)))(2 (plot)))))))(2 (.)))) |ET| 
-1  |BT| (1 (4 (2 (2 (A))(3 (3 (dramatic))(3 (comedy))))(3 (2 (as))(3 (pleasantly))))(1 (2 (1 (1 (1 (dishonest))(2 (and)))(2 (pat)))(1 (2 (as))(1 (2 (any))(1 (2 (Hollywood))(2 (fluff))))))(2 (.)))) |ET| 
1  |BT| (3 (2 (3 (2 (An))(3 (4 (impeccable))(2 (study))))(2 (2 (in))(1 (perversity))))(2 (.))) |ET| 
-1  |BT| (1 (2 (2 (As))(3 (lively)))(2 (2 (2 (2 (an))(2 (account)))(2 (2 (as))(2 (Seinfeld))))(2 (1 (2 (is))(2 (deadpan)))(2 (.))))) |ET| 
1  |BT| (3 (4 (4 (3 (4 (4 (2 (Rock))(3 (3 (solid))(3 (3 (family))(4 (fun)))))(1 (out)))(2 (2 (of))(2 (2 (the))(3 (gates)))))(2 (,)))(3 (2 (extremely))(3 (4 (imaginative))(2 (2 (through))(1 (out))))))(1 (2 (2 (,))(2 (but)))(2 (1 (wanes))(2 (2 (in))(2 (2 (the))(2 (middle))))))) |ET| 
-1  |BT| (1 (4 (2 (A))(3 (cleverly)))(1 (1 (3 (3 (crafted))(2 (but)))(1 (2 (ultimately))(1 (1 (hollow))(2 (mockumentary)))))(2 (.)))) |ET| 
1  |BT| (3 (2 (2 (The))(2 (fact)))(2 (3 (2 (is))(2 (2 (that))(2 (2 (2 (the))(2 (screen)))(2 (2 (is))(2 (3 (2 (most))(3 (alive)))(2 (2 (when))(1 (2 (it))(2 (2 (seems))(2 (2 (2 (most))(2 (likely)))(2 (2 (that))(2 (2 (2 (2 (2 (Broomfield))(2 ('s)))(2 (interviewees)))(2 (2 (,))(2 (2 (or))(2 (2 (even))(2 (2 (himself))(2 (,)))))))(1 (2 (2 (will))(1 (not)))(2 (2 (be))(2 (2 (for))(2 (2 (much))(2 (longer)))))))))))))))))(2 (.)))) |ET| 
-1  |BT| (1 (2 (`))(2 (2 (Moore))(3 (2 (2 (2 (is))(2 (2 (like))(2 (2 (2 (a))(2 (2 (progressive))(1 (bull))))(2 (2 (in))(3 (2 (2 (2 (a))(2 (2 (china))(2 (shop))))(2 (,)))(2 (3 (2 (a))(2 (provocateur)))(2 (2 (2 (crashing))(2 (2 (into))(3 (2 (2 (ideas))(2 (and)))(2 (2 (special-interest))(2 (groups))))))(2 (2 (as))(1 (2 (he))(2 (2 (2 (slaps))(2 (together)))(2 (2 (2 (his))(2 (2 (own))(2 (brand))))(2 (2 (of))(2 (liberalism))))))))))))))(2 (.)))(2 ('))))) |ET| 
1  |BT| (3 (4 (2 (As))(3 (4 (2 (3 (chilling))(2 (and)))(3 (fascinating)))(2 (2 (as))(2 (2 (2 (Philippe))(2 (2 (Mora))(2 ('s))))(2 (2 (modern))(2 (Hitler-study)))))))(1 (2 (,))(1 (1 (1 (0 (Snide))(2 (and)))(1 (Prejudice)))(2 (.))))) |ET| 
-1  |BT| (1 (4 (2 (2 (Diane))(2 (2 (Lane))(2 ('s))))(4 (3 (sophisticated))(2 (performance))))(0 (2 (2 (2 (ca))(2 (n't)))(1 (2 (2 (rescue))(2 (2 (2 (Adrian))(2 (2 (Lyne))(2 ('s))))(2 (Unfaithful))))(1 (2 (from))(0 (2 (its))(1 (1 (sleazy))(3 (moralizing)))))))(2 (.)))) |ET| 
1  |BT| (4 (2 (Well))(2 (4 (2 (2 (2 (cast))(2 (and)))(3 (well)))(3 (2 (2 (directed))(2 (-)))(3 (3 (3 (2 (a))(4 (4 (powerful))(1 (drama))))(3 (2 (with))(2 (1 (2 (enough))(2 (sardonic)))(2 (wit)))))(1 (2 (to))(2 (2 (2 (keep))(2 (it)))(2 (2 (from))(2 (2 (being))(2 (maudlin)))))))))(2 (.)))) |ET| 
-1  |BT| (1 (2 (It))(2 (3 (1 (2 (does))(2 (n't)))(2 (2 (2 (2 (2 (2 (flinch))(1 (2 (from))(1 (2 (its))(3 (2 (unsettling))(2 (prognosis))))))(2 (,)))(2 (namely)))(2 (,)))(2 (2 (that))(2 (2 (2 (2 (the))(2 (legacy)))(1 (2 (of))(1 (war))))(1 (2 (is))(1 (3 (2 (a))(3 (kind)))(2 (2 (of))(2 (2 (perpetual))(2 (pain))))))))))(2 (.)))) |ET| 
1  |BT| (3 (1 (2 (Although))(1 (3 (2 (2 (Olivier))(2 (2 (Assayas))(2 ('))))(3 (3 (3 (elegantly))(2 (appointed)))(2 (2 (period))(1 (drama)))))(2 (2 (2 (2 (2 (seems))(2 (,)))(2 (2 (at))(2 (times))))(2 (,)))(1 (2 (1 (padded))(2 (2 (with))(2 (incident))))(1 (2 (in))(2 (2 (2 (the))(2 (way)))(2 (2 (of))(1 (2 (a))(1 (1 (too-conscientious))(2 (adaptation)))))))))))(1 (2 (...))(1 (2 (2 (its))(2 (2 (three-hour))(2 (2 (running))(2 (time)))))(3 (2 (2 (plays))(2 (2 (closer))(2 (2 (to))(2 (two)))))(2 (.)))))) |ET| 
-0.38896931341862811537524180494074  |BT| (1 (1 (-LRB-))(1 (2 (Moore))(1 (1 (2 (2 ('s))(3 (-RRB-)))(1 (2 (4 (better))(2 (at)))(1 (2 (fingering))(2 (2 (problems))(2 (2 (than))(2 (2 (finding))(3 (solutions))))))))(2 (.))))) |ET| 
1  |BT| (3 (2 (Kosminsky))(0 (2 (...))(1 (1 (1 (3 (2 (puts))(2 (2 (enough))(2 (salt))))(2 (2 (into))(1 (2 (2 (the))(2 (wounds)))(1 (2 (of))(1 (2 (the))(1 (2 (1 (0 (tortured))(2 (and)))(2 (self-conscious)))(2 (material))))))))(2 (2 (to))(1 (2 (make))(2 (2 (it))(2 (sting))))))(2 (.))))) |ET| 
-1  |BT| (1 (2 (What))(2 (1 (2 (could))(1 (2 (have))(2 (2 (been))(1 (3 (3 (right))(2 (2 (at))(2 (home))))(1 (2 (as))(1 (3 (3 (2 (a))(3 (3 (nifty))(2 (2 (plot))(2 (line)))))(2 (2 (in))(2 (2 (2 (Steven))(2 (2 (Soderbergh))(2 ('s))))(3 (Traffic)))))(1 (0 (fails))(2 (2 (to))(2 (2 (arrive))(2 (2 (at))(2 (2 (any))(3 (4 (satisfying))(2 (destination))))))))))))))(2 (.)))) |ET| 
-1  |BT| (1 (4 (2 (The))(4 (3 (superior))(2 (plotline))))(2 (1 (1 (2 (is))(2 (n't)))(2 (2 (quite))(1 (2 (enough))(1 (2 (to))(1 (1 (1 (drag))(2 (along)))(1 (2 (2 (the))(1 (1 (dead))(2 (2 (1 (-LRB-))(2 (2 (water))(3 (-RRB-))))(2 (weight)))))(3 (2 (of))(2 (2 (the))(2 (other))))))))))(2 (.)))) |ET| 
1  |BT| (3 (0 (2 (By))(1 (1 (2 (1 (0 (2 (halfway))(1 (2 (2 (through))(2 (2 (this))(2 (picture))))(1 (2 (I))(1 (2 (was))(1 (2 (beginning))(1 (2 (to))(0 (0 (hate))(2 (it)))))))))(2 (,)))(2 (and)))(2 (,)))(2 (2 (of))(2 (course)))))(2 (2 (,))(3 (2 (2 (1 (1 (2 (feeling))(1 (guilty)))(2 (2 (for))(2 (it))))(2 (...)))(2 (2 (Then))(2 (2 (,))(2 (3 (3 (miracle))(2 (2 (of))(2 (3 (3 (miracles))(2 (,)))(2 (2 (the))(2 (movie))))))(2 (2 (does))(2 (2 (a))(2 (flip-flop))))))))(2 (.))))) |ET| 
-0.35769870511027679338411644494045  |BT| (0 (0 (1 (1 (1 (2 (You))(1 (2 ('ll))(1 (2 (1 (1 (1 (forget))(2 (2 (about))(2 (it))))(2 (2 (by))(2 (Monday))))(2 (,)))(2 (though)))))(2 (,)))(2 (and)))(2 (2 (2 (if))(2 (2 (they))(2 (2 ('re))(3 (2 (2 (old))(2 (enough)))(2 (2 (to))(3 (2 (have))(2 (3 (developed))(2 (2 (some))(2 (taste))))))))))(2 (2 (,))(2 (2 (so))(2 (2 (will))(3 (2 (your))(2 (kids))))))))(2 (.))) |ET| 
0.19778891020697431102348673448432  |BT| (3 (4 (3 (2 (A))(3 (4 (smart))(2 (2 (,))(2 (3 (steamy))(2 (mix))))))(3 (2 (of))(3 (3 (2 (2 (2 (1 (road))(2 (movie)))(2 (,)))(2 (2 (coming-of-age))(2 (story))))(2 (and)))(2 (2 (political))(2 (satire))))))(2 (.))) |ET| 
-1  |BT| (1 (4 (4 (Love))(2 (Liza)))(1 (1 (2 (is))(1 (2 (2 (a))(2 (3 (festival))(2 (film))))(1 (2 (that))(1 (2 (would))(1 (2 (have))(2 (2 (been))(0 (2 (4 (better))(1 (off)))(2 (2 (staying))(2 (2 (on))(2 (2 (the))(2 (3 (festival))(2 (circuit)))))))))))))(2 (.)))) |ET| 
1  |BT| (3 (2 (2 (For))(2 (2 (2 (his))(2 (2 (first))(2 (attempt))))(2 (2 (at))(2 (2 (film))(2 (noir))))))(2 (2 (,))(3 (2 (Spielberg))(2 (3 (2 (presents))(2 (2 (2 (a))(3 (2 (2 (3 (fascinating))(2 (but)))(1 (flawed)))(2 (look))))(2 (2 (at))(2 (2 (the))(2 (2 (near))(2 (future)))))))(2 (.)))))) |ET| 
-1  |BT| (1 (2 (Ultimately))(2 (2 (too))(3 (2 (3 (1 (2 (1 (repellent))(3 (2 (to))(3 (2 (fully))(3 (3 (3 (endear))(2 (itself)))(2 (2 (to))(2 (2 (American))(2 (2 (art))(2 (2 (house))(2 (audiences))))))))))(2 (,)))(2 (but)))(3 (2 (it))(3 (2 (is))(3 (3 (notable))(3 (2 (for))(2 (2 (its))(3 (3 (stylistic))(3 (2 (2 (austerity))(2 (and)))(2 (forcefulness))))))))))(2 (.))))) |ET| 
1  |BT| (4 (4 (2 (An))(4 (3 (3 (intelligent))(2 (and)))(2 (deeply))))(1 (2 (2 (felt))(2 (2 (2 (2 (work))(2 (2 (about))(3 (0 (impossible))(2 (2 (,))(2 (2 (irrevocable))(2 (choices)))))))(2 (and)))(2 (3 (2 (the))(2 (price)))(2 (2 (of))(2 (2 (making))(2 (them)))))))(2 (.)))) |ET| 
-1  |BT| (1 (4 (4 (2 (2 (A))(4 (2 (technical))(3 (triumph))))(2 (and)))(3 (2 (an))(4 (extraordinary))))(1 (0 (bore))(2 (.)))) |ET| 
1  |BT| (3 (2 (2 (2 (The))(2 (2 (last))(2 (scenes))))(2 (2 (of))(2 (2 (the))(2 (film)))))(2 (3 (2 (are))(2 (1 (anguished))(2 (2 (,))(3 (2 (0 (bitter))(2 (and)))(2 (truthful))))))(2 (.)))) |ET| 
-1  |BT| (1 (2 (We))(2 (2 (2 (do))(2 (2 (2 (get))(2 (2 (the))(2 (2 (distinct))(3 (impression)))))(2 (2 (that))(2 (2 (2 (this))(2 (franchise)))(2 (2 (is))(2 (2 (drawing))(2 (2 (to))(2 (2 (a))(2 (close))))))))))(2 (.)))) |ET| 
1  |BT| (3 (4 (3 (4 (Charming))(2 (and)))(3 (witty)))(1 (2 (,))(2 (2 (it))(1 (1 (2 (2 ('s))(2 (also)))(1 (2 (somewhat))(1 (clumsy))))(2 (.)))))) |ET| 
-1  |BT| (1 (4 (entertaining))(1 (2 (2 (2 (enough))(2 (,)))(2 (but)))(0 (1 (nothing))(3 (new))))) |ET| 
1  |BT| (3 (2 (It))(2 (3 (2 (made))(3 (3 (me))(3 (2 (want))(2 (2 (to))(2 (3 (2 (2 (get))(2 (made-up)))(2 (and)))(2 (2 (go))(3 (4 (2 (see))(2 (2 (this))(2 (movie))))(2 (2 (with))(2 (2 (my))(2 (sisters)))))))))))(2 (.)))) |ET| 
-1  |BT| (1 (2 (2 (Paul))(2 (Cox)))(2 (2 (3 (needed))(2 (2 (to))(2 (2 (show))(2 (it)))))(2 (.)))) |ET| 
1  |BT| (4 (4 (2 (This))(4 (4 (2 (sensitive))(4 (2 (,))(4 (4 (smart))(3 (2 (,))(4 (3 (savvy))(3 (2 (,))(3 (compelling))))))))(3 (2 (coming-of-age))(1 (drama)))))(1 (2 (2 (delves))(3 (2 (into))(2 (2 (1 (2 (2 (the))(3 (1 (passive-aggressive))(2 (psychology))))(2 (2 (of))(2 (co-dependence))))(2 (and)))(2 (2 (2 (the))(1 (struggle)))(2 (2 (for))(2 (self-esteem)))))))(2 (.)))) |ET| 
-1  |BT| (1 (4 (3 (Oscar))(3 (3 (caliber))(2 (cast))))(1 (1 (2 (does))(2 (n't)))(3 (2 (2 (live))(2 (up)))(2 (2 (to))(2 (material)))))) |ET| 
1  |BT| (3 (2 (There))(2 (2 (2 (2 (2 (is))(2 (2 (2 (a))(2 (1 (subversive))(2 (element))))(2 (2 (to))(2 (2 (this))(2 (3 (Disney))(2 (cartoon)))))))(2 (,)))(2 (2 (providing))(2 (2 (unexpected))(1 (fizzability)))))(2 (.)))) |ET| 
-1  |BT| (1 (2 (If))(2 (2 (2 (only))(2 (2 (it))(2 (2 (had))(2 (2 (the))(2 (2 (story))(2 (2 (to))(2 (match))))))))(2 (.)))) |ET| 
1  |BT| (3 (4 (4 (2 (The))(3 (4 (best))(2 (movie))))(2 (2 (in))(3 (2 (2 (many))(2 (2 (a))(2 (moon))))(3 (2 (about))(3 (2 (2 (the))(2 (passions)))(2 (2 (that))(2 (2 (sometimes))(3 (2 (fuel))(3 (3 (3 (2 (our))(3 (4 (best))(2 (achievements))))(2 (and)))(2 (2 (other))(2 (times))))))))))))(1 (1 (1 (leave))(2 (3 (us))(1 (2 (1 (stranded))(2 (2 (with))(1 (nothing))))(2 (2 (more))(2 (2 (than))(2 (2 (our))(2 (2 (lesser))(2 (appetites)))))))))(2 (.)))) |ET| 
-1  |BT| (1 (4 (2 (2 (Rock))(2 ('s)))(3 (2 (stand-up))(2 (magic))))(1 (1 (wanes))(2 (.)))) |ET| 
1  |BT| (4 (2 (3 (2 (3 (2 (2 (This))(2 (method)))(3 (2 (almost))(3 (2 (never))(0 (0 (fails))(2 (him))))))(2 (,)))(2 (and)))(4 (2 (it))(4 (4 (2 (works))(3 (superbly)))(2 (here)))))(2 (.))) |ET| 
-1  |BT| (1 (2 (It))(2 (1 (2 ('s))(2 (2 (2 (quite))(2 (diverting)))(1 (nonsense))))(2 (.)))) |ET| 
1  |BT| (3 (4 (Well-made))(1 (2 (2 (but))(2 (mush-hearted)))(2 (.)))) |ET| 
-1  |BT| (1 (4 (2 (2 (Brosnan))(2 ('s)))(4 (3 (finest))(2 (2 (non-Bondish))(2 (performance)))))(1 (2 (yet))(0 (0 (0 (fails))(2 (2 (to))(1 (2 (overcome))(1 (2 (2 (the))(2 (2 (film))(2 ('s))))(1 (2 (manipulative))(1 (1 (2 (2 (sentimentality))(2 (and)))(0 (annoying)))(1 (stereotypes))))))))(2 (.))))) |ET| 
1  |BT| (3 (2 (2 (As))(3 (2 (2 (simple))(2 (and)))(3 (innocent))))(2 (2 (2 (2 (a))(2 (movie)))(2 (2 (as))(2 (you))))(2 (2 (2 (can))(2 (imagine)))(2 (.))))) |ET| 
-1  |BT| (1 (2 (You))(2 (0 (2 (2 (do))(2 (n't)))(2 (2 (need))(1 (2 (to))(2 (2 (know))(1 (2 (2 (2 (your))(2 (2 (Ice-T))(2 ('s))))(2 (2 (from))(2 (2 (your))(2 (Cool-J)))))(1 (2 ('s))(1 (2 (to))(2 (2 (realize))(1 (2 (that))(1 (2 (2 (2 (as))(2 (far)))(2 (2 (as))(2 (2 (2 (these))(2 (shootings)))(2 (2 (are))(2 (concerned))))))(1 (2 (,))(1 (2 (something))(1 (2 (is))(1 (1 (rotten))(2 (2 (in))(2 (2 (2 (the))(2 (state)))(3 (2 (of))(2 (California)))))))))))))))))))(2 (.)))) |ET| 
1  |BT| (3 (1 (2 (As))(0 (1 (1 (dumb))(2 (and)))(1 (cheesy))))(1 (2 (2 (as))(2 (2 (they))(2 (2 (may))(2 (be)))))(1 (2 (,))(3 (2 (2 (the))(2 (cartoons)))(2 (1 (2 (look))(3 (3 (2 (almost))(3 (2 (Shakespearean))(2 (2 (--))(2 (2 (2 (both))(2 (2 (in))(2 (2 (2 (depth))(2 (and)))(2 (breadth)))))(2 (--))))))(1 (2 (after))(1 (2 (watching))(1 (2 (this))(2 (2 (digital-effects-heavy))(2 (2 (,))(2 (2 (supposed))(3 (3 (family-friendly))(3 (comedy)))))))))))(2 (.))))))) |ET| 
-1  |BT| (1 (1 (2 (2 (The))(2 (screenwriters)))(2 (2 (2 (2 (dig))(2 (themselves)))(2 (in)))(3 (2 (deeper))(2 (2 (every))(2 (time))))))(1 (2 (they))(2 (1 (1 (2 (toss))(2 (2 (2 (logic))(2 (and)))(2 (science))))(2 (2 (into))(2 (2 (what))(1 (2 (2 (is))(2 (essentially)))(2 (2 (2 (a))(2 (2 (``))(2 (2 (2 (2 (Dungeons))(2 (and)))(2 (Dragons)))(2 (2 (''))(3 (fantasy))))))(2 (2 (with))(2 (2 (modern))(2 (2 (military))(2 (weaponry))))))))))(2 (...))))) |ET| 
1  |BT| (3 (2 (2 (2 (Boomers))(2 (and)))(2 (2 (their))(2 (kids))))(2 (3 (2 (will))(4 (2 (have))(3 (2 (a))(3 (2 (Barrie))(3 (3 (good))(2 (time)))))))(2 (.)))) |ET| 
-1  |BT| (1 (2 (2 (To))(3 (3 (honestly))(2 (2 (address))(2 (1 (2 (the))(1 (flaws)))(3 (2 (inherent))(2 (2 (in))(2 (2 (how))(2 (2 (2 (medical))(2 (aid)))(2 (2 (is))(2 (2 (made))(2 (3 (available))(2 (2 (to))(2 (2 (American))(2 (workers)))))))))))))))(2 (2 (,))(2 (3 (3 (2 (a))(3 (2 (2 (more))(3 (2 (2 (balanced))(2 (or)))(2 (fair))))(2 (portrayal))))(2 (2 (of))(2 (2 (both))(2 (sides)))))(2 (2 (2 (will))(2 (2 (be))(3 (needed))))(2 (.)))))) |ET| 
1  |BT| (3 (1 (2 (The))(0 (exploitative)))(1 (2 (,))(0 (1 (clumsily))(1 (0 (1 (1 (2 (staged))(1 (0 (violence))(2 (2 (overshadows))(2 (everything)))))(2 (,)))(2 (2 (including))(2 (2 (most))(2 (2 (of))(2 (2 (the))(2 (actors)))))))(2 (.)))))) |ET| 
-1  |BT| (1 (1 (2 (What))(2 (2 ('s))(1 (0 (infuriating))(3 (2 (about))(2 (3 (Full))(2 (Frontal)))))))(1 (2 (2 (is))(1 (2 (that))(1 (2 (it))(1 (2 (2 ('s))(2 (2 (too))(3 (2 (close))(2 (2 (to))(2 (3 (real))(3 (life)))))))(2 (2 (to))(2 (2 (make))(2 (sense))))))))(2 (.)))) |ET| 
1  |BT| (3 (2 (2 (1 (2 (2 (3 (Strip))(2 (it)))(2 (2 (of))(1 (2 (all))(2 (2 (its))(1 (2 (excess))(2 (debris)))))))(2 (,)))(2 (and)))(3 (2 (you))(3 (2 ('d))(3 (2 (have))(4 (2 (a))(4 (2 (90-minute))(4 (2 (,))(4 (4 (four-star))(2 (movie))))))))))(2 (.))) |ET| 
-1  |BT| (1 (2 (3 (2 (2 (2 (The))(2 (story)))(3 (2 (has))(2 (3 (2 (some))(3 (3 (nice))(2 (twists))))(2 (2 (but))(2 (2 (the))(2 (ending)))))))(2 (and)))(1 (2 (2 (some))(2 (2 (of))(2 (2 (the))(2 (back-story)))))(1 (2 (is))(2 (2 (2 (a))(2 (little)))(1 (tired))))))(2 (.))) |ET| 
1  |BT| (3 (1 (2 (If))(1 (2 (there))(1 (2 (2 ('s))(1 (1 (no))(2 (art))))(2 (here)))))(3 (2 (,))(3 (2 (it))(2 (3 (2 (2 ('s))(2 (still)))(3 (3 (3 (2 (a))(3 (3 (good))(2 (yarn))))(2 (--)))(3 (2 (which))(3 (2 (is))(3 (1 (nothing))(2 (2 (to))(2 (2 (sneeze))(2 (2 (at))(2 (2 (these))(2 (days)))))))))))(2 (.)))))) |ET| 
-1  |BT| (0 (1 (2 (Suffers))(2 (2 (from))(2 (1 (over-familiarity))(2 (2 (since))(2 (2 (hit-hungry))(2 (2 (British))(2 (filmmakers))))))))(3 (1 (2 (have))(1 (2 (2 (strip-mined))(2 (2 (the))(2 (2 (Monty))(1 (2 (formula))(2 (mercilessly))))))(2 (2 (since))(2 (1997)))))(2 (.)))) |ET| 
1  |BT| (3 (2 (2 (This))(2 (2 (familiar))(2 (2 (rise-and-fall))(2 (tale)))))(2 (2 (1 (2 (2 (is))(2 (2 (3 (2 (long))(2 (2 (on))(3 (glamour))))(2 (and)))(1 (2 (short))(2 (2 (on))(2 (2 (2 (larger))(2 (moralistic)))(2 (consequences)))))))(2 (,)))(3 (2 (though))(2 (2 (it))(2 (2 ('s))(3 (3 (2 (told))(3 (2 (with))(2 (3 (sharp))(2 (2 (2 (ears))(2 (and)))(2 (eyes))))))(2 (2 (for))(2 (2 (2 (the))(2 (tenor)))(2 (2 (of))(2 (2 (the))(2 (times)))))))))))(2 (.)))) |ET| 
-1  |BT| (0 (2 (2 (2 (A))(3 (0 (devastating))(2 (indictment))))(1 (2 (of))(2 (2 (unbridled))(2 (2 (2 (greed))(2 (and)))(2 (materalism))))))(2 (.))) |ET| 
1  |BT| (3 (1 (2 (As))(2 (1 (2 (literary))(2 (desecrations)))(2 (go))))(3 (2 (,))(4 (2 (this))(3 (3 (2 (makes))(3 (2 (for))(3 (4 (3 (4 (perfectly))(3 (3 (3 (acceptable))(2 (,)))(3 (2 (occasionally))(4 (2 (very))(3 (enjoyable))))))(2 (3 (children))(2 ('s))))(3 (entertainment)))))(2 (.)))))) |ET| 
-1  |BT| (1 (1 (2 (If))(2 (1 (1 (2 (the))(2 (predictability)))(1 (2 (of))(2 (1 (bland))(3 (3 (comfort))(2 (food))))))(3 (3 (appeals))(2 (2 (to))(2 (you))))))(3 (2 (,))(3 (2 (then))(3 (2 (2 (the))(2 (film)))(3 (3 (2 (is))(3 (2 (a))(3 (4 (pleasant))(2 (2 (enough))(2 (dish))))))(2 (.))))))) |ET| 
1  |BT| (3 (2 (2 (2 (2 (2 (2 (2 (Mr.))(2 (Clooney)))(2 (,)))(2 (2 (Mr.))(2 (Kaufman))))(2 (and)))(2 (all)))(2 (2 (their))(2 (collaborators))))(2 (3 (2 (are))(2 (2 (entitled))(2 (2 (to))(2 (2 (2 (take))(3 (2 (a))(3 (2 (deep))(2 (bow)))))(1 (2 (for))(4 (3 (2 (2 (fashioning))(4 (2 (an))(4 (4 (engrossing))(3 (entertainment)))))(1 (out)))(0 (2 (of))(2 (3 (2 (an))(2 (2 (almost))(2 (2 (sure-fire))(2 (prescription)))))(0 (2 (for))(0 (2 (a))(0 (2 (2 (2 (critical))(2 (and)))(2 (commercial)))(0 (disaster)))))))))))))(2 (.)))) |ET| 
-1  |BT| (1 (2 (2 (The))(2 (film)))(2 (1 (2 (has))(1 (3 (2 (a))(3 (kind)))(2 (2 (of))(1 (2 (hard))(2 (2 (,))(2 (1 (cold))(2 (effect))))))))(2 (.)))) |ET| 
1  |BT| (3 (1 (2 (While))(1 (2 (I))(1 (2 (2 (ca))(2 (n't)))(3 (2 (say))(3 (2 (it))(3 (2 ('s))(3 (2 (on))(3 (2 (par))(2 (2 (with))(2 (2 (the))(2 (2 (first))(2 (one)))))))))))))(3 (2 (,))(3 (2 (2 (Stuart))(2 (2 (Little))(2 (2))))(4 (3 (2 (is))(2 (3 (2 (a))(3 (2 (light))(3 (2 (,))(3 (4 (fun))(2 (2 (cheese))(2 (puff)))))))(2 (2 (of))(2 (2 (a))(2 (movie))))))(2 (.)))))) |ET| 
-1  |BT| (1 (1 (2 (2 (2 (Feels))(3 (2 (like))(2 (2 (2 (the))(2 (work)))(2 (2 (of))(2 (someone))))))(2 (2 (who))(1 (2 (2 (may))(2 (indeed)))(1 (1 (2 (3 (2 (2 (have))(2 (2 (finally))(1 (1 (aged))(1 (2 (past))(3 (2 (his))(3 (prime)))))))(2 (...)))(2 (and)))(2 (,)))(2 (2 (2 (perhaps))(2 (more)))(2 (2 (than))(2 (2 (he))(2 (realizes)))))))))(2 (,)))(3 (2 (just))(1 (2 (3 (wants))(2 (2 (to))(2 (2 (be))(3 (3 (liked))(2 (2 (by))(2 (2 (2 (the))(2 (people)))(2 (2 (who))(2 (2 (2 (can))(2 (still)))(2 (2 (3 (give))(2 (him)))(2 (work)))))))))))(2 (.))))) |ET| 
1  |BT| (3 (2 (3 (2 (3 (4 (2 (Definitely))(3 (3 (funny))(2 (stuff))))(2 (,)))(2 (but)))(1 (2 (it))(1 (2 ('s))(3 (2 (more))(1 (2 (of))(2 (2 (2 (the))(2 (2 (`))(3 (2 (4 (laughing))(2 (at)))(2 (2 ('))(2 (variety))))))(2 (2 (than))(2 (3 (2 (the))(4 (2 (`))(4 (laughing))))(2 (with))))))))))(2 (.)))(2 ('))) |ET| 
-1  |BT| (1 (2 (1 (2 (Although))(2 (2 (made))(2 (2 (on))(2 (2 (a))(1 (2 (2 (shoestring))(2 (and)))(2 (unevenly)))))))(2 (acted)))(2 (2 (,))(2 (1 (2 (conjures))(2 (3 (2 (a))(2 (2 (Lynch-like))(2 (vision))))(1 (2 (of))(1 (1 (2 (the))(1 (1 (rotting))(2 (underbelly))))(2 (2 (of))(2 (2 (Middle))(2 (America))))))))(2 (.))))) |ET| 
1  |BT| (3 (1 (2 (While))(0 (2 (2 (the))(2 (film)))(1 (1 (2 (is))(1 (not)))(4 (2 (entirely))(4 (successful))))))(3 (2 (,))(2 (2 (it))(3 (2 (still))(3 (3 (2 (manages))(3 (2 (to))(3 (3 (2 (3 (string))(2 (together)))(3 (2 (2 (enough))(4 (charming)))(2 (moments))))(2 (2 (to))(2 (work))))))(2 (.))))))) |ET| 
-1  |BT| (1 (1 (Sadly))(3 (2 (,))(2 (2 (3 (Full))(2 (Frontal)))(2 (2 (2 (plays))(2 (2 (like))(2 (2 (2 (the))(2 (work)))(2 (2 (of))(2 (2 (a))(2 (dilettante)))))))(2 (.)))))) |ET| 
1  |BT| (3 (2 (2 (2 (2 (2 (Plays))(1 (out)))(2 (2 (with))(2 (2 (a))(1 (dogged)))))(2 (and)))(3 (2 (eventually))(4 (3 (winning))(3 (2 (squareness))(3 (2 (that))(3 (2 (would))(3 (2 (make))(4 (2 (it))(3 (2 (2 (the))(3 (darling)))(2 (2 (of))(3 (2 (many))(3 (2 (a))(3 (4 (kids-and-family-oriented))(1 (2 (cable))(2 (channel))))))))))))))))(2 (.))) |ET| 
-1  |BT| (1 (2 (That))(2 (1 (2 ('s))(2 (2 (2 (its))(2 (2 (first))(3 (sign))))(2 (2 (of))(2 (trouble)))))(2 (.)))) |ET| 
1  |BT| (3 (1 (-LRB-))(3 (2 (There))(3 (3 (2 (2 ('s))(3 (-RRB-)))(3 (3 (3 (2 (quite))(3 (2 (2 (a))(2 (bit)))(3 (2 (of))(2 (heart)))))(2 (,)))(3 (2 (as))(2 (2 (you))(2 (2 (would))(2 (2 (expect))(2 (2 (from))(2 (2 (2 (the))(2 (directors)))(3 (2 (of))(2 (2 (2 (2 (The))(3 (2 (Little))(2 (Mermaid))))(2 (and)))(2 (Aladdin))))))))))))(2 (.))))) |ET| 
-1  |BT| (1 (1 (1 (2 (A))(1 (pathetically)))(0 (1 (1 (inane))(2 (and)))(1 (unimaginative))))(3 (2 (2 (cross))(2 (2 (between))(2 (1 (XXX))(2 (2 (and))(2 (2 (Vertical))(2 (Limit)))))))(2 (.)))) |ET| 
1  |BT| (3 (2 (2 (2 (2 (Mr.))(2 (Spielberg)))(2 (and)))(2 (2 (his))(2 (company))))(2 (2 (just))(3 (3 (2 (want))(3 (2 (you))(3 (2 (to))(3 (3 (4 (enjoy))(2 (yourselves)))(2 (2 (without))(2 (2 (feeling))(1 (conned))))))))(2 (.))))) |ET| 
-1  |BT| (1 (2 (Baran))(2 (1 (2 (is))(2 (2 (shockingly))(2 (2 (devoid))(2 (2 (of))(2 (2 (2 (2 (your))(2 (1 (typical))(2 (2 (Majid))(3 (2 (Majidi))(2 (shoe-loving))))))(2 (,)))(1 (0 (crippled))(3 (children))))))))(2 (.)))) |ET| 
1  |BT| (3 (1 (2 (Whatever))(1 (2 (complaints))(2 (2 (I))(2 (2 (might))(2 (have))))))(3 (2 (,))(3 (2 (I))(3 (3 (2 ('d))(3 (2 (2 (2 (take))(2 (2 (1 (-LRB-))(2 (2 (its))(3 (-RRB-))))(2 (2 (earnest))(0 (errors)))))(2 (and)))(3 (3 (3 (hard-won))(3 (rewards)))(3 (2 (over))(3 (2 (2 (the))(1 (2 (bombastic))(2 (self-glorification))))(2 (2 (of))(3 (3 (2 (2 (2 (other))(2 (3 (feel-good))(1 (fiascos))))(2 (2 (like))(2 (2 (Antwone))(2 (Fisher)))))(2 (or)))(3 (2 (2 (2 (The))(2 (2 (Emperor))(2 ('s))))(2 (Club)))(2 (2 (any))(2 (time)))))))))))(2 (.)))))) |ET| 
-1  |BT| (1 (1 (Never))(3 (3 (3 (3 (comes))(2 (together)))(2 (2 (as))(3 (2 (a))(2 (3 (coherent))(2 (whole))))))(2 (.)))) |ET| 
1  |BT| (3 (2 (2 (Even))(1 (2 (if))(1 (2 (you))(0 (2 (2 (do))(2 (n't)))(2 (2 (understand))(1 (2 (what))(2 (2 (2 (on))(2 (earth)))(2 (2 (is))(2 (2 (going))(2 (on)))))))))))(2 (2 (,))(4 (2 (this))(4 (3 (2 (is))(3 (2 (2 (a))(2 (movie)))(3 (2 (that))(2 (2 (will))(3 (3 (stimulate))(2 (2 (hours))(2 (2 (of))(2 (2 (2 (2 (post))(2 (2 (viewing))(2 (discussion))))(2 (,)))(2 (2 (if))(2 (2 (only))(2 (2 (to))(2 (2 (be))(2 (2 (reminded))(2 (2 (of))(2 (2 (who))(2 (2 (did))(2 (2 (2 (2 (what))(2 (2 (to))(2 (whom))))(2 (and)))(2 (why)))))))))))))))))))(2 (.)))))) |ET| 
-1  |BT| (1 (2 (1 (0 (0 (2 (It))(0 (2 ('s))(0 (1 (1 (plotless))(2 (,)))(1 (shapeless)))))(2 (--)))(2 (and)))(3 (2 (3 (1 (2 (yet))(2 (2 (,))(2 (2 (it))(2 (2 (must))(2 (2 (be))(2 (admitted)))))))(2 (,)))(1 (not)))(0 (2 (entirely))(0 (humorless)))))(2 (.))) |ET| 
1  |BT| (3 (1 (2 (Although))(1 (2 (it))(1 (2 (includes))(1 (3 (2 (a))(2 (2 (fair))(3 (share))))(0 (2 (of))(0 (1 (1 (1 (dumb))(2 (2 (drug))(2 (jokes))))(2 (and)))(2 (2 (predictable))(3 (slapstick)))))))))(3 (2 (,))(4 (2 (``))(3 (2 (2 (Orange))(2 (County)))(3 (2 (''))(3 (3 (2 (2 (is))(3 (2 (far))(3 (funnier))))(2 (2 (than))(2 (2 (it))(2 (2 (would))(2 (2 (seem))(2 (2 (to))(2 (2 (have))(2 (2 (any))(3 (3 (right))(2 (2 (to))(2 (be))))))))))))(2 (.)))))))) |ET| 
-1  |BT| (1 (1 (2 (What))(2 (2 ('s))(2 (missing))))(3 (3 (2 (is))(3 (2 (what))(3 (2 (we))(3 (2 (call))(1 (2 (the))(3 (2 (`))(3 (3 (wow))(2 (2 ('))(2 (factor))))))))))(2 (.)))) |ET| 
1  |BT| (3 (2 (And))(2 (2 (there))(2 (2 (2 ('s))(2 (2 (2 (an))(2 (element)))(2 (2 (of))(3 (1 (heartbreak))(2 (2 (to))(2 (2 (2 (2 (2 (watching))(2 (it)))(2 (now)))(2 (,)))(2 (2 (with))(2 (3 (2 (2 (2 (1 (older))(2 (and)))(4 (wiser)))(2 (eyes)))(2 (,)))(2 (2 (because))(2 (2 (we))(2 (2 (know))(2 (2 (what))(2 (2 (will))(2 (2 (happen))(2 (2 (after))(2 (2 (2 (2 (Greene))(2 ('s)))(2 (story)))(2 (ends))))))))))))))))))(2 (.))))) |ET| 
-1  |BT| (1 (2 (Stone))(2 (1 (2 (seems))(1 (2 (to))(2 (2 (have))(2 (2 (2 (a))(2 (knack)))(1 (2 (for))(1 (3 (2 (wrapping))(2 (2 (the))(3 (theater))))(2 (2 (in))(2 (1 (2 (a))(1 (1 (cold))(2 (blanket))))(2 (2 (of))(2 (2 (urban))(1 (desperation))))))))))))(2 (.)))) |ET| 
1  |BT| (4 (1 (-LRB-))(3 (2 (2 (Danny))(2 (2 (Huston))(2 (gives))))(4 (3 (-RRB-))(4 (4 (2 (an))(4 (3 (astounding))(2 (performance))))(3 (4 (2 (2 (2 (2 (that))(2 (deftly)))(2 (,)))(2 (gradually)))(3 (2 (reveals))(2 (3 (2 (a))(3 (3 (real))(2 (2 (human))(2 (soul)))))(2 (2 (buried))(2 (2 (beneath))(2 (2 (2 (a))(3 (4 (spellbinding))(2 (2 (serpent))(2 ('s)))))(1 (smirk))))))))(2 (.))))))) |ET| 
-1  |BT| (0 (1 (2 (The))(0 (crap)))(3 (2 (continues))(2 (.)))) |ET| 
1  |BT| (4 (2 (3 (3 (2 (A))(3 (4 (thoughtful))(2 (movie))))(2 (,)))(3 (2 (2 (a))(2 (movie)))(2 (2 (that))(3 (2 (is))(2 (2 (concerned))(2 (2 (with))(2 (2 (2 (2 (2 (souls))(2 (and)))(2 (2 (2 (risk))(2 (and)))(2 (schemes))))(2 (and)))(2 (1 (2 (the))(2 (consequences)))(2 (2 (of))(2 (2 (2 (one))(2 ('s)))(2 (actions))))))))))))(2 (.))) |ET| 
-1  |BT| (1 (2 (3 (4 (2 (Thoroughly))(4 (engrossing)))(2 (and)))(1 (2 (ultimately))(2 (tragic))))(2 (.))) |ET| 
1  |BT| (4 (1 (3 (3 (3 (Fresh))(2 (and)))(2 (raw)))(1 (2 (like))(1 (2 (a))(2 (2 (blown-out))(3 (vein))))))(3 (2 (,))(3 (1 (Narc))(3 (3 (2 (2 (2 (takes))(2 (2 (a))(2 (2 (walking-dead))(2 (2 (,))(2 (2 (cop-flick))(2 (subgenre)))))))(2 (and)))(3 (3 (2 (beats))(2 (3 (new))(3 (life))))(2 (2 (into))(2 (it)))))(2 (.)))))) |ET| 
-1  |BT| (0 (1 (2 (A))(1 (2 (limp))(2 (2 (Eddie))(2 (Murphy)))))(3 (1 (2 (vehicle))(1 (2 (2 (that))(2 (even)))(1 (2 (he))(1 (2 (seems))(1 (1 (embarrassed))(2 (2 (to))(3 (2 (be))(2 (2 (part))(2 (of))))))))))(2 (.)))) |ET| 
1  |BT| (3 (2 (2 (An))(3 (2 (3 (absorbing))(2 (2 (and))(2 (2 (unsettling))(3 (psychological)))))(1 (drama))))(2 (.))) |ET| 
-1  |BT| (1 (2 (2 (1 (0 (2 (It))(0 (1 (2 (does))(2 (n't)))(3 (2 (make))(3 (2 (for))(4 (4 (great))(2 (cinema)))))))(2 (,)))(2 (but)))(3 (2 (it))(3 (2 (is))(3 (3 (interesting))(3 (2 (to))(2 (2 (see))(3 (2 (where))(3 (2 (2 (2 (one))(2 ('s)))(3 (imagination)))(3 (2 (will))(2 (2 (lead))(2 (2 (when))(2 (2 (given))(2 (2 (the))(2 (opportunity)))))))))))))))(2 (.))) |ET| 
1  |BT| (3 (1 (2 (After))(2 (2 (an))(2 (1 (uncertain))(2 (start)))))(3 (2 (,))(3 (2 (Murder))(3 (3 (2 (2 (hits))(2 (and)))(3 (2 (generally))(3 (3 (3 (sustains))(3 (2 (a))(2 (3 (higher))(3 (plateau)))))(2 (2 (with))(3 (3 (2 (2 (Bullock))(2 ('s)))(3 (4 (memorable))(2 (2 (first))(2 (interrogation)))))(2 (2 (of))(2 (Gosling))))))))(2 (.)))))) |ET| 
-1  |BT| (0 (1 (2 (In))(0 (2 (2 (2 (2 (other))(2 (words)))(2 (,)))(2 (about)))(0 (1 (2 (as))(0 (bad)))(2 (2 (a))(2 (film))))))(3 (2 (you))(2 (2 (2 ('re))(3 (2 (likely))(2 (2 (to))(2 (2 (see))(2 (2 (all))(2 (year)))))))(2 (.))))) |ET| 
1  |BT| (3 (2 (2 (2 (If))(2 (1 (-LRB-))(2 (2 (2 (Jaglom))(2 ('s)))(3 (-RRB-)))))(1 (2 (2 (latest))(2 (effort)))(1 (1 (2 (is))(1 (not)))(3 (2 (2 (the))(2 (director)))(3 (2 (at))(4 (2 (his))(4 (2 (most))(3 (sparkling)))))))))(2 (2 (,))(3 (2 (2 (some))(2 (2 (of))(2 (2 (its))(2 (repartee)))))(3 (3 (3 (2 (2 (is))(2 (still)))(2 (worth)))(2 (hearing)))(2 (.)))))) |ET| 
-1  |BT| (1 (2 (2 (Without))(2 (1 (-LRB-))(1 (2 (2 (De))(2 (Niro)))(3 (-RRB-)))))(2 (2 (,))(1 (2 (City))(1 (2 (2 (By))(2 (2 (The))(2 (Sea))))(2 (2 (2 (would))(2 (2 (slip))(2 (2 (under))(2 (2 (the))(2 (waves))))))(2 (.))))))) |ET| 
1  |BT| (3 (1 (2 (At))(2 (1 (2 (times))(1 (2 (2 (2 (2 (a))(2 (bit)))(2 (melodramatic)))(2 (and)))(1 (2 (2 (even))(2 (2 (a))(2 (little))))(1 (dated)))))(3 (1 (-LRB-))(2 (2 (2 (depending))(2 (2 (upon))(2 (2 (where))(2 (2 (you))(2 (live))))))(3 (-RRB-))))))(3 (2 (,))(3 (2 (1 (Ignorant))(2 (Fairies)))(3 (3 (3 (3 (2 (2 (is))(2 (still)))(3 (2 (quite))(3 (good-natured))))(2 (and)))(3 (3 (1 (not))(1 (2 (a))(1 (0 (bad))(2 (way)))))(2 (2 (to))(2 (2 (spend))(2 (2 (2 (2 (an))(2 (hour)))(2 (or)))(2 (two)))))))(2 (.)))))) |ET| 
-0.99999768390523247063583767157979  |BT| (0 (0 (2 (Thoroughly))(2 (awful)))(2 (.))) |ET| 
0.99999625074090103815649399621179  |BT| (3 (2 (Many))(3 (3 (3 (insightful))(2 (moments)))(2 (.)))) |ET| 
-1  |BT| (1 (1 (2 (A))(1 (1 (2 (little))(2 (2 (too))(1 (2 (ponderous))(1 (2 (to))(1 (2 (1 (2 (2 (work))(1 (2 (as))(2 (2 (shallow))(3 (entertainment)))))(2 (,)))(1 (1 (not))(2 (2 (remotely))(2 (2 (incisive))(2 (enough))))))(2 (2 (to))(2 (2 (qualify))(2 (2 (as))(2 (1 (1 (drama))(2 (,)))(2 (Monsoon)))))))))))(3 (Wedding))))(3 (2 (2 (2 (serves))(2 (mostly)))(3 (2 (to))(3 (2 (whet))(3 (2 (2 (2 (one))(2 ('s)))(2 (appetite)))(2 (2 (for))(2 (2 (the))(2 (2 (Bollywood))(2 (films)))))))))(2 (.)))) |ET| 
1  |BT| (3 (0 (2 (2 (The))(2 (work)))(2 (2 (of))(0 (1 (2 (an))(1 (1 (exhausted))(0 (2 (,))(1 (1 (desiccated))(3 (talent))))))(2 (2 (who))(2 (2 (2 (ca))(2 (n't)))(2 (1 (2 (get))(1 (out)))(2 (2 (of))(2 (2 (his))(2 (2 (own))(2 (way)))))))))))(2 (.))) |ET| 
-1  |BT| (1 (2 (2 (Despite))(3 (3 (2 (2 (2 (2 (its))(3 (2 (Hawaiian))(2 (setting))))(2 (,)))(2 (2 (the))(2 (2 (science-fiction))(2 (trimmings)))))(2 (and)))(2 (2 (2 (some))(2 (moments)))(2 (2 (of))(3 (2 (rowdy))(3 (slapstick)))))))(3 (2 (,))(1 (2 (2 (2 (the))(2 (2 (basic))(2 (plot))))(2 (2 (of))(2 (2 (``))(2 (2 (Lilo))(2 (''))))))(2 (2 (2 (could))(2 (2 (have))(2 (2 (been))(3 (2 (pulled))(2 (2 (from))(3 (2 (a))(2 (1 (tear-stained))(2 (2 (vintage))(2 (2 (Shirley))(2 (2 (Temple))(2 (script))))))))))))(2 (.)))))) |ET| 
1  |BT| (3 (1 (2 (While))(1 (2 (it))(1 (2 (can))(1 (2 (be))(1 (2 (2 (a))(2 (bit)))(1 (repetitive)))))))(4 (2 (,))(4 (2 (overall))(3 (2 (it))(3 (3 (2 ('s))(3 (2 (an))(4 (4 (3 (4 (entertaining))(2 (and)))(4 (informative)))(2 (documentary)))))(2 (.))))))) |ET| 
-1  |BT| (1 (1 (2 (2 (Noyce))(2 ('s)))(0 (3 (greatest))(2 (mistake))))(1 (2 (is))(2 (2 (thinking))(2 (2 (that))(2 (2 (we))(1 (2 (3 (needed))(3 (3 (3 (3 (3 (sweeping))(2 (,)))(3 (dramatic)))(2 (,)))(2 (2 (Hollywood))(2 (moments)))))(2 (2 (to))(2 (2 (keep))(3 (us)))))))))) |ET| 
1  |BT| (4 (2 (E.T.))(2 (3 (2 (works))(3 (2 (because))(3 (2 (2 (2 (2 (2 (its))(1 (2 (flabbergasting))(2 (principals))))(2 (,)))(2 (2 (2 (2 (2 (2 (14-year-old))(2 (2 (Robert))(2 (MacNaughton))))(2 (,)))(2 (2 (6-year-old))(2 (2 (Drew))(2 (Barrymore)))))(2 (and)))(2 (2 (10-year-old))(2 (2 (Henry))(2 (Thomas))))))(2 (,)))(2 (2 (2 (convince))(3 (us)))(2 (2 (of))(2 (2 (2 (the))(2 (existence)))(3 (2 (of))(2 (3 (2 (the))(2 (3 (3 (wise))(2 (2 (,))(3 (wizened))))(2 (visitor))))(3 (2 (from))(2 (2 (a))(2 (2 (faraway))(2 (planet)))))))))))))(2 (.)))) |ET| 
-1  |BT| (1 (2 (He))(2 (2 (2 (thinks))(2 (2 (2 (the))(2 (film)))(2 (2 (2 (2 (is))(2 (2 (just))(2 (2 (as))(2 (much)))))(2 (2 (2 (a))(3 (document)))(2 (2 (about))(2 (him)))))(2 (2 (as))(2 (2 (it))(2 (2 (is))(2 (2 (about))(2 (2 (the))(2 (subject))))))))))(2 (.)))) |ET| 
1  |BT| (3 (1 (2 (Until))(1 (2 (it))(0 (2 (2 (goes))(1 (off)))(2 (2 (2 (the))(2 (rails)))(2 (2 (in))(2 (2 (its))(2 (2 (final))(2 (3 (10))(2 (2 (or))(2 (2 (15))(2 (minutes))))))))))))(3 (2 (,))(4 (2 (2 (2 (2 (Wendigo))(2 (,)))(3 (2 (2 (Larry))(2 (2 (Fessenden))(2 ('s))))(3 (2 (spooky))(2 (3 (new))(3 (thriller))))))(2 (,)))(3 (4 (2 (is))(4 (3 (2 (a))(3 (4 (3 (refreshingly))(3 (3 (4 (smart))(2 (and)))(2 (newfangled))))(2 (variation))))(2 (2 (on))(2 (2 (2 (several))(2 (themes)))(1 (2 (derived))(2 (2 (from))(2 (1 (1 (1 (2 (far))(2 (less)))(3 (sophisticated)))(2 (and)))(2 (2 (knowing))(2 (1 (horror))(2 (films)))))))))))(2 (.)))))) |ET| 
-1  |BT| (0 (1 (2 (Nothing))(2 (2 (about))(2 (2 (2 (the))(2 (film)))(2 (2 (--))(2 (2 (2 (with))(3 (2 (2 (the))(2 (2 (possible))(2 (exception))))(2 (2 (of))(2 (3 (2 (Elizabeth))(2 (2 (Hurley))(2 ('s))))(2 (breasts))))))(2 (--)))))))(3 (4 (2 (is))(3 (authentic)))(2 (.)))) |ET| 
1  |BT| (3 (2 (It))(2 (2 (may))(3 (2 (be))(4 (2 (a))(3 (1 (2 (somewhat))(2 (backhanded)))(3 (3 (compliment))(3 (2 (to))(2 (2 (say))(3 (2 (that))(3 (2 (2 (the))(2 (film)))(3 (2 (makes))(2 (2 (2 (1 (2 (2 (the))(2 (viewer)))(1 (2 (feel))(1 (2 (like))(1 (0 (2 (2 (the))(2 (2 (movie))(2 ('s))))(1 (2 (various))(2 (1 (victimized))(2 (2 (audience))(2 (members))))))(2 (2 (after))(2 (2 (a))(2 (while))))))))(2 (,)))(2 (but)))(3 (2 (it))(3 (2 (also))(3 (2 (happens))(3 (2 (to))(2 (2 (be))(3 (2 (2 (the))(2 (2 (movie))(2 ('s))))(4 (2 (most))(3 (4 (admirable))(3 (quality)))))))))))))))))))))) |ET| 
-1  |BT| (1 (2 (2 (Taken))(2 (2 (outside))(2 (2 (2 (the))(2 (context)))(1 (2 (of))(2 (2 (the))(2 (2 (current))(2 (2 (political))(3 (climate)))))))))(2 (1 (-LRB-))(2 (1 (2 (see))(2 (2 (:))(1 (2 (2 (terrorists))(2 (2 (are))(1 (2 (more))(2 (1 (evil))(2 (2 (than))(2 (ever)))))))(2 (!)))))(3 (-RRB-))))) |ET| 
1  |BT| (4 (1 (3 (3 (2 (2 (2 (The))(2 (2 (Emperor))(2 ('s))))(2 (Club)))(2 (,)))(1 (2 (ruthless))(2 (2 (in))(2 (2 (its))(1 (2 (own))(2 (2 (placid))(2 (way))))))))(2 (,)))(3 (3 (2 (2 (2 (finds))(2 (2 (one))(1 (2 (of))(3 (2 (our))(2 (2 (2 (most))(2 (2 (2 (conservative))(2 (and)))(2 (hidebound))))(2 (2 (movie-making))(2 (traditions))))))))(2 (and)))(3 (2 (2 (gives))(2 (it)))(3 (2 (2 (3 (new))(2 (texture)))(2 (,)))(2 (3 (2 (3 (new))(2 (relevance)))(2 (,)))(2 (3 (new))(2 (reality)))))))(2 (.)))) |ET| 
-1  |BT| (1 (1 (2 (2 (A))(2 (film)))(1 (2 (which))(2 (2 (2 (2 (2 (presses))(2 (2 (2 (familiar))(2 (Herzog)))(2 (tropes))))(2 (2 (into))(0 (2 (2 (the))(2 (service)))(2 (2 (of))(2 (2 (a))(1 (2 (1 (2 (limpid))(2 (and)))(2 (conventional)))(2 (2 (historical))(3 (fiction)))))))))(2 (,)))(2 (2 (when))(3 (2 (really))(2 (2 (what))(2 (2 (we))(2 (2 (demand))(2 (2 (of))(2 (2 (the))(2 (director))))))))))))(3 (3 (2 (is))(3 (2 (to))(4 (2 (be))(4 (mesmerised)))))(2 (.)))) |ET| 
1  |BT| (3 (2 (3 (2 (A))(2 (3 (complex))(2 (3 (psychological))(1 (drama)))))(2 (2 (about))(2 (2 (2 (a))(2 (father)))(2 (2 (who))(2 (2 (3 (2 (returns))(3 (2 (to))(2 (2 (2 (his))(2 (2 (son))(2 ('s))))(2 (home)))))(3 (2 (after))(2 (decades))))(2 (away)))))))(2 (.))) |ET| 
-1  |BT| (1 (2 (contrasting))(2 (2 (2 (2 (the))(2 (3 (original))(2 (Ringu))))(2 (2 (with))(2 (2 (the))(3 (2 (current))(2 (2 (Americanized))(2 (adaptation)))))))(2 (2 (is))(2 (2 (akin))(1 (2 (to))(2 (2 (2 (comparing))(2 (2 (The))(2 (2 (Evil))(0 (Dead)))))(2 (2 (with))(3 (2 (Evil))(2 (0 (Dead))(2 (II))))))))))) |ET| 
1  |BT| (4 (1 (2 (These))(2 (people)))(3 (3 (2 (2 (are))(2 (really)))(4 (2 (going))(3 (2 (to))(3 (4 (love))(3 (2 (The))(2 (2 (Piano))(2 (Teacher))))))))(2 (.)))) |ET| 
-1  |BT| (1 (1 (2 (If))(1 (2 (there))(1 (2 (2 (was))(2 (ever)))(2 (2 (2 (a))(2 (movie)))(1 (2 (where))(1 (4 (2 (the))(3 (3 (upbeat))(2 (ending))))(1 (2 (feels))(1 (2 (like))(1 (2 (a))(1 (copout)))))))))))(3 (2 (,))(3 (2 (this))(2 (3 (2 (is))(2 (2 (the))(2 (one))))(2 (.)))))) |ET| 
1  |BT| (3 (2 (3 (2 (1 (Gaunt))(2 (2 (,))(2 (2 (2 (silver-haired))(2 (and)))(2 (leonine)))))(2 (,)))(2 (1 (-LRB-))(2 (2 (Harris))(3 (-RRB-)))))(2 (3 (2 (brings))(2 (3 (3 (1 (1 (2 (a))(2 (2 (tragic))(2 (dimension))))(2 (and)))(3 (2 (savage))(3 (4 (full-bodied))(2 (wit)))))(2 (and)))(2 (3 (cunning))(2 (2 (to))(2 (2 (the))(1 (2 (aging))(2 (Sandeman))))))))(2 (.)))) |ET| 
-1  |BT| (1 (2 (It))(2 (3 (3 (1 (wears))(3 (2 (its))(2 (heart))))(2 (2 (on))(2 (2 (2 (the))(2 (sleeve)))(1 (2 (of))(2 (2 (its))(1 (2 (gaudy))(3 (2 (Hawaiian))(2 (shirt)))))))))(2 (.)))) |ET| 
1  |BT| (3 (1 (-LRB-))(3 (2 (2 (While))(2 (3 (2 (The))(2 (2 (Last))(2 (2 (Metro))(3 (-RRB-)))))(1 (2 (was))(2 (2 (more))(2 (melodramatic))))))(2 (2 (,))(2 (2 (2 (2 (1 (confined))(2 (2 (to))(2 (2 (2 (2 (a))(2 (2 (single))(2 (3 (theater))(2 (company)))))(2 (and)))(2 (2 (its))(2 (2 (3 (strategies))(2 (and)))(1 (deceptions)))))))(2 (,)))(2 (2 (while))(3 (2 (Tavernier))(2 (2 (is))(2 (2 (more))(2 (2 (concerned))(2 (2 (with))(2 (2 (2 (the))(2 (2 (entire))(2 (period))))(2 (2 (of))(2 (history)))))))))))(2 (.)))))) |ET| 
-1  |BT| (0 (1 (1 (1 (1 (2 (Spreads))(2 (2 (itself))(1 (2 (too))(2 (thin)))))(2 (,)))(2 (2 (leaving))(2 (2 (2 (2 (2 (these))(2 (actors)))(2 (,)))(2 (2 (as))(2 (3 (well))(2 (as)))))(2 (2 (2 (the))(2 (members)))(2 (2 (of))(2 (2 (the))(2 (commune))))))))(2 (,)))(3 (2 (short))(3 (2 (of))(4 (3 (profound))(2 (characterizations)))))) |ET| 
1  |BT| (3 (2 (Rarely))(2 (2 (,))(3 (2 (2 (a))(2 (movie)))(3 (3 (2 (is))(3 (3 (2 (more))(2 (2 (than))(2 (a))))(2 (movie))))(2 (.)))))) |ET| 
-1  |BT| (1 (2 (2 (To))(2 (2 (some))(2 (eyes))))(2 (2 (this))(1 (2 (2 (will))(1 (2 (seem))(1 (2 (like))(2 (2 (2 (a))(3 (recycling)))(2 (2 (of))(2 (1 (1 (clichés))(2 (,)))(2 (2 (2 (an))(2 (2 (assassin))(2 ('s))))(4 (3 (greatest))(2 (hits))))))))))(2 (.))))) |ET| 
1  |BT| (3 (1 (Contradicts))(3 (2 (2 (everything))(2 (2 (we))(2 (2 ('ve))(2 (2 (come))(2 (2 (to))(2 (1 (2 (expect))(2 (2 (from))(2 (movies))))(2 (nowadays))))))))(2 (.)))) |ET| 
-1  |BT| (1 (1 (Forgettable))(3 (2 (,))(3 (3 (2 (if))(3 (good-hearted)))(2 (2 (,))(2 (2 (movie))(2 (.))))))) |ET| 
1  |BT| (3 (2 (2 (By))(2 (1 (not))(2 (2 (averting))(2 (2 (his))(2 (eyes))))))(2 (2 (,))(2 (2 (Solondz))(2 (3 (2 (forces))(2 (3 (us))(1 (2 (to))(2 (2 (consider))(1 (2 (2 (2 (the))(2 (unthinkable)))(2 (,)))(1 (0 (0 (2 (the))(1 (unacceptable)))(2 (,)))(1 (2 (the))(1 (unmentionable)))))))))(2 (.)))))) |ET| 
-1  |BT| (1 (2 (2 (The))(2 (movie)))(2 (3 (2 (3 (2 (starts))(2 (2 (with))(3 (2 (a))(2 (legend)))))(2 (and)))(1 (2 (ends))(2 (2 (with))(0 (2 (2 (a))(2 (story)))(2 (2 (that))(1 (2 (is))(1 (2 (so))(2 (1 (far-fetched))(2 (2 (it))(2 (2 (would))(2 (2 (be))(2 (0 (impossible))(2 (2 (to))(2 (2 (believe))(2 (2 (if))(2 (2 (it))(2 (2 (2 (were))(2 (n't)))(3 (true)))))))))))))))))))(2 (.)))) |ET| 
1  |BT| (3 (1 (-LRB-))(3 (2 (Cho))(2 (2 (3 (4 (2 (2 ('s))(2 (2 (2 (face))(2 (is)))(3 (-RRB-))))(3 (4 (2 (an))(4 (4 (amazing))(3 (slapstick))))(2 (instrument))))(2 (,)))(2 (2 (creating))(2 (2 (2 (a))(2 (scrapbook)))(2 (2 (of))(1 (2 (living))(1 (2 (mug))(2 (shots))))))))(2 (.))))) |ET| 
-1  |BT| (1 (1 (0 (0 (2 (A))(1 (1 (beyond-lame))(2 (satire))))(2 (,)))(0 (3 (3 (2 (Teddy))(2 (2 (Bears))(2 ('))))(2 (2 (Picnic))(2 (ranks))))(1 (2 (among))(0 (2 (the))(1 (1 (2 (most))(1 (pitiful)))(2 (directing)))))))(3 (3 (2 (debuts))(3 (2 (by))(3 (2 (an))(3 (4 (esteemed))(2 (writer-actor))))))(2 (.)))) |ET| 
1  |BT| (3 (2 (2 (Birthday))(2 (Girl)))(2 (3 (2 (3 (lucks))(1 (out)))(3 (2 (with))(3 (2 (2 (2 (2 (Chaplin))(2 (and)))(3 (Kidman)))(2 (,)))(4 (2 (who))(3 (3 (2 (are))(3 (3 (capable))(2 (2 (of))(3 (2 (2 (anteing))(2 (up)))(3 (2 (some))(3 (2 (movie))(4 (2 (star))(3 (charisma)))))))))(3 (2 (2 (2 (2 (when))(1 (2 (they))(2 (2 (need))(2 (2 (it))(3 (2 (to))(3 (2 (2 (sell))(3 (us)))(2 (2 (on))(2 (2 (this))(2 (1 (twisted))(2 (4 (love))(2 (story))))))))))))(2 (,)))(2 (but)))(2 (2 (who))(1 (2 (2 (can))(2 (also)))(2 (2 (negotiate))(2 (2 (2 (the))(2 (2 (movie))(2 ('s))))(1 (1 (darker))(2 (turns)))))))))))))(2 (.)))) |ET| 
-1  |BT| (1 (2 (2 (Parts))(2 (2 (of))(2 (2 (the))(2 (film)))))(2 (1 (2 (feel))(0 (1 (2 (2 (a))(2 (bit)))(1 (1 (1 (2 (too))(2 (much)))(1 (2 (like))(1 (2 (2 (an))(2 (infomercial)))(2 (2 (for))(2 (2 (2 (Ram))(2 (2 (Dass))(2 ('s))))(2 (2 (latest))(2 (book))))))))(2 (2 (aimed))(2 (2 (at))(2 (2 (the))(2 (boomer)))))))(2 (demographic))))(2 (.)))) |ET| 
1  |BT| (4 (1 (Narc))(3 (3 (2 (is))(3 (3 (2 (a))(2 (2 (no-bull))(2 (throwback))))(2 (2 (to))(2 (2 (1970s))(2 (2 (action))(2 (films)))))))(2 (.)))) |ET| 
-1  |BT| (0 (1 (2 (If))(4 (2 (this))(3 (2 (is))(2 (cinema)))))(3 (2 (,))(3 (2 (I))(2 (2 (2 (2 (pledge))(2 (allegiance)))(2 (2 (to))(2 (2 (2 (Cagney))(2 (and)))(2 (Lacey)))))(2 (.)))))) |ET| 
1  |BT| (3 (2 (4 (2 (An))(3 (3 (interesting))(2 (look))))(3 (2 (behind))(2 (2 (2 (the))(2 (scenes)))(2 (2 (of))(2 (2 (Chicago-based))(2 (2 (rock))(2 (2 (group))(2 (Wilco)))))))))(2 (...))) |ET| 
-1  |BT| (1 (2 (2 (The))(2 (2 (main))(2 (story))))(2 (2 (...))(2 (1 (3 (4 (2 (is))(3 (3 (compelling))(2 (enough))))(2 (,)))(1 (2 (but))(1 (2 (it))(1 (2 ('s))(1 (1 (difficult))(2 (2 (to))(2 (2 (2 (shrug))(1 (off)))(1 (1 (2 (the))(0 (annoyance)))(2 (2 (of))(2 (2 (that))(1 (2 (chatty))(2 (fish)))))))))))))(2 (.))))) |ET| 
1  |BT| (3 (1 (2 (The))(1 (1 (obnoxious))(2 (2 (title))(2 (character)))))(3 (3 (3 (provides))(3 (2 (2 (the))(1 (drama)))(2 (2 (that))(3 (2 (gives))(3 (3 (2 (added))(2 (clout)))(2 (2 (to))(2 (2 (this))(2 (doc)))))))))(2 (.)))) |ET| 
-1  |BT| (0 (1 (1 (2 (An))(1 (2 (unfortunate))(2 (title))))(0 (2 (for))(1 (2 (2 (a))(2 (film)))(1 (2 (that))(1 (2 (has))(1 (nothing)))))))(3 (3 (3 (endearing))(2 (2 (about))(2 (it))))(2 (.)))) |ET| 
1  |BT| (4 (2 (I))(2 (3 (4 (hope))(3 (2 (2 (the))(2 (movie)))(3 (2 (2 (is))(2 (widely)))(3 (2 (2 (2 (seen))(2 (and)))(2 (debated)))(3 (2 (with))(3 (3 (appropriate))(3 (3 (2 (ferocity))(2 (and)))(3 (thoughtfulness)))))))))(2 (.)))) |ET| 
-1  |BT| (1 (2 (2 (2 (Can))(2 (I)))(2 (2 (admit))(2 (1 (XXX))(0 (1 (2 (1 (0 (2 (is))(2 (2 (1 (2 (as))(1 (2 (deep))(2 (2 (as))(2 (2 (a))(2 (2 (Petri))(2 (dish)))))))(2 (and)))(3 (2 (as))(3 (well-characterized)))))(2 (2 (as))(2 (2 (a))(2 (2 (telephone))(2 (book))))))(2 (but)))(2 (still)))(3 (2 (say))(3 (2 (it))(3 (2 (was))(4 (2 (a))(2 (1 (guilty))(4 (pleasure)))))))))))(2 (?))) |ET| 
1  |BT| (3 (1 (2 (As))(2 (1 (1 (banal))(2 (2 (as))(2 (2 (the))(3 (telling)))))(2 (2 (may))(2 (be)))))(3 (2 (2 (3 (2 (2 (--))(2 (and)))(2 (2 (at))(2 (2 (2 (times))(2 (,)))(2 (All)))))(2 (3 (2 (My))(3 (4 (Loved))(2 (Ones))))(2 (2 (2 (more))(2 (than)))(2 (2 (flirts))(2 (2 (with))(2 (kitsch)))))))(2 (--)))(3 (2 (2 (the))(2 (tale)))(3 (3 (3 (commands))(2 (attention)))(2 (.)))))) |ET| 
-1  |BT| (0 (1 (0 (1 (3 (Totally))(1 (overwrought)))(2 (,)))(0 (1 (1 (1 (1 (2 (deeply))(1 (biased)))(2 (,)))(2 (and)))(3 (wholly)))(1 (2 (designed))(1 (2 (to))(1 (2 (make))(1 (2 (you))(2 (2 (feel))(2 (1 (guilty))(2 (2 (about))(1 (2 (ignoring))(2 (2 (what))(2 (2 (2 (the))(2 (filmmakers)))(2 (2 (clearly))(2 (believe)))))))))))))))(3 (3 (2 (are))(2 (3 (2 (The))(3 (4 (Greatest))(2 (Musicians))))(2 (2 (of))(2 (2 (All))(2 (Time))))))(2 (.)))) |ET| 
1  |BT| (3 (2 (2 (2 (Fessenden))(2 ('s)))(2 (narrative)))(2 (3 (2 (2 (2 (is))(2 (just)))(2 (2 (as))(3 (2 (much))(2 (2 (about))(2 (2 (2 (the))(2 (2 (2 (ownership))(2 (and)))(2 (redefinition))))(2 (2 (of))(2 (myth))))))))(2 (2 (as))(3 (2 (it))(3 (2 (is))(3 (2 (about))(3 (2 (2 (a))(2 (2 (domestic))(2 (unit))))(4 (2 (2 (finding))(2 (2 (their))(2 (way))))(2 (2 (to))(4 (joy))))))))))(2 (.)))) |ET| 
-1  |BT| (1 (2 (You))(2 (1 (2 (2 (do))(2 (n't)))(2 (2 (know))(1 (2 (whether))(2 (2 (to))(1 (4 (3 (3 (admire))(2 (2 (2 (the))(2 (2 (film))(2 ('s))))(2 (2 (stately))(2 (nature)))))(2 (and)))(0 (2 (call))(1 (2 (it))(2 (2 (2 (classicism))(2 (or)))(0 (2 (be))(1 (1 (exasperated))(1 (2 (by))(1 (2 (2 (a))(1 (2 (noticeable))(2 (lack))))(2 (2 (of))(2 (pace)))))))))))))))(2 (.)))) |ET| 
1  |BT| (3 (1 (2 (While))(1 (2 (2 (this))(2 (movie)))(2 (2 (,))(2 (2 (2 (by))(2 (necessity)))(1 (2 (,))(1 (1 (lacks))(2 (2 (2 (Fellowship))(2 ('s)))(2 (heart)))))))))(3 (2 (,))(4 (2 (2 (Two))(2 (Towers)))(3 (3 (2 (outdoes))(2 (2 (its))(3 (spectacle))))(2 (.)))))) |ET| 
-1  |BT| (1 (1 (Disjointed))(3 (2 (parody))(2 (.)))) |ET| 
1  |BT| (3 (2 (2 (2 (A))(2 (movie)))(3 (2 (that))(2 (2 (2 (2 (sends))(2 (you)))(1 (out)))(3 (2 (of))(2 (2 (the))(3 (3 (theater))(2 (feeling))))))))(2 (3 (2 (like))(3 (2 (you))(2 (2 (2 ('ve))(2 (actually)))(2 (2 (spent))(2 (2 (2 (time))(2 (living)))(2 (2 (in))(2 (2 (another))(2 (community)))))))))(2 (.)))) |ET| 
-1  |BT| (1 (2 (There))(2 (0 (2 ('s))(1 (3 (2 (a))(3 (4 (great))(2 (deal))))(0 (2 (of))(0 (1 (corny))(1 (2 (dialogue))(2 (2 (and))(1 (0 (preposterous))(2 (moments)))))))))(2 (.)))) |ET| 
1  |BT| (3 (1 (2 (On))(1 (2 (its))(0 (2 (own))(1 (2 (staggeringly))(1 (1 (unoriginal))(2 (terms)))))))(3 (2 (,))(4 (3 (2 (this))(3 (2 (gender-bending))(3 (comedy))))(3 (3 (2 (2 (is))(2 (generally)))(4 (2 (quite))(3 (funny))))(2 (.)))))) |ET| 
-1  |BT| (1 (3 (2 (Though))(3 (2 (a))(3 (3 (capable))(3 (thriller)))))(2 (2 (,))(3 (2 (2 (somewhere))(2 (2 (along))(2 (2 (the))(2 (2 (way))(2 (K-19))))))(2 (2 (2 (jettisoned))(2 (2 (some))(2 (2 (crucial))(1 (drama)))))(2 (.)))))) |ET| 
1  |BT| (3 (2 (3 (3 (2 (A))(3 (2 (sly))(2 (2 (female))(3 (3 (empowerment))(2 (movie))))))(2 (,)))(2 (2 (although))(2 (1 (not))(2 (2 (in))(2 (2 (a))(2 (2 (way))(2 (anyone))))))))(2 (2 (2 (would))(2 (expect)))(2 (.)))) |ET| 
-1  |BT| (1 (2 (But))(3 (2 (,))(3 (2 (2 (like))(2 (Silence)))(2 (2 (,))(1 (2 (it))(2 (3 (2 ('s))(2 (2 (2 (a))(2 (movie)))(3 (2 (that))(2 (2 (gets))(2 (2 (under))(2 (2 (your))(2 (skin))))))))(2 (.)))))))) |ET| 
1  |BT| (3 (3 (3 (Very))(4 (amusing)))(1 (2 (,))(2 (2 (2 (1 (not))(2 (2 (the))(2 (2 (usual))(2 (route)))))(3 (2 (in))(3 (2 (3 (3 (2 (a))(3 (thriller)))(2 (,)))(2 (and)))(2 (2 (the))(2 (performances))))))(1 (2 (1 (1 (2 (are))(1 (1 (2 (odd))(2 (and)))(2 (pixilated))))(2 (and)))(3 (2 (sometimes))(2 (both))))(2 (.)))))) |ET| 
-1  |BT| (0 (3 (2 (To))(3 (2 (2 (paraphrase))(2 (2 (a))(2 (line))))(2 (2 (from))(2 (2 (2 (another))(2 (2 (Dickens))(2 ('))))(3 (novel))))))(1 (2 (,))(1 (2 (2 (Nicholas))(2 (Nickleby)))(1 (1 (2 (is))(0 (2 (too))(1 (2 (much))(0 (2 (like))(1 (2 (2 (a))(2 (fragment)))(1 (2 (of))(1 (2 (an))(1 (1 (underdone))(2 (potato))))))))))(2 (.)))))) |ET| 
1  |BT| (3 (2 (3 (Like))(1 (2 (2 (2 (its))(2 (3 (New))(2 (2 (England))(2 (characters)))))(2 (,)))(1 (2 (2 (most))(2 (2 (of))(2 (whom))))(1 (2 (wander))(1 (2 (about))(1 (2 (in))(1 (2 (2 (thick))(2 (clouds)))(1 (2 (of))(2 (denial))))))))))(2 (2 (,))(3 (2 (2 (the))(2 (movie)))(3 (3 (2 (eventually))(3 (3 (3 (2 (2 (gets))(2 (around)))(2 (2 (to))(4 (2 (its))(2 (3 (real))(2 (2 (emotional))(2 (business)))))))(2 (,)))(3 (3 (striking))(2 (2 (2 (deep))(2 (chords)))(2 (2 (of))(2 (sadness)))))))(2 (.)))))) |ET| 
-1  |BT| (1 (2 (3 (2 (Not))(2 (2 (a))(2 (strike))))(2 (2 (against))(2 (2 (2 (Yang))(2 ('s)))(2 (3 (2 (similarly))(2 (themed)))(2 (2 (Yi))(2 (Yi)))))))(2 (2 (2 (2 (,))(2 (but)))(2 (2 (I))(2 (2 (found))(2 (2 (What))(2 (Time))))))(2 (?)))) |ET| 
1  |BT| (3 (3 (2 (Part))(3 (2 (of))(4 (2 (2 (the))(3 (charm)))(2 (2 (of))(2 (2 (Satin))(2 (Rouge)))))))(3 (3 (2 (is))(3 (2 (that))(3 (2 (it))(2 (1 (2 (avoids))(2 (2 (the))(1 (obvious))))(3 (2 (with))(3 (3 (3 (humour))(2 (and)))(2 (lightness))))))))(2 (.)))) |ET| 
-1  |BT| (1 (0 (2 (2 (More))(2 (dutiful)))(1 (2 (than))(1 (4 (3 (enchanting))(2 (...)))(1 (1 (1 (0 (terribly))(2 (episodic)))(2 (and)))(1 (1 (lacking))(3 (2 (2 (2 (the))(2 (spark)))(2 (2 (of))(3 (imagination))))(3 (2 (that))(2 (2 (might))(4 (2 (have))(2 (2 (made))(3 (2 (2 (it))(2 (an)))(4 (exhilarating)))))))))))))(3 (3 (treat))(2 (.)))) |ET| 
1  |BT| (3 (2 (``))(1 (2 (2 (Cremaster))(2 (3)))(2 (2 (''))(3 (2 (1 (2 (should))(2 (2 (1 (1 (2 (come))(2 (2 (with))(2 (2 (the))(2 (warning)))))(2 (``)))(3 (2 (For))(2 (2 (serious))(3 (2 (film))(2 (buffs))))))(2 (only))))(2 (!)))(2 ('')))))) |ET| 
-1  |BT| (0 (2 (2 (If))(1 (2 (there))(1 (2 (was))(1 (2 (any))(1 (2 (doubt))(1 (2 (that))(1 (2 (2 (Peter))(2 (O'Fallon)))(0 (2 (2 (did))(2 (n't)))(1 (2 (have))(2 (3 (2 (an))(2 (3 (original))(2 (bone))))(2 (2 (in))(3 (2 (his))(2 (body))))))))))))))(2 (2 (,))(1 (2 (2 (2 (A))(1 (Rumor)))(2 (2 (of))(2 (Angels))))(2 (1 (2 (should))(2 (2 (dispel))(2 (it))))(2 (.)))))) |ET| 
-1  |BT| (1 (3 (3 (3 (3 (Evokes))(2 (2 (2 (1 (2 (2 (the))(0 (frustration)))(2 (,)))(2 (2 (the))(2 (awkwardness))))(2 (and)))(3 (3 (2 (the))(4 (euphoria)))(2 (2 (of))(2 (2 (growing))(2 (up)))))))(2 (,)))(2 (2 (without))(2 (2 (relying))(2 (2 (on))(2 (2 (the))(2 (2 (usual))(2 (tropes))))))))(2 (.))) |ET| 
1  |BT| (3 (2 (There))(1 (2 (2 (are))(1 (1 (2 (2 (1 (no))(2 (3 (special))(2 (effects))))(2 (,)))(2 (and)))(2 (1 (no))(2 (2 (Hollywood))(2 (endings))))))(2 (.)))) |ET| 
-0.91135444034870971563577768392861  |BT| (1 (2 (It))(1 (1 (2 (2 ('s))(1 (not)))(4 (2 (a))(4 (4 (great))(2 (2 (monster))(2 (movie))))))(2 (.)))) |ET| 
1  |BT| (3 (3 (4 (4 (3 (2 (2 (García))(2 (2 (2 (Bernal))(2 (and)))(2 (Talancón))))(4 (2 (are))(3 (2 (an))(4 (4 (3 (immensely))(3 (appealing)))(2 (couple))))))(2 (,)))(2 (and)))(3 (2 (2 (even))(1 (2 (though))(1 (2 (2 (their))(2 (story)))(1 (2 (is))(2 (predictable))))))(2 (2 (,))(3 (2 (you))(2 (2 ('ll))(2 (2 (want))(2 (2 (things))(2 (2 (to))(2 (2 (work))(1 (out)))))))))))(2 (.))) |ET| 
-1  |BT| (0 (3 (2 (Director))(2 (2 (Douglas))(1 (McGrath))))(2 (1 (3 (2 (takes))(2 (2 (on))(1 (2 (Nickleby))(2 (2 (with))(2 (1 (2 (all))(2 (2 (the))(2 (1 (halfhearted))(3 (zeal)))))(2 (2 (of))(2 (2 (an))(2 (2 (8th))(2 (3 (grade))(2 (2 (boy))(3 (delving))))))))))))(2 (2 (into))(2 (2 (required))(2 (reading)))))(2 (.)))) |ET| 
1  |BT| (3 (2 (But))(1 (2 (it))(2 (1 (2 (is))(1 (4 (entertaining))(1 (2 (on))(1 (2 (an))(1 (0 (inferior))(2 (level)))))))(2 (.))))) |ET| 
-1  |BT| (1 (2 (2 (Too))(2 (often)))(1 (2 (,))(1 (2 (2 (Son))(2 (2 (of))(2 (2 (the))(2 (Bride)))))(1 (2 (1 (2 (2 (becomes))(2 (2 (an))(2 (exercise))))(2 (2 (in))(2 (2 (trying))(2 (2 (to))(2 (2 (predict))(2 (2 (when))(2 (2 (2 (a))(2 (2 (preordained))(2 (2 (``))(2 (2 (big))(2 (3 (moment))(2 ('')))))))(2 (2 (will))(2 (2 (2 (2 (2 (occur))(2 (and)))(1 (not)))(2 (``)))(2 (if)))))))))))(2 (.)))(2 ('')))))) |ET| 
1  |BT| (3 (3 (3 (3 (2 (A))(3 (2 (crisp))(2 (3 (psychological))(1 (drama)))))(2 (1 (-LRB-))(2 (2 (and))(3 (-RRB-)))))(3 (3 (2 (a))(3 (3 (fascinating))(2 (2 (little))(3 (thriller)))))(2 (2 (that))(2 (2 (would))(3 (2 (have))(3 (2 (2 (been))(4 (perfect)))(2 (2 (for))(2 (2 (an))(2 (2 (old))(2 (2 (``))(2 (2 (Twilight))(3 (2 (Zone))(2 (2 (''))(2 (episode)))))))))))))))(2 (.))) |ET| 
-1  |BT| (1 (3 (Sex))(2 (1 (2 (is))(2 (2 (one))(1 (2 (of))(2 (2 (2 (those))(2 (films)))(2 (2 (that))(1 (2 (aims))(2 (2 (to))(2 (confuse)))))))))(2 (.)))) |ET| 
1  |BT| (3 (2 (2 (Asks))(2 (2 (what))(2 (3 (truth))(2 (2 (can))(2 (2 (be))(2 (2 (2 (2 (2 (discerned))(2 (2 (from))(1 (2 (non-firsthand))(2 (experience)))))(2 (,)))(2 (and)))(2 (specifically))))))))(1 (1 (2 (questions))(2 (2 (2 (2 (cinema))(2 ('s)))(2 (capability)))(2 (2 (for))(2 (3 (recording))(3 (truth))))))(2 (.)))) |ET| 
-1  |BT| (1 (2 (...))(1 (1 (1 (2 (3 (2 (2 (begins))(3 (2 (with))(3 (promise))))(2 (,)))(2 (but)))(2 (runs)))(1 (1 (aground))(1 (2 (after))(1 (2 (being))(1 (2 (snared))(2 (2 (in))(2 (2 (its))(2 (2 (own))(2 (2 (tangled))(2 (plot)))))))))))(2 (.)))) |ET| 
1  |BT| (3 (3 (3 (4 (2 (An))(3 (3 (uncluttered))(3 (2 (,))(4 (3 (resonant))(3 (gem))))))(3 (2 (that))(3 (2 (2 (relays))(2 (2 (its))(2 (2 (universal))(2 (points)))))(3 (2 (without))(2 (2 (2 (lectures))(2 (or)))(1 (confrontations)))))))(2 (.)))(2 ('))) |ET| 
-1  |BT| (1 (3 (1 (1 (1 (1 (1 (2 (2 (The))(2 (film)))(2 (2 (2 (runs))(2 (2 (on))(2 (2 (2 (a))(2 (little)))(2 (longer)))))(2 (2 (than))(2 (2 (it))(2 (2 (needs))(2 (to)))))))(2 (--)))(1 (2 (Muccino))(2 (2 (either))(2 (1 (2 (does))(2 (n't)))(2 (2 (notice))(4 (2 (when))(3 (2 (2 (his))(2 (story)))(3 (2 (2 (ends))(2 (or)))(3 (2 (just))(2 (2 (2 (ca))(2 (n't)))(2 (2 (2 (2 (tear))(2 (himself)))(2 (away)))(3 (2 (from))(2 (2 (the))(2 (characters)))))))))))))))(2 (--)))(2 (but)))(3 (2 (it))(3 (2 ('s))(3 (2 (2 (smooth))(2 (and)))(3 (professional))))))(2 (.))) |ET| 
1  |BT| (3 (2 (2 (The))(2 (2 (plot))(2 (twists))))(1 (1 (2 (3 (give))(2 (I)))(2 (2 (Am))(3 (2 (Trying))(2 (2 (to))(2 (2 (1 (Break))(2 (2 (Your))(3 (Heart))))(2 (2 (2 (an))(4 (attraction)))(2 (2 (it))(1 (1 (desperately))(3 (needed))))))))))(2 (.)))) |ET| 
-1  |BT| (1 (2 (2 (Watching))(2 (2 (a))(2 (2 (Brian))(2 (2 (DePalma))(2 (movie))))))(1 (2 (2 (is))(1 (2 (like))(2 (2 (2 (watching))(3 (2 (an))(2 (2 (Alfred))(2 (2 (Hitchcock))(2 (movie))))))(1 (2 (after))(2 (2 (drinking))(2 (2 (twelve))(2 (beers))))))))(2 (.)))) |ET| 
1  |BT| (4 (3 (3 (3 (3 (2 (2 (The))(2 (production)))(3 (2 (has))(4 (2 (been))(3 (2 (made))(4 (2 (with))(3 (2 (2 (an))(2 (3 (enormous))(2 (amount))))(2 (2 (of))(3 (affection)))))))))(2 (,)))(2 (so)))(2 (2 (we))(2 (2 (believe))(3 (2 (2 (these))(2 (characters)))(2 (4 (love))(2 (2 (each))(2 (other))))))))(2 (.))) |ET| 
-1  |BT| (1 (3 (Daughter))(2 (2 (1 (From))(2 (Danang)))(2 (3 (2 (reveals))(1 (2 (that))(2 (2 (2 (efforts))(2 (2 (toward))(2 (closure))))(1 (2 (only))(2 (3 (open))(2 (3 (new))(2 (wounds))))))))(2 (.))))) |ET| 
1  |BT| (3 (2 (Parts))(1 (2 (seem))(3 (2 (like))(2 (2 (they))(2 (2 (were))(3 (2 (lifted))(3 (2 (from))(2 (2 (2 (2 (2 (Terry))(2 (2 (Gilliam))(2 ('s))))(3 (subconscious)))(2 (,)))(1 (2 (pressed))(2 (2 (1 (2 (through))(2 (2 (3 (Kafka))(2 ('s)))(2 (2 (meat))(2 (grinder)))))(2 (and)))(2 (2 (into))(2 (2 (2 (Buñuel))(2 ('s)))(2 (casings)))))))))))))) |ET| 
-1  |BT| (1 (2 (It))(1 (1 (2 (is))(1 (2 (3 (2 (2 (2 (2 (a))(2 (3 (popcorn))(2 (film))))(2 (,)))(1 (1 (not))(4 (2 (a))(2 (must-own)))))(2 (,)))(2 (or)))(3 (2 (even))(4 (2 (a))(4 (must-see))))))(2 (.)))) |ET| 
1  |BT| (3 (3 (4 (2 (A))(4 (3 (good))(2 (film))))(4 (2 (with))(4 (3 (2 (a))(3 (3 (solid))(2 (pedigree))))(2 (2 (both))(2 (2 (2 (in))(2 (2 (front))(2 (of))))(2 (2 (and))(2 (2 (2 (,))(2 (2 (2 (more))(2 (specifically)))(2 (,))))(2 (2 (behind))(2 (2 (the))(2 (camera)))))))))))(2 (.))) |ET| 
-1  |BT| (1 (3 (3 (3 (2 (Eerily))(3 (accurate)))(2 (depiction)))(2 (2 (of))(2 (depression))))(2 (.))) |ET| 
1  |BT| (3 (2 (2 (2 (A))(2 (portrait)))(1 (2 (of))(2 (0 (hell))(2 (2 (so))(2 (2 (shattering))(2 (it)))))))(1 (2 (2 ('s))(2 (0 (impossible))(2 (2 (to))(2 (shake)))))(2 (.)))) |ET| 
-1  |BT| (1 (2 (2 (Not))(2 (2 (even))(2 (2 (2 (2 (Solondz))(2 ('s)))(3 (thirst)))(3 (2 (for))(1 (controversy))))))(1 (2 (,))(1 (0 (1 (sketchy))(2 (2 (characters))(1 (2 (and))(1 (2 (immature))(2 (provocations))))))(1 (2 (2 (2 (can))(2 (fully)))(0 (3 (succeed))(1 (2 (at))(1 (1 (cheapening))(2 (it))))))(2 (.)))))) |ET| 
1  |BT| (3 (3 (2 (1 (2 (2 (A))(3 (2 (literary))(3 (2 (detective))(2 (story)))))(2 (2 (2 (is))(2 (still)))(2 (2 (a))(3 (2 (detective))(2 (story))))))(2 (and)))(4 (2 (2 (aficionados))(2 (2 (of))(2 (2 (the))(2 (whodunit)))))(3 (2 (2 (wo))(2 (n't)))(0 (2 (be))(1 (disappointed))))))(2 (.))) |ET| 
-1  |BT| (1 (3 (2 (2 (3 (2 (2 (The))(2 (film)))(2 (2 (is))(3 (2 (2 (an))(2 (2 (earnest))(2 (try))))(2 (2 (at))(2 (2 (beachcombing))(2 (verismo)))))))(2 (,)))(2 (but)))(2 (2 (it))(2 (2 (would))(2 (2 (be))(3 (1 (2 (even))(2 (2 (more))(2 (indistinct))))(2 (2 (than))(3 (2 (it))(3 (2 (is))(3 (2 (2 (were))(2 (it)))(3 (1 (not))(3 (2 (for))(3 (3 (2 (the))(3 (3 (striking))(2 (2 (,))(2 (3 (2 (quietly))(2 (vulnerable)))(3 (personality))))))(2 (2 (of))(2 (2 (Ms.))(2 (Ambrose))))))))))))))))(2 (.))) |ET| 
1  |BT| (4 (2 (2 (For))(2 (2 (VeggieTales))(3 (fans))))(1 (2 (,))(3 (2 (this))(2 (3 (2 (is))(1 (2 (more))(2 (3 (appetizing))(2 (2 (than))(1 (2 (2 (a))(2 (2 (side))(2 (dish))))(2 (2 (of))(2 (asparagus))))))))(2 (.)))))) |ET| 
-1  |BT| (1 (2 (2 (Once))(1 (1 (2 (the))(2 (1 (downward))(2 (spiral))))(2 (3 (comes))(2 (2 (to))(2 (pass))))))(1 (2 (,))(1 (2 (2 (Auto))(3 (Focus)))(2 (0 (2 (2 (bears))(1 (out)))(2 (2 (as))(1 (2 (your))(1 (1 (typical))(2 (1 (junkie))(2 (opera)))))))(2 (...)))))) |ET| 
1  |BT| (3 (3 (2 (3 (2 (2 (Huppert))(2 ('s)))(3 (2 (show))(2 (2 (to))(1 (steal)))))(2 (and)))(2 (2 (she))(2 (2 (3 (2 (makes))(2 (2 (2 (a))(3 (meal)))(2 (2 (of))(2 (it)))))(2 (,)))(1 (2 (2 (channeling))(2 (1 (2 (2 (Kathy))(2 (2 (Baker))(2 ('s))))(1 (1 (creepy))(2 (turn))))(2 (2 (as))(2 (2 (2 (the))(2 (1 (repressed))(2 (mother))))(2 (2 (on))(2 (2 (2 (Boston))(2 (Public)))(2 (just))))))))(2 (2 (2 (as))(2 (2 (much))(2 (2 (as))(2 (8)))))(2 (2 (2 (Women))(2 ('s)))(2 (Augustine))))))))(2 (.))) |ET| 
-1  |BT| (1 (3 (3 (3 (2 (Grant))(3 (2 (2 (is))(3 (certainly)))(4 (amusing))))(2 (,)))(2 (but)))(2 (1 (1 (2 (the))(1 (2 (very))(1 (hollowness))))(2 (2 (of))(2 (2 (2 (the))(2 (character)))(2 (2 (he))(2 (plays))))))(2 (2 (2 (keeps))(2 (him)))(2 (2 (at))(2 (2 (arms))(2 (length))))))) |ET| 
1  |BT| (3 (2 (2 (2 (Rubbo))(2 ('s)))(3 (humorously)))(1 (2 (1 (1 (tendentious))(2 (intervention)))(2 (2 (into))(2 (2 (the))(2 (2 (who-wrote-Shakespeare))(1 (controversy))))))(2 (.)))) |ET| 
-1  |BT| (1 (2 (You))(1 (1 (2 (2 (2 (emerge))(2 (dazed)))(2 (,)))(2 (2 (1 (confused))(2 (as)))(1 (2 (to))(2 (2 (whether))(2 (2 (you))(2 (2 ('ve))(2 (2 (seen))(1 (2 (2 (pornography))(2 (or)))(2 (documentary))))))))))(2 (.)))) |ET| 
1  |BT| (3 (3 (2 (2 (Has))(2 (2 (a))(2 (3 (certain))(2 (ghoulish)))))(3 (3 (3 (3 (fascination))(2 (,)))(2 (and)))(2 (2 (generates))(3 (2 (2 (a))(3 (2 (fair))(2 (amount))))(3 (2 (of))(2 (1 (B-movie))(3 (excitement))))))))(2 (.))) |ET| 
-1  |BT| (1 (3 (Spider-Man))(2 (2 (2 (is))(2 (2 (about))(2 (3 (2 (3 (2 (2 (2 (growing))(2 (1 (strange))(2 (hairs))))(2 (,)))(3 (2 (getting))(2 (2 (a))(2 (3 (2 (more))(3 (mature)))(2 (body))))))(2 (,)))(2 (and)))(2 (2 (finding))(2 (2 (it))(2 (2 (necessary))(2 (2 (to))(1 (1 (2 (hide))(2 (3 (new))(2 (secretions))))(2 (2 (from))(2 (2 (the))(3 (2 (parental))(2 (units)))))))))))))(2 (.)))) |ET| 
1  |BT| (4 (2 (3 (2 (A))(2 (2 (coming-of-age))(2 (movie))))(2 (2 (that))(2 (Hollywood))))(1 (2 (2 (2 (would))(2 (n't)))(2 (2 (have))(2 (2 (2 (the))(3 (guts)))(2 (2 (to))(2 (make))))))(2 (.)))) |ET| 
-1  |BT| (1 (2 (2 (At))(2 (times)))(1 (2 (2 (Auto))(3 (Focus)))(2 (0 (2 (feels))(1 (1 (2 (so))(1 (distant)))(1 (2 (you))(1 (2 (2 (might))(2 (2 (as))(3 (well))))(2 (2 (be))(2 (2 (2 (watching))(2 (it)))(2 (2 (through))(2 (2 (a))(2 (telescope))))))))))(2 (.))))) |ET| 
1  |BT| (3 (3 (2 (2 (Stevens))(2 (')))(3 (3 (vibrant))(3 (4 (creative))(2 (instincts)))))(2 (3 (2 (are))(2 (2 (2 (2 (2 (the))(2 (difference)))(2 (2 (between))(2 (this))))(2 (and)))(2 (2 (2 (countless))(2 (2 (other))(2 (flicks))))(3 (2 (about))(2 (2 (2 (guys))(2 (and)))(2 (dolls)))))))(2 (.)))) |ET| 
-1  |BT| (1 (3 (2 (is))(2 (1 (1 (2 (2 (a))(2 (question)))(1 (2 (for))(1 (1 (2 (2 (philosophers))(2 (,)))(1 (not)))(2 (filmmakers)))))(2 (;)))(3 (2 (2 (all))(2 (2 (the))(2 (filmmakers))))(2 (2 (need))(2 (2 (to))(2 (do)))))))(2 (3 (2 (is))(4 (3 (engage))(2 (2 (an))(2 (audience)))))(2 (.)))) |ET| 
1  |BT| (3 (2 (2 (Changing))(2 (Lanes)))(1 (2 (2 (tries))(2 (2 (for))(2 (more))))(2 (.)))) |ET| 
-1  |BT| (1 (2 (2 (If))(1 (2 (you))(2 (2 (2 ('re))(1 (not)))(3 (2 (a))(3 (fan))))))(1 (2 (,))(1 (2 (it))(1 (1 (2 (might))(1 (2 (be))(1 (2 (like))(2 (2 (trying))(2 (2 (to))(2 (2 (eat))(2 (3 (Brussels))(2 (sprouts)))))))))(2 (.)))))) |ET| 
1  |BT| (3 (3 (2 (2 (Meyjes))(2 (')))(3 (3 (provocative))(2 (film))))(2 (2 (2 (might))(2 (2 (be))(2 (2 (called))(2 (2 (2 (an))(2 (example)))(2 (2 (of))(1 (2 (2 (the))(1 (haphazardness)))(2 (2 (of))(1 (evil)))))))))(2 (.)))) |ET| 
-1  |BT| (1 (3 (3 (Dignified))(2 (CEO)))(2 (2 (2 ('s))(2 (2 (meet))(2 (2 (at))(1 (2 (2 (a))(2 (2 (rustic))(2 (2 (2 (retreat))(2 (and)))(2 (pee)))))(3 (2 (against))(3 (2 (a))(2 (tree))))))))(2 (.)))) |ET| 
1  |BT| (4 (2 (2 (Barry))(2 (2 (convinces))(3 (us))))(1 (2 (he))(1 (2 (2 ('s))(2 (2 (2 (a))(2 (2 (2 (dangerous))(2 (2 (,))(2 (2 (secretly))(2 (unhinged)))))(2 (guy))))(2 (2 (who))(2 (2 (2 (could))(3 (easily)))(2 (2 (have))(2 (2 (2 (killed))(2 (2 (a))(2 (president))))(3 (2 (because))(2 (2 (it))(3 (2 (made))(2 (2 (him))(2 (2 (feel))(4 (powerful)))))))))))))(2 (.))))) |ET| 
-1  |BT| (1 (2 (I))(1 (0 (2 (2 (do))(2 (n't)))(4 (2 (think))(3 (2 (most))(4 (2 (of))(3 (2 (2 (the))(2 (people)))(2 (2 (who))(3 (4 (loved))(3 (2 (2 (the))(2 (2 (1989))(2 (Paradiso))))(3 (2 (will))(3 (2 (prefer))(2 (2 (this))(2 (3 (new))(2 (version))))))))))))))(2 (.)))) |ET| 
1  |BT| (4 (3 (4 (4 (2 (Pacino))(4 (2 (is))(4 (4 (2 (the))(4 (best)))(1 (2 (he))(2 (2 ('s))(2 (2 (been))(2 (2 (in))(2 (years)))))))))(2 (and)))(4 (2 (Keener))(4 (2 (is))(4 (marvelous)))))(2 (.))) |ET| 
-1  |BT| (1 (3 (2 (2 (1 (Klein))(2 (,)))(3 (3 (3 (4 (charming))(2 (2 (in))(2 (2 (comedies))(2 (2 (like))(2 (2 (American))(2 (Pie)))))))(2 (and)))(3 (3 (dead-on))(2 (2 (in))(2 (Election))))))(2 (,)))(2 (1 (2 (delivers))(0 (2 (one))(1 (2 (of))(0 (2 (2 (the))(0 (0 (saddest))(3 (2 (action))(3 (3 (hero))(2 (performances))))))(2 (2 (ever))(2 (witnessed)))))))(2 (.)))) |ET| 
1  |BT| (4 (2 (I))(1 (2 (2 (2 (am))(2 (2 (highly))(2 (3 (3 (amused))(2 (2 (by))(2 (2 (the))(2 (idea)))))(2 (2 (that))(2 (2 (we))(2 (2 (have))(2 (2 (come))(2 (2 (to))(2 (2 (2 (a))(2 (point)))(2 (2 (in))(2 (society))))))))))))(2 (2 (where))(3 (2 (it))(2 (2 (has))(3 (2 (been))(3 (2 (deemed))(2 (2 (2 (important))(2 (enough)))(1 (2 (to))(1 (2 (make))(2 (2 (2 (a))(2 (film)))(2 (2 (2 (in))(2 (which)))(2 (2 (someone))(2 (2 (has))(2 (2 (to))(2 (2 (be))(2 (2 (hired))(2 (2 (to))(2 (2 (portray))(2 (2 (Richard))(2 (Dawson)))))))))))))))))))))(2 (.)))) |ET| 
-1  |BT| (1 (2 (But))(1 (2 (2 (2 (...))(2 (2 (in))(2 (2 (trying))(2 (3 (2 (to))(3 (2 (capture))(2 (2 (2 (the))(2 (3 (novel))(2 ('s))))(2 (2 (2 (deeper))(2 (intimate)))(2 (resonances))))))(2 (2 (,))(2 (2 (2 (the))(2 (film)))(2 (has))))))))(2 (2 (--))(2 (2 (ironically))(2 (-)))))(1 (1 (1 (2 (distanced))(3 (us)))(3 (2 (from))(2 (2 (the))(2 (characters)))))(2 (.))))) |ET| 
1  |BT| (3 (3 (3 (3 (2 (Adaptation))(2 (2 (is))(3 (3 (intricately))(2 (constructed)))))(2 (and)))(2 (2 (2 (in))(2 (2 (a))(2 (1 (strange))(2 (way)))))(3 (3 (2 (nails))(2 (2 (all))(2 (2 (of))(2 (2 (2 (Orlean))(2 ('s)))(2 (themes))))))(2 (2 (without))(3 (2 (being))(3 (3 (2 (a))(2 (3 (true))(2 (adaptation))))(2 (2 (of))(2 (2 (her))(2 (book))))))))))(2 (.))) |ET| 
-1  |BT| (1 (3 (1 (3 (2 (shows))(4 (2 (Holmes))(4 (2 (has))(2 (2 (the))(2 (2 (screen))(3 (2 (presence))(3 (2 (to))(3 (2 (3 (2 (become))(3 (2 (a))(2 (3 (major-league))(2 (2 (leading))(3 (lady))))))(2 (,)))(2 (1 (-LRB-))(2 (2 (but))(3 (-RRB-))))))))))))(2 (2 (2 (the))(2 (movie)))(2 (2 (itself))(2 (2 (is))(2 (1 (1 (2 (an))(1 (underachiever)))(2 (,)))(2 (3 (2 (a))(2 (3 (psychological))(2 (mystery))))(1 (2 (that))(1 (2 (2 (takes))(2 (2 (its))(3 (4 (sweet))(2 (2 (time))(2 (building))))))(1 (2 (to))(2 (3 (2 (a))(3 (climax)))(2 (2 (that))(2 (2 (2 ('s))(2 (scarcely)))(2 (2 (2 (a))(2 (surprise)))(2 (2 (by))(2 (2 (the))(2 (time)))))))))))))))))(3 (2 (it))(2 (arrives))))(2 (.))) |ET| 
1  |BT| (3 (2 (Hardly))(1 (2 (a))(2 (2 (2 (film))(2 (2 (that))(3 (3 (comes))(2 (2 (along))(2 (2 (every))(2 (day)))))))(2 (.))))) |ET| 
-1  |BT| (1 (2 (...))(1 (2 (Pray))(1 (1 (1 (2 (does))(2 (n't)))(3 (2 (have))(3 (2 (2 (a))(2 (passion)))(2 (2 (for))(2 (2 (the))(2 (material)))))))(2 (.))))) |ET| 
1  |BT| (4 (3 (4 (4 (3 (3 (2 (Maelstrom))(3 (2 (is))(3 (2 (1 (strange))(2 (and)))(3 (compelling)))))(2 (,)))(3 (2 (4 (engrossing))(2 (and)))(2 (different))))(2 (,)))(3 (3 (2 (a))(2 (2 (moral))(2 (tale))))(3 (2 (with))(3 (3 (2 (a))(1 (1 (twisted))(2 (sense))))(2 (2 (of))(4 (humor)))))))(2 (.))) |ET| 
-1  |BT| (1 (3 (1 (2 (2 (2 (2 (A))(2 (piece)))(2 (2 (of))(2 (3 (2 (mildly))(4 (entertaining)))(2 (2 (,))(2 (1 (inoffensive))(2 (fluff)))))))(1 (2 (that))(1 (0 (1 (2 (drifts))(1 (aimlessly)))(2 (2 (for))(2 (2 (90))(2 (minutes)))))(2 (2 (before))(2 (2 (lodging))(2 (2 (in))(2 (2 (2 (the))(2 (cracks)))(2 (2 (of))(2 (2 (that))(3 (2 (ever-growing))(2 (category))))))))))))(2 (:)))(0 (2 (unembarrassing))(1 (2 (but))(0 (unmemorable)))))(2 (.))) |ET| 
1  |BT| (3 (2 (Who))(1 (2 (2 (needs))(2 (2 (3 (mind-bending))(2 (drugs)))(2 (2 (when))(2 (2 (they))(2 (2 (can))(2 (3 (2 (2 (see))(2 (2 (2 (this))(2 (,)))(2 (2 (2 (the))(2 (2 (final))(2 (part))))(2 (2 (of))(2 (2 (2 (2 (2 (the))(2 (2 (`))(2 (2 (qatsi))(2 (2 ('))(2 (trilogy))))))(2 (,)))(2 (2 (directed))(2 (2 (by))(2 (2 (Godfrey))(2 (Reggio))))))(2 (,)))))))(2 (2 (with))(2 (music))))(2 (2 (by))(2 (2 (Philip))(2 (Glass))))))))))(2 (?)))) |ET| 
-1  |BT| (1 (2 (Parker))(1 (2 (2 (can))(1 (not)))(3 (3 (2 (sustain))(3 (3 (2 (the))(3 (2 (buoyant))(2 (3 (energy))(2 (level)))))(2 (2 (of))(2 (2 (2 (the))(2 (2 (film))(2 ('s))))(2 (2 (city))(3 (beginnings)))))))(2 (2 (into))(2 (2 (its))(2 (2 (country))(2 (2 (conclusion))(2 ('))))))))) |ET| 
1  |BT| (3 (3 (3 (4 (4 (2 (2 (The))(2 (picture)))(4 (2 (uses))(4 (3 (3 (4 (humor))(2 (and)))(3 (2 (a))(3 (3 (heartfelt))(2 (conviction)))))(2 (2 (to))(2 (2 (2 (tell))(2 (2 (a))(2 (story))))(3 (2 (about))(3 (2 (2 (discovering))(2 (2 (your))(2 (destination))))(2 (2 (in))(3 (life))))))))))(2 (,)))(2 (but)))(2 (2 (2 (also))(2 (2 (2 (acknowledging))(3 (2 (2 (2 (2 (2 (the))(2 (places)))(2 (,)))(2 (and)))(2 (2 (the))(2 (people))))(2 (,))))(2 (2 (from))(2 (whence)))))(2 (2 (you))(2 (came)))))(2 (.))) |ET| 
-1  |BT| (0 (3 (2 (One))(2 (2 (of))(1 (2 (the))(0 (2 (most))(1 (incoherent))))))(2 (2 (2 (features))(2 (2 (in))(2 (2 (recent))(2 (memory)))))(2 (.)))) |ET| 
1  |BT| (3 (2 (It))(1 (2 (1 (2 (gives))(1 (0 (devastating))(2 (testimony))))(3 (2 (to))(3 (2 (2 (3 (2 (2 (both))(2 (2 (people))(2 ('s))))(2 (capacity)))(1 (2 (for))(1 (evil))))(2 (and)))(3 (3 (2 (their))(2 (4 (heroic))(2 (capacity))))(3 (2 (for))(3 (good)))))))(2 (.)))) |ET| 
-1  |BT| (1 (2 (It))(1 (2 (2 ('s))(1 (1 (2 (a))(1 (shame)))(3 (3 (2 (the))(3 (4 (3 (4 (marvelous))(2 (first)))(2 (101)))(2 (minutes))))(2 (2 (have))(2 (2 (to))(2 (2 (be))(1 (2 (combined))(2 (2 (with))(3 (2 (the))(1 (1 (1 (misconceived))(2 (final)))(2 (5))))))))))))(2 (.)))) |ET| 
1  |BT| (4 (3 (2 (As))(3 (2 (2 (giddy))(2 (and)))(3 (3 (whimsical))(2 (2 (and))(3 (2 (relevant))(2 (today)))))))(2 (2 (2 (as))(2 (it)))(2 (2 (2 (was))(2 (2 (2 (270))(2 (years)))(2 (ago))))(2 (.))))) |ET| 
-1  |BT| (1 (3 (2 (2 (2 (2 (Adults))(2 (,)))(2 (other)))(2 (2 (than))(3 (2 (the))(2 (parents)))))(2 (...)))(2 (2 (2 (will))(1 (2 (be))(1 (2 (hard))(2 (2 (2 (pressed))(2 (2 (to))(2 (succumb))))(2 (2 (to))(3 (2 (2 (the))(2 (call)))(2 (2 (of))(2 (2 (the))(2 (wild))))))))))(2 (.)))) |ET| 
1  |BT| (3 (2 (2 (The))(2 (actresses)))(1 (2 (2 (2 (2 (find))(3 (2 (their))(2 (2 (own))(2 (rhythm)))))(2 (and)))(2 (2 (2 (protect))(2 (2 (each))(2 (other))))(1 (2 (from))(1 (2 (2 (the))(2 (2 (script))(2 ('s))))(0 (0 (bad))(1 (2 (2 (ideas))(2 (and)))(2 (awkwardness))))))))(2 (.)))) |ET| 
-1  |BT| (1 (2 (It))(1 (0 (2 (2 ('s))(1 (2 (virtually))(0 (impossible))))(1 (2 (to))(1 (2 (like))(1 (2 (any))(1 (2 (of))(2 (2 (these))(1 (1 (despicable))(2 (characters)))))))))(2 (.)))) |ET| 
1  |BT| (3 (3 (1 (1 (1 (3 (2 (2 (Cho))(2 ('s)))(2 (2 (latest))(3 (2 (comic))(2 (set)))))(2 (1 (1 (2 (is))(2 (n't)))(3 (2 (3 (2 (as))(3 (sharp)))(2 (or)))(3 (2 (as))(4 (fresh)))))(3 (2 (as))(2 (2 (I))(2 (2 ('m))(3 (2 (the))(2 (2 (One))(2 (2 (That))(2 (2 (I))(2 (Want)))))))))))(2 (...)))(2 (but)))(3 (2 (it))(3 (2 (2 ('s))(2 (still)))(4 (3 (1 (damn))(3 (funny)))(2 (stuff))))))(2 (.))) |ET| 
-1  |BT| (0 (3 (2 (1 (2 (0 (3 (Talky))(1 (2 (,))(1 (2 (1 (artificial))(2 (and)))(2 (opaque)))))(2 (...)))(3 (2 (an))(3 (3 (3 (interesting))(2 (technical)))(2 (exercise)))))(2 (,)))(1 (2 (but))(0 (2 (a))(2 (1 (tedious))(2 (picture))))))(2 (.))) |ET| 
1  |BT| (3 (2 (2 (The))(2 (ending)))(1 (1 (2 (feels))(1 (2 (at))(1 (2 (odds))(2 (2 (with))(2 (2 (2 (the))(2 (rest)))(2 (2 (of))(2 (2 (the))(2 (film)))))))))(2 (.)))) |ET| 
-1  |BT| (1 (2 (But))(1 (2 (it))(1 (2 (2 (2 ('s))(2 (hardly)))(2 (2 (a))(2 (2 (necessary))(2 (enterprise)))))(2 (.))))) |ET| 
