SVM-light Version V5.01-TK-1.5
5 # kernel type
3 # kernel parameter -d 
1 # kernel parameter -g 
1 # kernel parameter -s 
1 # kernel parameter -r 
empty# kernel parameter -u 
0.4 # kernel parameter -L 
1 # kernel parameter -T 
T # kernel parameter -C 
4 # kernel parameter -F 
1 # kernel parameter -S 
0.400000 # kernel parameter -M 
3 # kernel parameter -N 
S # kernel parameter -V 
S # kernel parameter -W 
0 # kernel parameter -U 
0 # highest feature index 
6920 # number of training documents 
1234 # number of support vectors plus 1 
-1.1019772 # threshold b, each following line is a SV (starting with alpha*y)
-1  |BT| (-1 (0 (1 (0 (2 (2 (DET))(2 (2 (VERB))(2 (NOUN))))(0 (2 (2 (2 (AUX))(1 (PART)))(2 (2 (ADV))(2 (ADV))))(4 (ADJ))))(2 (PUNCT)))(0 (1 (0 (1 (1 (2 (DET))(1 (0 (ADJ))(2 (NOUN))))(2 (PUNCT)))(1 (2 (2 (DET))(2 (NOUN)))(2 (2 (ADP))(1 (2 (2 (3 (NOUN))(2 (CCONJ)))(2 (PUNCT)))(2 (0 (ADJ))(2 (2 (ADP))(2 (DET))))))))(2 (PUNCT)))(3 (2 (VERB))(2 (2 (2 (PROPN))(2 (1 (PUNCT))(2 (2 (2 (PRON))(2 (2 (2 (AUX))(2 (ADV)))(2 (2 (NUM))(2 (2 (ADP))(2 (2 (2 (DET))(2 (2 (NOUN))(2 (PART))))(2 (NOUN)))))))(3 (PUNCT)))))(2 (2 (AUX))(2 (2 (PRON))(2 (2 (PRON))(2 (2 (VERB))(2 (2 (PART))(2 (2 (VERB))(3 (2 (SCONJ))(3 (2 (DET))(3 (3 (ADJ))(2 (NOUN)))))))))))))))(2 (PUNCT))) |ET| 
0.033454594662924733161624146760005  |BT| (1 (2 (PRON))(3 (3 (3 (2 (2 (AUX))(2 (PUNCT)))(3 (2 (ADJ))(3 (2 (DET))(3 (2 (ADJ))(3 (2 (NOUN))(2 (2 (PART))(3 (2 (4 (2 (2 (2 (VERB))(2 (2 (DET))(2 (NOUN))))(2 (PUNCT)))(3 (2 (ADV))(3 (3 (VERB))(2 (2 (ADP))(2 (3 (NOUN))(2 (2 (ADP))(3 (2 (DET))(2 (2 (ADJ))(2 (NOUN))))))))))(2 (PUNCT)))(2 (2 (VERB))(3 (2 (SCONJ))(2 (2 (VERB))(3 (3 (ADJ))(2 (2 (ADP))(2 (2 (DET))(2 (NOUN)))))))))))))))(2 (2 (ADP))(2 (2 (2 (DET))(2 (NOUN)))(2 (2 (DET))(2 (2 (2 (ADV))(2 (ADJ)))(2 (3 (2 (2 (2 (AUX))(2 (PUNCT)))(2 (2 (ADV))(2 (ADV))))(2 (PUNCT)))(2 (2 (ADP))(2 (2 (2 (DET))(3 (NOUN)))(2 (2 (ADP))(2 (2 (ADJ))(2 (NOUN))))))))))))(2 (PUNCT)))) |ET| 
-1  |BT| (-1 (1 (ADV))(2 (2 (2 (2 (2 (2 (VERB))(2 (2 (ADP))(2 (2 (PROPN))(2 (2 (PROPN))(2 (PROPN))))))(2 (PUNCT)))(2 (2 (ADP))(2 (2 (DET))(1 (1 (ADJ))(2 (NOUN))))))(2 (2 (ADP))(2 (2 (2 (2 (PROPN))(2 (PROPN)))(2 (CCONJ)))(2 (2 (NOUN))(2 (2 (PROPN))(3 (PROPN)))))))(2 (PUNCT)))) |ET| 
1  |BT| (1 (1 (3 (2 (DET))(2 (3 (0 (ADJ))(3 (2 (PUNCT))(4 (ADJ))))(3 (NOUN))))(1 (3 (2 (DET))(2 (VERB)))(1 (2 (ADP))(1 (2 (DET))(2 (0 (4 (ADV))(1 (ADJ)))(2 (NOUN)))))))(2 (PUNCT))) |ET| 
-1  |BT| (-1 (3 (3 (2 (DET))(3 (3 (VERB))(2 (PUNCT))))(2 (ADJ)))(1 (1 (1 (2 (NOUN))(2 (DET)))(3 (3 (AUX))(3 (2 (PART))(3 (2 (VERB))(3 (2 (PRON))(3 (2 (ADJ))(2 (3 (PART))(2 (VERB)))))))))(2 (ADJ)))) |ET| 
1  |BT| (1 (2 (PRON))(2 (2 (AUX))(2 (2 (2 (2 (DET))(2 (1 (ADJ))(2 (NOUN))))(2 (2 (ADP))(2 (2 (2 (DET))(2 (NOUN)))(2 (2 (ADP))(2 (1 (VERB))(2 (NOUN)))))))(2 (2 (DET))(2 (2 (2 (2 (2 (VERB))(2 (CCONJ)))(2 (VERB)))(1 (PART)))(2 (VERB))))))) |ET| 
-1  |BT| (-1 (1 (2 (VERB))(0 (2 (2 (2 (2 (DET))(2 (2 (ADJ))(2 (NOUN))))(2 (2 (PRON))(2 (2 (VERB))(2 (2 (VERB))(2 (2 (2 (ADP))(2 (2 (2 (DET))(2 (NOUN)))(2 (2 (ADP))(2 (2 (DET))(2 (NOUN))))))(2 (2 (CCONJ))(2 (2 (ADV))(2 (2 (ADP))(2 (2 (DET))(2 (2 (PROPN))(2 (NOUN))))))))))))(2 (PUNCT)))(0 (ADJ))))(2 (PUNCT))) |ET| 
1  |BT| (1 (2 (2 (ADP))(2 (2 (DET))(2 (2 (PRON))(2 (2 (2 (AUX))(1 (PART)))(2 (2 (VERB))(2 (2 (DET))(2 (NOUN))))))))(2 (2 (PUNCT))(2 (2 (2 (DET))(2 (NOUN)))(2 (1 (3 (2 (AUX))(3 (2 (DET))(3 (3 (2 (ADV))(4 (ADJ)))(2 (2 (NOUN))(2 (PUNCT))))))(2 (2 (2 (2 (2 (2 (NOUN))(2 (2 (2 (NOUN))(2 (SCONJ)))(3 (3 (2 (ADJ))(2 (NOUN)))(2 (2 (3 (PART))(2 (PUNCT)))(3 (2 (PROPN))(3 (2 (PROPN))(2 (2 (ADP))(2 (DET)))))))))(2 (PROPN)))(2 (PUNCT)))(2 (PROPN)))(1 (2 (PROPN))(2 (2 (2 (PUNCT))(1 (PUNCT)))(2 (2 (CCONJ))(2 (DET)))))))(2 (AUX)))))) |ET| 
-1  |BT| (-1 (3 (ADV))(1 (2 (ADV))(1 (1 (1 (2 (0 (NOUN))(2 (PUNCT)))(2 (CCONJ)))(3 (2 (AUX))(3 (3 (3 (2 (DET))(3 (3 (ADJ))(3 (NOUN))))(2 (CCONJ)))(2 (NUM)))))(2 (PUNCT))))) |ET| 
1  |BT| (1 (2 (PRON))(4 (3 (3 (VERB))(2 (2 (2 (DET))(2 (2 (NOUN))(2 (NOUN))))(2 (2 (ADP))(2 (2 (2 (2 (DET))(2 (NOUN)))(2 (PUNCT)))(2 (2 (DET))(2 (2 (VERB))(2 (2 (PART))(2 (2 (VERB))(2 (2 (SCONJ))(2 (2 (2 (DET))(2 (NOUN)))(2 (2 (VERB))(2 (2 (2 (DET))(2 (NOUN)))(2 (2 (ADP))(2 (2 (2 (PROPN))(2 (PART)))(1 (NOUN))))))))))))))))(2 (PUNCT)))) |ET| 
-1  |BT| (-1 (0 (2 (2 (2 (2 (PRON))(2 (2 (VERB))(2 (2 (2 (VERB))(2 (2 (DET))(2 (NOUN))))(2 (2 (SCONJ))(2 (2 (2 (DET))(2 (2 (2 (PROPN))(2 (CCONJ)))(2 (2 (2 (2 (2 (2 (NOUN))(3 (2 (ADJ))(3 (NOUN))))(2 (PUNCT)))(2 (3 (PROPN))(2 (1NUM))))(2 (PUNCT)))(2 (2 (ADP))(2 (2 (2 (2 (2 (2 (PROPN))(2 (PROPN)))(2 (PUNCT)))(2 (2 (PROPN))(2 (PROPN))))(2 (PUNCT)))(2 (PROPN)))))))(2 (PROPN)))))))(2 (PROPN)))(2 (PUNCT)))(0 (2 (2 (2 (CCONJ))(2 (2 (ADP))(2 (DET))))(2 (2 (NOUN))(2 (2 (PUNCT))(2 (2 (ADP))(2 (DET))))))(0 (2 (NOUN))(1 (2 (2 (PUNCT))(2 (DET)))(2 (2 (NOUN))(1 (AUX)))))))(2 (ADJ))) |ET| 
-1  |BT| (-1 (2 (2 (SCONJ))(2 (2 (PRON))(3 (2 (2 (VERB))(1 (ADP)))(3 (2 (ADP))(3 (2 (ADJ))(2 (NOUN)))))))(1 (2 (PUNCT))(0 (2 (3 (2 (2 (NOUN))(2 (CCONJ)))(2 (NOUN)))(1 (2 (VERB))(2 (1 (1 (2 (2 (PRON))(2 (2 (VERB))(2 (2 (AUX))(3 (2 (VERB))(2 (2 (DET))(2 (NOUN)))))))(2 (PUNCT)))(2 (CCONJ)))(3 (2 (SCONJ))(2 (2 (PRON))(2 (2 (VERB))(2 (PRON))))))))(2 (2 (2 (VERB))(2 (2 (VERB))(2 (2 (ADP))(2 (2 (2 (DET))(2 (2 (ADJ))(2 (NOUN))))(2 (2 (ADP))(2 (PROPN)))))))(2 (PUNCT)))))) |ET| 
-1  |BT| (-1 (3 (3 (2 (DET))(3 (3 (ADV))(3 (PUNCT))))(2 (ADV)))(0 (2 (NOUN))(4 (3 (2 (DET))(3 (2 (ADV))(1 (VERB))))(2 (ADP))))) |ET| 
1  |BT| (1 (2 (2 (2 (PROPN))(2 (2 (PROPN))(2 (PART))))(3 (PROPN)))(2 (2 (2 (AUX))(2 (2 (SCONJ))(2 (2 (DET))(2 (2 (1NUM))(2 (2 (PROPN))(2 (PROPN)))))))(2 (PUNCT)))) |ET| 
-1  |BT| (-1 (1 (0 (1 (1 (2 (2 (2 (2 (2 (1 (DET))(2 (NOUN)))(2 (VERB)))(2 (PUNCT)))(2 (2 (SCONJ))(2 (PROPN))))(2 (PUNCT)))(2 (2 (VERB))(2 (2 (2 (DET))(2 (2 (ADJ))(2 (NOUN))))(2 (2 (ADP))(2 (NOUN))))))(2 (PUNCT)))(2 (CCONJ)))(1 (2 (2 (2 (2 (2 (DET))(2 (NOUN)))(2 (PUNCT)))(3 (2 (VERB))(2 (2 (ADP))(2 (2 (2 (2 (NOUN))(2 (2 (PROPN))(2 (2 (PROPN))(2 (PROPN)))))(2 (CCONJ)))(2 (2 (PROPN))(2 (2 (PUNCT))(2 (2 (PROPN))(2 (2 (PUNCT))(2 (PROPN))))))))))(2 (PUNCT)))(2 (2 (VERB))(1 (2 (ADV))(2 (ADJ))))))(2 (PUNCT))) |ET| 
1  |BT| (1 (3 (1 (1 (1 (2 (2 (2 (DET))(2 (2 (NOUN))(2 (PART))))(2 (NOUN)))(1 (2 (VERB))(1 (2 (AUX))(2 (ADJ)))))(2 (PUNCT)))(2 (CCONJ)))(3 (2 (PRON))(3 (2 (2 (PUNCT))(2 (PROPN)))(3 (2 (2 (ADV))(2 (2 (VERB))(2 (DET))))(2 (2 (ADJ))(3 (2 (INTJ))(2 (3 (2 (PRON))(2 (VERB)))(2 (2 (PRON))(2 (2 (ADP))(2 (2 (DET))(2 (2 (ADJ))(2 (NOUN)))))))))))))(2 (NOUN))) |ET| 
-1  |BT| (-1 (1 (2 (PRON))(2 (2 (AUX))(2 (VERB))))(3 (3 (2 (AUX))(3 (2 (PRON))(3 (2 (PRON))(3 (2 (VERB))(1 (2 (DET))(3 (2 (PUNCT))(3 (3 (INTJ))(2 (2 (PUNCT))(2 (NOUN))))))))))(2 (PUNCT)))) |ET| 
1  |BT| (1 (2 (2 (2 (DET))(2 (2 (ADJ))(2 (NOUN))))(0 (2 (ADP))(2 (2 (2 (2 (2 (NUM))(2 (2 (NOUN))(2 (PART))))(2 (2 (ADJ))(2 (NOUN))))(2 (CCONJ)))(1 (2 (2 (2 (DET))(2 (2 (ADJ))(2 (NOUN))))(2 (PUNCT)))(2 (2 (2 (DET))(2 (2 (ADJ))(2 (NOUN))))(2 (2 (ADP))(2 (ADJ))))))))(2 (2 (1 (1 (NOUN))(4 (ADJ)))(2 (2 (ADP))(2 (3 (PROPN))(2 (PROPN)))))(2 (PUNCT)))) |ET| 
-0.85626167745007186749006677928264  |BT| (-1 (1 (2 (2 (2 (2 (2 (NOUN))(2 (PROPN)))(2 (1 (1 (2 (AUX))(2 (PART)))(2 (2 (2 (ADV))(1 (SCONJ)))(2 (2 (ADP))(2 (ADJ)))))(1 (2 (ADJ))(2 (NOUN)))))(2 (PUNCT)))(2 (CCONJ)))(1 (2 (PROPN))(3 (3 (2 (ADP))(2 (PROPN)))(1 (2 (VERB))(2 (2 (PRON))(2 (4 (ADV))(2 (ADJ))))))))(2 (PUNCT))) |ET| 
1  |BT| (1 (2 (2 (DET))(2 (NOUN)))(2 (3 (2 (AUX))(2 (2 (DET))(3 (3 (ADJ))(3 (2 (NOUN))(2 (2 (PART))(3 (3 (VERB))(2 (2 (PRON))(2 (2 (3 (ADV))(2 (ADV)))(2 (2 (PRON))(1 (2 (VERB))(1 (2 (PRON))(1 (2 (AUX))(2 (2 (ADP))(2 (2 (NOUN))(2 (2 (ADP))(1 (2 (VERB))(1 (ADV))))))))))))))))))(2 (PUNCT)))) |ET| 
-1  |BT| (-1 (1 (2 (ADP))(1 (1 (1 (2 (1 (DET))(2 (NOUN)))(3 (2 (DET))(4 (NOUN))))(2 (PUNCT)))(1 (0 (0 (2 (NOUN))(1 (2 (CCONJ))(0 (2 (ADJ))(1 (0 (PART))(2 (2 (ADV))(2 (VERB)))))))(3 (DET)))(3 (2 (NOUN))(3 (2 (NOUN))(4 (2 (PRON))(3 (3 (3 (VERB))(3 (2 (AUX))(4 (3 (2 (VERB))(3 (ADP)))(2 (2 (DET))(3 (2 (NOUN))(2 (ADP)))))))(3 (2 (DET))(4 (2 (NOUN))(4 (3 (ADP))(2 (2 (DET))(2 (ADJ)))))))))))))(4 (2 (ADJ))(4 (2 (NOUN))(4 (2 (PUNCT))(3 (3 (2 (3 (PRON))(1 (ADV)))(3 (2 (VERB))(3 (2 (ADP))(4 (3 (SCONJ))(2 (2 (DET))(3 (3 (ADJ))(2 (4 (PUNCT))(2 (ADJ)))))))))(2 (NOUN))))))) |ET| 
1  |BT| (1 (1 (PUNCT))(3 (2 (2 (SCONJ))(2 (3 (2 (DET))(2 (2 (ADJ))(2 (2 (PROPN))(3 (PUNCT)))))(1 (2 (AUX))(2 (2 (ADV))(2 (ADJ))))))(2 (2 (PUNCT))(2 (2 (2 (2 (1 (VERB))(2 (2 (ADP))(2 (2 (2 (2 (DET))(2 (2 (ADJ))(2 (3 (NOUN))(2 (NOUN)))))(2 (CCONJ)))(2 (2 (DET))(2 (2 (3 (NOUN))(2 (CCONJ)))(1 (NOUN)))))))(2 (PUNCT)))(2 (2 (SCONJ))(3 (2 (PROPN))(2 (2 (AUX))(2 (2 (ADV))(2 (2 (ADJ))(2 (2 (ADP))(2 (2 (2 (DET))(2 (2 (ADJ))(2 (NOUN))))(2 (2 (ADP))(2 (NOUN)))))))))))(2 (PUNCT)))))) |ET| 
-1  |BT| (-1 (2 (ADV))(2 (2 (PUNCT))(2 (2 (1 (PUNCT))(2 (PROPN)))(2 (2 (PROPN))(2 (2 (2 (PUNCT))(2 (2 (NOUN))(2 (2 (ADP))(2 (2 (NOUN))(2 (2 (2 (PRON))(2 (2 (AUX))(2 (ADP))))(2 (2 (NOUN))(2 (3 (2 (ADV))(3 (DET)))(2 (2 (NOUN))(2 (2 (AUX))(2 (2 (VERB))(3 (1ADP))))))))))))(2 (NUM))))))) |ET| 
0.71210453989851352218920510495082  |BT| (1 (4 (4 (2 (DET))(3 (4 (ADJ))(2 (NOUN))))(2 (2 (ADP))(3 (2 (2 (ADJ))(2 (2 (DET))(2 (NOUN))))(3 (2 (ADP))(3 (2 (2 (DET))(2 (NOUN)))(2 (2 (DET))(2 (2 (ADV))(3 (2 (VERB))(3 (3 (3 (2 (DET))(3 (4 (ADJ))(2 (NOUN))))(2 (CCONJ)))(2 (2 (ADJ))(2 (NOUN))))))))))))(1 (1 (1 (VERB))(2 (3 (PRON))(1 (2 (1 (VERB))(2 (2 (ADP))(1 (PRON))))(2 (2 (ADJ))(2 (2 (SCONJ))(2 (2 (DET))(2 (2 (ADJ))(2 (NOUN)))))))))(2 (PUNCT)))) |ET| 
-1  |BT| (-1 (0 (1 (0 (2 (DET))(1 (1 (ADJ))(1 (NOUN))))(2 (PUNCT)))(0 (1 (2 (VERB))(1 (2 (ADP))(1 (2 (DET))(0 (0 (ADJ))(2 (NOUN))))))(1 (2 (SCONJ))(1 (2 (2 (SCONJ))(1 (2 (PRON))(1 (1 (VERB))(1 (2 (PRON))(1 (2 (ADP))(0 (2 (ADJ))(2 (PUNCT))))))))(3 (2 (VERB))(3 (2 (NOUN))(2 (2 (PUNCT))(3 (2 (PRON))(3 (2 (VERB))(4 (2 (3 (2 (AUX))(3 (3 (VERB))(2 (PUNCT))))(2 (NOUN)))(3 (2 (PUNCT))(4 (3 (PUNCT))(3 (2 (PUNCT))(2 (2 (ADJ))(3 (2 (PUNCT))(3 (2 (CCONJ))(2 (PUNCT))))))))))))))))))(2 (ADJ))) |ET| 
1  |BT| (1 (2 (PRON))(2 (2 (2 (VERB))(2 (2 (DET))(2 (2 (PROPN))(2 (2 (2 (PUNCT))(2 (2 (2 (PRON))(2 (2 (2 (AUX))(1 (PART)))(2 (2 (VERB))(2 (4 (NOUN))(2 (2 (ADP))(2 (2 (DET))(2 (NOUN))))))))(2 (PUNCT))))(2 (2 (PRON))(2 (2 (2 (AUX))(1 (PART)))(2 (4 (VERB))(2 (2 (ADP))(2 (PRON))))))))))(2 (PUNCT)))) |ET| 
0.8875149291105266513568494701758  |BT| (1 (3 (3 (2 (DET))(3 (4 (ADJ))(2 (2 (ADJ))(2 (NOUN)))))(3 (2 (ADP))(2 (3 (2 (NOUN))(2 (PUNCT)))(2 (2 (ADV))(2 (DET))))))(2 (2 (2 (2 (NOUN))(2 (2 (ADP))(2 (2 (NOUN))(3 (2 (ADP))(2 (3 (ADJ))(2 (2 (ADJ))(2 (NOUN))))))))(2 (2 (PART))(2 (2 (2 (AUX))(2 (ADP)))(2 (2 (SCONJ))(2 (2 (DET))(2 (3 (ADJ))(2 (NOUN))))))))(2 (PUNCT)))) |ET| 
1  |BT| (1 (1 (3 (VERB))(1 (2 (ADP))(1 (2 (DET))(0 (1 (1 (NOUN))(2 (CCONJ)))(1 (NOUN))))))(2 (3 (2 (AUX))(3 (2 (NOUN))(2 (2 (ADP))(3 (2 (DET))(4 (NOUN))))))(2 (PUNCT)))) |ET| 
-1  |BT| (-1 (2 (2 (2 (2 (2 (2 (DET))(1 (2 (VERB))(2 (NOUN))))(3 (2 (PUNCT))(3 (2 (PROPN))(2 (2 (AUX))(2 (1 (DET))(2 (2 (PROPN))(1 (NOUN))))))))(2 (PUNCT)))(2 (CCONJ)))(2 (1 (2 (ADV))(2 (2 (DET))(2 (1 (ADJ))(2 (NOUN)))))(1 (2 (ADV))(2 (2 (VERB))(1 (2 (PRON))(2 (2 (VERB))(2 (2 (PRON))(2 (2 (AUX))(2 (2 (VERB))(2 (2 (2 (DET))(2 (NOUN)))(2 (2 (ADP))(2 (3 (PROPN))(2 (PROPN))))))))))))))(2 (PUNCT))) |ET| 
1  |BT| (1 (2 (PRON))(2 (2 (2 (AUX))(2 (2 (2 (ADJ))(2 (2 (ADP))(2 (2 (NOUN))(2 (2 (ADP))(2 (PROPN))))))(2 (2 (DET))(2 (2 (2 (2 (2 (2 (AUX))(2 (NOUN)))(2 (PUNCT)))(2 (CCONJ)))(2 (ADV)))(2 (2 (AUX))(2 (2 (PRON))(2 (2 (VERB))(2 (2 (2 (DET))(2 (2 (NOUN))(2 (NOUN))))(2 (PRON))))))))))(2 (PUNCT)))) |ET| 
-1  |BT| (-1 (3 (2 (2 (DET))(1 (NOUN)))(2 (2 (ADP))(2 (2 (PROPN))(2 (PROPN)))))(3 (2 (2 (AUX))(2 (2 (SCONJ))(2 (2 (PRON))(2 (2 (AUX))(2 (2 (2 (DET))(2 (NOUN)))(2 (3 (VERB))(2 (2 (ADP))(2 (2 (2 (PROPN))(2 (PROPN)))(2 (2 (2 (VERB))(2 (2 (ADP))(2 (2 (DET))(2 (NOUN)))))(2 (2 (ADP))(2 (2 (PROPN))(2 (PROPN)))))))))))))(2 (PUNCT)))) |ET| 
1  |BT| (1 (3 (ADJ))(1 (1 (2 (CCONJ))(1 (2 (ADV))(1 (ADJ))))(2 (PUNCT)))) |ET| 
-1  |BT| (-1 (0 (2 (2 (2 (VERB))(2 (2 (2 (2 (PROPN))(2 (PROPN)))(2 (PUNCT)))(2 (2 (2 (DET))(2 (0 (2 (ADJ))(0 (ADJ)))(2 (NOUN))))(2 (2 (ADP))(2 (2 (ADJ))(2 (PROPN)))))))(2 (PUNCT)))(2 (2 (SCONJ))(0 (2 (PRON))(0 (2 (AUX))(1 (2 (VERB))(2 (2 (ADP))(2 (2 (1 (2 (ADJ))(2 (2 (ADP))(2 (2 (DET))(2 (NOUN)))))(2 (CCONJ)))(2 (2 (DET))(2 (2 (ADP))(2 (2 (2 (DET))(2 (NOUN)))(2 (2 (ADP))(4 (NOUN)))))))))))))(2 (PUNCT))) |ET| 
1  |BT| (1 (2 (2 (2 (2 (2 (2 (2 (PROPN))(2 (PROPN)))(2 (PUNCT)))(2 (2 (PROPN))(2 (PROPN))))(2 (CCONJ)))(2 (DET)))(2 (2 (DET))(2 (NOUN))))(2 (3 (2 (AUX))(2 (2 (VERB))(2 (2 (PART))(2 (2 (2 (VERB))(3 (2 (DET))(3 (2 (ADJ))(2 (NOUN)))))(1 (2 (ADP))(4 (3 (2 (2 (VERB))(4 (2 (DET))(4 (4 (ADJ))(3 (NOUN)))))(1 (SCONJ)))(0 (2 (ADP))(2 (3 (2 (DET))(2 (2 (ADV))(2 (2 (ADJ))(2 (PUNCT)))))(0 (2 (NOUN))(0 (2 (NOUN))(0 (2 (2 (2 (ADP))(2 (DET)))(2 (ADJ)))(0 (CCONJ)))))))))))))(2 (ADJ)))) |ET| 
-1  |BT| (-1 (1 (3 (2 (AUX))(3 (2 (2 (DET))(3 (2 (DET))(2 (NOUN))))(2 (2 (ADP))(2 (2 (DET))(2 (NOUN))))))(2 (1 (2 (2 (2 (VERB))(2 (ADV)))(2 (2 (ADP))(2 (2 (3 (NOUN))(2 (PART)))(2 (2 (NOUN))(2 (NOUN))))))(2 (PUNCT)))(2 (2 (2 (2 (DET))(2 (NOUN)))(2 (1 (2 (3 (2 (ADV))(2 (ADJ)))(2 (2 (PRON))(3 (2 (VERB))(1 (2 (2 (DET))(2 (NOUN)))(1 (2 (ADP))(1 (0 (ADJ))(3 (NOUN))))))))(2 (PUNCT)))(2 (2 (ADV))(2 (2 (2 (ADV))(2 (SCONJ)))(2 (3NUM))))))(1 (2 (PUNCT))(2 (2 (NOUN))(2 (VERB)))))))(2 (PRON))) |ET| 
-1  |BT| (-1 (2 (2 (2 (2 (1 (2 (2 (PRON))(2 (3 (2 (AUX))(4 (ADV)))(3 (3 (ADJ))(2 (2 (ADP))(2 (2 (DET))(2 (2 (NOUN))(2 (2 (CCONJ))(3 (2 (NOUN))(2 (PROPN))))))))))(2 (PUNCT)))(2 (CCONJ)))(2 (2 (PRON))(2 (2 (AUX))(2 (1 (DET))(2 (2 (VERB))(2 (2 (2 (DET))(2 (NOUN)))(2 (2 (ADP))(2 (2 (DET))(2 (NOUN))))))))))(2 (PUNCT)))(0 (2 (PRON))(2 (0 (2 (VERB))(1 (1 (2 (DET))(1 (0 (ADJ))(2 (NOUN))))(2 (2 (ADP))(2 (2 (DET))(2 (2 (2 (NOUN))(2 (CCONJ)))(2 (NOUN)))))))(2 (2 (ADP))(2 (2 (DET))(2 (NOUN)))))))(2 (PUNCT))) |ET| 
1  |BT| (1 (3 (3 (1 (2 (DET))(2 (2 (2 (2 (ADJ))(2 (CCONJ)))(2 (2 (ADV))(2 (ADJ))))(2 (NOUN))))(2 (2 (ADP))(2 (2 (NOUN))(2 (NOUN)))))(3 (2 (PUNCT))(2 (1 (2 (2 (DET))(2 (NOUN)))(2 (ADV)))(3 (2 (2 (ADP))(1 (2 (1 (VERB))(2 (2 (DET))(2 (2 (ADP))(3 (2 (PROPN))(2 (1 (PROPN))(2 (PROPN)))))))(2 (2 (ADP))(2 (2 (2 (DET))(2 (2 (ADJ))(2 (NOUN))))(2 (2 (ADP))(2 (2 (NUM))(2 (NOUN))))))))(2 (2 (PUNCT))(2 (2 (CCONJ))(2 (2 (ADJ))(2 (2 (ADP))(2 (2 (DET))(2 (NOUN)))))))))))(2 (2 (2 (VERB))(2 (2 (ADP))(2 (2 (DET))(2 (NOUN)))))(2 (PUNCT)))) |ET| 
1  |BT| (1 (4 (2 (2 (2 (VERB))(2 (2 (2 (2 (DET))(2 (2 (2 (NOUN))(3 (2 (ADP))(3 (2 (DET))(2 (NOUN)))))(2 (2 (PUNCT))(2 (2 (2 (PUNCT))(2 (2 (VERB))(2 (ADP))))(2 (PROPN))))))(2 (PUNCT)))(2 (2 (CCONJ))(2 (2 (PUNCT))(2 (PUNCT))))))(2 (NOUN)))(4 (2 (PUNCT))(4 (2 (2 (PUNCT))(2 (2 (CCONJ))(2 (2 (ADP))(2 (2 (NOUN))(2 (ADP))))))(3 (2 (DET))(4 (2 (2 (NOUN))(2 (PUNCT)))(3 (2 (DET))(3 (2 (NOUN))(4 (2 (2 (AUX))(2 (ADP)))(2 (2 (DET))(2 (NOUN)))))))))))(2 (ADP))) |ET| 
-1  |BT| (-1 (2 (VERB))(2 (2 (2 (2 (SCONJ))(2 (2 (NUM))(2 (2 (ADP))(2 (2 (DET))(2 (NOUN))))))(2 (2 (DET))(2 (2 (2 (2 (PROPN))(2 (2 (PROPN))(2 (PROPN))))(2 (2 (ADP))(2 (2 (PUNCT))(2 (2 (PUNCT))(2 (2 (DET))(2 (PROPN)))))))(2 (PUNCT)))))(2 (AUX)))) |ET| 
1  |BT| (1 (2 (CCONJ))(1 (2 (PRON))(2 (1 (2 (AUX))(1 (4 (ADJ))(1 (2 (ADP))(1 (2 (DET))(1 (0 (ADJ))(2 (NOUN)))))))(2 (PUNCT))))) |ET| 
-1  |BT| (-1 (2 (PRON))(1 (1 (1 (VERB))(1 (3 (2 (2 (2 (2 (2 (DET))(2 (2 (ADJ))(2 (NOUN))))(2 (2 (PRON))(2 (VERB))))(2 (PUNCT)))(3 (3 (2 (DET))(2 (2 (ADJ))(3 (3 (ADJ))(2 (NOUN)))))(3 (2 (ADP))(2 (2 (DET))(2 (NOUN))))))(2 (PUNCT)))(2 (2 (CCONJ))(1 (1 (DET))(3 (3 (ADJ))(3 (NOUN)))))))(2 (PUNCT)))) |ET| 
1  |BT| (1 (3 (2 (ADP))(4 (4 (ADJ))(3 (NOUN))))(2 (2 (PUNCT))(2 (2 (2 (DET))(2 (NOUN)))(2 (2 (2 (2 (2 (VERB))(2 (2 (2 (PROPN))(2 (PART)))(2 (NOUN))))(2 (2 (ADV))(2 (2 (ADP))(2 (2 (2 (PROPN))(2 (CCONJ)))(2 (2 (DET))(2 (NOUN)))))))(2 (2 (ADV))(2 (2 (2 (2 (2 (2 (DET))(2 (NOUN)))(2 (PUNCT)))(2 (2 (PROPN))(2 (2 (PROPN))(2 (PROPN)))))(2 (PUNCT)))(2 (2 (ADV))(2 (VERB))))))(2 (PUNCT)))))) |ET| 
-1  |BT| (-1 (2 (PRON))(2 (2 (2 (AUX))(2 (2 (2 (2 (2 (NUM))(2 (NOUN)))(2 (2 (PART))(2 (2 (VERB))(2 (ADP)))))(2 (CCONJ)))(2 (2 (NOUN))(2 (2 (ADP))(2 (2 (2 (DET))(2 (3 (2 (2 (2 (2 (ADJ))(2 (PUNCT)))(2 (CCONJ)))(2 (ADJ)))(2 (PUNCT)))(2 (2 (NOUN))(2 (NOUN)))))(2 (2 (2 (VERB))(2 (ADP)))(2 (2 (ADP))(2 (2 (DET))(2 (NOUN))))))))))(2 (PUNCT)))) |ET| 
-1  |BT| (-1 (1 (2 (ADV))(2 (2 (ADP))(2 (2 (2 (NUM))(2 (NOUN)))(2 (2 (ADP))(2 (2 (VERB))(2 (2 (ADV))(2 (2 (DET))(2 (ADJ)))))))))(1 (2 (2 (2 (PROPN))(2 (CCONJ)))(2 (PROPN)))(2 (2 (ADV))(1 (1 (2 (VERB))(1 (2 (ADJ))(3 (2 (ADP))(2 (2 (NOUN))(2 (2 (VERB))(2 (2 (DET))(2 (2 (ADJ))(2 (NOUN)))))))))(2 (PUNCT)))))) |ET| 
-1  |BT| (-1 (4 (2 (2 (DET))(3 (3 (ADJ))(3 (NOUN))))(3 (2 (SCONJ))(3 (ADV))))(1 (2 (1 (1 (1 (ADJ))(2 (CCONJ)))(2 (VERB)))(1 (2 (SCONJ))(1 (2 (DET))(1 (2 (PROPN))(2 (NOUN))))))(2 (PUNCT)))) |ET| 
1  |BT| (1 (2 (PROPN))(3 (2 (2 (AUX))(2 (2 (2 (DET))(2 (NOUN)))(2 (2 (ADP))(2 (2 (2 (DET))(2 (NOUN)))(2 (2 (2 (NOUN))(2 (2 (ADP))(2 (2 (ADJ))(2 (NOUN)))))(2 (2 (2 (VERB))(2 (2 (ADP))(2 (2 (2 (CCONJ))(2 (ADP)))(2 (NOUN)))))(2 (2 (ADP))(2 (2 (DET))(2 (NOUN))))))))))(2 (PUNCT)))) |ET| 
-1  |BT| (-1 (2 (2 (2 (DET))(2 (2 (ADJ))(2 (NOUN))))(2 (2 (2 (ADP))(2 (PUNCT)))(2 (PUNCT))))(2 (2 (2 (2 (2 (NOUN))(2 (2 (PUNCT))(2 (2 (NOUN))(2 (2 (PUNCT))(2 (2 (NOUN))(2 (2 (PUNCT))(2 (NOUN))))))))(2 (2 (PUNCT))(2 (2 (ADV))(2 (DET)))))(2 (2 (NOUN))(2 (2 (ADP))(2 (2 (DET))(2 (ADJ))))))(2 (NOUN)))) |ET| 
0.38048918405270226728021043527406  |BT| (1 (0 (2 (ADP))(1 (2 (2 (DET))(2 (NOUN)))(1 (2 (ADP))(1 (1 (ADJ))(1 (NOUN))))))(4 (2 (PUNCT))(3 (2 (2 (DET))(2 (3 (PROPN))(2 (PROPN))))(4 (4 (2 (AUX))(3 (4 (ADV))(3 (1 (ADJ))(3 (ADJ)))))(2 (PUNCT)))))) |ET| 
-1  |BT| (-1 (2 (2 (2 (DET))(2 (1 (ADJ))(2 (2 (NOUN))(1 (PUNCT)))))(2 (2 (2 (VERB))(2 (NOUN)))(2 (2 (2 (2 (DET))(2 (PUNCT)))(2 (1 (AUX))(2 (2 (PRON))(2 (2 (2 (PART))(2 (2 (ADP))(2 (PROPN))))(3 (PROPN))))))(2 (PART)))))(2 (1 (2 (NOUN))(2 (2 (PUNCT))(2 (2 (VERB))(2 (2 (2 (AUX))(2 (ADV)))(2 (2 (VERB))(2 (3 (ADP))(2 (DET))))))))(2 (PROPN)))) |ET| 
1  |BT| (1 (2 (2 (2 (2 (2 (ADJ))(2 (2 (AUX))(2 (2 (AUX))(2 (2 (3 (VERB))(2 (2 (ADP))(2 (2 (DET))(2 (NOUN)))))(2 (2 (ADV))(2 (2 (2 (DET))(2 (2 (ADJ))(2 (PUNCT))))(2 (2 (2 (NOUN))(2 (VERB)))(2 (2 (ADV))(3 (2 (ADP))(2 (2 (DET))(2 (NOUN))))))))))))(2 (NOUN)))(2 (NOUN)))(2 (2 (PUNCT))(2 (2 (2 (2 (CCONJ))(2 (NOUN)))(2 (AUX)))(2 (2 (PART))(2 (2 (ADV))(2 (2 (AUX))(2 (DET))))))))(2 (NOUN))) |ET| 
-1  |BT| (-1 (2 (PRON))(2 (2 (2 (VERB))(2 (2 (2 (DET))(2 (NOUN)))(2 (2 (2 (2 (AUX))(2 (2 (ADV))(2 (2 (ADV))(2 (ADJ)))))(2 (2 (2 (DET))(3 (NOUN)))(2 (2 (ADP))(2 (PRON)))))(2 (2 (SCONJ))(2 (2 (PRON))(2 (2 (AUX))(2 (2 (ADP))(2 (2 (DET))(2 (NOUN))))))))))(2 (PUNCT)))) |ET| 
1  |BT| (1 (2 (1 (1 (1 (2 (2 (DET))(2 (NOUN)))(1 (2 (AUX))(1 (ADJ))))(2 (PUNCT)))(2 (CCONJ)))(2 (2 (PRON))(3 (2 (AUX))(3 (2 (DET))(2 (2 (ADJ))(3 (NOUN)))))))(2 (PUNCT))) |ET| 
1  |BT| (1 (2 (PRON))(4 (2 (2 (2 (AUX))(2 (ADV)))(4 (3 (ADJ))(2 (2 (PART))(2 (2 (VERB))(2 (2 (PROPN))(2 (2 (2 (DET))(2 (NOUN)))(2 (2 (ADP))(2 (NOUN)))))))))(2 (PUNCT)))) |ET| 
1  |BT| (1 (4 (2 (2 (2 (2 (2 (VERB))(2 (2 (ADP))(2 (2 (2 (DET))(2 (2 (ADJ))(2 (NOUN))))(2 (2 (ADP))(2 (2 (DET))(3 (2 (NOUN))(2 (NOUN))))))))(2 (2 (ADP))(2 (2 (2 (PROPN))(2 (PART)))(2 (4 (PROPN))(2 (PROPN))))))(2 (PUNCT)))(3 (2 (CCONJ))(2 (2 (PRON))(3 (2 (ADV))(2 (2 (VERB))(4 (2 (SCONJ))(2 (2 (SCONJ))(2 (2 (PRON))(2 (2 (AUX))(2 (2 (ADP))(2 (2 (2 (2 (2 (DET))(2 (2 (ADJ))(2 (2 (NUM))(2 (2 (NOUN))(2 (NOUN))))))(2 (2 (DET))(2 (2 (2 (2 (2 (VERB))(2 (2 (DET))(2 (2 (ADJ))(2 (NOUN)))))(2 (2 (ADP))(2 (PROPN))))(2 (PUNCT)))(3 (2 (3 (VERB))(2 (CCONJ)))(2 (VERB))))))(2 (PUNCT)))(2 (NOUN)))))))))))))(2 (CCONJ)))(2 (2 (VERB))(2 (2 (ADP))(2 (2 (DET))(2 (2 (ADP))(2 (2 (2 (DET))(2 (ADV)))(1 (PART)))))))) |ET| 
-1  |BT| (-1 (0 (2 (SCONJ))(2 (2 (2 (SCONJ))(2 (2 (VERB))(2 (2 (PART))(2 (2 (VERB))(3 (2 (2 (DET))(2 (NOUN)))(2 (2 (ADP))(2 (NOUN))))))))(2 (2 (PUNCT))(2 (2 (2 (PROPN))(2 (PUNCT)))(2 (2 (2 (DET))(2 (ADJ)))(2 (2 (DET))(2 (2 (PROPN))(2 (2 (VERB))(2 (2 (PART))(2 (VERB)))))))))))(1 (2 (DET))(2 (2 (2 (NOUN))(2 (2 (PUNCT))(2 (DET))))(2 (2 (2 (2 (ADJ))(1 (NOUN)))(2 (2 (VERB))(2 (2 (ADP))(2 (ADP)))))(2 (DET)))))) |ET| 
1  |BT| (1 (3 (2 (3 (ADJ))(2 (CCONJ)))(3 (ADJ)))(0 (2 (2 (CCONJ))(1 (1 (1 (ADJ))(2 (CCONJ)))(1 (ADJ))))(2 (PUNCT)))) |ET| 
-1  |BT| (-1 (1 (2 (3 (AUX))(2 (PART)))(3 (2 (2 (VERB))(2 (2 (ADV))(2 (2 (ADP))(4 (2 (VERB))(2 (1 (2 (DET))(2 (NOUN)))(2 (2 (DET))(2 (2 (2 (VERB))(2 (2 (DET))(2 (NOUN))))(2 (2 (ADP))(2 (2 (DET))(2 (2 (PROPN))(3 (2 (PROPN))(3 (PROPN)))))))))))))(2 (2 (2 (NUM))(2 (NOUN)))(2 (ADV)))))(2 (PUNCT))) |ET| 
1  |BT| (1 (2 (PRON))(1 (2 (2 (2 (AUX))(2 (2 (ADV))(2 (3 (3 (VERB))(2 (2 (ADP))(2 (2 (DET))(2 (NOUN)))))(2 (2 (SCONJ))(2 (2 (PRON))(2 (2 (AUX))(2 (2 (VERB))(2 (2 (ADP))(2 (2 (2 (DET))(2 (NOUN)))(2 (2 (ADP))(2 (NOUN))))))))))))(2 (2 (ADV))(3 (2 (PRON))(2 (2 (AUX))(3 (2 (AUX))(3 (2 (VERB))(2 (2 (2 (ADJ))(2 (ADV)))(1 (2 (PART))(1 (2 (VERB))(2 (2 (2 (DET))(2 (NOUN)))(2 (2 (2 (ADP))(2 (DET)))(2 (2 (PRON))(2 (2 (AUX))(2 (2 (PART))(2 (2 (AUX))(2 (2 (VERB))(2 (2 (PART))(2 (2 (VERB))(2 (2 (PROPN))(2 (PROPN)))))))))))))))))))))(2 (PUNCT)))) |ET| 
-1  |BT| (-1 (2 (1 (2 (2 (2 (PRON))(2 (2 (2 (2 (AUX))(2 (2 (PRON))(2 (2 (ADP))(2 (3 (PROPN))(2 (PROPN))))))(2 (PUNCT)))(2 (2 (2 (2 (PRON))(2 (2 (2 (VERB))(2 (PUNCT)))(2 (2 (ADP))(2 (2 (2 (NOUN))(2 (CCONJ)))(2 (VERB))))))(2 (CCONJ)))(2 (2 (ADV))(2 (2 (PRON))(1 (2 (2 (VERB))(2 (NOUN)))(3 (2 (ADP))(2 (2 (NOUN))(2 (2 (PRON))(2 (2 (2 (2 (VERB))(2 (NOUN)))(2 (CCONJ)))(2 (2 (VERB))(2 (PRON)))))))))))))(2 (PUNCT)))(2 (CCONJ)))(2 (2 (2 (SCONJ))(2 (2 (ADJ))(2 (2 (NOUN))(2 (NOUN)))))(2 (2 (PUNCT))(2 (2 (PRON))(2 (2 (VERB))(2 (2 (ADV))(2 (2 (SCONJ))(3 (2 (PRON))(3 (2 (AUX))(2 (3 (2 (DET))(2 (NOUN)))(3 (2 (ADP))(2 (2 (2 (DET))(2 (NOUN)))(2 (2 (PRON))(2 (VERB)))))))))))))))(2 (PUNCT))) |ET| 
-1  |BT| (-1 (2 (1 (1 (2 (PART))(3 (ADJ)))(2 (ADV)))(2 (2 (PART))(3 (2 (VERB))(2 (2 (2 (ADP))(2 (2 (2 (DET))(2 (2 (ADJ))(2 (NOUN))))(2 (2 (ADP))(2 (2 (DET))(2 (2 (NOUN))(1 (NOUN)))))))(3 (2 (CCONJ))(2 (1 (PART))(0 (0 (0 (ADJ))(2 (ADV)))(2 (2 (PART))(2 (1 (VERB))(2 (2 (2 (DET))(2 (NOUN)))(2 (2 (ADP))(2 (2 (DET))(3 (NOUN))))))))))))))(2 (PUNCT))) |ET| 
1  |BT| (1 (3 (2 (2 (1 (2 (PRON))(2 (2 (VERB))(2 (2 (2 (2 (2 (AUX))(2 (PUNCT)))(2 (ADJ)))(2 (PUNCT)))(2 (2 (PART))(1 (2 (2 (VERB))(2 (2 (ADP))(2 (NOUN))))(2 (2 (ADP))(2 (NOUN))))))))(2 (PUNCT)))(2 (CCONJ)))(3 (2 (DET))(2 (2 (2 (VERB))(2 (PART)))(2 (2 (2 (VERB))(3 (2 (ADJ))(2 (2 (PUNCT))(2 (2 (ADJ))(2 (ADJ))))))(2 (2 (NOUN))(3 (2 (2 (2 (NOUN))(1 (ADP)))(2 (VERB)))(4 (3 (ADV))(2 (2 (CCONJ))(3 (2 (VERB))(2 (DET)))))))))))(2 (ADJ))) |ET| 
1  |BT| (1 (2 (2 (ADP))(2 (2 (2 (DET))(2 (NOUN)))(2 (2 (ADP))(2 (2 (NOUN))(2 (2 (SCONJ))(2 (2 (2 (PROPN))(2 (PROPN)))(2 (2 (ADP))(2 (2 (PART))(2 (2 (VERB))(2 (2 (ADP))(2 (2 (2 (PROPN))(2 (PART)))(2 (2 (NOUN))(2 (2 (NOUN))(2 (NOUN)))))))))))))))(4 (2 (PRON))(3 (3 (2 (AUX))(4 (2 (DET))(3 (4 (NOUN))(2 (2 (PART))(2 (2 (AUX))(2 (2 (2 (DET))(2 (NOUN)))(3 (2 (SCONJ))(2 (2 (2 (DET))(2 (PROPN)))(2 (2 (SCONJ))(2 (2 (DET))(2 (NOUN))))))))))))(2 (PUNCT))))) |ET| 
-1  |BT| (-1 (1 (ADV))(2 (3 (2 (2 (AUX))(2 (2 (PUNCT))(4 (2 (2 (2 (PUNCT))(2 (PROPN)))(2 (CCONJ)))(3 (2 (PROPN))(3 (2 (PUNCT))(3 (3 (3 (3 (4 (2 (2 (VERB))(2 (2 (2 (DET))(2 (NOUN)))(3 (CCONJ))))(3 (2 (NOUN))(3 (2 (3 (ADP))(2 (PROPN)))(3 (4 (PART))(2 (ADJ))))))(2 (NOUN)))(2 (PUNCT)))(2 (CCONJ)))(2 (2 (ADV))(2 (2 (DET))(2 (3 (2 (ADP))(3 (2 (ADJ))(3 (ADJ))))(2 (2 (NOUN))(2 (2 (ADJ))(2 (2 (SCONJ))(2 (2 (2 (2 (2 (PUNCT))(2 (PUNCT)))(2 (PROPN)))(2 (PUNCT)))(2 (CCONJ)))))))))))))))(2 (PUNCT)))(2 (PUNCT)))) |ET| 
-1  |BT| (-1 (1 (2 (2 (2 (2 (PRON))(3 (2 (2 (AUX))(2 (2 (SCONJ))(2 (3 (2 (PROPN))(2 (CCONJ)))(2 (PROPN)))))(2 (2 (ADP))(2 (PROPN)))))(2 (PUNCT)))(2 (CCONJ)))(2 (1 (1 (1 (2 (DET))(2 (2 (2 (AUX))(2 (CCONJ)))(4 (2 (ADV))(3 (ADJ)))))(2 (PUNCT)))(2 (CCONJ)))(2 (2 (2 (AUX))(2 (PRON)))(3 (2 (VERB))(2 (3 (2 (DET))(2 (NOUN)))(2 (2 (ADP))(2 (2 (2 (DET))(2 (2 (NOUN))(2 (PART))))(2 (NOUN)))))))))(2 (PUNCT))) |ET| 
-1  |BT| (-1 (1 (2 (2 (DET))(2 (NOUN)))(2 (2 (2 (2 (VERB))(2 (PRON)))(2 (ADP)))(3 (2 (ADJ))(2 (2 (DET))(2 (NOUN))))))(1 (2 (PRON))(2 (1 (1 (2 (VERB))(2 (2 (2 (NOUN))(2 (CCONJ)))(2 (NOUN))))(2 (2 (ADP))(2 (2 (PRON))(1 (2 (2 (AUX))(2 (ADV)))(2 (2 (2 (DET))(2 (2 (PUNCT))(2 (2 (2 (2 (PUNCT))(2 (NOUN)))(2 (CCONJ)))(2 (2 (NOUN))(3 (PUNCT))))))(2 (2 (NOUN))(2 (2 (ADP))(2 (2 (ADJ))(2 (ADJ))))))))))(2 (NOUN))))) |ET| 
1  |BT| (1 (2 (2 (2 (DET))(2 (NOUN)))(3 (2 (DET))(2 (2 (2 (2 (VERB))(2 (PRON)))(1 (SCONJ)))(3 (2 (ADP))(2 (2 (DET))(3 (3 (NOUN))(2 (NOUN))))))))(2 (3 (2 (SCONJ))(3 (2 (PRON))(2 (2 (2 (PUNCT))(2 (PROPN)))(2 (2 (ADV))(2 (2 (2 (VERB))(2 (NOUN)))(2 (2 (VERB))(2 (2 (ADP))(2 (DET)))))))))(2 (NOUN)))) |ET| 
-1  |BT| (-1 (2 (2 (SCONJ))(3 (3 (2 (2 (2 (2 (DET))(3 (2 (ADJ))(2 (NOUN))))(2 (PUNCT)))(2 (2 (DET))(2 (2 (NOUN))(2 (PUNCT)))))(2 (NOUN)))(2 (2 (2 (NOUN))(2 (CCONJ)))(2 (2 (DET))(3 (2 (NOUN))(3 (ADP)))))))(3 (2 (ADJ))(1 (2 (2 (2 (NOUN))(2 (2 (PUNCT))(2 (DET))))(2 (2 (ADJ))(2 (2 (NOUN))(2 (2 (ADP))(2 (PUNCT))))))(2 (2 (2 (PUNCT))(2 (2 (PROPN))(2 (2 (PUNCT))(3 (2 (VERB))(2 (2 (AUX))(3 (2 (AUX))(2 (1 (VERB))(2 (2 (ADP))(2 (2 (DET))(2 (2 (NOUN))(2 (PUNCT))))))))))))(2 (VERB)))))) |ET| 
1  |BT| (1 (2 (2 (DET))(2 (NOUN)))(1 (1 (2 (2 (AUX))(2 (ADV)))(1 (1 (ADV))(2 (VERB))))(2 (PUNCT)))) |ET| 
0.18757649096225637030954658257542  |BT| (1 (3 (2 (2 (2 (1 (INTJ))(2 (2 (PUNCT))(2 (2 (PRON))(1 (2 (2 (AUX))(1 (PART)))(1 (2 (ADV))(1 (2 (ADJ))(2 (2 (PUNCT))(4 (2 (2 (ADJ))(2 (2 (SCONJ))(2 (PROPN))))(3 (PROPN))))))))))(2 (PART)))(2 (ADJ)))(2 (2 (PUNCT))(3 (2 (2 (CCONJ))(2 (PRON)))(3 (2 (2 (AUX))(2 (ADJ)))(4 (2 (2 (3 (DET))(2 (NOUN)))(2 (ADJ)))(2 (2 (CCONJ))(2 (2 (ADV))(2 (2 (ADJ))(2 (SCONJ))))))))))(2 (DET))) |ET| 
1  |BT| (1 (2 (ADV))(2 (1 (ADV))(2 (2 (3 (ADJ))(0 (2 (SCONJ))(2 (3 (2 (ADV))(2 (2 (DET))(1 (3 (2 (ADV))(1 (ADJ)))(2 (2 (NOUN))(2 (NOUN))))))(1 (2 (VERB))(0 (1 (VERB))(0 (2 (2 (DET))(2 (2 (NOUN))(2 (VERB))))(0 (1 (ADJ))(1 (2 (PUNCT))(1 (1 (ADJ))(1 (2 (PUNCT))(1 (2 (CCONJ))(1 (2 (ADV))(1 (ADJ))))))))))))))(2 (PUNCT))))) |ET| 
-1  |BT| (-1 (2 (ADV))(1 (2 (PUNCT))(0 (3 (2 (ADJ))(2 (NOUN)))(2 (2 (2 (VERB))(2 (1 (ADP))(2 (2 (2 (2 (2 (DET))(2 (NOUN)))(2 (PUNCT)))(2 (2 (ADP))(1 (2 (ADP))(1 (2 (2 (DET))(2 (NOUN)))(2 (2 (ADP))(2 (2 (2 (NOUN))(2 (PUNCT)))(1 (2 (2 (NOUN))(2 (2 (ADP))(2 (DET))))(2 (2 (ADV))(3 (2 (VERB))(2 (2 (PART))(3 (VERB))))))))))))(2 (PROPN)))))(2 (PUNCT)))))) |ET| 
1  |BT| (1 (3 (3 (3 (2 (PRON))(3 (2 (AUX))(3 (2 (ADJ))(3 (2 (ADP))(1 (2 (2 (NOUN))(2 (2 (ADP))(2 (2 (DET))(2 (NOUN)))))(3 (2 (2 (ADP))(2 (SCONJ)))(3 (2 (PRON))(2 (2 (AUX))(4 (2 (2 (AUX))(1 (PART)))(1 (2 (VERB))(1 (2 (ADP))(1 (1 (0 (1 (1 (1 (1 (ADJ))(2 (NOUN)))(2 (PUNCT)))(2 (2 (ADJ))(4 (NOUN))))(2 (PUNCT)))(2 (CCONJ)))(2 (2 (NOUN))(2 (NOUN)))))))))))))))(2 (PUNCT)))(2 (2 (PRON))(2 (2 (ADV))(2 (2 (2 (VERB))(3 (2 (ADP))(2 (NOUN))))(2 (2 (PART))(3 (2 (VERB))(2 (2 (DET))(2 (NOUN)))))))))(2 (PUNCT))) |ET| 
-1  |BT| (-1 (3 (2 (ADV))(4 (ADJ)))(2 (2 (ADP))(2 (2 (2 (VERB))(2 (NOUN)))(3 (2 (SCONJ))(3 (2 (ADP))(3 (2 (VERB))(4 (2 (DET))(3 (3 (2 (ADV))(3 (ADJ)))(3 (2 (PUNCT))(4 (4 (2 (ADV))(4 (VERB)))(3 (NOUN)))))))))))) |ET| 
1  |BT| (1 (2 (PRON))(2 (2 (2 (AUX))(2 (2 (2 (ADV))(2 (2 (ADJ))(2 (2 (CCONJ))(2 (3 (ADJ))(2 (NOUN))))))(2 (2 (ADP))(2 (2 (2 (DET))(2 (NOUN)))(2 (2 (PRON))(2 (2 (VERB))(1 (1 (VERB))(2 (2 (SCONJ))(2 (2 (3 (VERB))(2 (2 (DET))(2 (2 (NOUN))(2 (2 (PUNCT))(2 (2 (2 (NOUN))(2 (CCONJ)))(2 (PROPN)))))))(1 (1 (2 (AUX))(2 (PART)))(2 (1 (VERB))(1 (2 (PRON))(0 (2 (AUX))(1 (2 (PART))(1 (1 (3 (VERB))(2 (2 (DET))(2 (NOUN))))(2 (2 (ADP))(2 (2 (DET))(2 (NOUN)))))))))))))))))))(2 (PUNCT)))) |ET| 
-1  |BT| (-1 (3 (1 (1 (1 (2 (PRON))(1 (1 (2 (2 (AUX))(2 (2 (DET))(2 (2 (ADJ))(2 (NOUN)))))(2 (2 (ADP))(2 (1 (2 (2 (PROPN))(2 (PART)))(3 (3 (2 (ADJ))(3 (2 (PUNCT))(3 (ADJ))))(2 (2 (NOUN))(2 (NOUN)))))(2 (1 (PUNCT))(2 (2 (1NUM))(3 (PUNCT)))))))(1 (2 (ADP))(1 (1 (2 (DET))(1 (1 (ADJ))(2 (2 (NOUN))(3 (NOUN)))))(2 (2 (ADP))(2 (PROPN)))))))(2 (PUNCT)))(2 (CCONJ)))(1 (3 (2 (PRON))(2 (2 (ADV))(2 (2 (AUX))(2 (NOUN)))))(2 (2 (2 (AUX))(2 (ADV)))(3 (NOUN)))))(2 (PUNCT))) |ET| 
1  |BT| (1 (2 (CCONJ))(2 (0 (2 (ADV))(1 (2 (SCONJ))(0 (2 (2 (DET))(2 (NOUN)))(0 (2 (AUX))(0 (2 (VERB))(0 (ADV)))))))(3 (2 (PUNCT))(3 (2 (PRON))(2 (3 (2 (2 (AUX))(2 (ADV)))(2 (ADJ)))(2 (PUNCT))))))) |ET| 
-1  |BT| (-1 (1 (1 (2 (DET))(1 (1 (ADJ))(2 (2 (ADJ))(3 (NOUN)))))(2 (2 (ADP))(2 (2 (2 (DET))(2 (2 (ADJ))(2 (NOUN))))(1 (2 (DET))(2 (2 (ADJ))(1 (NOUN)))))))(2 (2 (2 (AUX))(2 (2 (SCONJ))(2 (2 (2 (DET))(2 (2 (ADP))(2 (PRON))))(2 (2 (ADP))(2 (2 (2 (DET))(2 (2 (ADJ))(2 (NOUN))))(2 (2 (ADP))(2 (2 (3 (NOUN))(2 (PART)))(2 (NOUN)))))))))(2 (PUNCT)))) |ET| 
1  |BT| (1 (2 (2 (DET))(2 (NOUN)))(1 (1 (2 (VERB))(1 (2 (ADP))(1 (2 (NOUN))(2 (2 (ADP))(2 (2 (2 (DET))(2 (NOUN)))(2 (2 (ADP))(2 (2 (DET))(2 (NOUN)))))))))(2 (PUNCT)))) |ET| 
-1  |BT| (-1 (3 (1 (3 (2 (VERB))(4 (2 (PROPN))(4 (2 (AUX))(2 (2 (DET))(2 (2 (NOUN))(3 (2 (NOUN))(3 (2 (PART))(3 (2 (3 (2 (VERB))(3 (2 (DET))(2 (3 (ADJ))(2 (2 (PUNCT))(3 (NOUN))))))(2 (NOUN)))(2 (1 (NOUN))(2 (2 (PUNCT))(3 (PUNCT))))))))))))(2 (2 (2 (CCONJ))(2 (PUNCT)))(2 (2 (DET))(2 (2 (NOUN))(2 (1 (1 (2 (PRON))(1 (AUX)))(2 (DET)))(2 (3 (2 (NOUN))(2 (3 (PUNCT))(2 (DET))))(1 (2 (ADJ))(1 (2 (2 (NOUN))(2 (2 (DET))(3 (4 (VERB))(2 (2 (DET))(2 (ADJ))))))(1 (2 (NOUN))(2 (3 (2 (VERB))(3 (ADP)))(2 (2 (DET))(2 (2 (2 (NOUN))(2 (DET)))(2 (2 (2 (AUX))(2 (ADV)))(2 (2 (DET))(2 (2 (NOUN))(2 (ADP)))))))))))))))))(3 (2 (DET))(2 (NOUN))))(2 (PRON))) |ET| 
1  |BT| (1 (2 (PROPN))(3 (2 (1 (2 (AUX))(1 (PART)))(0 (2 (DET))(0 (0 (ADJ))(2 (NOUN)))))(2 (PUNCT)))) |ET| 
1  |BT| (1 (2 (2 (ADP))(2 (2 (2 (DET))(2 (2 (NOUN))(2 (PART))))(1 (1 (ADJ))(2 (2 (NOUN))(2 (2 (PART))(2 (2 (VERB))(2 (2 (ADP))(2 (2 (DET))(2 (NOUN))))))))))(3 (3 (2 (VERB))(3 (3 (2 (3 (ADJ))(3 (2 (2 (NOUN))(2 (CCONJ)))(2 (NOUN))))(2 (PUNCT)))(3 (2 (VERB))(2 (2 (ADP))(2 (2 (ADJ))(2 (NOUN)))))))(2 (PUNCT)))) |ET| 
1  |BT| (1 (3 (2 (2 (3 (2 (2 (2 (ADV))(2 (PRON)))(2 (2 (VERB))(2 (ADP))))(2 (2 (VERB))(2 (2 (2 (DET))(3 (NOUN)))(2 (2 (VERB))(2 (2 (2 (VERB))(2 (2 (2 (2 (SCONJ))(2 (PUNCT)))(2 (2 (PUNCT))(2 (2 (DET))(3 (PROPN)))))(2 (PROPN))))(2 (2 (PUNCT))(2 (2 (ADP))(2 (2 (PRON))(2 (VERB))))))))))(2 (ADP)))(2 (PUNCT)))(3 (2 (2 (PUNCT))(2 (2 (PUNCT))(2 (1 (DET))(2 (2 (ADJ))(3 (ADJ))))))(3 (2 (PROPN))(3 (3 (NOUN))(2 (2 (PUNCT))(2 (2 (VERB))(2 (ADP))))))))(2 (DET))) |ET| 
-1  |BT| (-1 (1 (ADV))(2 (2 (PUNCT))(1 (2 (PROPN))(3 (1 (2 (VERB))(1 (2 (2 (2 (PROPN))(2 (2 (PROPN))(2 (PART))))(3 (2 (NOUN))(2 (2 (PART))(2 (2 (VERB))(2 (2 (2 (DET))(2 (NOUN)))(2 (2 (ADP))(2 (3 (2 (2 (DET))(3 (2 (ADJ))(2 (PROPN))))(2 (PUNCT)))(2 (2 (2 (DET))(2 (NOUN)))(2 (2 (DET))(2 (3 (VERB))(2 (2 (PUNCT))(2 (2 (2 (PUNCT))(2 (2 (DET))(2 (NUM))))(2 (PROPN))))))))))))))(2 (PUNCT))))(2 (ADJ)))))) |ET| 
0.16792706112285843422782249945158  |BT| (1 (1 (2 (ADP))(1 (2 (DET))(0 (2 (ADJ))(1 (2 (ADV))(1 (1 (ADJ))(2 (NOUN)))))))(3 (2 (PUNCT))(4 (3 (2 (DET))(3 (2 (NOUN))(3 (PUNCT))))(3 (3 (2 (2 (VERB))(2 (NOUN)))(4 (2 (AUX))(3 (ADV))))(2 (ADV)))))) |ET| 
-0.27213859671475870705137367622228  |BT| (-1 (2 (PRON))(3 (2 (1 (2 (AUX))(1 (2 (ADV))(0 (ADJ))))(3 (2 (SCONJ))(2 (3 (2 (DET))(3 (3 (ADJ))(2 (NOUN))))(2 (1 (2 (AUX))(2 (PART)))(3 (2 (ADV))(3 (ADJ)))))))(2 (PUNCT)))) |ET| 
1  |BT| (1 (2 (1 (PUNCT))(2 (2 (PROPN))(3 (PUNCT))))(2 (2 (2 (2 (VERB))(2 (PROPN)))(2 (2 (DET))(2 (1 (ADJ))(2 (NOUN)))))(2 (PUNCT)))) |ET| 
-1  |BT| (-1 (0 (0 (1 (1 (1 (2 (2 (2 (2 (DET))(2 (2 (ADP))(2 (2 (DET))(2 (NOUN)))))(0 (VERB)))(2 (CCONJ)))(2 (2 (3 (2 (2 (NOUN))(2 (2 (AUX))(2 (PART))))(2 (PUNCT)))(2 (CCONJ)))(2 (2 (2 (DET))(2 (NOUN)))(2 (2 (VERB))(2 (2 (SCONJ))(2 (2 (2 (DET))(2 (NOUN)))(2 (2 (AUX))(2 (2 (VERB))(2 (2 (2 (DET))(2 (NOUN)))(2 (2 (ADP))(2 (NOUN))))))))))))(2 (PUNCT)))(2 (CCONJ)))(2 (2 (PUNCT))(2 (2 (ADV))(2 (PUNCT)))))(1 (2 (2 (PRON))(2 (2 (ADP))(2 (2 (DET))(2 (2 (VERB))(2 (NOUN))))))(3 (VERB))))(2 (PUNCT))) |ET| 
-1  |BT| (-1 (2 (1 (2 (2 (DET))(2 (NOUN)))(2 (2 (PRON))(0 (3 (VERB))(1 (1 (1 (0 (2 (2 (3 (3 (VERB))(2 (2 (DET))(2 (NOUN))))(2 (2 (ADP))(2 (2 (PUNCT))(2 (2 (2 (2 (2 (2 (PUNCT))(2 (VERB)))(2 (PROPN)))(2 (PUNCT)))(2 (CCONJ)))(2 (2 (PUNCT))(2 (PUNCT)))))))(2 (VERB)))(0 (0 (1 (1 (PROPN))(1 (1 (PUNCT))(2 (2 (VERB))(3 (2 (ADV))(2 (SCONJ))))))(2 (2 (VERB))(2 (2 (NOUN))(2 (2 (PROPN))(2 (NOUN))))))(3 (2 (PROPN))(2 (2 (2 (PROPN))(2 (2 (ADP))(2 (DET))))(2 (3 (NOUN))(2 (2 (PART))(2 (ADJ))))))))(2 (NOUN)))(2 (NOUN)))(2 (2 (2 (PUNCT))(2 (PUNCT)))(2 (2 (PUNCT))(2 (2 (DET))(1 (PROPN)))))))))(2 (ADP)))(2 (PROPN))) |ET| 
-1  |BT| (-1 (2 (2 (NUM))(1 (2 (PROPN))(2 (PROPN))))(1 (1 (2 (2 (VERB))(2 (PART)))(3 (3 (2 (VERB))(3 (2 (2 (DET))(2 (NOUN)))(3 (2 (ADP))(3 (4 (ADJ))(3 (2 (NOUN))(2 (3 (SYM))(2 (NOUN))))))))(3 (2 (NOUN))(3 (2 (NOUN))(2 (2 (DET))(3 (2 (PRON))(2 (2 (AUX))(4 (VERB)))))))))(2 (PART)))) |ET| 
1  |BT| (1 (2 (1 (2 (2 (2 (VERB))(2 (2 (PUNCT))(2 (2 (PUNCT))(2 (PROPN)))))(2 (2 (2 (PUNCT))(2 (NUM)))(2 (2 (NOUN))(2 (ADP)))))(2 (ADV)))(2 (2 (CCONJ))(2 (2 (2 (PRON))(2 (VERB)))(2 (2 (NOUN))(2 (2 (INTJ))(2 (2 (DET))(2 (2 (PRON))(2 (2 (VERB))(2 (2 (PRON))(2 (2 (2 (VERB))(2 (AUX)))(2 (2 (DET))(3 (NOUN)))))))))))))(2 (PART))) |ET| 
-1  |BT| (-1 (2 (PROPN))(1 (1 (2 (2 (VERB))(2 (PART)))(2 (2 (VERB))(2 (2 (ADP))(1 (2 (DET))(1 (2 (NOUN))(2 (2 (PART))(1 (2 (2 (AUX))(2 (2 (ADP))(2 (2 (DET))(2 (NOUN)))))(2 (2 (SCONJ))(2 (2 (AUX))(2 (2 (PRON))(2 (2 (2 (2 (2 (2 (2 (VERB))(2 (2 (ADP))(2 (2 (ADJ))(2 (NOUN)))))(2 (PUNCT)))(2 (2 (2 (VERB))(1 (ADP)))(2 (2 (ADJ))(2 (2 (ADJ))(2 (NOUN))))))(2 (PUNCT)))(2 (CCONJ)))(2 (2 (VERB))(2 (2 (ADJ))(2 (2 (NOUN))(2 (NOUN))))))))))))))))(2 (PUNCT)))) |ET| 
1  |BT| (1 (3 (3 (4 (3 (PROPN))(4 (2 (PUNCT))(3 (4 (2 (ADV))(4 (ADJ)))(2 (2 (ADJ))(2 (1 (NOUN))(3 (NOUN)))))))(2 (PUNCT)))(2 (2 (PROPN))(2 (2 (2 (VERB))(3 (2 (ADV))(3 (2 (ADV))(2 (2 (SCONJ))(3 (2 (DET))(2 (2 (ADJ))(2 (2 (PROPN))(2 (PROPN)))))))))(1 (2 (SCONJ))(2 (2 (PRON))(1 (2 (VERB))(1 (2 (2 (DET))(2 (NOUN)))(2 (2 (2 (VERB))(2 (ADV)))(2 (2 (AUX))(2 (2 (2 (2 (VERB))(2 (PUNCT)))(2 (2 (2 (DET))(2 (NOUN)))(2 (2 (AUX))(2 (2 (PROPN))(2 (PROPN))))))(2 (PUNCT))))))))))))(2 (PUNCT))) |ET| 
0.93972031495818919566431759449188  |BT| (1 (1 (2 (SCONJ))(2 (2 (ADV))(1 (1 (2 (1 (2 (DET))(2 (1 (ADV))(2 (PUNCT))))(1 (2 (ADJ))(2 (2 (NOUN))(1 (ADP)))))(2 (ADJ)))(2 (2 (2 (2 (2 (NOUN))(1 (CCONJ)))(2 (2 (DET))(2 (2 (NOUN))(2 (2 (ADP))(2 (ADJ))))))(2 (ADJ)))(2 (2 (2 (NOUN))(2 (CCONJ)))(1 (2 (ADJ))(0 (2 (NOUN))(1 (ADP)))))))))(4 (2 (NOUN))(3 (2 (2 (NOUN))(2 (PUNCT)))(4 (3 (2 (DET))(4 (2 (NOUN))(4 (2 (VERB))(3 (2 (NOUN))(4 (2 (DET))(4 (3 (3 (VERB))(2 (PRON)))(2 (ADV))))))))(2 (ADJ)))))) |ET| 
1  |BT| (1 (2 (PRON))(2 (2 (1 (2 (AUX))(2 (PART)))(2 (2 (VERB))(2 (2 (SCONJ))(2 (2 (2 (DET))(2 (NOUN)))(2 (2 (AUX))(2 (2 (2 (ADJ))(2 (2 (SCONJ))(2 (NUM))))(2 (NOUN))))))))(2 (PUNCT)))) |ET| 
-1  |BT| (-1 (1 (2 (3 (2 (2 (2 (PROPN))(2 (2 (PROPN))(2 (2 (PROPN))(2 (2 (CCONJ))(2 (2 (NOUN))(2 (2 (PROPN))(2 (3 (PROPN))(2 (2 (CCONJ))(2 (3 (PROPN))(2 (PROPN)))))))))))(2 (2 (AUX))(2 (3 (2 (VERB))(2 (ADV)))(2 (2 (PART))(2 (2 (2 (2 (VERB))(2 (CCONJ)))(2 (ADJ)))(2 (NOUN)))))))(2 (PUNCT)))(2 (CCONJ)))(1 (2 (2 (DET))(2 (NOUN)))(2 (2 (ADV))(2 (2 (VERB))(3 (2 (PART))(2 (2 (AUX))(3 (2 (ADV))(4 (ADJ)))))))))(2 (PUNCT))) |ET| 
1  |BT| (1 (4 (3 (ADJ))(2 (NOUN)))(2 (1 (2 (2 (VERB))(2 (PRON)))(1 (2 (ADP))(1 (2 (AUX))(1 (2 (DET))(2 (2 (ADJ))(2 (NOUN)))))))(2 (PUNCT)))) |ET| 
-1  |BT| (-1 (1 (2 (SCONJ))(2 (1 (1 (2 (DET))(2 (NOUN)))(1 (2 (ADP))(2 (1 (ADJ))(3 (3 (NOUN))(2 (NOUN))))))(3 (3 (NOUN))(2 (2 (ADP))(2 (PRON))))))(3 (2 (PUNCT))(3 (2 (ADV))(3 (2 (2 (DET))(2 (NOUN)))(3 (3 (2 (AUX))(3 (2 (DET))(3 (4 (ADJ))(2 (2 (ADJ))(2 (NOUN))))))(2 (PUNCT))))))) |ET| 
1  |BT| (1 (2 (1 (PUNCT))(2 (2 (2 (2 (PROPN))(2 (PART)))(2 (NOUN)))(3 (PUNCT))))(1 (2 (2 (2 (NOUN))(2 (2 (DET))(2 (2 (2 (NOUN))(2 (CCONJ)))(3 (NOUN)))))(2 (2 (ADP))(2 (3 (2 (DET))(2 (NOUN)))(2 (2 (ADP))(2 (NOUN))))))(2 (PUNCT)))) |ET| 
-1  |BT| (-1 (2 (3 (SCONJ))(2 (2 (PROPN))(2 (2 (PROPN))(2 (PROPN)))))(0 (2 (PUNCT))(1 (2 (PROPN))(1 (2 (2 (VERB))(2 (2 (PART))(2 (2 (2 (VERB))(2 (2 (DET))(3 (3 (ADJ))(2 (NOUN)))))(2 (2 (PART))(2 (2 (2 (2 (2 (VERB))(3 (2 (DET))(2 (3 (ADJ))(2 (NOUN)))))(2 (2 (ADP))(2 (2 (DET))(2 (2 (ADJ))(2 (NOUN))))))(2 (CCONJ)))(2 (2 (VERB))(2 (2 (2 (DET))(2 (NOUN)))(2 (2 (ADP))(2 (2 (DET))(2 (2 (NOUN))(2 (NOUN))))))))))))(2 (PUNCT)))))) |ET| 
0.8562136707180769690239685587585  |BT| (1 (2 (2 (2 (DET))(2 (NOUN)))(2 (2 (ADP))(2 (2 (2 (PROPN))(2 (CCONJ)))(2 (2 (DET))(2 (2 (ADJ))(2 (NOUN)))))))(3 (3 (2 (2 (2 (2 (VERB))(2 (2 (SCONJ))(3 (2 (DET))(2 (2 (ADJ))(2 (2 (PROPN))(2 (PROPN)))))))(2 (PUNCT)))(2 (CCONJ)))(4 (2 (ADV))(0 (0 (VERB))(3 (2 (PART))(3 (VERB))))))(2 (PUNCT)))) |ET| 
-0.93539884128592143408553738481714  |BT| (-1 (3 (ADV))(0 (2 (1 (2 (VERB))(2 (2 (DET))(1 (2 (DET))(1 (1 (ADJ))(2 (NOUN))))))(3 (2 (NOUN))(2 (2 (PART))(3 (2 (VERB))(3 (3 (4 (NOUN))(2 (CCONJ)))(2 (NOUN)))))))(2 (PUNCT)))) |ET| 
1  |BT| (1 (2 (CCONJ))(2 (2 (PRON))(2 (2 (2 (AUX))(2 (2 (2 (DET))(2 (NOUN)))(2 (2 (ADP))(3 (1 (NOUN))(2 (2 (ADP))(2 (2 (2 (2 (2 (VERB))(2 (PRON)))(2 (ADV)))(2 (PUNCT)))(2 (2 (ADP))(2 (3 (2 (2 (2 (1 (ADJ))(2 (CCONJ)))(4 (ADJ)))(2 (NOUN)))(2 (PUNCT)))(2 (2 (SCONJ))(2 (2 (PRON))(2 (2 (VERB))(2 (2 (PRON))(2 (2 (VERB))(2 (2 (VERB))(2 (2 (ADP))(2 (2 (2 (2 (PROPN))(2 (PART)))(2 (NOUN)))(2 (VERB))))))))))))))))))(2 (PUNCT))))) |ET| 
-1  |BT| (-1 (1 (ADV))(1 (2 (PUNCT))(2 (2 (2 (SCONJ))(2 (2 (2 (NOUN))(2 (NOUN)))(2 (VERB))))(2 (2 (PUNCT))(2 (2 (DET))(2 (2 (2 (2 (2 (AUX))(2 (2 (DET))(2 (ADJ))))(2 (PUNCT)))(2 (2 (ADJ))(2 (2 (NOUN))(2 (ADV)))))(2 (PUNCT)))))))) |ET| 
1  |BT| (1 (1 (2 (VERB))(1 (2 (SCONJ))(1 (2 (2 (DET))(2 (NOUN)))(1 (1 (VERB))(1 (2 (2 (2 (NOUN))(2 (CCONJ)))(3 (2 (DET))(2 (NOUN))))(1 (1 (VERB))(1 (2 (ADV))(1 (ADJ)))))))))(4 (2 (PUNCT))(4 (3 (3 (2 (DET))(2 (2 (NOUN))(2 (PART))))(2 (NOUN)))(3 (4 (2 (AUX))(3 (2 (DET))(3 (4 (ADJ))(2 (NUM)))))(2 (PUNCT)))))) |ET| 
-1  |BT| (-1 (2 (2 (2 (PROPN))(2 (2 (PROPN))(2 (AUX))))(2 (2 (2 (2 (DET))(2 (ADP)))(2 (PROPN)))(2 (2 (PROPN))(2 (PROPN)))))(3 (2 (2 (AUX))(1 (2 (2 (DET))(2 (2 (3 (3 (4 (3 (ADV))(2 (VERB)))(2 (PUNCT)))(2 (CCONJ)))(1 (2 (ADV))(1 (ADJ))))(2 (NOUN))))(2 (2 (ADP))(2 (2 (2 (VERB))(2 (ADP)))(2 (2 (ADP))(2 (PROPN)))))))(2 (PUNCT)))) |ET| 
1  |BT| (1 (2 (2 (2 (1 (ADJ))(2 (NOUN)))(2 (CCONJ)))(2 (3 (ADJ))(2 (NOUN))))(2 (2 (3 (2 (2 (VERB))(2 (2 (ADV))(3 (ADV))))(2 (2 (ADP))(2 (2 (2 (ADJ))(2 (2 (CCONJ))(2 (3 (ADJ))(2 (NOUN)))))(2 (2 (ADP))(2 (2 (DET))(2 (NOUN)))))))(0 (2 (SCONJ))(0 (2 (PRON))(1 (2 (2 (VERB))(2 (2 (DET))(2 (2 (ADJ))(2 (1 (ADJ))(2 (2 (ADJ))(2 (3 (NOUN))(2 (NOUN))))))))(2 (2 (SCONJ))(0 (2 (DET))(2 (2 (NOUN))(1 (NOUN)))))))))(2 (PUNCT)))) |ET| 
-1  |BT| (-1 (1 (3 (2 (2 (DET))(2 (1 (ADJ))(2 (NOUN))))(2 (2 (ADP))(2 (2 (2 (NOUN))(2 (PUNCT)))(2 (2 (ADP))(2 (2 (2 (NOUN))(2 (CCONJ)))(2 (NOUN)))))))(2 (2 (ADP))(2 (2 (2 (DET))(2 (NOUN)))(2 (2 (ADP))(2 (2 (2 (NOUN))(2 (PART)))(2 (2 (NOUN))(2 (2 (CCONJ))(2 (2 (NOUN))(2 (NOUN))))))))))(1 (2 (ADV))(2 (2 (ADJ))(2 (2 (SCONJ))(2 (2 (2 (2 (NOUN))(2 (NOUN)))(2 (PUNCT)))(3 (1 (2 (NOUN))(2 (CCONJ)))(2 (2 (VERB))(1 (NOUN))))))))) |ET| 
1  |BT| (1 (3 (2 (PRON))(3 (2 (AUX))(3 (4 (VERB))(2 (ADP)))))(1 (2 (PRON))(2 (1 (2 (AUX))(1 (2 (SCONJ))(1 (2 (PRON))(2 (1 (2 (AUX))(2 (PART)))(2 (3 (VERB))(2 (2 (DET))(1 (NOUN))))))))(2 (PUNCT))))) |ET| 
-1  |BT| (-1 (3 (2 (SCONJ))(4 (2 (2 (PROPN))(3 (PROPN)))(3 (3 (3 (2 (AUX))(3 (2 (DET))(2 (NOUN))))(1 (1 (PUNCT))(2 (2 (2 (CCONJ))(2 (2 (DET))(2 (NOUN))))(3 (PUNCT)))))(3 (2 (ADP))(3 (2 (DET))(3 (3 (ADJ))(2 (NOUN))))))))(1 (2 (PUNCT))(1 (2 (2 (DET))(2 (NOUN)))(1 (2 (1 (1 (2 (AUX))(1 (2 (1 (2 (2 (DET))(2 (ADJ)))(1 (VERB)))(2 (PUNCT)))(1 (ADJ))))(2 (PUNCT)))(2 (ADV)))(2 (PUNCT)))))) |ET| 
1  |BT| (1 (3 (2 (DET))(2 (NOUN)))(3 (2 (2 (2 (2 (2 (2 (2 (2 (DET))(2 (NOUN)))(2 (2 (ADP))(2 (2 (NOUN))(2 (NOUN)))))(2 (PUNCT)))(2 (CCONJ)))(2 (2 (2 (DET))(2 (NOUN)))(2 (2 (2 (2 (ADP))(2 (NOUN)))(2 (CCONJ)))(2 (2 (ADP))(2 (NOUN))))))(2 (CCONJ)))(2 (2 (2 (DET))(2 (2 (ADJ))(2 (NOUN))))(2 (2 (ADP))(2 (PROPN)))))(3 (4 (2 (2 (PUNCT))(2 (NOUN)))(4 (AUX)))(2 (ADV))))) |ET| 
-1  |BT| (-1 (2 (PART))(2 (1 (2 (2 (2 (ADV))(2 (ADV)))(2 (ADJ)))(2 (3 (2 (2 (PRON))(2 (2 (PRON))(2 (2 (AUX))(2 (2 (VERB))(2 (2 (PART))(2 (VERB)))))))(2 (CCONJ)))(2 (2 (ADV))(2 (2 (SCONJ))(2 (2 (PRON))(2 (2 (2 (AUX))(2 (PUNCT)))(2 (2 (PRON))(1 (2 (VERB))(2 (PRON))))))))))(2 (2 (2 (VERB))(2 (2 (AUX))(2 (2 (2 (DET))(2 (ADV)))(3 (ADJ)))))(2 (PUNCT))))) |ET| 
1  |BT| (1 (3 (2 (1 (2 (2 (2 (2 (DET))(2 (2 (NOUN))(2 (2 (NOUN))(2 (NOUN)))))(2 (2 (ADP))(2 (2 (2 (DET))(1 (NOUN)))(2 (2 (ADP))(2 (2 (PROPN))(2 (2 (PROPN))(2 (PROPN))))))))(2 (2 (VERB))(2 (2 (AUX))(2 (2 (AUX))(2 (3 (VERB))(2 (2 (ADP))(2 (2 (PROPN))(2 (PROPN)))))))))(2 (PUNCT)))(2 (CCONJ)))(3 (2 (PRON))(3 (3 (2 (2 (VERB))(2 (2 (DET))(2 (NOUN))))(3 (2 (ADP))(3 (2 (ADJ))(3 (4 (ADJ))(2 (NOUN))))))(3 (2 (DET))(3 (2 (2 (DET))(2 (NOUN)))(3 (2 (ADV))(1 (2 (VERB))(3 (ADJ)))))))))(2 (PUNCT))) |ET| 
-1  |BT| (-1 (2 (PROPN))(1 (2 (2 (2 (VERB))(2 (2 (DET))(2 (NOUN))))(1 (2 (DET))(1 (2 (PRON))(1 (2 (VERB))(2 (2 (AUX))(2 (2 (2 (VERB))(2 (2 (PART))(1 (2 (AUX))(2 (2 (2 (DET))(2 (NOUN)))(2 (2 (ADP))(2 (2 (ADJ))(2 (ADJ))))))))(2 (2 (CCONJ))(1 (2 (ADV))(1 (2 (ADV))(2 (2 (VERB))(2 (2 (ADP))(2 (2 (ADJ))(2 (ADJ))))))))))))))(2 (PUNCT)))) |ET| 
1  |BT| (1 (2 (2 (ADV))(2 (2 (ADJ))(2 (2 (2 (2 (ADP))(2 (PUNCT)))(2 (PUNCT)))(2 (NOUN)))))(2 (2 (2 (PUNCT))(3 (2 (2 (2 (AUX))(2 (DET)))(2 (NOUN)))(3 (2 (PUNCT))(2 (2 (ADV))(2 (2 (2 (2 (PRON))(2 (2 (2 (VERB))(2 (3 (DET))(2 (ADJ))))(2 (2 (NOUN))(2 (2 (ADP))(2 (DET))))))(2 (NOUN)))(1 (1 (1 (2 (2 (CCONJ))(2 (VERB)))(1 (2 (PUNCT))(1 (2 (ADV))(1 (2 (ADP))(1 (DET))))))(2 (NOUN)))(2 (2 (PUNCT))(2 (2 (SCONJ))(2 (2 (DET))(2 (2 (ADV))(2 (AUX))))))))))))(2 (VERB)))) |ET| 
-1  |BT| (-1 (0 (1 (1 (2 (1 (ADJ))(2 (PUNCT)))(1 (ADJ)))(2 (CCONJ)))(2 (2 (VERB))(2 (2 (ADP))(2 (2 (ADJ))(3 (NOUN))))))(1 (2 (PUNCT))(1 (2 (2 (DET))(2 (NOUN)))(2 (2 (2 (2 (VERB))(2 (NOUN)))(1 (2 (SCONJ))(1 (1 (2 (2 (PRON))(2 (ADJ)))(2 (2 (SCONJ))(2 (2 (DET))(2 (NOUN)))))(2 (2 (2 (2 (VERB))(2 (2 (ADP))(2 (2 (DET))(2 (2 (NOUN))(2 (NOUN))))))(2 (CCONJ)))(2 (2 (VERB))(2 (2 (PART))(2 (2 (2 (VERB))(2 (NOUN)))(2 (2 (ADP))(2 (2 (VERB))(2 (2 (2 (DET))(2 (NOUN)))(2 (2 (VERB))(2 (ADV)))))))))))))(2 (PUNCT)))))) |ET| 
1  |BT| (1 (2 (PUNCT))(3 (3 (3 (2 (DET))(2 (ADV)))(3 (2 (2 (VERB))(2 (NOUN)))(2 (2 (ADP))(2 (2 (2 (NUM))(2 (NOUN)))(2 (2 (PRON))(2 (2 (AUX))(2 (2 (2 (2 (2 (VERB))(2 (PUNCT)))(2 (2 (ADP))(2 (2 (2 (2 (NUM))(2 (NOUN)))(2 (CCONJ)))(2 (DET)))))(2 (PUNCT)))(2 (2 (ADP))(3 (NOUN))))))))))(2 (3 (2 (PART))(2 (NOUN)))(2 (PUNCT))))) |ET| 
-1  |BT| (-1 (3 (2 (DET))(2 (2 (ADJ))(2 (PUNCT))))(1 (3 (2 (NOUN))(2 (2 (2 (PROPN))(2 (3 (VERB))(3 (3 (DET))(2 (ADJ)))))(3 (3 (2 (ADJ))(4 (3 (4 (NOUN))(2 (VERB)))(3 (ADJ))))(2 (2 (CCONJ))(2 (ADV))))))(2 (PUNCT)))) |ET| 
1  |BT| (1 (0 (2 (2 (DET))(2 (NOUN)))(2 (2 (ADP))(0 (1 (2 (DET))(1 (1 (ADJ))(0 (2 (PUNCT))(1 (1 (ADJ))(3 (NOUN))))))(2 (2 (PRON))(2 (2 (2 (VERB))(2 (PART)))(2 (1 (2 (AUX))(1 (SCONJ)))(2 (2 (ADP))(2 (2 (DET))(2 (2 (ADJ))(2 (NOUN)))))))))))(2 (PUNCT))) |ET| 
-1  |BT| (-1 (2 (2 (NOUN))(2 (2 (ADP))(3 (PROPN))))(1 (3 (2 (VERB))(3 (2 (AUX))(2 (3 (2 (VERB))(2 (NOUN)))(2 (2 (2 (DET))(2 (NOUN)))(1 (2 (ADP))(2 (2 (NOUN))(2 (2 (ADP))(3 (2 (2 (VERB))(2 (2 (ADP))(2 (2 (2 (DET))(2 (NOUN)))(2 (2 (ADP))(2 (2 (DET))(2 (2 (ADJ))(1 (NOUN))))))))(1 (2 (ADP))(1 (2 (2 (DET))(2 (NOUN)))(1 (2 (ADP))(2 (2 (NOUN))(1 (2 (PRON))(1 (1 (ADV))(2 (2 (2 (AUX))(1 (2 (ADP))(2 (2 (1 (ADJ))(2 (NOUN)))(2 (2 (ADP))(2 (2 (NUM))(2 (DET)))))))(1 (2 (ADP))(2 (2 (2 (NOUN))(2 (CCONJ)))(2 (NOUN)))))))))))))))))))(2 (PUNCT)))) |ET| 
-1  |BT| (-1 (2 (PRON))(1 (2 (VERB))(1 (3 (PRON))(2 (2 (VERB))(1 (2 (2 (1 (ADJ))(2 (2 (PUNCT))(2 (VERB))))(2 (2 (ADP))(0 (1 (2 (DET))(1 (2 (DET))(1 (0 (ADJ))(2 (NOUN)))))(2 (2 (ADP))(2 (2 (DET))(2 (2 (NOUN))(2 (SYM))))))))(1 (1 (3 (SCONJ))(1 (2 (NOUN))(2 (2 (ADP))(2 (2 (ADJ))(3 (NOUN))))))(2 (2 (SYM))(2 (2 (2 (2 (CCONJ))(2 (1 (2 (NOUN))(2 (2 (DET))(0 (VERB))))(2 (PUNCT))))(2 (CCONJ)))(2 (2 (NOUN))(2 (2 (VERB))(2 (2 (NOUN))(2 (NOUN))))))))))))) |ET| 
-1  |BT| (-1 (3 (2 (2 (3 (2 (2 (DET))(2 (NOUN)))(2 (2 (AUX))(3 (2 (2 (DET))(2 (2 (ADJ))(2 (NOUN))))(2 (2 (ADP))(2 (2 (PROPN))(2 (PROPN)))))))(2 (PUNCT)))(2 (CCONJ)))(2 (2 (PRON))(2 (2 (VERB))(2 (2 (AUX))(3 (1 (2 (ADV))(2 (2 (ADV))(2 (ADJ))))(2 (2 (SCONJ))(3 (2 (PRON))(3 (2 (AUX))(3 (2 (2 (AUX))(2 (PRON)))(3 (1 (PART))(3 (2 (ADP))(3 (3 (2 (DET))(3 (3 (NOUN))(2 (2 (PUNCT))(2 (3 (2 (ADV))(2 (ADJ)))(3 (NOUN))))))(2 (2 (ADP))(2 (2 (PROPN))(2 (PROPN))))))))))))))))(2 (PUNCT))) |ET| 
1  |BT| (1 (1 (ADJ))(2 (2 (2 (CCONJ))(3 (ADV)))(2 (2 (2 (ADJ))(1 (0 (2 (NOUN))(0 (2 (ADP))(1 (2 (2 (ADJ))(2 (2 (NOUN))(2 (PART))))(1 (1 (ADJ))(2 (NOUN))))))(2 (2 (NOUN))(2 (2 (DET))(2 (2 (PROPN))(2 (VERB)))))))(2 (PUNCT))))) |ET| 
-1  |BT| (-1 (1 (3 (3 (2 (2 (PRON))(3 (3 (2 (AUX))(3 (2 (ADV))(3 (ADJ))))(2 (2 (PART))(3 (2 (VERB))(2 (3 (2 (2 (DET))(2 (2 (ADJ))(2 (2 (ADJ))(2 (NOUN)))))(3 (2 (ADP))(2 (NOUN))))(2 (2 (DET))(2 (2 (2 (VERB))(1 (ADP)))(2 (ADV)))))))))(2 (PUNCT)))(2 (CCONJ)))(2 (2 (PRON))(1 (2 (AUX))(0 (2 (ADV))(1 (1 (1 (1 (ADJ))(2 (CCONJ)))(3 (ADJ)))(1 (2 (DET))(2 (2 (ADJ))(2 (2 (VERB))(1 (2 (VERB))(2 (2 (2 (VERB))(2 (PRON)))(2 (2 (DET))(2 (ADV)))))))))))))(2 (PUNCT))) |ET| 
0.52325488395798569474237638132763  |BT| (1 (2 (3 (1 (3 (2 (PRON))(2 (2 (2 (AUX))(3 (2 (DET))(3 (NOUN))))(2 (2 (SCONJ))(3 (3 (2 (DET))(3 (4 (ADJ))(3 (NOUN))))(2 (2 (VERB))(2 (2 (2 (VERB))(2 (ADP)))(3 (2 (PART))(1 (2 (2 (VERB))(3 (PRON)))(1 (2 (ADP))(1 (3 (2 (DET))(2 (NOUN)))(1 (2 (ADP))(1 (2 (NOUN))(2 (2 (PUNCT))(1 (1 (VERB))(0 (PUNCT))))))))))))))))(2 (NOUN)))(2 (PUNCT)))(2 (2 (2 (NOUN))(2 (NOUN)))(2 (2 (PUNCT))(3 (CCONJ)))))(2 (DET))) |ET| 
-1  |BT| (-1 (2 (ADV))(2 (2 (ADV))(3 (2 (3 (1 (2 (1 (NOUN))(3 (2 (PART))(3 (2 (ADV))(3 (3 (3 (VERB))(2 (PRON)))(2 (2 (ADP))(2 (2 (ADJ))(2 (2 (NOUN))(2 (2 (NOUN))(2 (NOUN))))))))))(2 (PUNCT)))(2 (CCONJ)))(3 (2 (PRON))(3 (2 (AUX))(3 (3 (ADJ))(3 (2 (ADP))(2 (2 (DET))(3 (3 (ADJ))(3 (2 (2 (NOUN))(2 (CCONJ)))(2 (NOUN))))))))))(2 (PUNCT))))) |ET| 
1  |BT| (1 (2 (PROPN))(0 (2 (PUNCT))(1 (1 (1 (3 (2 (VERB))(2 (2 (ADJ))(2 (NOUN))))(2 (2 (ADP))(1 (2 (2 (DET))(2 (NOUN)))(1 (2 (ADP))(1 (2 (DET))(1 (2 (1 (0 (ADJ))(2 (CCONJ)))(2 (NOUN)))(2 (PUNCT))))))))(2 (2 (ADJ))(1 (2 (NOUN))(2 (2 (PART))(2 (VERB))))))(2 (PRON))))) |ET| 
-1  |BT| (-1 (2 (2 (3 (3 (3 (2 (2 (DET))(2 (NOUN)))(2 (2 (VERB))(2 (2 (2 (DET))(1 (2 (1 (ADV))(2 (ADJ)))(2 (VERB))))(2 (3 (2 (ADJ))(2 (2 (ADJ))(3 (NOUN))))(2 (2 (VERB))(2 (2 (ADP))(1 (NOUN))))))))(3 (2 (VERB))(3 (2 (AUX))(3 (ADJ)))))(2 (PUNCT)))(2 (CCONJ)))(1 (2 (2 (DET))(2 (2 (ADJ))(2 (NOUN))))(0 (2 (ADV))(1 (2 (VERB))(2 (2 (DET))(2 (NOUN)))))))(2 (PUNCT))) |ET| 
1  |BT| (1 (2 (2 (PROPN))(2 (PROPN)))(2 (2 (1 (1 (1 (2 (0 (VERB))(3 (2 (ADV))(3 (ADV))))(2 (2 (ADP))(2 (2 (ADJ))(2 (NOUN)))))(2 (CCONJ)))(2 (2 (VERB))(2 (2 (2 (ADJ))(2 (2 (ADJ))(2 (NOUN))))(2 (2 (ADP))(2 (NOUN))))))(3 (2 (DET))(4 (2 (PRON))(3 (2 (2 (VERB))(2 (PART)))(3 (3 (2 (2 (VERB))(2 (CCONJ)))(3 (VERB)))(2 (2 (DET))(2 (NOUN))))))))(2 (PUNCT)))) |ET| 
-1  |BT| (-1 (2 (3 (3 (3 (2 (2 (DET))(2 (3 (ADJ))(2 (PROPN))))(3 (2 (AUX))(3 (2 (DET))(2 (4 (ADJ))(2 (2 (NOUN))(2 (2 (PART))(2 (2 (2 (VERB))(2 (2 (DET))(2 (2 (ADJ))(1 (2 (ADJ))(2 (NOUN))))))(2 (2 (PART))(2 (2 (VERB))(2 (PRON)))))))))))(2 (PUNCT)))(2 (CCONJ)))(1 (2 (2 (2 (2 (DET))(2 (2 (ADJ))(3 (NOUN))))(2 (CCONJ)))(0 (0 (ADJ))(2 (NOUN))))(2 (2 (VERB))(2 (3 (2 (VERB))(3 (ADJ)))(1 (2 (SCONJ))(3 (2 (2 (DET))(2 (NOUN)))(2 (2 (VERB))(2 (2 (PRON))(2 (2 (PART))(2 (2 (AUX))(2 (2 (ADP))(2 (PRON)))))))))))))(2 (PUNCT))) |ET| 
1  |BT| (1 (1 (2 (ADV))(2 (2 (2 (PROPN))(2 (PROPN)))(1 (1 (VERB))(0 (2 (ADP))(0 (0 (1 (1 (1 (1 (2 (DET))(2 (1 (VERB))(2 (NOUN))))(2 (PUNCT)))(2 (NOUN)))(2 (PUNCT)))(2 (CCONJ)))(1 (1 (NOUN))(2 (2 (ADP))(2 (NOUN)))))))))(3 (2 (PUNCT))(3 (2 (PRON))(4 (2 (2 (VERB))(3 (2 (ADP))(3 (3 (4 (4 (2 (DET))(3 (NOUN)))(2 (PUNCT)))(2 (CCONJ)))(3 (3 (ADJ))(2 (NOUN))))))(2 (PUNCT)))))) |ET| 
-1  |BT| (-1 (3 (2 (ADV))(3 (2 (DET))(3 (2 (AUX))(3 (2 (1 (ADJ))(2 (CCONJ)))(3 (ADJ))))))(1 (3 (2 (PUNCT))(3 (3 (1 (2 (DET))(2 (2 (NOUN))(3 (NOUN))))(3 (3 (VERB))(2 (2 (ADP))(2 (2 (DET))(2 (NOUN))))))(2 (PUNCT))))(0 (2 (DET))(1 (0 (2 (AUX))(1 (1 (1 (2 (ADV))(1 (NOUN)))(2 (CCONJ)))(1 (2 (ADV))(1 (2 (ADV))(3 (ADJ))))))(2 (PUNCT)))))) |ET| 
1  |BT| (1 (2 (2 (PROPN))(2 (2 (PROPN))(2 (PROPN))))(2 (2 (2 (AUX))(2 (2 (2 (2 (VERB))(2 (2 (2 (DET))(2 (NOUN)))(2 (2 (ADP))(2 (2 (ADJ))(3 (NOUN))))))(2 (2 (2 (ADP))(2 (2 (DET))(2 (2 (NUM))(2 (2 (ADJ))(2 (NOUN))))))(2 (2 (PUNCT))(2 (2 (CCONJ))(2 (2 (2 (ADP))(2 (2 (DET))(2 (NOUN))))(2 (2 (ADP))(2 (2 (DET))(2 (NOUN)))))))))(2 (2 (DET))(3 (2 (PRON))(2 (VERB))))))(2 (PUNCT)))) |ET| 
-1  |BT| (-1 (2 (2 (2 (AUX))(3 (2 (2 (PROPN))(2 (PROPN)))(2 (3 (ADJ))(2 (2 (PART))(2 (2 (VERB))(2 (2 (ADJ))(2 (PUNCT))))))))(1 (2 (2 (NOUN))(2 (2 (NOUN))(2 (PROPN))))(2 (2 (PROPN))(2 (2 (PART))(2 (VERB))))))(1 (2 (2 (PROPN))(2 (2 (2 (PROPN))(2 (2 (PUNCT))(2 (2 (PRON))(2 (2 (VERB))(2 (2 (AUX))(2 (2 (AUX))(2 (2 (2 (VERB))(2 (2 (PART))(2 (3 (VERB))(2 (DET)))))(2 (NOUN)))))))))(2 (NOUN))))(2 (2 (ADP))(1 (2 (2 (2 (2 (PUNCT))(2 (PUNCT)))(2 (2 (AUX))(2 (2 (PART))(2 (2 (VERB))(3 (2 (ADJ))(3 (3 (ADP))(2 (DET))))))))(2 (PROPN)))(2 (PROPN)))))) |ET| 
1  |BT| (1 (2 (1 (1 (0 (2 (NOUN))(1 (2 (AUX))(1 (2 (VERB))(2 (2 (PART))(0 (2 (1 (2 (VERB))(2 (2 (SCONJ))(2 (2 (DET))(2 (NOUN)))))(2 (CCONJ)))(1 (2 (VERB))(1 (2 (PART))(1 (0 (VERB))(1 (2 (VERB))(2 (2 (DET))(1 (1 (3 (ADV))(2 (ADJ)))(2 (NOUN)))))))))))))(2 (PUNCT)))(2 (ADJ)))(3 (2 (ADJ))(3 (2 (2 (ADJ))(2 (PUNCT)))(3 (2 (CCONJ))(3 (2 (ADV))(4 (DET)))))))(2 (NOUN))) |ET| 
-0.77155434876720652148662793479161  |BT| (-1 (2 (2 (ADP))(2 (2 (DET))(2 (2 (ADP))(3 (2 (2 (DET))(2 (NOUN)))(2 (2 (ADP))(2 (2 (2 (3 (2 (2 (DET))(2 (3 (NOUN))(2 (NOUN))))(2 (2 (ADP))(2 (2 (ADJ))(3 (NOUN)))))(2 (PUNCT)))(2 (CCONJ)))(3 (2 (2 (DET))(2 (2 (ADJ))(2 (NOUN))))(2 (2 (ADP))(2 (2 (NOUN))(2 (NOUN)))))))))))(1 (2 (PUNCT))(0 (2 (2 (DET))(2 (NOUN)))(2 (0 (2 (VERB))(1 (0 (1 (1 (1 (1 (1 (DET))(2 (NOUN)))(2 (2 (ADP))(2 (PRON))))(1 (2 (VERB))(2 (2 (PART))(3 (2 (2 (VERB))(3 (2 (DET))(3 (3 (ADJ))(2 (NOUN)))))(1 (SCONJ))))))(2 (2 (ADP))(2 (2 (DET))(2 (2 1NUM)))))(2 (NUM)))(2 (2 (PUNCT))(2 (2 (NOUN))(2 (NOUN))))))(2 (NOUN)))))) |ET| 
1  |BT| (1 (3 (3 (3 (3 (3 (2 (DET))(2 (3 (3 (ADV))(3 (ADJ)))(2 (2 (PROPN))(2 (PROPN)))))(3 (2 (AUX))(2 (4 (ADJ))(2 (2 (NOUN))(2 (NOUN))))))(2 (PUNCT)))(2 (CCONJ)))(3 (2 (2 (2 (2 (2 (2 (2 (PROPN))(2 (PROPN)))(2 (CCONJ)))(2 (2 (DET))(2 (NOUN))))(2 (NOUN)))(2 (2 (NOUN))(2 (PUNCT))))(2 (PROPN)))(2 (2 (PROPN))(2 (3 (PUNCT))(2 (2 (2 (2 (AUX))(2 (2 (VERB))(2 (2 (DET))(3 (PROPN)))))(2 (PROPN)))(2 (2 (NOUN))(2 (2 (PUNCT))(3 (2 (2 (DET))(2 (2 (PRON))(2 (2 (VERB))(2 (SCONJ)))))(2 (2 (DET))(2 (2 (2 (NOUN))(2 (2 (ADP))(2 (PROPN))))(2 (2 (PROPN))(2 (PART)))))))))))))(2 (NOUN))) |ET| 
-1  |BT| (-1 (1 (3 (3 (3 (2 (VERB))(3 (2 (ADV))(3 (2 (VERB))(2 (3 (ADV))(3 (2 (2 (ADP))(2 (2 (2 (2 (ADJ))(2 (NOUN)))(2 (PUNCT)))(2 (2 (ADV))(2 (2 (2 (PROPN))(2 (PROPN)))(2 (2 (AUX))(2 (2 (DET))(3 (2 (NOUN))(2 (NOUN)))))))))(2 (3 (2 (PUNCT))(2 (CCONJ)))(3 (2 (ADP))(3 (2 (2 (PROPN))(2 (PUNCT)))(2 (2 (ADV))(2 (2 (2 (PROPN))(2 (PROPN)))(2 (2 (AUX))(2 (2 (DET))(2 (NOUN))))))))))))))(2 (PUNCT)))(2 (CCONJ)))(2 (2 (2 (ADJ))(2 (NOUN)))(1 (3 (2 (VERB))(2 (ADV)))(2 (2 (VERB))(1 (2 (PRON))(1 (2 (2 (ADJ))(2 (CCONJ)))(1 (1 (ADV))(1 (ADJ)))))))))(2 (PUNCT))) |ET| 
-1  |BT| (-1 (2 (PROPN))(1 (1 (ADV))(1 (1 (1 (2 (2 (3 (VERB))(0 (2 (ADP))(1 (2 (DET))(1 (NOUN)))))(2 (2 (ADP))(2 (2 (DET))(1 (1 (ADJ))(3 (NOUN))))))(2 (PUNCT)))(2 (2 (ADV))(2 (2 (2 (2 (VERB))(1 (2 (DET))(2 (PROPN))))(2 (CCONJ)))(2 (2 (VERB))(2 (2 (2 (DET))(2 (NOUN)))(2 (2 (ADP))(2 (2 (2 (NOUN))(2 (NOUN)))(2 (2 (ADP))(2 (2 (NUM))(2 (NOUN)))))))))))(2 (PUNCT))))) |ET| 
-1  |BT| (-1 (2 (2 (2 (VERB))(2 (2 (ADP))(2 (2 (2 (DET))(1 (1 (ADJ))(2 (NOUN))))(2 (2 (ADP))(2 (2 (2 (DET))(2 (2 (NOUN))(2 (PUNCT))))(2 (2 (NOUN))(2 (NOUN))))))))(2 (2 (ADP))(2 (2 (NOUN))(3 (2 (2 (VERB))(1 (2 (PART))(2 (2 (VERB))(2 (2 (NOUN))(2 (ADP))))))(3 (2 (DET))(2 (2 (NOUN))(2 (ADP))))))))(2 (DET))) |ET| 
1  |BT| (1 (3 (2 (3 (3 (3 (2 (2 (2 (3 (2 (DET))(2 (NOUN)))(2 (2 (VERB))(2 (2 (AUX))(2 (3 (NOUN))(2 (NOUN))))))(2 (PUNCT)))(2 (CCONJ)))(3 (2 (2 (DET))(2 (2 (ADJ))(2 (NOUN))))(3 (2 (2 (AUX))(2 (2 (SCONJ))(2 (NOUN))))(2 (2 (SCONJ))(2 (2 (PRON))(2 (2 (VERB))(2 (AUX))))))))(2 (PUNCT)))(2 (2 (2 (2 (DET))(2 (NOUN)))(3 (2 (ADP))(2 (2 (DET))(2 (NOUN)))))(2 (2 (AUX))(3 (2 (VERB))(2 (2 (ADP))(2 (2 (DET))(2 (2 (2 (ADV))(2 (2 (ADJ))(2 (2 (PUNCT))(2 (2 (ADV))(2 (VERB))))))(2 (2 (ADJ))(2 (NOUN))))))))))(2 (CCONJ)))(2 (2 (2 (DET))(2 (2 (NUM))(2 (PUNCT))))(1 (2 (NOUN))(1 (2 (NOUN))(2 (2 (2 (VERB))(2 (ADP)))(2 (2 (DET))(2 (NOUN))))))))(2 (ADP))) |ET| 
-1  |BT| (-1 (0 (3 (NOUN))(1 (2 (PART))(2 (2 (AUX))(0 (2 (2 (2 (DET))(3 (2 (PROPN))(2 (NOUN))))(2 (CCONJ)))(2 (2 (2 (NOUN))(2 (ADP)))(2 (2 (SCONJ))(2 (2 (2 (2 (DET))(3 (NOUN)))(2 (2 (ADP))(2 (NOUN))))(2 (2 (DET))(2 (2 (VERB))(2 (2 (AUX))(2 (2 (2 (DET))(2 (NOUN)))(2 (2 (ADP))(2 (PRON))))))))))))))(3 (4 (2 (2 (2 (ADJ))(2 (CCONJ)))(2 (ADV)))(4 (ADJ)))(2 (PUNCT)))) |ET| 
0.31148094890623700958798281135387  |BT| (1 (2 (2 (PRON))(1 (2 (PUNCT))(1 (2 (PUNCT))(1 (2 (NOUN))(1 (1 (PUNCT))(2 (2 (VERB))(2 (ADP))))))))(3 (2 (NOUN))(3 (3 (2 (2 (PRON))(2 (VERB)))(4 (2 (ADP))(2 (2 (ADP))(3 (2 (ADP))(2 (DET))))))(2 (NOUN))))) |ET| 
-0.84526990700523452204606655868702  |BT| (-1 (3 (2 (ADP))(4 (ADV)))(0 (2 (PUNCT))(0 (2 (2 (PROPN))(2 (PROPN)))(1 (0 (2 (VERB))(0 (3 (2 (2 (3 (VERB))(3 (2 (DET))(2 (NOUN))))(2 (2 (ADP))(2 (2 (DET))(2 (2 (NOUN))(2 (NOUN))))))(2 (PUNCT)))(1 (2 (ADP))(2 (2 (NOUN))(2 (2 (ADP))(4 (2 (DET))(3 (4 (ADJ))(2 (2 (NOUN))(2 (NOUN))))))))))(2 (PUNCT)))))) |ET| 
1  |BT| (1 (3 (2 (2 (3 (2 (2 (DET))(2 (NOUN)))(2 (2 (ADP))(2 (2 (PROPN))(1 (PROPN)))))(2 (PUNCT)))(2 (2 (2 (DET))(2 (NOUN)))(2 (2 (ADP))(2 (2 (2 (2 (PROPN))(2 (PROPN)))(2 (PUNCT)))(2 (2 (PROPN))(2 (CCONJ)))))))(2 (PROPN)))(2 (2 (2 (2 (PROPN))(2 (2 (2 (2 (PUNCT))(2 (2 (2 (VERB))(2 (ADP)))(2 (2 (DET))(2 (2 (2 (NOUN))(2 (ADP)))(2 (NOUN))))))(2 (CCONJ)))(2 (NOUN))))(2 (2 (PUNCT))(2 (2 (2 (2 (ADV))(2 (ADP)))(2 (DET)))(2 (2 (NOUN))(2 (2 (2 (PUNCT))(2 (PRON)))(2 (2 (VERB))(2 (2 (ADV))(2 (1ADP)))))))))(2 (DET)))) |ET| 
-1  |BT| (-1 (2 (PUNCT))(2 (2 (3 (PROPN))(2 (PROPN)))(3 (1 (2 (2 (PART))(2 (2 (2 (PROPN))(2 (1 (PUNCT))(2 (2 (AUX))(3 (PUNCT)))))(2 (2 (2 (DET))(2 (NOUN)))(2 (2 (2 (VERB))(2 (2 (NOUN))(2 (2 (PUNCT))(2 (2 (2 (NOUN))(2 (ADP)))(2 (2 (DET))(2 (NOUN)))))))(3 (2 (SCONJ))(3 (2 (2 (2 (PROPN))(2 (ADP)))(2 (DET)))(4 (2 (NOUN))(2 (4 (2 (PUNCT))(3 (NOUN)))(2 (2 (CCONJ))(2 (2 (DET))(2 (ADV))))))))))))(2 (ADJ)))(2 (PROPN))))) |ET| 
1  |BT| (1 (4 (4 (4 (4 (3 (2 (PRON))(3 (2 (AUX))(3 (3 (NOUN))(3 (ADJ)))))(2 (PUNCT)))(2 (CCONJ)))(2 (2 (PUNCT))(2 (2 (2 (SCONJ))(3 (2 (DET))(3 (NOUN))))(2 (PUNCT)))))(3 (2 (NOUN))(2 (2 (2 (AUX))(2 (PART)))(0 (1 (2 (AUX))(1 (2 (PART))(0 (1 (VERB))(1 (2 (ADP))(1 (2 (AUX))(1 (2 (VERB))(0 (2 (ADP))(2 (1 (2 (0 (1 (1 (1 (1 (2 (1 (NOUN))(2 (PUNCT)))(2 (NOUN)))(2 (PUNCT)))(1 (NOUN)))(2 (PUNCT)))(2 (NOUN)))(2 (PUNCT)))(2 (CCONJ)))(2 (2 (DET))(1 (2 (ADP))(2 (2 (DET))(1 (2 (ADJ))(1 (1 (ADJ))(2 (NOUN)))))))))))))))(2 (2 (DET))(2 (2 (AUX))(1 (1 (VERB))(3 (2 (ADJ))(2 (PUNCT))))))))))(2 (NOUN))) |ET| 
0.58584276571416782353196595067857  |BT| (1 (2 (2 (NOUN))(2 (2 (PROPN))(2 (2 (PROPN))(2 (2 (PUNCT))(2 (2 (PROPN))(2 (2 (CCONJ))(2 (PROPN))))))))(3 (2 (2 (2 (2 (2 (PROPN))(2 (NOUN)))(2 (VERB)))(2 (2 (ADV))(2 (PUNCT))))(2 (PROPN)))(3 (2 (PROPN))(3 (3 (1 (PUNCT))(3 (2 (ADP))(3 (3 (3 (3 (4 (3 (2 (VERB))(2 (DET)))(2 (ADV)))(2 (ADJ)))(3 (PUNCT)))(2 (CCONJ)))(2 (ADJ)))))(3 (3 (PUNCT))(2 (2 (NOUN))(2 (2 (2 (VERB))(2 (2 (ADV))(2 (NUM))))(2 (3 (3 (ADJ))(1 (2 (3 (NOUN))(2 (2 (VERB))(2 (NOUN))))(2 (2 (ADP))(1 (2 (NOUN))(2 (2 (ADP))(2 (ADJ)))))))(2 (2 (ADJ))(2 (2 (2 (NOUN))(2 (SCONJ)))(2 (2 (DET))(2 (NOUN))))))))))))) |ET| 
1  |BT| (1 (2 (PROPN))(2 (3 (2 (VERB))(3 (3 (PRON))(2 (2 (VERB))(2 (2 (SCONJ))(2 (1 (2 (2 (DET))(2 (2 (NOUN))(3 (VERB))))(2 (2 (ADP))(2 (2 (2 (DET))(2 (NOUN)))(2 (2 (SCONJ))(2 (2 (PART))(2 (2 (AUX))(2 (ADJ))))))))(2 (2 (2 (AUX))(2 (ADV)))(2 (2 (PART))(2 (2 (AUX))(2 (2 (PART))(2 (VERB)))))))))))(2 (PUNCT)))) |ET| 
-1  |BT| (-1 (2 (2 (2 (2 (2 (PRON))(2 (2 (PRON))(2 (VERB))))(2 (2 (AUX))(2 (2 (2 (ADV))(2 (PRON)))(2 (2 (PRON))(2 (VERB))))))(2 (PUNCT)))(1 (2 (2 (VERB))(2 (2 (2 (DET))(2 (NOUN)))(2 (2 (ADP))(2 (NOUN)))))(2 (2 (2 (AUX))(2 (PART)))(2 (2 (AUX))(2 (2 (VERB))(2 (2 (ADP))(2 (2 (ADJ))(2 (PUNCT)))))))))(2 (NOUN))) |ET| 
1  |BT| (1 (1 (2 (2 (DET))(2 (NOUN)))(0 (2 (DET))(1 (2 (VERB))(1 (2 (AUX))(2 (4 (ADV))(2 (3 (VERB))(1 (2 (ADP))(1 (2 (DET))(2 (2 (ADJ))(1 (2 (PART))(2 (2 (VERB))(2 (1 (2 (2 (DET))(1 (2 (ADV))(2 (2 (ADJ))(2 (NOUN)))))(2 (PUNCT)))(2 (2 (VERB))(3 (2 (ADP))(3 (PROPN))))))))))))))))(2 (3 (2 (AUX))(2 (2 (ADV))(1 (4 (ADJ))(1 (2 (ADP))(2 (2 (VERB))(4 (2 (ADJ))(3 (3 (ADJ))(2 (NOUN)))))))))(2 (PUNCT)))) |ET| 
-1  |BT| (-1 (0 (1 (1 (1 (2 (DET))(1 (0 (0 (ADJ))(1 (2 (PUNCT))(1 (ADJ))))(2 (NOUN))))(4 (2 (DET))(2 (3 (2 (VERB))(3 (2 (2 (DET))(4 (4 (ADJ))(2 (2 (PUNCT))(2 (2 (ADJ))(2 (2 (1PUNCT))(1 (NOUN)))))))(2 (2 (ADJ))(2 (2 (PUNCT))(3 (NOUN))))))(2 (NOUN)))))(2 (SCONJ)))(1 (3 (DET))(1 (2 (NOUN))(1 (2 (ADP))(1 (3 (2 (PUNCT))(1 (INTJ)))(2 (2 (PUNCT))(1 (2 (PRON))(1 (2 (2 (VERB))(2 (2 (PROPN))(2 (PART))))(1 (2 (ADV))(0 (1 (2 (ADJ))(2 (2 (PRON))(2 (3 (PUNCT))(2 (CCONJ)))))(3 (2 (AUX))(2 (2 (DET))(2 (DET))))))))))))))(2 (ADJ))) |ET| 
1  |BT| (1 (3 (2 (2 (2 (2 (2 (2 (PROPN))(2 (CCONJ)))(2 (PROPN)))(2 (2 (VERB))(2 (2 (2 (DET))(1 (ADJ)))(2 (2 (ADP))(2 (NOUN))))))(2 (PUNCT)))(2 (CCONJ)))(3 (2 (2 (ADP))(2 (2 (DET))(2 (NOUN))))(2 (2 (2 (DET))(2 (NOUN)))(2 (2 (2 (2 (VERB))(2 (2 (2 (DET))(2 (NOUN)))(2 (2 (ADP))(2 (2 (2 (DET))(2 (NOUN)))(2 (2 (ADP))(2 (2 (DET))(2 (2 (NOUN))(2 (NOUN)))))))))(2 (PUNCT)))(2 (2 (VERB))(3 (2 (2 (DET))(2 (2 (NOUN))(2 (NOUN))))(2 (2 (DET))(2 (2 (2 (VERB))(2 (ADV)))(2 (2 (ADP))(2 (2 (DET))(2 (2 (2 (DET))(2 (2 (NOUN))(2 (PART))))(2 (2 (ADJ))(2 (NOUN))))))))))))))(2 (PUNCT))) |ET| 
-1  |BT| (-1 (2 (2 (SCONJ))(2 (2 (PROPN))(2 (2 (AUX))(1 (1 (ADJ))(2 (2 (ADP))(2 (2 (2 (DET))(2 (NOUN)))(2 (2 (ADP))(1 (2 (2 (DET))(2 (2 (ADJ))(3 (2 (NOUN))(2 (NOUN)))))(2 (2 (ADP))(2 (NUM)))))))))))(2 (2 (PUNCT))(1 (2 (PRON))(2 (2 (ADV))(3 (2 (2 (2 (VERB))(2 (PART)))(2 (2 (AUX))(2 (2 (ADV))(2 (2 (ADJ))(2 (2 (ADP))(2 (2 (2 (DET))(2 (2 (ADJ))(2 (PUNCT))))(2 (2 (NOUN))(2 (2 (2 (PART))(2 (NOUN)))(2 (2 (NOUN))(2 (2 (4 (ADP))(2 (ADP)))(2 (2 (ADV))(2 (2 (ADV))(2 (DET))))))))))))))(2 (ADJ))))))) |ET| 
1  |BT| (1 (2 (1 (1 (2 (VERB))(2 (1 (0 (2 (VERB))(1 (2 (ADP))(1 (1 (1 (ADJ))(2 (NOUN)))(2 (2 (ADV))(2 (2 (ADP))(0 (1 (ADJ))(2 (NOUN))))))))(2 (PUNCT)))(2 (2 (SCONJ))(2 (3 (NOUN))(2 (AUX))))))(2 (PUNCT)))(3 (2 (ADV))(3 (2 (PUNCT))(4 (3 (NOUN))(4 (2 (AUX))(3 (2 (ADV))(3 (2 (ADV))(3 (ADJ)))))))))(2 (PUNCT))) |ET| 
-1  |BT| (-1 (4 (2 (SCONJ))(3 (2 (2 (DET))(3 (NOUN)))(4 (3 (2 (VERB))(3 (ADV)))(3 (2 (AUX))(3 (2 (DET))(3 (3 (ADJ))(3 (2 (NOUN))(3 (VERB)))))))))(0 (2 (PUNCT))(1 (2 (NOUN))(2 (0 (2 (VERB))(1 (2 (2 (VERB))(2 (2 (DET))(2 (2 (NOUN))(3 (PUNCT)))))(1 (4 (VERB))(1 (2 (NOUN))(2 (ADV))))))(2 (VERB)))))) |ET| 
1  |BT| (1 (4 (2 (2 (3 (2 (VERB))(2 (2 (DET))(2 (2 (12NOUN))(2 (2 (PUNCT))(2 (2 (ADJ))(2 (2 (NOUN))(2 (2 (PART))(2 (VERB)))))))))(2 (DET)))(2 (NOUN)))(2 (2 (PUNCT))(2 (2 (CCONJ))(2 (2 (PRON))(2 (2 (2 (VERB))(2 (AUX)))(2 (2 (DET))(2 (2 (NOUN))(2 (ADP)))))))))(2 (DET))) |ET| 
-1  |BT| (-1 (1 (2 (1 (ADV))(2 (2 (2 (2 (4 (ADV))(2 (CCONJ)))(1 (ADJ)))(2 (2 (SCONJ))(2 (2 (PUNCT))(2 (2 (2 (2 (2 (2 (2 (NOUN))(2 (CCONJ)))(2 (PROPN)))(2 (PUNCT)))(2 (2 (PROPN))(2 (PUNCT))))(2 (CCONJ)))(2 (2 (DET))(2 (2 (ADJ))(2 (ADJ))))))))(2 (NOUN))))(1 (2 (ADP))(2 (1 (ADJ))(2 (PROPN)))))(2 (1 (1 (NOUN))(2 (1 (1 (VERB))(2 (2 (DET))(2 (2 (ADJ))(2 (NOUN)))))(2 (2 (ADP))(2 (2 (DET))(2 (2 (ADJ))(3 (NOUN)))))))(2 (PUNCT)))) |ET| 
0.3627451287998142981372495796677  |BT| (1 (1 (2 (SCONJ))(0 (2 (2 (DET))(2 (NOUN)))(1 (1 (2 (AUX))(1 (PART)))(4 (2 (ADV))(4 (ADJ))))))(3 (2 (PUNCT))(2 (2 (PRON))(3 (2 (ADV))(3 (3 (2 (VERB))(3 (2 (PART))(3 (3 (2 (3 (VERB))(2 (ADV)))(3 (2 (2 (ADJ))(4 (ADJ)))(2 (NOUN))))(2 (2 (PART))(2 (VERB))))))(2 (PUNCT))))))) |ET| 
-1  |BT| (-1 (2 (2 (4 (3 (2 (PRON))(3 (2 (AUX))(3 (2 (ADJ))(2 (2 (PART))(3 (4 (VERB))(3 (2 (PROPN))(2 (PROPN))))))))(3 (2 (PUNCT))(3 (3 (4 (3 (2 (PRON))(2 (2 (AUX))(4 (ADJ))))(2 (CCONJ)))(3 (2 (PRON))(3 (2 (VERB))(2 (VERB)))))(2 (PUNCT)))))(2 (CCONJ)))(3 (2 (PRON))(1 (2 (VERB))(2 (2 (2 (2 (ADJ))(2 (CCONJ)))(2 (ADV)))(2 (2 (PART))(3 (2 (VERB))(2 (2 (DET))(2 (NOUN)))))))))(2 (PUNCT))) |ET| 
1  |BT| (1 (2 (2 (2 (2 (2 (DET))(2 (NOUN)))(2 (PUNCT)))(2 (2 (PROPN))(2 (PROPN))))(2 (PUNCT)))(2 (1 (2 (AUX))(2 (4 (2 (DET))(3 (4 (ADJ))(2 (NOUN))))(0 (2 (2 (2 (VERB))(2 (ADP)))(2 (2 (DET))(2 (1 (ADJ))(2 (2 (PUNCT))(1 (1 (ADJ))(2 (NOUN)))))))(1 (2 (SCONJ))(0 (1 (ADV))(0 (2 (2 (DET))(2 (2 (DET))(2 (NOUN))))(2 (2 (VERB))(2 (3 (PRON))(2 (2 (AUX))(2 (2 (VERB))(2 (2 (2 (1 (2 (2 (2 (ADJ))(2 (NOUN)))(2 (PUNCT)))(2 (2 (DET))(2 (2 (VERB))(2 (NOUN)))))(2 (PUNCT)))(2 (CCONJ)))(1 (2 (2 (DET))(2 (NOUN)))(2 (2 (ADP))(2 (2 (DET))(2 (NOUN))))))))))))))))(2 (PUNCT)))) |ET| 
-1  |BT| (-1 (0 (1 (1 (1 (2 (PRON))(0 (1 (1 (2 (AUX))(2 (2 (DET))(1 (ADJ))))(2 (PUNCT)))(1 (1 (1 (VERB))(2 (NOUN)))(2 (2 (PART))(2 (VERB))))))(2 (PUNCT)))(2 (CCONJ)))(1 (2 (PRON))(2 (1 (2 (AUX))(2 (PART)))(1 (2 (2 (2 (2 (VERB))(1 (2 (2 (DET))(2 (NOUN)))(2 (2 (DET))(2 (2 (2 (AUX))(2 (PART)))(2 (2 (AUX))(2 (2 (ADV))(2 (2 (VERB))(1 (2 (ADP))(2 (2 (DET))(2 (NOUN)))))))))))(2 (ADV)))(2 (PUNCT)))(2 (2 (ADV))(2 (2 (ADP))(2 (2 (2 (DET))(2 (1 (PROPN))(2 (NOUN))))(2 (2 (ADP))(2 (2 (DET))(2 (2 (PROPN))(2 (2 (PUNCT))(2 (NOUN)))))))))))))(2 (NOUN))) |ET| 
1  |BT| (1 (2 (2 (2 (PROPN))(2 (CCONJ)))(2 (2 (2 (PROPN))(2 (PART)))(2 (2 (ADJ))(2 (2 (NOUN))(2 (NOUN))))))(4 (2 (PUNCT))(3 (4 (3 (2 (AUX))(4 (3 (4 (3 (3 (2 (ADV))(2 (ADJ)))(2 (CCONJ)))(3 (3 (3 (ADJ))(2 (CCONJ)))(3 (ADJ))))(2 (CCONJ)))(2 (3 (ADV))(2 (NOUN)))))(2 (2 (PUNCT))(3 (2 (VERB))(2 (2 (SCONJ))(0 (2 (PRON))(0 (2 (VERB))(1 (2 (ADJ))(0 (2 (ADP))(0 (2 (PRON))(1 (2 (3 (VERB))(2 (2 (ADP))(2 (2 (NOUN))(2 (ADP)))))(0 (2 (DET))(2 (2 (NOUN))(1 (0 (VERB))(2 (SCONJ)))))))))))))))(2 (ADJ))))) |ET| 
-0.081505840598670623031729576268845  |BT| (-1 (1 (3 (4 (3 (2 (INTJ))(4 (2 (PUNCT))(4 (2 (3 (PROPN))(2 (PROPN)))(4 (2 (AUX))(4 (4 (2 (DET))(3 (NOUN)))(2 (2 (ADP))(3 (NOUN))))))))(2 (PUNCT)))(2 (CCONJ)))(2 (2 (PRON))(2 (2 (2 (AUX))(2 (ADV)))(0 (0 (2 (DET))(0 (NOUN)))(2 (2 (ADP))(2 (NOUN)))))))(2 (PUNCT))) |ET| 
1  |BT| (1 (2 (PUNCT))(1 (2 (2 (PUNCT))(1 (DET)))(1 (1 (2 (NOUN))(2 (2 (VERB))(0 (3 (3 (ADP))(2 (ADJ)))(2 (2 (NOUN))(2 (2 (VERB))(2 (2 (ADP))(2 (2 (DET))(2 (NOUN)))))))))(2 (NOUN))))) |ET| 
-1  |BT| (-1 (1 (3 (2 (1 (2 (PRON))(1 (3 (VERB))(2 (2 (2 (DET))(2 (NOUN)))(1 (2 (2 (VERB))(2 (PART)))(2 (2 (2 (VERB))(2 (ADV)))(2 (2 (ADP))(2 (2 (DET))(2 (2 (NOUN))(2 (NOUN))))))))))(1 (2 (PUNCT))(3 (3 (2 (ADV))(3 (3 (ADV))(2 (VERB))))(2 (PUNCT)))))(2 (ADV)))(1 (2 (PRON))(2 (2 (2 (VERB))(1 (ADP)))(1 (2 (1 (2 (2 (DET))(2 (2 (ADJ))(2 (2 (NOUN))(2 (PUNCT)))))(2 (2 (NOUN))(2 (2 (NOUN))(2 (ADP)))))(2 (NOUN)))(1 (2 (2 (PUNCT))(2 (ADJ)))(2 (2 (NOUN))(2 (1 (CCONJ))(2 (ADJ)))))))))(2 (NOUN))) |ET| 
1  |BT| (1 (2 (2 (DET))(2 (NOUN)))(2 (2 (1 (1 (1 (2 (2 (AUX))(3 (ADJ)))(2 (2 (ADP))(2 (2 (NOUN))(2 (NOUN)))))(2 (PUNCT)))(2 (ADJ)))(2 (2 (ADP))(2 (NOUN))))(2 (PUNCT)))) |ET| 
-1  |BT| (-1 (2 (2 (DET))(3 (2 (NOUN))(4 (2 (PART))(3 (2 (2 (VERB))(2 (PROPN)))(4 (3 (2 (2 (ADP))(2 (PUNCT)))(4 (4 (2 (DET))(4 (3 (ADJ))(2 (NOUN))))(4 (2 (ADP))(4 (2 (NOUN))(4 (2 (VERB))(4 (2 (ADP))(4 (3 (2 (DET))(3 (3 (NOUN))(2 (PUNCT))))(3 (2 (VERB))(4 (2 (NOUN))(3 (3 (3 (ADP))(3 (DET)))(3 (ADJ))))))))))))(2 (ADJ)))))))(0 (0 (2 (NOUN))(0 (0 (0 (PUNCT))(2 (2 (AUX))(2 (VERB))))(0 (2 (ADV))(0 (2 (2 (ADV))(2 (SCONJ)))(1 (2 (DET))(1 (NOUN)))))))(2 (VERB)))) |ET| 
1  |BT| (1 (2 (PRON))(2 (2 (2 (AUX))(2 (3 (2 (DET))(3 (NOUN)))(2 (2 (ADP))(2 (2 (VERB))(2 (2 (NOUN))(1 (2 (DET))(2 (2 (AUX))(1 (2 (2 (0 (0 (2 (DET))(1 (NOUN)))(2 (PUNCT)))(3 (2 (DET))(3 (ADV))))(2 (PUNCT)))(1 (2 (VERB))(1 (CCONJ)))))))))))(2 (DET)))) |ET| 
-1  |BT| (-1 (0 (1 (1 (2 (AUX))(1 (1 (1 (1 (1 (2 (2 (NOUN))(2 (2 (ADP))(2 (2 (2 (DET))(2 (NOUN)))(2 (2 (2 (2 (ADP))(2 (PUNCT)))(2 (2 (2 (2 (1 (PUNCT))(2 (PROPN)))(2 (PROPN)))(2 (PUNCT)))(2 (2 (PUNCT))(2 (2 (PUNCT))(2 (2 (1PUNCT))(2 (NUM)))))))(2 (NUM))))))(2 (NOUN)))(2 (PUNCT)))(2 (PUNCT)))(2 (2 (CCONJ))(2 (1 (ADV))(2 (2 (PUNCT))(2 (PUNCT))))))(2 (PROPN))))(2 (PROPN)))(2 (2 (2 (PUNCT))(2 (PUNCT)))(2 (2 (CCONJ))(2 (3 (2 (2 (VERB))(2 (ADV)))(1 (2 (SCONJ))(2 (PROPN))))(2 (2 (PART))(2 (2 (ADJ))(2 (2 (NOUN))(2 (ADP)))))))))(2 (PUNCT))) |ET| 
-1  |BT| (-1 (2 (PRON))(1 (1 (2 (VERB))(2 (2 (2 (VERB))(2 (3 (ADV))(2 (2 (ADP))(2 (PRON)))))(2 (2 (ADP))(2 (2 (VERB))(2 (1 (2 (2 (2 (2 (PRON))(3 (ADJ)))(2 (PUNCT)))(2 (2 (SCONJ))(3 (2 (ADP))(2 (2 (DET))(2 (2 (ADJ))(2 (2 (ADJ))(2 (NOUN))))))))(2 (PUNCT)))(2 (2 (2 (VERB))(2 (CCONJ)))(2 (ADV))))))))(2 (PUNCT)))) |ET| 
-1  |BT| (-1 (2 (3 (4 (4 (2 (PRON))(4 (3 (3 (3 (3 (2 (3 (2 (AUX))(3 (ADJ)))(2 (PUNCT)))(3 (3 (ADV))(2 (VERB))))(2 (PUNCT)))(2 (CCONJ)))(1 (ADV)))(2 (VERB))))(2 (PUNCT)))(2 (CCONJ)))(1 (2 (PRON))(1 (2 (2 (1 (VERB))(2 (PRON)))(2 (ADP)))(1 (2 (SCONJ))(2 (2 (2 (DET))(3 (2 (NOUN))(2 (NOUN))))(3 (1 (2 (VERB))(1 (ADP)))(2 (2 (DET))(2 (NOUN)))))))))(2 (PUNCT))) |ET| 
1  |BT| (1 (2 (2 (2 (PROPN))(2 (2 (PROPN))(2 (PART))))(2 (NOUN)))(2 (2 (2 (2 (AUX))(2 (ADV)))(2 (2 (VERB))(1 (2 (SCONJ))(1 (2 (ADV))(2 (2 (PRON))(1 (2 (AUX))(1 (1 (ADJ))(2 (2 (PART))(2 (2 (VERB))(2 (2 (PRON))(2 (2 (2 (2 (DET))(2 (2 (ADJ))(2 (NOUN))))(2 (2 (ADP))(2 (2 (DET))(2 (NOUN)))))(2 (AUX)))))))))))))(2 (PUNCT)))) |ET| 
-1  |BT| (-1 (2 (2 (DET))(2 (NOUN)))(1 (2 (1 (2 (AUX))(2 (PART)))(2 (2 (VERB))(2 (2 (2 (ADJ))(2 (2 (ADP))(2 (2 (DET))(2 (4 (ADJ))(2 (2 (2 (NOUN))(2 (CCONJ)))(2 (ADV)))))))(3 (2 (ADP))(2 (2 (PRON))(3 (2 (AUX))(2 (2 (2 (VERB))(2 (2 (ADP))(2 (2 (DET))(2 (NOUN)))))(2 (2 (ADJ))(2 (2 (2 (NOUN))(1 (PART)))(2 (2 (VERB))(2 (2 (ADP))(2 (2 (PRON))(2 (2 (VERB))(2 (2 (PROPN))(2 (DET))))))))))))))))(2 (ADJ)))) |ET| 
1  |BT| (1 (1 (2 (3 (3 (2 (PRON))(4 (2 (AUX))(3 (2 (ADJ))(3 (3 (NOUN))(1 (2 (PART))(2 (2 (AUX))(3 (2 (VERB))(1 (2 (ADP))(1 (2 (NOUN))(2 (2 (VERB))(2 (2 (ADP))(2 (2 (NOUN))(2 (NOUN))))))))))))))(2 (PUNCT)))(2 (CCONJ)))(0 (3 (2 (DET))(4 (NOUN)))(0 (1 (VERB))(1 (2 (2 (ADJ))(2 (2 (PUNCT))(2 (2 (2 (ADV))(1 (ADV)))(2 (PUNCT)))))(1 (2 (ADV))(1 (2 (PRON))(2 (2 (AUX))(1 (2 (1 (PRON))(2 (ADV)))(2 (VERB))))))))))(2 (PUNCT))) |ET| 
-1  |BT| (-1 (2 (3 (VERB))(2 (2 (2 (2 (DET))(1 (NOUN)))(1 (SCONJ)))(2 (2 (ADP))(2 (NOUN)))))(2 (2 (3 (2 (2 (2 (NOUN))(2 (2 (ADP))(2 (2 (DET))(2 (NOUN)))))(2 (CCONJ)))(2 (ADV)))(2 (2 (2 (VERB))(3 (PRON)))(2 (2 (2 (DET))(2 (2 (DET))(2 (NOUN))))(2 (2 (ADP))(2 (2 (NOUN))(2 (NOUN)))))))(2 (PUNCT)))) |ET| 
1  |BT| (1 (3 (4 (2 (DET))(4 (3 (ADJ))(2 (2 (ADJ))(2 (2 (NOUN))(2 (NOUN))))))(2 (2 (ADP))(2 (ADJ))))(2 (2 (2 (NOUN))(2 (2 (ADP))(2 (2 (2 (DET))(1 (NOUN)))(2 (2 (ADP))(2 (2 (PRON))(2 (2 (ADV))(2 (2 (VERB))(2 (2 (1 (PROPN))(2 (PART)))(2 (NOUN))))))))))(2 (PUNCT)))) |ET| 
-1  |BT| (-1 (3 (PROPN))(2 (0 (2 (1 (2 (3 (VERB))(2 (ADV)))(2 (2 (ADP))(2 (2 (ADJ))(2 (NOUN)))))(2 (PUNCT)))(2 (2 (2 (2 (2 (2 (VERB))(2 (3 (ADJ))(2 (2 (NOUN))(2 (2 (NOUN))(2 (2 (CCONJ))(2 (3 (NOUN))(2 (NOUN))))))))(2 (PUNCT)))(2 (2 (2 (VERB))(2 (2 (DET))(2 (NOUN))))(2 (2 (ADP))(2 (2 (DET))(2 (NOUN))))))(2 (CCONJ)))(2 (2 (VERB))(3 (2 (DET))(3 (2 (AUX))(3 (2 (ADJ))(3 (2 (PART))(3 (2 (VERB))(3 (NOUN))))))))))(2 (PUNCT)))) |ET| 
1  |BT| (1 (2 (2 (DET))(2 (NOUN)))(3 (4 (3 (VERB))(4 (2 (ADP))(3 (2 (2 (2 (2 (DET))(2 (NOUN)))(3 (2 (DET))(2 (1 (1 (1 (1 (1 (1 (2 (AUX))(2 (2 (AUX))(1 (VERB))))(2 (PUNCT)))(1 (1 (ADJ))(1 (2 (ADP))(2 (2 (DET))(1 (2 (NUM))(2 (NOUN)))))))(2 (PUNCT)))(2 (CCONJ)))(2 (ADV)))(3 (1 (VERB))(3 (3 (ADV))(2 (PRON)))))))(2 (PUNCT)))(4 (3 (ADJ))(3 (2 (ADP))(3 (NOUN)))))))(2 (PUNCT)))) |ET| 
-1  |BT| (-1 (2 (PUNCT))(1 (1 (3 (2 (DET))(3 (3 (3 (ADJ))(2 (CCONJ)))(2 (ADJ))))(1 (1 (1 (1 (2 (2 (NOUN))(2 (1 (PUNCT))(2 (2 (2 (ADP))(2 (2 (NOUN))(3 (PUNCT))))(3 (ADJ)))))(1 (1 (2 (NOUN))(1 (PUNCT)))(3 (2 (AUX))(3 (PART)))))(2 (VERB)))(2 (ADV)))(3 (2 (CCONJ))(3 (2 (PUNCT))(4 (2 (SCONJ))(4 (3 (ADP))(3 (2 (DET))(2 (ADJ)))))))))(1 (2 (NOUN))(1 (2 (NOUN))(1 (1 (1 (1 (2 (PUNCT))(1 (2 (PRON))(2 (AUX))))(2 (2 (ADJ))(3 (3 (3 (ADV))(2 (PART)))(2 (1 (VERB))(2 (PUNCT))))))(2 (PUNCT)))(2 (ADV))))))) |ET| 
1  |BT| (1 (2 (PRON))(1 (2 (2 (VERB))(2 (2 (3 (NOUN))(2 (PUNCT)))(2 (2 (VERB))(2 (2 (NOUN))(2 (2 (ADV))(2 (3 (2 (2 (PRON))(2 (2 (2 (VERB))(2 (VERB)))(2 (2 (2 (DET))(2 (2 (PUNCT))(2 (DET))))(2 (2 (ADJ))(2 (2 (2 (2 (2 (NOUN))(2 (2 (ADP))(2 (2 (DET))(2 (2 (PUNCT))(2 (PROPN))))))(2 (PUNCT)))(2 (2 (NOUN))(2 (2 (PUNCT))(2 (2 (VERB))(2 (ADP))))))(2 (PROPN)))))))(2 (2 (PROPN))(2 (PUNCT))))(2 (2 (ADP))(2 (2 (NOUN))(2 (ADP))))))))))(2 (PROPN)))) |ET| 
-1  |BT| (-1 (1 (2 (2 (ADV))(2 (ADJ)))(2 (2 (ADP))(3 (NOUN))))(2 (2 (2 (2 (2 (2 (VERB))(2 (ADV)))(2 (2 (ADP))(2 (2 (2 (PROPN))(2 (PART)))(2 (2 (ADJ))(2 (NOUN))))))(2 (PUNCT)))(2 (2 (2 (VERB))(2 (2 (DET))(2 (NOUN))))(2 (2 (SCONJ))(2 (2 (DET))(3 (2 (ADP))(3 (2 (2 (ADJ))(2 (PROPN)))(2 (2 (ADP))(2 (3 (NOUN))(2 (2 (ADP))(2 (2 (2 (DET))(2 (2 (NOUN))(2 (PART))))(2 (3 (ADJ))(2 (NOUN)))))))))))))(2 (PUNCT)))) |ET| 
-1  |BT| (-1 (2 (2 (ADP))(2 (2 (2 (2 (PUNCT))(2 (2 (PUNCT))(2 (2 (PROPN))(2 (1 (DET))(2 (PROPN))))))(2 (PUNCT)))(2 (2 (PUNCT))(3 (PROPN)))))(2 (2 (PROPN))(1 (2 (2 (2 (PUNCT))(2 (PROPN)))(2 (2 (PART))(2 (ADJ))))(2 (2 (2 (2 (NOUN))(3 (VERB)))(2 (2 (2 (PRON))(2 (1 (DET))(2 (NOUN))))(3 (2 (2 (NOUN))(2 (3 (2 (VERB))(2 (ADJ)))(2 (ADJ))))(2 (2 (NOUN))(3 (SCONJ))))))(2 (PROPN)))))) |ET| 
-1  |BT| (-1 (3 (2 (ADP))(4 (2 (DET))(4 (2 (DET))(3 (4 (ADJ))(2 (NOUN))))))(1 (2 (PUNCT))(1 (3 (PROPN))(1 (1 (1 (2 (1 (1 (VERB))(2 (2 (DET))(2 (NOUN))))(2 (NOUN)))(2 (PUNCT)))(3 (2 (ADV))(1 (2 (2 (VERB))(1 (ADP)))(2 (2 (ADP))(1 (2 (DET))(1 (2 (ADJ))(2 (NOUN))))))))(2 (PUNCT)))))) |ET| 
1  |BT| (1 (2 (2 (2 (DET))(2 (NOUN)))(2 (2 (ADP))(2 (PROPN))))(2 (2 (2 (AUX))(3 (2 (ADV))(3 (3 (2 (3 (ADJ))(2 (CCONJ)))(3 (ADJ)))(2 (2 (SCONJ))(2 (2 (2 (PUNCT))(2 (2 (2 (SCONJ))(2 (2 (ADP))(2 (3 (ADJ))(3 (NOUN)))))(2 (PUNCT))))(2 (2 (PRON))(2 (2 (2 (AUX))(2 (ADV)))(2 (2 (ADJ))(2 (2 (ADV))(2 (2 (NOUN))(2 (2 (VERB))(2 (2 (VERB))(1 (ADP))))))))))))))(2 (PUNCT)))) |ET| 
-1  |BT| (-1 (1 (2 (2 (3 (2 (2 (SCONJ))(3 (2 (PRON))(2 (2 (AUX))(2 (3 (ADJ))(2 (2 (PART))(2 (2 (2 (2 (2 (2 (VERB))(2 (2 (2 (DET))(2 (1 (ADJ))(2 (NOUN))))(2 (2 (ADP))(2 (2 (PRON))(2 (2 (AUX))(2 (2 (2 (VERB))(2 (ADP)))(2 (2 (ADP))(2 (2 (ADJ))(2 (3 (NOUN))(2 (NOUN)))))))))))(2 (1 (PUNCT))(2 (2 (2 (2 (PROPN))(2 (PROPN)))(2 (2 (AUX))(1 (2 (PRON))(2 (PUNCT)))))(3 (PUNCT)))))(2 (PUNCT)))(2 (PUNCT)))(3 (2 (PUNCT))(3 (2 (CCONJ))(3 (3 (VERB))(2 (2 (DET))(2 (ADJ))))))))))))(3 (2 (NOUN))(3 (2 (NOUN))(3 (2 (PUNCT))(3 (2 (PRON))(2 (2 (VERB))(4 (2 (3 (VERB))(2 (PART)))(1 (VERB)))))))))(2 (PRON)))(2 (ADP)))(0 (2 (PUNCT))(0 (2 (2 (CCONJ))(1 (PRON)))(4 (2 (AUX))(3 (3 (PRON))(2 (2 (ADV))(2 (2 (ADJ))(2 (ADP)))))))))(2 (DET))) |ET| 
1  |BT| (1 (2 (PROPN))(2 (2 (2 (3 (2 (VERB))(3 (2 (NOUN))(2 (PUNCT))))(1 (2 (ADJ))(1 (1 (2 (NOUN))(1 (ADP)))(1 (2 (DET))(1 (1 (2 (2 (NOUN))(2 (2 (ADP))(2 (DET))))(2 (NOUN)))(0 (2 (2 (NOUN))(1 (CCONJ)))(1 (2 (2 (DET))(2 (NOUN)))(1 (3 (ADP))(3 (PUNCT))))))))))(2 (ADJ)))(2 (NOUN)))) |ET| 
-1  |BT| (-1 (3 (2 (SCONJ))(4 (2 (PRON))(2 (2 (AUX))(3 (2 (ADJ))(3 (2 (PART))(2 (2 (VERB))(3 (2 (2 (DET))(2 (2 (ADJ))(2 (NOUN))))(3 (2 (VERB))(2 (2 (2 (DET))(2 (2 (ADJ))(2 (NOUN))))(2 (2 (ADP))(3 (2 (DET))(3 (2 (3 (3 (ADJ))(2 (CCONJ)))(2 (ADJ)))(2 (NOUN))))))))))))))(1 (2 (PUNCT))(1 (2 (2 (PROPN))(2 (PROPN)))(2 (2 (ADV))(3 (3 (2 (VERB))(2 (3 (ADJ))(2 (NOUN))))(2 (PUNCT))))))) |ET| 
1  |BT| (1 (2 (PUNCT))(2 (2 (2 (2 (2 (PROPN))(2 (PART)))(2 (NOUN)))(2 (2 (ADV))(2 (2 (VERB))(2 (2 (2 (2 (VERB))(2 (2 (ADP))(2 (2 (2 (DET))(1 (NOUN)))(2 (2 (ADP))(2 (2 (DET))(2 (NOUN)))))))(2 (CCONJ)))(3 (2 (ADV))(2 (2 (PART))(2 (3 (VERB))(1 (2 (DET))(2 (NOUN))))))))))(2 (PUNCT)))) |ET| 
-1  |BT| (-1 (1 (1 (2 (2 (2 (PRON))(2 (2 (VERB))(1 (2 (2 (DET))(2 (2 (PROPN))(2 (2 (PROPN))(2 (NOUN)))))(1 (2 (ADP))(2 (2 (2 (2 (DET))(2 (NOUN)))(2 (PUNCT)))(2 (2 (2 (ADP))(2 (DET)))(2 (2 (PRON))(2 (2 (AUX))(2 (2 (VERB))(2 (1 (2 (PRON))(1 (2 (1 (ADJ))(2 (CCONJ)))(2 (ADJ))))(2 (2 (AUX))(2 (2 (ADP))(2 (2 (DET))(2 (NOUN)))))))))))))))(2 (PUNCT)))(2 (CCONJ)))(2 (2 (ADV))(1 (2 (PRON))(2 (1 (2 (VERB))(1 (ADV)))(2 (2 (ADP))(2 (2 (DET))(2 (2 (ADJ))(2 (2 (30))(2 (NUM))))))))))(2 (NOUN))) |ET| 
1  |BT| (1 (2 (PRON))(3 (3 (3 (2 (2 (1 (2 (2 (2 (2 (2 (3 (2 (AUX))(3 (ADJ)))(2 (CCONJ)))(1 (2 (VERB))(2 (3 (ADJ))(1 (2 (PART))(1 (VERB))))))(2 (PUNCT)))(3 (2 (AUX))(2 (ADJ))))(2 (CCONJ)))(2 (2 (ADV))(2 (2 (VERB))(1 (2 (ADP))(1 (2 (2 (DET))(1 (NOUN)))(2 (2 (ADP))(2 (2 (DET))(2 (NOUN)))))))))(2 (PUNCT)))(1 (2 (AUX))(2 (2 (ADP))(2 (NOUN)))))(2 (CCONJ)))(3 (2 (ADV))(3 (2 (VERB))(4 (NOUN)))))(2 (PUNCT)))) |ET| 
-1  |BT| (-1 (3 (2 (SCONJ))(2 (2 (2 (PROPN))(2 (NOUN)))(4 (2 (AUX))(3 (2 (2 (DET))(3 (NOUN)))(3 (2 (ADP))(3 (3 (2 (NOUN))(3 (NOUN)))(3 (1 (PUNCT))(3 (3 (2 (VERB))(3 (3 (2 (DET))(3 (NOUN)))(2 (2 (ADP))(2 (2 (DET))(2 (2 (NOUN))(2 (NOUN)))))))(3 (PUNCT))))))))))(1 (2 (PUNCT))(1 (2 (2 (DET))(2 (NOUN)))(1 (1 (2 (2 (VERB))(2 (ADP)))(1 (2 (VERB))(1 (2 (SCONJ))(1 (2 (DET))(1 (4 (ADJ))(1 (2 (ADJ))(2 (NOUN))))))))(2 (PUNCT)))))) |ET| 
1  |BT| (1 (2 (NOUN))(1 (2 (2 (2 (VERB))(2 (2 (AUX))(2 (3 (ADV))(1 (2 (1 (3 (VERB))(0 (2 (ADP))(1 (1 (2 (2 (DET))(2 (2 (NOUN))(2 (PART))))(2 (1 (ADJ))(2 (NOUN))))(2 (2 (ADP))(3 (1 (2 (NOUN))(2 (CCONJ)))(3 (ADJ)))))))(2 (PUNCT)))(1 (2 (SCONJ))(1 (2 (2 (DET))(2 (2 (ADV))(2 (ADJ))))(1 (2 (PUNCT))(1 (2 (ADJ))(1 (1 (VERB))(2 (2 (AUX))(2 (2 (2 (VERB))(3 (3 (ADP))(2 (DET))))(2 (2 (ADJ))(2 (2 (2 (NOUN))(2 (ADP)))(2 (2 (DET))(2 (2 (NOUN))(2 (2 (DET))(2 (2 (VERB))(2 (2 (DET))(2 (2 (PUNCT))(2 (ADJ)))))))))))))))))))))(2 (NOUN)))(2 (NOUN)))) |ET| 
-1  |BT| (-1 (1 (1 (3 (2 (2 (1 (1 (2 (2 (2 (2 (DET))(2 (NOUN)))(2 (NOUN)))(2 (PUNCT)))(2 (2 (PRON))(2 (2 (VERB))(2 (2 (2 (DET))(2 (NOUN)))(1 (2 (2 (2 (2 (AUX))(2 (PUNCT)))(2 (INTJ)))(2 (PUNCT)))(1 (2 (2 (2 (PROPN))(2 (PROPN)))(2 (PUNCT)))(2 (2 (AUX))(2 (2 (VERB))(2 (2 (PART))(2 (2 (AUX))(2 (2 (INTJ))(2 (3 (VERB))(3 (2 (DET))(2 (3 (2 (NOUN))(2 (CCONJ)))(2 (PRON))))))))))))))))(2 (PUNCT)))(2 (CCONJ)))(2 (PUNCT)))(2 (INTJ)))(2 (PUNCT)))(2 (2 (2 (2 (DET))(2 (2 (ADJ))(2 (NOUN))))(2 (2 (DET))(2 (2 (PRON))(2 (2 (ADV))(1 (2 (VERB))(1 (2 (DET))(2 (2 (AUX))(2 (3 (VERB))(2 (ADP))))))))))(2 (2 (AUX))(2 (2 (2 (DET))(2 (NOUN)))(2 (2 (ADP))(2 (2 (DET))(2 (NOUN))))))))(2 (PUNCT))) |ET| 
1  |BT| (1 (4 (3 (2 (DET))(3 (3 (3 (ADV))(3 (ADJ)))(2 (2 (ADJ))(2 (NOUN)))))(2 (2 (ADP))(2 (2 (ADJ))(2 (NOUN)))))(0 (1 (2 (DET))(1 (1 (2 (2 (VERB))(2 (2 (DET))(2 (NOUN))))(1 (2 (ADV))(2 (2 (ADJ))(2 (NOUN)))))(1 (2 (ADP))(2 (2 (DET))(1 (1 (2 (ADV))(0 (ADJ)))(2 (NOUN)))))))(2 (PUNCT)))) |ET| 
1  |BT| (1 (2 (2 (2 (DET))(2 (2 (VERB))(2 (PROPN))))(1 (2 (PUNCT))(2 (2 (2 (2 (1 (PART))(2 (2 (DET))(2 (ADJ))))(2 (PUNCT)))(2 (2 (ADP))(2 (2 (DET))(2 (NOUN)))))(2 (PUNCT)))))(3 (2 (3 (3 (2 (AUX))(3 (2 (DET))(2 (3 (4 (ADV))(3 (ADJ)))(2 (NOUN)))))(2 (PUNCT)))(3 (2 (SCONJ))(2 (2 (PRON))(2 (2 (AUX))(2 (2 (2 (VERB))(2 (PROPN)))(2 (2 (SCONJ))(2 (2 (PRON))(2 (VERB)))))))))(2 (PUNCT)))) |ET| 
1  |BT| (1 (2 (2 (VERB))(2 (2 (SCONJ))(3 (2 (2 (DET))(3 (NOUN)))(2 (2 (ADP))(2 (2 (PRON))(3 (2 (PRON))(3 (2 (VERB))(3 (2 (SCONJ))(2 (2 (2 (2 (2 (2 (3 (2 (PART))(2 (2 (AUX))(2 (2 (DET))(2 (3 (PROPN))(2 (PROPN))))))(2 (PUNCT)))(2 (CCONJ)))(2 (PUNCT)))(2 (ADV)))(2 (PUNCT)))(2 (2 (PART))(2 (2 (2 (2 (AUX))(2 (2 (DET))(2 (2 (ADJ))(2 (NOUN)))))(2 (PUNCT)))(2 (2 (ADP))(2 (2 (2 (DET))(2 (NOUN)))(2 (2 (ADP))(2 (NUM))))))))))))))))(2 (PUNCT))) |ET| 
-1  |BT| (-1 (2 (ADV))(1 (1 (2 (2 (DET))(2 (NOUN)))(1 (2 (ADP))(2 (2 (PRON))(3 (2 (AUX))(2 (2 (VERB))(2 (2 (2 (2 (NUM))(2 (2 (ADP))(2 (2 (2 (DET))(2 (2 (NOUN))(2 (PART))))(1 (2 (ADJ))(2 (NOUN))))))(2 (PUNCT)))(2 (2 (2 (ADP))(2 (DET)))(2 (2 (2 (DET))(2 (ADV)))(2 (ADJ))))))))))(3 (2 (2 (AUX))(2 (3 (2 (VERB))(2 (2 (ADP))(2 (2 (2 (ADV))(2 (ADJ)))(2 (NOUN)))))(2 (2 (PART))(2 (3 (3 (3 (2 (3 (VERB))(2 (PUNCT)))(2 (VERB)))(2 (CCONJ)))(2 (ADV)))(2 (2 (VERB))(2 (2 (2 (2 (DET))(3 (3 (2 (ADV))(3 (2 (PUNCT))(4 (3 (PUNCT))(2 (ADJ)))))(3 (PUNCT))))(2 (NOUN)))(3 (PUNCT))))))))(2 (NOUN))))) |ET| 
1  |BT| (1 (2 (2 (VERB))(2 (2 (ADP))(2 (2 (DET))(2 (NOUN)))))(3 (2 (PUNCT))(2 (2 (2 (2 (PROPN))(2 (2 (CCONJ))(2 (2 (PROPN))(2 (PART)))))(2 (NOUN)))(3 (2 (2 (AUX))(2 (2 (VERB))(3 (2 (ADP))(2 (2 (DET))(2 (ADJ))))))(2 (PUNCT)))))) |ET| 
-1  |BT| (-1 (2 (PUNCT))(2 (1 (2 (ADV))(3 (2 (VERB))(1 (2 (VERB))(4 (3 (3 (2 (2 (2 (PUNCT))(2 (2 (PUNCT))(2 (2 (VERB))(2 (2 (DET))(2 (PROPN))))))(2 (PUNCT)))(3 (3 (2 (PUNCT))(3 (2 (DET))(3 (3 (ADV))(2 (ADJ)))))(2 (2 (NOUN))(2 (2 (ADP))(2 (2 (DET))(2 (ADJ)))))))(2 (NOUN)))(4 (2 (CCONJ))(4 (3 (2 (DET))(4 (ADV)))(2 (2 (ADJ))(2 (2 (PROPN))(2 (PROPN))))))))))(2 (NOUN)))) |ET| 
1  |BT| (1 (3 (0 (2 (1 (2 (SCONJ))(1 (2 (2 (DET))(2 (NOUN)))(2 (2 (AUX))(2 (2 (DET))(1 (NOUN))))))(1 (2 (PUNCT))(0 (2 (2 (DET))(2 (NOUN)))(0 (VERB)))))(2 (PUNCT)))(4 (2 (PRON))(4 (2 (VERB))(2 (2 (2 (DET))(2 (NOUN)))(2 (2 (PART))(2 (2 (VERB))(2 (2 (2 (ADV))(2 (CCONJ)))(2 (ADV)))))))))(2 (PUNCT))) |ET| 
-1  |BT| (-1 (2 (PRON))(1 (3 (1 (VERB))(2 (2 (NOUN))(2 (2 (SCONJ))(3 (2 (PRON))(2 (2 (PUNCT))(2 (2 (2 (PROPN))(2 (2 (VERB))(3 (2 (DET))(2 (ADJ)))))(1 (2 (NOUN))(3 (2 (2 (ADP))(1 (DET)))(2 (2 (NOUN))(2 (ADV)))))))))))(2 (VERB)))) |ET| 
1  |BT| (1 (2 (3 (1 (PUNCT))(2 (2 (2 (PROPN))(2 (PART)))(2 (3 (PUNCT))(2 (NOUN)))))(2 (2 (ADP))(2 (2 (DET))(2 (3 (PROPN))(2 (2 (PROPN))(2 (2 (CCONJ))(2 (2 (PROPN))(2 (2 (PROPN))(2 (NOUN))))))))))(3 (3 (2 (VERB))(3 (3 (2 (CCONJ))(3 (2 (DET))(3 (NOUN))))(2 (2 (ADP))(2 (2 (3 (2 (DET))(2 (NOUN)))(2 (CCONJ)))(2 (2 (DET))(2 (NOUN)))))))(2 (PUNCT)))) |ET| 
-1  |BT| (-1 (2 (2 (SCONJ))(2 (2 (2 (ADJ))(2 (2 (NOUN))(2 (NOUN))))(2 (VERB))))(3 (2 (PUNCT))(3 (2 (ADV))(2 (2 (2 (2 (3 (2 (2 (2 (2 (3 (2 (VERB))(2 (2 (DET))(2 (2 (ADJ))(2 (NOUN)))))(1 (ADV)))(2 (2 (ADP))(2 (2 (DET))(2 (2 (PROPN))(2 (PROPN))))))(2 (CCONJ)))(2 (2 (2 (VERB))(2 (PRON)))(2 (ADV))))(2 (PUNCT)))(2 (ADJ)))(2 (CCONJ)))(1 (2 (2 (2 (VERB))(2 (PUNCT)))(2 (2 (ADV))(2 (ADV))))(2 (2 (ADP))(2 (2 (DET))(2 (2 (PROPN))(2 (PROPN)))))))(2 (PUNCT)))))) |ET| 
1  |BT| (1 (1 (3 (3 (VERB))(2 (2 (DET))(2 (3 (ADJ))(2 (NOUN)))))(1 (2 (ADP))(2 (NOUN))))(2 (2 (PUNCT))(2 (1 (2 (VERB))(1 (2 (2 (DET))(2 (DET)))(2 (2 (ADV))(2 (4 (ADJ))(1 (2 (ADP))(1 (0 (2 (DET))(1 (1 (ADJ))(2 (NOUN))))(2 (2 (ADP))(2 (2 (NOUN))(2 (NOUN))))))))))(2 (PUNCT))))) |ET| 
-1  |BT| (-1 (2 (2 (2 (DET))(2 (NOUN)))(2 (2 (ADP))(2 (2 (PROPN))(2 (NOUN)))))(1 (3 (3 (VERB))(1 (2 (ADP))(2 (2 (VERB))(1 (4 (3 (2 (2 (DET))(1 (2 (ADV))(2 (ADJ))))(2 (2 (ADP))(3 (2 (DET))(2 (NOUN)))))(2 (PUNCT)))(2 (2 (2 (DET))(1 (1 (ADJ))(2 (1 (NOUN))(2 (NOUN)))))(2 (1 (1 (2 (ADV))(1 (0 (ADJ))(2 (2 (PART))(3 (2 (AUX))(3 (ADJ))))))(2 (CCONJ)))(3 (2 (ADV))(3 (3 (ADJ))(1 (2 (PART))(1 (2 (AUX))(0 (ADJ))))))))))))(2 (PUNCT)))) |ET| 
1  |BT| (1 (2 (ADV))(1 (2 (2 (3 (ADJ))(2 (2 (2 (PUNCT))(2 (CCONJ)))(2 (ADV))))(1 (2 (ADV))(1 (2 (ADV))(1 (2 (PRON))(0 (1 (1 (2 (AUX))(1 (1 (1 (1 (2 (1 (VERB))(2 (PUNCT)))(1 (2 (ADJ))(2 (2 (ADP))(3 (NOUN)))))(2 (PUNCT)))(2 (CCONJ)))(2 (2 (ADV))(2 (ADJ)))))(2 (2 (PART))(2 (2 (AUX))(3 (2 (ADJ))(2 (2 (ADP))(2 (NOUN)))))))(2 (2 (ADV))(2 (3 (2 (DET))(2 (2 (ADJ))(3 (2 (ADJ))(2 (PUNCT)))))(2 (2 (ADJ))(2 (2 (NOUN))(2 (2 (VERB))(2 (VERB))))))))))))(2 (ADP)))) |ET| 
-1  |BT| (-1 (3 (2 (DET))(2 (NOUN)))(0 (1 (2 (2 (AUX))(2 (ADV)))(1 (1 (2 (2 (DET))(2 (NOUN)))(1 (2 (ADP))(1 (1 (NOUN))(2 (PUNCT)))))(1 (1 (2 (2 (ADP))(2 (2 (PUNCT))(2 (2 (2 (DET))(2 (2 (PUNCT))(2 (NOUN))))(2 (2 (NOUN))(3 (VERB))))))(2 (2 (ADP))(2 (2 (DET))(2 (2 (ADJ))(2 (NOUN))))))(2 (2 (ADV))(1 (2 (VERB))(2 (2 (ADP))(2 (2 (VERB))(2 (2 (NOUN))(2 (2 (NOUN))(2 (2 (2 (2 (2 (DET))(2 (2 (PRON))(2 (VERB))))(2 (VERB)))(2 (PRON)))(2 (2 (AUX))(2 (2 (VERB))(2 (3 (ADP))(2 (2 (NOUN))(2 (2 (PUNCT))(2 (2 (CCONJ))(2 (VERB))))))))))))))))))(2 (PART)))) |ET| 
1  |BT| (1 (3 (2 (0 (2 (2 (2 (PROPN))(2 (PROPN)))(1 (2 (VERB))(2 (1 (VERB))(2 (2 (PRON))(1 (1 (2 (VERB))(2 (2 (DET))(2 (NOUN))))(2 (2 (ADP))(1 (2 (DET))(2 (NOUN)))))))))(2 (PUNCT)))(2 (CCONJ)))(2 (2 (DET))(3 (1 (2 (AUX))(2 (PART)))(2 (1 (VERB))(0 (2 (PRON))(1 (2 (2 (VERB))(2 (PART)))(2 (2 (VERB))(2 (2 (VERB))(2 (2 (ADP))(2 (PRON)))))))))))(2 (PUNCT))) |ET| 
0.54430725900359633318004171087523  |BT| (1 (2 (1 (1 (1 (2 (INTJ))(1 (2 (PUNCT))(1 (2 (PRON))(1 (2 (ADV))(1 (2 (2 (VERB))(2 (PART)))(4 (2 (AUX))(3 (2 (PRON))(4 (2 (VERB))(2 (2 (ADP))(3 (2 (2 (DET))(2 (NOUN)))(3 (1 (VERB))(2 (2 (PRON))(2 (2 (AUX))(3 (NOUN)))))))))))))))(2 (PUNCT)))(2 (CCONJ)))(4 (2 (PRON))(3 (3 (2 (2 (AUX))(3 (ADV)))(2 (ADJ)))(2 (2 (VERB))(2 (2 (DET))(2 (NOUN)))))))(2 (PUNCT))) |ET| 
1  |BT| (1 (2 (PRON))(4 (3 (2 (2 (AUX))(2 (2 (2 (DET))(3 (NOUN)))(2 (2 (ADP))(2 (NOUN)))))(2 (2 (DET))(2 (2 (2 (PUNCT))(2 (2 (ADV))(2 (2 (2 (ADP))(2 (2 (2 (2 (2 (2 (2 (2 (PROPN))(2 (PROPN)))(2 (PUNCT)))(2 (2 (PROPN))(2 (PROPN))))(2 (PUNCT)))(2 (2 (DET))(3 (2 (PROPN))(2 (PROPN)))))(2 (CCONJ)))(2 (2 (DET))(2 (2 (ADJ))(2 (NOUN))))))(2 (PUNCT)))))(2 (3 (2 (DET))(2 (NOUN)))(2 (2 (2 (AUX))(2 (PART)))(2 (2 (VERB))(2 (2 (ADV))(2 (ADV)))))))))(2 (PUNCT)))) |ET| 
-1  |BT| (-1 (3 (3 (PROPN))(3 (2 (2 (AUX))(2 (2 (ADV))(2 (2 (ADV))(3 (NOUN)))))(2 (2 (PART))(3 (3 (2 (VERB))(3 (2 (DET))(3 (2 (ADJ))(2 (2 (NOUN))(2 (NOUN))))))(2 (2 (SCONJ))(2 (2 (DET))(2 (NOUN))))))))(1 (2 (2 (2 (PUNCT))(2 (CCONJ)))(1 (1 (2 (2 (ADV))(2 (ADV)))(2 (2 (2 (VERB))(2 (NOUN)))(2 (2 (VERB))(2 (3 (2 (DET))(2 (2 (PUNCT))(2 (2 (PUNCT))(2 (2 (VERB))(2 (2 (PROPN))(2 (2 (PROPN))(2 (2 (PUNCT))(2 (NOUN)))))))))(2 (2 (NOUN))(2 (2 (ADP))(2 (2 (VERB))(2 (PROPN)))))))))(3 (3 (2 (PROPN))(2 (2 (VERB))(3 (PRON))))(2 (2 (ADV))(2 (2 (DET))(2 (ADJ)))))))(2 (NOUN)))) |ET| 
1  |BT| (1 (2 (2 (DET))(1 (1 (VERB))(2 (1 (NOUN))(1 (PUNCT)))))(2 (1 (2 (NOUN))(1 (2 (NOUN))(1 (2 (2 (NOUN))(3 (2 (SCONJ))(2 (2 (NOUN))(2 (ADP)))))(2 (2 (2 (DET))(2 (NOUN)))(2 (2 (PART))(1 (2 (2 (1 (ADV))(2 (VERB)))(2 (NOUN)))(0 (3 (2 (PUNCT))(3 (3 (CCONJ))(3 (DET))))(1 (2 (ADJ))(2 (2 (NOUN))(2 (2 (ADP))(2 (ADJ))))))))))))(2 (PUNCT)))) |ET| 
-1  |BT| (-1 (3 (NOUN))(1 (2 (ADV))(1 (0 (1 (1 (2 (2 (AUX))(2 (ADJ)))(2 (2 (PART))(2 (2 (AUX))(2 (2 (ADP))(2 (2 (DET))(2 (NOUN)))))))(2 (PUNCT)))(1 (2 (1 (2 (DET))(1 (2 (VERB))(1 (2 (PRON))(1 (1 (2 (ADP))(0 (2 (ADV))(0 (ADJ))))(2 (2 (PRON))(2 (2 (AUX))(2 (2 (PART))(2 (1 (2 (2 (VERB))(2 (CCONJ)))(2 (VERB)))(2 (2 (DET))(2 (NOUN)))))))))))(2 (CCONJ)))(2 (2 (SCONJ))(1 (2 (PRON))(1 (1 (2 (2 (VERB))(2 (ADV)))(2 (2 (PUNCT))(2 (2 (ADV))(2 (PUNCT)))))(2 (1 (2 (1 (VERB))(2 (2 (DET))(2 (2 (ADJ))(3 (NOUN)))))(2 (ADJ)))(2 (2 (ADP))(2 (2 (DET))(2 (NOUN))))))))))(2 (PUNCT))))) |ET| 
1  |BT| (1 (1 (2 (ADP))(0 (2 (2 (DET))(2 (NOUN)))(0 (2 (ADV))(2 (2 (NOUN))(0 (2 (AUX))(1 (2 (VERB))(1 (2 (2 (2 (DET))(3 (NOUN)))(1 (SCONJ)))(2 (2 (2 (ADP))(1 (DET)))(2 (2 (3 (3 (ADJ))(2 (ADJ)))(2 (2 (NOUN))(2 (ADV))))(2 (AUX)))))))))))(4 (2 (PUNCT))(3 (2 (2 (2 (PROPN))(3 (2 (PROPN))(2 (PART))))(3 (NOUN)))(3 (3 (4 (VERB))(2 (2 (SCONJ))(2 (2 (DET))(2 (2 (ADJ))(2 (NOUN))))))(2 (PUNCT)))))) |ET| 
-1  |BT| (-1 (3 (3 (3 (4 (2 (2 (PROPN))(2 (2 (PROPN))(2 (2 (CCONJ))(2 (2 (PROPN))(2 (PROPN))))))(4 (3 (VERB))(4 (3 (3 (3 (ADJ))(2 (CCONJ)))(3 (ADJ)))(2 (NOUN)))))(2 (PUNCT)))(2 (CCONJ)))(1 (2 (DET))(2 (2 (VERB))(3 (2 (ADP))(2 (2 (2 (DET))(1 (2 (ADJ))(2 (NOUN))))(2 (2 (ADP))(3 (2 (DET))(2 (2 (NOUN))(2 (2 (PART))(3 (2 (VERB))(3 (2 (2 (DET))(2 (2 (VERB))(2 (NOUN))))(3 (2 (ADP))(1 (2 (NOUN))(2 (2 (PUNCT))(2 (2 (2 (NOUN))(2 (CCONJ)))(2 (NOUN)))))))))))))))))(2 (PUNCT))) |ET| 
1  |BT| (1 (1 (2 (DET))(0 (NOUN)))(1 (2 (PUNCT))(0 (1 (ADV))(1 (0 (1 (1 (2 (VERB))(1 (0 (NOUN))(2 (2 (VERB))(2 (PRON)))))(2 (PUNCT)))(2 (2 (VERB))(2 (2 (ADJ))(2 (2 (ADP))(2 (2 (DET))(2 (NOUN)))))))(2 (PUNCT)))))) |ET| 
-1  |BT| (-1 (2 (VERB))(2 (2 (2 (1 (1 (0 (1 (ADJ))(2 (2 (ADP))(2 (2 (ADJ))(2 (2 (ADP))(2 (2 (DET))(2 (2 (NOUN))(2 (NOUN))))))))(2 (PUNCT)))(2 (2 (ADP))(2 (2 (ADJ))(2 (2 (ADP))(2 (2 (2 (DET))(2 (NOUN)))(2 (2 (ADV))(2 (3 (2 (2 (DET))(2 (3 (ADJ))(2 (NOUN))))(2 (2 (ADP))(2 (NOUN))))(2 (VERB)))))))))(2 (PUNCT)))(1 (2 (2 (VERB))(2 (NOUN)))(2 (2 (ADP))(2 (2 (DET))(2 (NOUN))))))(2 (PUNCT)))) |ET| 
0.39109699717505730376387873548083  |BT| (1 (2 (PROPN))(3 (3 (1 (2 (2 (VERB))(1 (1 (2 (DET))(1 (0 (2 (ADV))(1 (2 (1 (NOUN))(2 (CCONJ)))(1 (ADJ))))(2 (NOUN))))(2 (1 (PUNCT))(2 (2 (2 (NOUN))(3 (2 (VERB))(2 (2 (ADP))(2 (PROPN)))))(3 (PUNCT))))))(2 (CCONJ)))(3 (3 (3 (VERB))(2 (PRON)))(3 (2 (ADP))(3 (3 (2 (DET))(2 (3 (2 (ADJ))(2 (2 (PUNCT))(2 (2 (ADJ))(2 (2 (PUNCT))(1 (2 (CCONJ))(1 (2 (ADV))(1 (ADJ))))))))(2 (NOUN))))(2 (2 (ADP))(2 (2 (VERB))(2 (NOUN))))))))(2 (PUNCT)))) |ET| 
-1  |BT| (-1 (2 (2 (DET))(1 (1 (NOUN))(3 (2 (PART))(2 (2 (2 (VERB))(3 (2 (NUM))(3 (2 (ADP))(3 (2 (1 (PROPN))(2 (PART)))(2 (2 (4 (ADV))(2 (VERB)))(1 (NOUN)))))))(2 (2 (SCONJ))(2 (2 (DET))(3 (2 (ADJ))(3 (NOUN)))))))))(3 (3 (2 (2 (2 (2 (AUX))(2 (PUNCT)))(2 (2 (ADP))(2 (PRON))))(2 (PUNCT)))(3 (2 (VERB))(2 (2 (ADP))(2 (NOUN)))))(2 (PUNCT)))) |ET| 
1  |BT| (1 (4 (3 (4 (ADJ))(2 (CCONJ)))(3 (ADJ)))(1 (2 (PUNCT))(2 (2 (PRON))(1 (1 (2 (2 (AUX))(2 (ADV)))(1 (2 (ADV))(1 (ADJ))))(2 (PUNCT)))))) |ET| 
-1  |BT| (-1 (2 (2 (VERB))(2 (2 (ADP))(1 (NOUN))))(3 (2 (PUNCT))(2 (2 (2 (2 (2 (VERB))(2 (2 (DET))(2 (NOUN))))(2 (ADP)))(3 (2 (ADP))(3 (3 (2 (DET))(2 (NOUN)))(2 (2 (ADP))(3 (3 (4 (ADJ))(2 (NOUN)))(2 (2 (2 (ADV))(2 (CCONJ)))(2 (ADV))))))))(2 (PUNCT))))) |ET| 
1  |BT| (1 (3 (3 (3 (2 (2 (PROPN))(2 (PROPN)))(3 (3 (ADV))(3 (2 (AUX))(2 (2 (2 (DET))(2 (NOUN)))(3 (2 (ADP))(2 (2 (VERB))(2 (3 (PRON))(3 (2 (2 (3 (VERB))(2 (2 (ADP))(2 (2 (DET))(1 (NOUN)))))(2 (CCONJ)))(2 (4 (VERB))(2 (2 (DET))(2 (NOUN))))))))))))(2 (CCONJ)))(2 (2 (PUNCT))(3 (2 (2 (ADP))(2 (2 (ADJ))(2 (NOUN))))(2 (2 (PUNCT))(3 (2 (PRON))(3 (2 (ADV))(0 (0 (2 (VERB))(1 (2 (ADP))(0 (0 (ADJ))(1 (2 (NOUN))(2 (2 (CCONJ))(0 (1 (ADJ))(2 (NOUN))))))))(2 (2 (PART))(2 (2 (AUX))(2 (PRON)))))))))))(2 (PUNCT))) |ET| 
-1  |BT| (-1 (2 (2 (SCONJ))(3 (4 (VERB))(2 (2 (ADJ))(2 (NOUN)))))(1 (2 (PUNCT))(3 (2 (3 (PROPN))(2 (PROPN)))(2 (2 (ADV))(2 (3 (2 (VERB))(2 (3 (ADJ))(3 (2 (ADP))(2 (2 (2 (VERB))(2 (ADP)))(3 (2 (2 (DET))(2 (2 (X))(2 (X))))(3 (2 (DET))(3 (2 (AUX))(3 (2 (ADV))(2 (3 (ADV))(2 (2 (PUNCT))(2 (2 (ADJ))(2 (2 (SCONJ))(2 (DET))))))))))))))(2 (ADJ))))))) |ET| 
1  |BT| (1 (2 (1 (1 (2 (ADJ))(2 (2 (PART))(2 (VERB))))(2 (PUNCT)))(1 (2 (PRON))(3 (3 (ADV))(2 (2 (VERB))(1 (2 (2 (DET))(1 (2 (1 (NOUN))(2 (CCONJ)))(1 (NOUN))))(1 (2 (DET))(1 (2 (VERB))(1 (1 (2 (DET))(0 (NOUN)))(2 (2 (PUNCT))(2 (2 (NOUN))(2 (2 (ADP))(2 (ADJ)))))))))))))(2 (ADJ))) |ET| 
-1  |BT| (-1 (2 (PROPN))(1 (2 (1 (2 (PUNCT))(2 (PROPN)))(1 (2 (AUX))(1 (2 (PART))(2 (2 (VERB))(1 (3 (SCONJ))(2 (2 (PRON))(1 (2 (VERB))(2 (2 (2 (PART))(1 (2 (AUX))(2 (DET))))(2 (2 (NOUN))(1 (2 (2 (PUNCT))(2 (VERB)))(1 (2 (NOUN))(2 (2 (2 (1 (ADP))(3 (ADJ)))(2 (NOUN)))(1 (2 (ADP))(1 (3 (ADJ))(3 (2 (NOUN))(2 (2 (CCONJ))(2 (2 (DET))(2 (ADJ)))))))))))))))))))(2 (PUNCT)))) |ET| 
0.076219483936209808661033093812875  |BT| (1 (2 (2 (DET))(2 (NOUN)))(3 (4 (2 (VERB))(4 (3 (4 (3 (3 (2 (3 (3 (2 (VERB))(2 (PRON)))(1 (SCONJ)))(2 (2 (ADP))(3 (2 (2 (DET))(3 (NOUN)))(2 (2 (2 (DET))(2 (NOUN)))(2 (2 (ADP))(2 (NOUN)))))))(2 (PUNCT)))(3 (3 (3 (VERB))(2 (PRON)))(3 (2 (DET))(2 (2 (ADJ))(3 (NOUN))))))(2 (PUNCT)))(2 (CCONJ)))(2 (1 (VERB))(2 (2 (PRON))(1 (2 (VERB))(2 (2 (3 (3 (2 (SCONJ))(4 (2 (PRON))(3 (2 (AUX))(3 (2 (ADJ))(2 (2 (DET))(2 (2 (NUM))(2 (NOUN))))))))(2 (PUNCT)))(2 (ADV)))(2 (2 (SCONJ))(1 (2 (PRON))(1 (2 (AUX))(0 (2 (2 (VERB))(1 (ADP)))(1 (2 (PART))(1 (2 (AUX))(1 (2 (2 (DET))(2 (NOUN)))(2 (2 (ADP))(1 (2 (2 (DET))(1 (NOUN)))(2 (2 (ADP))(2 (2 (DET))(2 (NOUN)))))))))))))))))))(2 (PUNCT)))) |ET| 
-1  |BT| (-1 (3 (2 (2 (3 (2 (NOUN))(2 (2 (ADP))(2 (PROPN))))(2 (PUNCT)))(3 (2 (DET))(3 (3 (2 (NOUN))(2 (2 (PROPN))(2 (PROPN))))(3 (2 (NOUN))(2 (2 (ADP))(3 (2 (2 (ADJ))(3 (NOUN)))(2 (2 (ADP))(2 (2 (2 (DET))(3 (3 (ADJ))(2 (NOUN))))(2 (2 (ADP))(2 (2 (DET))(2 (2 (PROPN))(2 (PROPN)))))))))))))(2 (PUNCT)))(2 (1 (2 (AUX))(2 (2 (DET))(2 (2 (2 (ADV))(2 (ADJ)))(2 (NOUN)))))(2 (PUNCT)))) |ET| 
1  |BT| (1 (2 (NOUN))(3 (1 (1 (VERB))(2 (2 (PART))(2 (2 (VERB))(2 (2 (PROPN))(2 (2 (AUX))(2 (2 (VERB))(2 (2 (SCONJ))(1 (1 (1 (2 (ADV))(2 (2 (DET))(2 (2 (NOUN))(2 (NOUN)))))(2 (PUNCT)))(1 (2 (DET))(2 (2 (VERB))(3 (2 (PRON))(2 (2 (VERB))(1 (2 (AUX))(2 (2 (VERB))(1 (2 (ADP))(1 (2 (ADV))(2 (1 (VERB))(2 (2 (ADP))(2 (3 (NOUN))(1 (2 (ADP))(0 (2 (DET))(2 (2 (NOUN))(3 (PUNCT))))))))))))))))))))))))(2 (ADP)))) |ET| 
-1  |BT| (-1 (1 (2 (2 (2 (VERB))(3 (2 (SCONJ))(2 (2 (2 (DET))(2 (NOUN)))(2 (2 (ADP))(2 (PRON))))))(2 (2 (PRON))(1 (2 (2 (VERB))(2 (ADV)))(1 (1 (2 (3 (2 (2 (AUX))(2 (2 (ADV))(1 (1 (VERB))(1 (2 (ADP))(3 (2 (DET))(3 (NOUN)))))))(2 (PUNCT)))(2 (CCONJ)))(2 (PUNCT)))(2 (2 (2 (ADV))(2 (ADJ)))(2 (2 (SCONJ))(2 (2 (PRON))(2 (VERB)))))))))(2 (PUNCT)))(3 (2 (ADV))(1 (2 (3 (VERB))(2 (2 (PART))(2 (2 (AUX))(3 (3 (VERB))(2 (2 (ADP))(2 (2 (2 (DET))(2 (NOUN)))(2 (2 (PRON))(2 (2 (2 (VERB))(2 (ADV)))(2 (2 (3 (VERB))(2 (PRON)))(2 (NOUN)))))))))))(2 (PUNCT))))) |ET| 
1  |BT| (1 (2 (NOUN))(1 (2 (VERB))(3 (2 (SCONJ))(2 (2 (PRON))(2 (2 (AUX))(3 (2 (VERB))(3 (2 (ADP))(2 (2 (2 (2 (2 (PROPN))(2 (2 (PROPN))(2 (PART))))(3 (NOUN)))(2 (PUNCT)))(1 (2 (VERB))(2 (2 (1 (2 (ADP))(2 (2 (3 (PROPN))(2 (PART)))(2 (2 (NOUN))(2 (NOUN)))))(2 (CCONJ)))(2 (2 (ADP))(2 (2 (2 (PROPN))(2 (PART)))(2 (NOUN)))))))))))))) |ET| 
-1  |BT| (-1 (3 (1 (1 (1 (1 (1 (2 (2 (DET))(2 (NOUN)))(2 (2 (2 (VERB))(2 (2 (ADP))(2 (2 (2 (DET))(2 (ADJ)))(2 (ADV)))))(2 (2 (SCONJ))(2 (2 (PRON))(2 (2 (VERB))(2 (PART)))))))(2 (PUNCT)))(1 (2 (PROPN))(2 (2 (CCONJ))(2 (1 (2 (AUX))(2 (PART)))(2 (2 (VERB))(4 (2 (ADV))(3 (2 (2 (DET))(2 (NOUN)))(3 (2 (2 (VERB))(2 (CCONJ)))(3 (2 (ADV))(2 (2 (2 (VERB))(2 (PART)))(2 (2 (2 (2 (VERB))(2 (PRON)))(2 (ADV)))(3 (2 (ADP))(2 (2 (DET))(2 (NOUN)))))))))))))))(2 (PUNCT)))(2 (CCONJ)))(3 (2 (PRON))(3 (2 (AUX))(3 (2 (2 (ADJ))(2 (CCONJ)))(3 (ADJ))))))(2 (PUNCT))) |ET| 
0.91312611444523983372789643908618  |BT| (1 (2 (PRON))(2 (2 (3 (3 (2 (2 (AUX))(2 (3 (3 (2 (DET))(3 (0 (2 (ADJ))(0 (2 (PUNCT))(0 (ADJ))))(3 (NOUN))))(2 (PUNCT)))(3 (3 (3 (VERB))(2 (2 (ADP))(2 (NOUN))))(0 (2 (PRON))(1 (2 (VERB))(3 (2 (AUX))(1 (2 (AUX))(3 (3 (VERB))(2 (2 (ADP))(2 (2 (ADJ))(3 (NOUN))))))))))))(2 (PUNCT)))(2 (CCONJ)))(3 (3 (2 (VERB))(3 (2 (ADP))(3 (2 (2 (DET))(3 (NOUN)))(2 (2 (DET))(3 (2 (VERB))(2 (2 (2 (DET))(2 (2 (ADJ))(2 (NOUN))))(2 (2 (ADP))(1 (2 (2 (ADV))(2 (ADJ)))(1 (NOUN))))))))))(2 (2 (PUNCT))(1 (NOUN)))))(2 (ADP)))) |ET| 
-0.72775615263757642559028226969531  |BT| (-1 (1 (2 (2 (3 (2 (2 (DET))(2 (NOUN)))(3 (2 (AUX))(3 (2 (VERB))(3 (2 (ADP))(3 (3 (ADJ))(2 (NOUN)))))))(2 (PUNCT)))(2 (CCONJ)))(0 (2 (2 (ADP))(2 (2 (DET))(2 (3 (NOUN))(3 (2 (PART))(0 (3 (2 (VERB))(2 (3 (2 (2 (DET))(2 (NOUN)))(2 (CCONJ)))(3 (2 (DET))(2 (NOUN)))))(2 (2 (ADP))(1 (1 (2 (DET))(2 (1 (ADV))(3 (3 (PUNCT))(2 (ADV)))))(2 (2 (PUNCT))(3 (2 (ADJ))(3 (2 (ADJ))(3 (3 (NOUN))(2 (ADP)))))))))))))(2 (2 (DET))(0 (2 (PROPN))(1 (1 (NOUN))(2 (2 (2 (NOUN))(2 (PUNCT)))(2 (2 (PROPN))(2 (2 (VERB))(2 (DET))))))))))(2 (NOUN))) |ET| 
1  |BT| (1 (2 (2 (1 (2 (2 (2 (DET))(2 (NOUN)))(2 (2 (VERB))(2 (2 (DET))(2 (2 (ADJ))(2 (2 (NUM))(2 (NOUN)))))))(2 (PUNCT)))(2 (CCONJ)))(2 (2 (PRON))(2 (2 (AUX))(2 (1 (DET))(2 (NOUN))))))(2 (PUNCT))) |ET| 
-1  |BT| (-1 (2 (PRON))(2 (2 (2 (2 (AUX))(2 (ADV)))(1 (2 (1 (2 (2 (NUM))(2 (NOUN)))(2 (2 (SCONJ))(1 (2 (2 (2 (PROPN))(2 (2 (PROPN))(2 (2 (PROPN))(2 (PART)))))(2 (2 (NOUN))(2 (NOUN))))(2 (1 (0 (VERB))(2 (2 (ADP))(2 (DET))))(2 (2 (PRON))(2 (2 (AUX))(2 (2 (PART))(2 (3 (VERB))(2 (2 (ADP))(2 (2 (2 (DET))(2 (3 (ADJ))(2 (NOUN))))(2 (2 (ADP))(2 (NOUN)))))))))))))(2 (PUNCT)))(2 (2 (3 (ADJ))(2 (CCONJ)))(2 (NOUN)))))(2 (PUNCT)))) |ET| 
1  |BT| (1 (4 (2 (2 (DET))(4 (3 (2 (ADV))(3 (2 (ADV))(4 (ADJ))))(2 (NOUN))))(2 (2 (SCONJ))(2 (2 (DET))(2 (3 (2 (ADV))(2 (ADJ)))(2 (2 (ADJ))(2 (2 (NOUN))(2 (NOUN))))))))(2 (2 (PUNCT))(2 (2 (2 (NOUN))(2 (2 (PUNCT))(2 (NOUN))))(2 (2 (2 (2 (PROPN))(2 (PROPN)))(2 (2 (PART))(2 (2 (1ADV))(2 (2 (VERB))(2 (NUM))))))(2 (ADJ)))))) |ET| 
-1  |BT| (-1 (4 (4 (2 (2 (DET))(4 (2 (ADJ))(3 (NOUN))))(2 (CCONJ)))(3 (2 (DET))(4 (ADJ))))(1 (0 (NOUN))(2 (PUNCT)))) |ET| 
1  |BT| (1 (2 (2 (2 (DET))(2 (NOUN)))(2 (PUNCT)))(2 (2 (VERB))(1 (2 (2 (3 (ADJ))(2 (2 (PROPN))(1 (PUNCT))))(2 (NOUN)))(2 (2 (NOUN))(2 (2 (2 (2 (PUNCT))(2 (PRON)))(2 (2 (VERB))(2 (2 (PRON))(2 (2 (AUX))(2 (VERB))))))(2 (PART))))))) |ET| 
-1  |BT| (-1 (1 (PUNCT))(1 (2 (2 (PROPN))(1 (2 (PROPN))(3 (2 (2 (2 (CCONJ))(2 (PROPN)))(2 (2 (2 (2 (PROPN))(2 (PROPN)))(2 (AUX)))(3 (PUNCT))))(3 (2 (ADJ))(1 (2 (PART))(3 (3 (2 (VERB))(3 (2 (DET))(3 (3 (ADJ))(2 (NOUN)))))(2 (2 (ADP))(2 (2 (2 (3 (2 (ADJ))(3 (2 (NOUN))(2 (PUNCT))))(2 (NOUN)))(2 (NOUN)))(2 (2 (2 (PUNCT))(2 (2 (CCONJ))(2 (DET))))(2 (NOUN)))))))))))(1 (2 (2 (PART))(1 (2 (NOUN))(1 (2 (VERB))(2 (2 (AUX))(2 (2 (ADV))(2 (2 (ADJ))(2 (2 (PART))(2 (VERB)))))))))(2 (NOUN))))) |ET| 
-1  |BT| (-1 (2 (1 (1 (2 (DET))(2 (3 (ADJ))(1 (NOUN))))(2 (2 (PRON))(2 (AUX))))(1 (1 (PUNCT))(1 (2 (2 (ADJ))(1 (2 (SCONJ))(2 (2 (DET))(1 (1 (2 (ADV))(1 (ADJ)))(2 (NOUN))))))(3 (PUNCT)))))(1 (1 (2 (2 (2 (AUX))(2 (PRON)))(2 (ADV)))(2 (2 (ADV))(2 (3 (3 (2 (2 (VERB))(2 (2 (PRON))(2 (2 (PROPN))(2 (VERB)))))(2 (2 (SCONJ))(3 (2 (DET))(2 (NOUN)))))(2 (PUNCT)))(2 (2 (ADV))(2 (2 (SCONJ))(2 (2 (2 (DET))(3 (NOUN)))(2 (2 (AUX))(2 (2 (VERB))(2 (2 (PART))(3 (2 (AUX))(2 (VERB))))))))))))(2 (PUNCT)))) |ET| 
-1  |BT| (-1 (2 (CCONJ))(4 (3 (2 (SCONJ))(2 (3 (2 (2 (DET))(2 (NOUN)))(3 (2 (ADP))(2 (NOUN))))(4 (2 (AUX))(3 (1 (2 (2 (DET))(2 (2 (VERB))(3 (PUNCT))))(2 (2 (VERB))(3 (NOUN))))(3 (2 (ADP))(3 (4 (NOUN))(2 (2 (DET))(2 (2 (VERB))(3 (2 (ADP))(2 (DET)))))))))))(0 (2 (NOUN))(0 (2 (NOUN))(0 (1 (2 (PUNCT))(1 (2 (2 (DET))(2 (AUX)))(4 (2 (DET))(4 (2 (NOUN))(4 (4 (3 (ADP))(3 (DET)))(2 (ADV)))))))(2 (ADJ))))))) |ET| 
1  |BT| (1 (3 (2 (2 (2 (2 (PROPN))(2 (3 (PROPN))(2 (PROPN))))(2 (PUNCT)))(3 (3 (2 (2 (ADV))(2 (ADJ)))(2 (CCONJ)))(2 (3 (ADJ))(2 (2 (ADP))(2 (2 (NUM))(2 (2 (ADJ))(2 (NOUN))))))))(2 (PUNCT)))(1 (1 (1 (2 (1 (VERB))(2 (ADP)))(1 (2 (ADP))(1 (2 (NOUN))(2 (NOUN)))))(2 (ADV)))(2 (PUNCT)))) |ET| 
-1  |BT| (-1 (2 (VERB))(1 (1 (2 (SCONJ))(2 (2 (2 (DET))(2 (NOUN)))(1 (2 (ADP))(1 (2 (2 (2 (2 (1 (1 (2 (2 (DET))(2 (NOUN)))(1 (2 (PRON))(1 (2 (2 (AUX))(2 (ADV)))(1 (ADJ)))))(2 (PUNCT)))(2 (2 (ADP))(1 (2 (VERB))(2 (2 (DET))(2 (2 (ADJ))(1 (NOUN)))))))(2 (PUNCT)))(2 (2 (ADP))(2 (2 (VERB))(2 (2 (2 (DET))(2 (NOUN)))(2 (2 (ADP))(2 (2 (2 (DET))(2 (NOUN)))(2 (2 (ADP))(2 (2 (DET))(2 (NOUN))))))))))(2 (PUNCT)))(3 (2 (ADP))(2 (2 (VERB))(2 (2 (ADP))(2 (2 (ADJ))(2 (NOUN))))))))))(2 (PUNCT)))) |ET| 
1  |BT| (1 (3 (0 (1 (2 (1 (2 (2 (PART))(2 (DET)))(2 (2 (ADP))(2 (3 (2 (2 (DET))(3 (2 (NOUN))(2 (VERB))))(2 (CCONJ)))(2 (2 (2 (DET))(2 (NOUN)))(2 (2 (DET))(2 (AUX)))))))(2 (2 (AUX))(2 (2 (2 (ADJ))(2 (CCONJ)))(1 (VERB)))))(2 (PUNCT)))(2 (CCONJ)))(3 (2 (2 (DET))(2 (NOUN)))(3 (3 (2 (VERB))(3 (3 (ADV))(2 (ADV))))(3 (2 (PART))(3 (2 (VERB))(3 (2 (PRON))(3 (2 (ADJ))(2 (VERB)))))))))(2 (PUNCT))) |ET| 
-1  |BT| (-1 (1 (3 (3 (3 (2 (2 (DET))(3 (NOUN)))(3 (2 (AUX))(3 (3 (ADV))(3 (2 (ADV))(3 (2 (DET))(3 (3 (ADJ))(2 (NOUN))))))))(2 (PUNCT)))(2 (CCONJ)))(1 (3 (3 (2 (2 (2 (DET))(2 (NOUN)))(2 (2 (ADP))(2 (2 (DET))(2 (NOUN)))))(3 (2 (VERB))(1 (ADP))))(2 (CCONJ)))(0 (2 (3 (2 (2 (PRON))(2 (ADV)))(2 (2 (AUX))(2 (2 (ADP))(2 (2 (DET))(2 (NOUN))))))(2 (CCONJ)))(1 (2 (PRON))(2 (2 (ADV))(1 (2 (VERB))(1 (2 (VERB))(2 (2 (ADP))(2 (2 (3 (PRON))(2 (CCONJ)))(1 (NOUN)))))))))))(2 (PUNCT))) |ET| 
1  |BT| (1 (2 (2 (2 (DET))(2 (ADV)))(2 (2 (ADP))(2 (2 (2 (2 (DET))(2 (NOUN)))(2 (PUNCT)))(2 (2 (DET))(2 (NOUN))))))(2 (2 (VERB))(3 (2 (VERB))(2 (2 (ADP))(1 (1 (2 (DET))(1 (2 (2 (2 (VERB))(3 (PRON)))(1 (2 (ADP))(1 (1 (2 (DET))(1 (0 (ADJ))(2 (NOUN))))(2 (2 (ADP))(2 (NOUN))))))(1 (2 (DET))(0 (2 (PRON))(1 (2 (ADV))(1 (0 (VERB))(2 (2 (VERB))(2 (2 (DET))(2 (ADV))))))))))(2 (2 (PUNCT))(2 (2 (DET))(1 (NOUN))))))))) |ET| 
0.38937071435177800227123157128517  |BT| (1 (2 (PRON))(2 (2 (2 (2 (2 (VERB))(2 (CCONJ)))(2 (VERB)))(2 (2 (2 (VERB))(2 (2 (ADP))(3 (2 (DET))(2 (NOUN)))))(2 (2 (ADP))(3 (4 (2 (ADV))(3 (ADJ)))(2 (2 (PART))(2 (1 (ADV))(3 (ADJ))))))))(2 (PUNCT)))) |ET| 
1  |BT| (1 (2 (2 (PROPN))(2 (3)))(3 (3 (2 (2 (NUM))(2 (2 (AUX))(2 (ADP))))(2 (1 (1 (2 (ADV))(1 (2 (DET))(1 (2 (ADJ))(2 (2 (NOUN))(2 (PART))))))(2 (VERB)))(3 (3 (2 (CCONJ))(3 (2 (DET))(3 (ADJ))))(2 (2 (NOUN))(2 (ADP))))))(2 (NOUN)))) |ET| 
-1  |BT| (-1 (2 (PRON))(2 (1 (1 (VERB))(4 (2 (3 (3 (2 (DET))(4 (3 (2 (NOUN))(2 (2 (PUNCT))(3 (ADJ))))(4 (PUNCT))))(2 (ADJ)))(2 (2 (2 (2 (2 (NOUN))(2 (CCONJ)))(2 (2 (DET))(2 (NOUN))))(2 (2 (ADP))(2 (NOUN))))(2 (1 (DET))(2 (2 (2 (VERB))(2 (PUNCT)))(3 (PROPN))))))(3 (2 (2 (PART))(2 (2 (PUNCT))(2 (ADJ))))(3 (2 (NOUN))(3 (2 (PRON))(2 (3 (ADP))(3 (DET))))))))(2 (NOUN)))) |ET| 
1  |BT| (1 (0 (2 (ADP))(1 (1 (2 (1 (0 (2 (ADV))(1 (2 (2 (ADP))(2 (2 (DET))(2 (NOUN))))(1 (2 (PRON))(1 (2 (AUX))(1 (2 (VERB))(1 (2 (PART))(0 (0 (VERB))(2 (PRON)))))))))(2 (PUNCT)))(2 (CCONJ)))(2 (PUNCT)))(2 (2 (ADP))(2 (NOUN)))))(2 (2 (PUNCT))(3 (2 (2 (1 (1 (2 (VERB))(1 (ADJ)))(2 (2 (ADP))(2 (PRON))))(2 (PUNCT)))(2 (2 (ADV))(2 (2 (PUNCT))(2 (3 (3 (NOUN))(2 (2 (ADP))(2 (3 (3 (NOUN))(2 (PUNCT)))(2 (2 (DET))(2 (NOUN))))))(2 (2 (AUX))(2 (2 (DET))(2 (NOUN))))))))(2 (PUNCT))))) |ET| 
-1  |BT| (-1 (2 (PROPN))(1 (0 (1 (1 (3 (2 (3 (2 (VERB))(2 (1 (ADV))(2 (ADV))))(2 (3 (2 (2 (VERB))(2 (2 (ADP))(2 (2 (DET))(2 (NOUN)))))(2 (PUNCT)))(2 (1 (2 (2 (VERB))(1 (ADP)))(1 (2 (ADJ))(2 (NOUN))))(2 (2 (SCONJ))(1 (4 (4 (2 (PUNCT))(4 (4 (NOUN))(2 (2 (PUNCT))(2 (2 (CCONJ))(3 (2 (PUNCT))(3 (3 (NOUN))(2 (PUNCT))))))))(2 (CCONJ)))(2 (2 (DET))(1 (2 (DET))(1 (NOUN)))))))))(2 (PUNCT)))(2 (CCONJ)))(2 (ADV)))(1 (2 (3 (2 (AUX))(3 (2 (DET))(3 (2 (VERB))(2 (NOUN)))))(2 (ADV)))(0 (2 (ADV))(1 (0 (1 (VERB))(2 (2 (2 (NOUN))(2 (PART)))(2 (NOUN))))(2 (2 (ADP))(3 (2 (2 (DET))(2 (NOUN)))(2 (2 (SCONJ))(2 (DET)))))))))(2 (PUNCT)))) |ET| 
1  |BT| (1 (2 (2 (VERB))(2 (2 (PRON))(2 (3 (NOUN))(2 (2 (VERB))(2 (2 (AUX))(2 (2 (2 (2 (2 (VERB))(2 (2 (ADP))(1 (2 (ADJ))(2 (ADJ)))))(2 (ADJ)))(2 (NOUN)))(2 (PUNCT))))))))(1 (1 (2 (CCONJ))(2 (2 (2 (2 (ADV))(2 (VERB)))(2 (NOUN)))(2 (2 (PART))(2 (3 (NOUN))(3 (ADP))))))(2 (VERB)))) |ET| 
-1  |BT| (-1 (2 (2 (1 (PUNCT))(2 (2 (NOUN))(3 (PUNCT))))(1 (2 (2 (NOUN))(2 (PRON)))(2 (1 (2 (1 (VERB))(2 (CCONJ)))(2 (VERB)))(2 (2 (ADP))(2 (2 (2 (DET))(1 (2 (ADJ))(2 (NOUN))))(2 (2 (ADP))(2 (2 (PROPN))(2 (PROPN)))))))))(1 (2 (PUNCT))(2 (2 (PRON))(2 (2 (2 (VERB))(2 (2 (VERB))(2 (2 (PRON))(2 (2 (2 (2 (DET))(2 (NOUN)))(3 (2 (ADV))(3 (ADJ))))(2 (2 (SCONJ))(2 (2 (PRON))(2 (2 (AUX))(2 (2 (NOUN))(2 (2 (PART))(2 (2 (AUX))(2 (2 (VERB))(2 (ADP)))))))))))))(2 (PUNCT)))))) |ET| 
1  |BT| (1 (2 (1 (1 (1 (2 (PRON))(1 (1 (2 (AUX))(1 (2 (ADV))(1 (ADJ))))(2 (2 (PART))(2 (2 (VERB))(3 (2 (SCONJ))(2 (2 (2 (DET))(2 (NOUN)))(2 (2 (ADP))(2 (NOUN)))))))))(2 (PUNCT)))(2 (CCONJ)))(4 (1 (2 (SCONJ))(2 (3 (2 (DET))(2 (2 (ADJ))(2 (NOUN))))(1 (2 (PUNCT))(2 (0 (2 (DET))(1 (1 (ADJ))(2 (2 (NOUN))(2 (3 (2 (2 (DET))(2 (2 (AUX))(3 (2 (AUX))(2 (2 (VERB))(2 (2 (2 (DET))(2 (NOUN)))(2 (2 (ADP))(2 (2 (DET))(2 (NOUN)))))))))(2 (CCONJ)))(2 (2 (DET))(2 (2 (AUX))(1 (2 (AUX))(2 (2 (VERB))(1 (ADP))))))))))(2 (PUNCT))))))(3 (2 (2 (DET))(2 (PROPN)))(4 (2 (AUX))(3 (2 (1 (PRON))(2 (ADJ)))(2 (2 (SCONJ))(4 (3 (2 (DET))(4 (3 (ADJ))(2 (NOUN))))(2 (2 (ADP))(2 (NOUN))))))))))(2 (PUNCT))) |ET| 
-1  |BT| (-1 (1 (2 (SCONJ))(2 (2 (ADP))(1 (1 (2 (2 (ADV))(2 (ADJ)))(2 (1 (VERB))(2 (PUNCT))))(2 (2 (ADP))(2 (2 (PUNCT))(2 (DET)))))))(1 (2 (PUNCT))(1 (2 (2 (NOUN))(2 (NOUN)))(2 (2 (2 (ADP))(1 (2 (DET))(1 (2 (NOUN))(2 (2 (2 (2 (PUNCT))(3 (2 (ADJ))(2 (2 (2 (NOUN))(3 (2 (2 (2 (2 (VERB))(2 (3 (PART))(2 (AUX))))(1 (2 (VERB))(2 (2 (ADP))(2 (VERB)))))(2 (DET)))(3 (2 (2 (ADJ))(2 (NOUN)))(2 (2 (ADP))(2 (2 (DET))(2 (NOUN)))))))(3 (2 (CCONJ))(3 (2 (DET))(3 (2 (2 (2 (NOUN))(2 (ADP)))(2 (DET)))(3 (2 (NOUN))(3 (2 (SCONJ))(3 (3 (2 (ADP))(2 (DET)))(3 (2 (NOUN))(3 (4 (PUNCT))(2 (DET)))))))))))))(2 (AUX)))(1 (1 (DET))(2 (2 (NOUN))(2 (ADP))))))))(2 (ADJ)))))) |ET| 
1  |BT| (1 (3 (2 (2 (2 (2 (2 (SCONJ))(2 (3 (PROPN))(2 (2 (2 (VERB))(2 (2 (SCONJ))(2 (2 (DET))(2 (1 (ADJ))(2 (NOUN))))))(2 (2 (ADP))(4 (3 (ADJ))(4 (NOUN)))))))(2 (2 (PUNCT))(2 (2 (ADV))(3 (2 (PRON))(2 (AUX))))))(2 (PUNCT)))(2 (CCONJ)))(2 (2 (PRON))(3 (2 (2 (AUX))(2 (2 (2 (ADP))(2 (2 (DET))(2 (2 (NOUN))(2 (PART)))))(2 (1 (PUNCT))(2 (2 (2 (CCONJ))(2 (2 (DET))(2 (2 (NOUN))(2 (PART)))))(3 (PUNCT))))))(2 (2 (2 (2 (2 (NOUN))(3 (2 (DET))(2 (2 (PRON))(2 (2 (VERB))(3 (2 (SCONJ))(4 (2 (DET))(3 (2 (AUX))(2 (2 (2 (ADV))(2 (PRON)))(2 (2 (2 (DET))(2 (2 (NUM))(2 (NOUN))))(2 (2 (VERB))(2 (2 (PART))(2 (2 (VERB))(2 (2 (DET))(2 (ADJ)))))))))))))))(2 (PUNCT)))(2 (CCONJ)))(2 (PRON))))))(2 (PUNCT))) |ET| 
