SVM-light Version V5.01-TK-1.5
5 # kernel type
3 # kernel parameter -d 
1 # kernel parameter -g 
1 # kernel parameter -s 
1 # kernel parameter -r 
empty# kernel parameter -u 
0.4 # kernel parameter -L 
1 # kernel parameter -T 
T # kernel parameter -C 
0 # kernel parameter -F 
1 # kernel parameter -S 
0.400000 # kernel parameter -M 
3 # kernel parameter -N 
S # kernel parameter -V 
S # kernel parameter -W 
0 # kernel parameter -U 
0 # highest feature index 
6920 # number of training documents 
4484 # number of support vectors plus 1 
0.51706787 # threshold b, each following line is a SV (starting with alpha*y)
-1  |BT| (1 (2 (DET))(2 (1 (1 (2 (AUX))(2 (PART)))(3 (2 (DET))(2 (3 (ADJ))(2 (NOUN)))))(2 (PUNCT)))) |ET| 
-1  |BT| (0 (1 (0 (1 (2 (1 (0 (2 (PUNCT))(0 (0 (2 (DET))(1 (1 (ADJ))(2 (2 (ADJ))(2 (NOUN)))))(2 (2 (ADP))(2 (2 (3 (2 (DET))(2 (NOUN)))(2 (PUNCT)))(2 (2 (2 (2 (DET))(2 (NOUN)))(2 (2 (ADP))(2 (2 (DET))(1 (NOUN)))))(2 (2 (DET))(2 (2 (VERB))(1 (2 (DET))(2 (2 (ADJ))(2 (NOUN)))))))))))(2 (2 (ADP))(2 (2 (DET))(2 (1NUM)))))(2 (PART)))(2 (PUNCT)))(1 (2 (2 (2 (DET))(2 (2 (NOUN))(2 (PART))))(2 (NOUN)))(1 (2 (AUX))(2 (2 (2 (DET))(2 (PUNCT)))(2 (2 (PUNCT))(2 (2 (2 (PRON))(2 (AUX)))(2 (2 (PRON))(2 (DET)))))))))(2 (ADP)))(2 (PUNCT))) |ET| 
-1  |BT| (1 (1 (2 (3 (2 (2 (VERB))(3 (PRON)))(2 (3 (ADV))(2 (ADJ))))(2 (PUNCT)))(0 (2 (SCONJ))(1 (2 (2 (DET))(2 (1 (ADV))(2 (PUNCT))))(1 (2 (VERB))(1 (2 (1 (2 (NOUN))(2 (2 (PRON))(2 (2 (VERB))(3 (ADP)))))(2 (DET)))(1 (1 (2 (NOUN))(1 (CCONJ)))(2 (2 (VERB))(2 (2 (ADP))(2 (ADP))))))))))(2 (DET))) |ET| 
-1  |BT| (1 (2 (2 (DET))(3 (2 (ADJ))(2 (PUNCT))))(2 (2 (2 (NOUN))(2 (1 (NOUN))(2 (2 (AUX))(2 (2 (2 (PRON))(2 (ADP)))(2 (2 (DET))(2 (2 (NOUN))(2 (3 (ADV))(2 (2 (PRON))(2 (VERB))))))))))(2 (ADP)))) |ET| 
-1  |BT| (1 (2 (PRON))(2 (1 (1 (2 (2 (AUX))(2 (ADV)))(2 (2 (ADP))(2 (2 (NOUN))(2 (NOUN)))))(2 (2 (DET))(2 (2 (3 (NOUN))(2 (2 (DET))(1 (2 (AUX))(2 (2 (ADJ))(2 (2 (ADP))(2 (2 (ADJ))(2 (NOUN))))))))(3 (4 (3 (2 (VERB))(3 (ADV)))(2 (ADV)))(2 (ADV))))))(2 (PUNCT)))) |ET| 
1  |BT| (3 (2 (2 (DET))(2 (PROPN)))(4 (3 (2 (AUX))(4 (2 (VERB))(2 (2 (2 (2 (2 (PART))(2 (2 (AUX))(2 (2 (DET))(2 (2 (21ADJ))(2 (2 (2 (PROPN))(2 (PART)))(2 (3 (ADJ))(2 (2 (PUNCT))(2 (PUNCT)))))))))(2 (PROPN)))(2 (PUNCT)))(3 (2 (CCONJ))(3 (2 (SCONJ))(3 (2 (PRON))(3 (2 (AUX))(3 (2 (VERB))(4 (3 (2 (PART))(3 (3 (2 (VERB))(3 (DET)))(2 (2 (NOUN))(3 (ADV)))))(2 (2 (ADJ))(2 (2 (2 (2 (1 (2 (SCONJ))(2 (PROPN)))(2 (PROPN)))(2 (2 (PUNCT))(2 (2 (PROPN))(2 (PUNCT)))))(2 (PROPN)))(2 (2 (PROPN))(2 (PROPN))))))))))))))(2 (CCONJ)))) |ET| 
1  |BT| (4 (4 (4 (2 (DET))(4 (3 (ADV))(3 (2 (ADJ))(2 (NOUN)))))(2 (2 (2 (ADP))(2 (PUNCT)))(2 (2 (PUNCT))(2 (2 (2 (DET))(2 (2 (PROPN))(2 (2 (ADP))(2 (DET)))))(2 (2 (PROPN))(2 (PUNCT)))))))(2 (3 (2 (2 (NOUN))(2 (2 (AUX))(2 (ADV))))(2 (2 (ADJ))(3 (2 (2 (2 (SCONJ))(2 (DET)))(2 (2 (NOUN))(2 (ADP))))(2 (2 (2 (2 (NOUN))(1 (VERB)))(3 (PART)))(2 (2 (ADV))(2 (3 (2 (2 (VERB))(2 (2 (NOUN))(3 (2 (NOUN))(2 (NOUN)))))(3 (2 (SYM))(2 (NOUN))))(2 (2 (PROPN))(2 (2 (2 (PROPN))(2 (2 (PART))(2 (VERB))))(2 (NOUN))))))))))(2 (ADP)))) |ET| 
1  |BT| (3 (3 (2 (2 (2 (2 (2 (NOUN))(2 (2 (SYM))(2 (NOUN))))(2 (2 (PROPN))(2 (2 (2 (PROPN))(2 (VERB)))(2 (2 (DET))(2 (NOUN))))))(2 (2 (ADP))(2 (2 (2 (2 (NOUN))(2 (2 (PUNCT))(3 (DET))))(2 (2 (2 (ADJ))(2 (ADJ)))(2 (2 (2 (NOUN))(2 (PUNCT)))(1 (1 (2 (DET))(1 (2 (ADJ))(2 (ADV))))(2 (2 (ADV))(2 (2 (ADJ))(2 (ADP))))))))(2 (DET)))))(2 (NOUN)))(3 (4 (2 (PUNCT))(3 (2 (CCONJ))(2 (DET))))(2 (3 (ADJ))(3 (2 (NOUN))(2 (1 (2 (ADV))(2 (2 (2 (VERB))(2 (2 (DET))(2 (2 (VERB))(2 (PUNCT)))))(3 (INTJ))))(2 (2 (PUNCT))(2 (2 (NOUN))(2 (ADP)))))))))(2 (DET))) |ET| 
1  |BT| (3 (2 (CCONJ))(3 (2 (2 (DET))(2 (NOUN)))(3 (4 (3 (2 (AUX))(3 (2 (ADV))(4 (ADJ))))(2 (ADV)))(2 (PUNCT))))) |ET| 
1  |BT| (4 (2 (2 (SCONJ))(2 (2 (2 (2 (CCONJ))(1 (PART)))(3 (2 (PRON))(2 (2 (AUX))(3 (3 (VERB))(2 (2 (ADP))(2 (2 (DET))(2 (2 (ADP))(2 (2 (PROPN))(2 (PART))))))))))(2 (2 (NOUN))(2 (2 (ADP))(2 (2 (PUNCT))(2 (2 (2 (2 (2 (2 (PUNCT))(2 (DET)))(2 (ADJ)))(2 (PUNCT)))(2 (CCONJ)))(2 (2 (PUNCT))(2 (PUNCT)))))))))(3 (2 (DET))(3 (2 (NOUN))(3 (2 (PUNCT))(3 (3 (2 (PUNCT))(4 (2 (PROPN))(4 (4 (2 (AUX))(3 (4 (3 (DET))(2 (ADV)))(4 (ADJ))))(2 (CCONJ)))))(2 (ADJ))))))) |ET| 
-1  |BT| (1 (2 (2 (2 (PROPN))(2 (PROPN)))(2 (2 (SCONJ))(2 (2 (PROPN))(2 (PROPN)))))(2 (PUNCT))) |ET| 
1  |BT| (4 (2 (2 (DET))(2 (NOUN)))(4 (4 (2 (AUX))(4 (3 (3 (3 (2 (DET))(2 (NOUN)))(2 (2 (ADP))(2 (2 (DET))(2 (NOUN)))))(2 (CCONJ)))(3 (4 (4 (ADJ))(2 (NOUN)))(2 (2 (ADP))(2 (2 (DET))(2 (NOUN)))))))(2 (PUNCT)))) |ET| 
-1  |BT| (1 (2 (3 (4 (2 (ADV))(4 (ADJ)))(2 (CCONJ)))(1 (2 (ADV))(2 (ADJ))))(2 (PUNCT))) |ET| 
1  |BT| (4 (4 (3 (4 (2 (2 (1 (PROPN))(2 (CCONJ)))(2 (PROPN)))(3 (2 (AUX))(4 (4 (ADJ))(2 (NOUN)))))(2 (PUNCT)))(3 (2 (2 (DET))(3 (3 (2 (2 (ADJ))(2 (CCONJ)))(2 (ADJ)))(2 (NOUN))))(2 (2 (PUNCT))(2 (2 (2 (SCONJ))(2 (2 (ADV))(3 (2 (ADV))(2 (VERB)))))(2 (2 (PUNCT))(2 (2 (AUX))(3 (ADJ))))))))(2 (PUNCT))) |ET| 
-1  |BT| (0 (1 (1 (2 (DET))(2 (3 (ADJ))(2 (NOUN))))(2 (2 (ADP))(2 (2 (1 (NOUN))(2 (CCONJ)))(2 (PROPN)))))(2 (2 (PUNCT))(2 (PROPN)))) |ET| 
1  |BT| (3 (2 (3 (3 (ADV))(3 (ADJ)))(2 (2 (2 (DET))(2 (NOUN)))(2 (2 (VERB))(2 (AUX)))))(2 (2 (PUNCT))(2 (2 (2 (VERB))(2 (1 (2 (2 (SCONJ))(1 (2 (PRON))(2 (2 (VERB))(1 (2 (SCONJ))(1 (3 (2 (DET))(2 (2 (ADJ))(2 (NOUN))))(1 (2 (AUX))(1 (2 (ADV))(1 (2 (ADJ))(2 (2 (ADP))(2 (2 (DET))(2 (NOUN))))))))))))(2 (CCONJ)))(1 (PART))))(2 (PUNCT))))) |ET| 
-1  |BT| (1 (1 (1 (3 (ADV))(2 (PUNCT)))(1 (VERB)))(2 (CCONJ))) |ET| 
1  |BT| (3 (2 (2 (PROPN))(2 (PROPN)))(3 (3 (2 (2 (VERB))(3 (PRON)))(3 (2 (2 (DET))(2 (NOUN)))(2 (2 (ADP))(3 (2 (DET))(2 (2 (ADP))(2 (2 (2 (DET))(2 (NOUN)))(2 (2 (PRON))(2 (2 (2 (VERB))(2 (2 (ADP))(2 (PROPN))))(2 (2 (ADV))(2 (2 (ADP))(2 (PROPN))))))))))))(2 (PUNCT)))) |ET| 
-1  |BT| (1 (2 (VERB))(2 (2 (2 (2 (DET))(2 (3 (ADJ))(2 (PROPN))))(2 (2 (ADP))(2 (2 (DET))(3 (2 (ADJ))(2 (2 (ADJ))(2 (NOUN)))))))(2 (2 (AUX))(2 (2 (ADJ))(1 (2 (ADP))(2 (2 (2 (VERB))(2 (2 (DET))(2 (2 (PROPN))(0 (PROPN)))))(2 (2 (ADP))(3 (2 (ADJ))(2 (0 (PROPN))(2 (PROPN))))))))))) |ET| 
1  |BT| (3 (2 (CCONJ))(2 (2 (PRON))(2 (2 (AUX))(2 (PUNCT))))) |ET| 
-1  |BT| (1 (2 (PRON))(1 (2 (2 (2 (AUX))(2 (PART)))(3 (VERB)))(2 (PUNCT)))) |ET| 
-1  |BT| (0 (2 (NOUN))(0 (1 (2 (SCONJ))(1 (2 (2 (PROPN))(2 (PROPN)))(1 (2 (2 (VERB))(1 (1 (2 (DET))(2 (1 (ADJ))(2 (NOUN))))(2 (2 (ADP))(2 (NOUN)))))(1 (2 (SCONJ))(2 (2 (SCONJ))(2 (2 (PRON))(1 (2 (AUX))(2 (2 (DET))(2 (NOUN))))))))))(2 (PUNCT)))) |ET| 
-1  |BT| (1 (1 (3 (3 (3 (2 (2 (DET))(3 (NOUN)))(3 (2 (AUX))(3 (3 (ADV))(3 (2 (ADV))(3 (2 (DET))(3 (3 (ADJ))(2 (NOUN))))))))(2 (PUNCT)))(2 (CCONJ)))(1 (3 (3 (2 (2 (2 (DET))(2 (NOUN)))(2 (2 (ADP))(2 (2 (DET))(2 (NOUN)))))(3 (2 (VERB))(1 (ADP))))(2 (CCONJ)))(0 (2 (3 (2 (2 (PRON))(2 (ADV)))(2 (2 (AUX))(2 (2 (ADP))(2 (2 (DET))(2 (NOUN))))))(2 (CCONJ)))(1 (2 (PRON))(2 (2 (ADV))(1 (2 (VERB))(1 (2 (VERB))(2 (2 (ADP))(2 (2 (3 (PRON))(2 (CCONJ)))(1 (NOUN)))))))))))(2 (PUNCT))) |ET| 
1  |BT| (3 (2 (ADJ))(2 (2 (2 (PART))(1 (VERB)))(2 (PUNCT)))) |ET| 
-1  |BT| (1 (2 (DET))(2 (2 (ADJ))(2 (2 (ADJ))(2 (ADJ))))) |ET| 
1  |BT| (3 (2 (CCONJ))(3 (2 (2 (SCONJ))(2 (2 (PRON))(2 (2 (AUX))(2 (VERB)))))(3 (2 (PRON))(3 (4 (2 (AUX))(3 (VERB)))(2 (PUNCT)))))) |ET| 
-1  |BT| (1 (1 (2 (2 (2 (PUNCT))(2 (2 (PROPN))(2 (PUNCT))))(2 (PUNCT)))(2 (2 (1 (2 (2 (NOUN))(2 (NOUN)))(2 (2 (VERB))(2 (ADP))))(2 (PUNCT)))(1 (2 (CCONJ))(1 (2 (2 (DET))(2 (NOUN)))(1 (2 (AUX))(1 (2 (2 (DET))(2 (2 (ADJ))(2 (NOUN))))(2 (2 (2 (VERB))(2 (2 (DET))(0 (NOUN))))(2 (2 (ADP))(2 (2 (PROPN))(2 (PUNCT)))))))))))(2 (VERB))) |ET| 
1  |BT| (3 (3 (2 (2 (DET))(2 (2 (ADJ))(2 (NOUN))))(2 (2 (ADP))(3 (2 (DET))(3 (2 (2 (ADJ))(2 (ADJ)))(2 (PUNCT))))))(2 (NOUN))) |ET| 
-1  |BT| (1 (1 (0 (VERB))(2 (2 (PART))(1 (3 (ADV))(3 (2 (VERB))(2 (2 (3 (2 (2 (2 (DET))(1 (2 (NOUN))(1 (NOUN))))(2 (PUNCT)))(3 (2 (NOUN))(4 (NOUN))))(2 (CCONJ)))(2 (2 (ADJ))(4 (NOUN))))))))(2 (PUNCT))) |ET| 
1  |BT| (3 (2 (PRON))(2 (3 (2 (AUX))(3 (NOUN)))(2 (ADV)))) |ET| 
1  |BT| (4 (2 (CCONJ))(3 (2 (2 (SCONJ))(2 (2 (PRON))(3 (2 (VERB))(2 (2 (DET))(2 (NOUN))))))(3 (2 (PUNCT))(3 (2 (PRON))(2 (2 (2 (AUX))(2 (2 (ADV))(2 (3 (ADJ))(2 (2 (PART))(3 (VERB))))))(2 (PUNCT))))))) |ET| 
1  |BT| (4 (3 (NOUN))(4 (3 (2 (AUX))(4 (3 (2 (NUM))(2 (NOUN)))(4 (2 (DET))(3 (2 (AUX))(4 (3 (ADV))(4 (2 (ADJ))(3 (2 (ADP))(3 (2 (DET))(3 (3 (PROPN))(2 (NOUN)))))))))))(2 (PUNCT)))) |ET| 
-1  |BT| (1 (3 (ADV))(2 (1 (PART))(2 (PUNCT)))) |ET| 
1  |BT| (4 (4 (4 (4 (4 (2 (DET))(4 (2 (NOUN))(3 (4 (PUNCT))(2 (ADV)))))(3 (2 (ADJ))(2 (2 (NOUN))(1 (2 (DET))(0 (2 (VERB))(2 (ADV)))))))(2 (2 (DET))(2 (2 (NOUN))(2 (ADP)))))(3 (2 (ADJ))(3 (2 (NOUN))(3 (2 (2 (SCONJ))(2 (3 (2 (VERB))(2 (2 (DET))(2 (ADJ))))(2 (SCONJ))))(1 (2 (ADJ))(2 (NOUN)))))))(2 (ADP))) |ET| 
-1  |BT| (0 (2 (PRON))(0 (3 (2 (VERB))(2 (1 (1 (1 (VERB))(1 (SCONJ)))(3 (2 (ADP))(2 (2 (DET))(3 (3 (NOUN))(2 (NOUN))))))(1 (2 (SCONJ))(1 (2 (SCONJ))(3 (2 (PRON))(2 (1 (2 (VERB))(2 (2 (DET))(2 (NOUN))))(2 (2 (ADP))(2 (2 (VERB))(2 (2 (1 (2 (DET))(2 (2 (NOUN))(3 (NOUN))))(2 (CCONJ)))(2 (2 (DET))(3 (2 (ADV))(2 (2 (PUNCT))(2 (ADJ))))))))))))))(2 (NOUN)))) |ET| 
1  |BT| (3 (3 (ADV))(1 (1 (ADJ))(2 (PUNCT)))) |ET| 
-1  |BT| (0 (0 (3 (ADV))(1 (ADJ)))(2 (PUNCT))) |ET| 
1  |BT| (3 (2 (2 (2 (DET))(2 (NOUN)))(3 (2 (DET))(2 (2 (2 (2 (VERB))(2 (PRON)))(1 (SCONJ)))(3 (2 (ADP))(2 (2 (DET))(3 (3 (NOUN))(2 (NOUN))))))))(2 (3 (2 (SCONJ))(3 (2 (PRON))(2 (2 (2 (PUNCT))(2 (PROPN)))(2 (2 (ADV))(2 (2 (2 (VERB))(2 (NOUN)))(2 (2 (VERB))(2 (2 (ADP))(2 (DET)))))))))(2 (NOUN)))) |ET| 
-1  |BT| (1 (2 (2 (DET))(2 (NOUN)))(0 (1 (2 (VERB))(1 (1 (2 (2 (VERB))(2 (2 (DET))(2 (NOUN))))(1 (2 (ADP))(2 (2 (2 (DET))(2 (NOUN)))(2 (2 (ADP))(2 (NOUN))))))(1 (2 (ADP))(1 (2 (NOUN))(1 (2 (VERB))(2 (ADV)))))))(2 (PUNCT)))) |ET| 
1  |BT| (3 (2 (PUNCT))(2 (3 (2 (CCONJ))(3 (2 (3 (ADV))(2 (ADJ)))(1 (2 (PART))(0 (VERB)))))(2 (PUNCT)))) |ET| 
1  |BT| (3 (2 (2 (SCONJ))(2 (2 (3 (ADJ))(2 (NOUN)))(2 (VERB))))(3 (2 (PUNCT))(4 (2 (2 (PROPN))(2 (PROPN)))(3 (4 (2 (VERB))(3 (2 (2 (DET))(2 (2 (DET))(2 (2 (ADJ))(2 (NOUN)))))(2 (2 (PRON))(2 (VERB)))))(2 (PUNCT)))))) |ET| 
1  |BT| (3 (2 (PRON))(2 (2 (AUX))(2 (2 (2 (2 (DET))(2 (1 (ADJ))(2 (NOUN))))(2 (2 (ADP))(2 (2 (2 (DET))(2 (NOUN)))(2 (2 (ADP))(2 (1 (VERB))(2 (NOUN)))))))(2 (2 (DET))(2 (2 (2 (2 (2 (VERB))(2 (CCONJ)))(2 (VERB)))(1 (PART)))(2 (VERB))))))) |ET| 
-1  |BT| (1 (0 (1 (1 (2 (ADJ))(2 (CCONJ)))(1 (2 (ADV))(2 (ADJ))))(2 (2 (ADP))(2 (2 (2 (DET))(2 (2 (2 (NOUN))(2 (CCONJ)))(2 (NOUN))))(1 (2 (DET))(2 (2 (VERB))(3 (2 (VERB))(2 (2 (VERB))(2 (3 (2 (2 (DET))(2 (2 (DET))(3 (2 (ADJ))(2 (NOUN)))))(2 (2 (ADP))(2 (2 (DET))(0 (NOUN)))))(2 (ADJ))))))))))(2 (PUNCT))) |ET| 
1  |BT| (4 (2 (3 (1 (3 (2 (PRON))(2 (2 (2 (AUX))(3 (2 (DET))(3 (NOUN))))(2 (2 (SCONJ))(3 (3 (2 (DET))(3 (4 (ADJ))(3 (NOUN))))(2 (2 (VERB))(2 (2 (2 (VERB))(2 (ADP)))(3 (2 (PART))(1 (2 (2 (VERB))(3 (PRON)))(1 (2 (ADP))(1 (3 (2 (DET))(2 (NOUN)))(1 (2 (ADP))(1 (2 (NOUN))(2 (2 (PUNCT))(1 (1 (VERB))(0 (PUNCT))))))))))))))))(2 (NOUN)))(2 (PUNCT)))(2 (2 (2 (NOUN))(2 (NOUN)))(2 (2 (PUNCT))(3 (CCONJ)))))(2 (DET))) |ET| 
-1  |BT| (0 (2 (1 (2 (DET))(1 (1 (ADJ))(2 (NOUN))))(2 (2 (ADP))(2 (2 (DET))(2 (2 (NOUN))(3 (PUNCT))))))(0 (0 (2 (NOUN))(0 (2 (PROPN))(0 (1 (AUX))(2 (2 (ADV))(1 (2 (ADV))(2 (2 (VERB))(1 (2 (3 (PRON))(2 (2 (VERB))(2 (2 (VERB))(2 (2 (DET))(2 (ADP))))))(2 (2 (PROPN))(2 (2 (PROPN))(2 (2 (ADP))(2 (ADP))))))))))))(2 (DET)))) |ET| 
1  |BT| (3 (3 (3 (2 (DET))(2 (2 (ADJ))(1 (PUNCT))))(3 (2 (ADJ))(2 (2 (NOUN))(2 (2 (ADP))(2 (2 (NOUN))(3 (ADP)))))))(2 (1 (2 (DET))(2 (1 (2 (1 (2 (2 (NOUN))(2 (PART)))(1 (1 (2 (NOUN))(1 (2 (ADP))(2 (DET))))(1 (2 (ADJ))(1 (NOUN)))))(2 (2 (ADP))(2 (2 (2 (2 (2 (NOUN))(2 (ADP)))(2 (2 (DET))(2 (2 (NOUN))(3 (ADP)))))(2 (DET)))(2 (3 (2 (ADJ))(4 (CCONJ)))(2 (2 (DET))(2 (2 (ADJ))(1 (PRON))))))))(2 (AUX)))(2 (0 (PRON))(2 (2 (SCONJ))(3 (NOUN))))))(2 (ADP)))) |ET| 
-1  |BT| (1 (1 (2 (2 (2 (2 (DET))(3 (ADV)))(2 (2 (2 (ADJ))(2 (2 (NOUN))(2 (PART))))(2 (NOUN))))(2 (PUNCT)))(2 (2 (2 (ADP))(2 (DET)))(1 (1 (2 (NOUN))(2 (2 (ADP))(1 (0 (ADJ))(2 (2 (NOUN))(2 (NOUN))))))(1 (2 (VERB))(1 (2 (2 (DET))(2 (NOUN)))(2 (2 (ADP))(2 (2 (3 (ADJ))(2 (ADJ)))(2 (2 (ADJ))(2 (2 (2 (NOUN))(2 (ADP)))(2 (2 (DET))(2 (2 (PROPN))(2 (2 (ADP))(2 (DET))))))))))))))(2 (PROPN))) |ET| 
1  |BT| (3 (2 (PRON))(3 (2 (2 (2 (AUX))(1 (PART)))(2 (2 (1 (2 (ADV))(2 (ADJ)))(2 (CCONJ)))(2 (1 (PART))(1 (2 (ADV))(1 (ADJ))))))(2 (PUNCT)))) |ET| 
-1  |BT| (1 (2 (PRON))(1 (2 (2 (2 (AUX))(2 (1 (PRON))(1 (2 (ADV))(2 (2 (2 (ADJ))(2 (CCONJ)))(4 (ADJ))))))(2 (ADV)))(2 (PUNCT)))) |ET| 
1  |BT| (3 (3 (3 (3 (2 (NOUN))(2 (2 (ADP))(2 (NOUN))))(2 (PUNCT)))(3 (2 (2 (DET))(2 (2 (NOUN))(2 (NOUN))))(3 (2 (ADP))(3 (2 (DET))(2 (3 (ADJ))(2 (NOUN)))))))(2 (PUNCT))) |ET| 
-1  |BT| (1 (1 (2 (2 (2 (DET))(2 (NOUN)))(2 (2 (ADP))(2 (2 (NOUN))(2 (2 (ADP))(2 (NOUN))))))(2 (2 (ADP))(2 (2 (DET))(2 (NOUN)))))(2 (PUNCT))) |ET| 
1  |BT| (3 (2 (PRON))(3 (4 (2 (VERB))(3 (3 (4 (2 (VERB))(2 (2 (PRON))(2 (2 (ADV))(2 (2 (ADJ))(2 (CCONJ))))))(2 (PUNCT)))(2 (2 (ADV))(2 (ADJ)))))(2 (PUNCT)))) |ET| 
-1  |BT| (0 (2 (PRON))(0 (1 (2 (VERB))(0 (2 (PRON))(0 (1 (1 (1 (1 (ADJ))(2 (PUNCT)))(2 (ADJ)))(2 (CCONJ)))(1 (1 (PART))(4 (2 (ADV))(4 (ADJ)))))))(2 (PUNCT)))) |ET| 
1  |BT| (3 (2 (DET))(2 (2 (2 (AUX))(2 (2 (2 (PROPN))(2 (PROPN)))(2 (2 (ADP))(2 (2 (2 (DET))(2 (NOUN)))(2 (2 (ADP))(2 (2 (NOUN))(2 (NOUN))))))))(2 (PUNCT)))) |ET| 
-1  |BT| (1 (2 (PROPN))(1 (2 (VERB))(1 (2 (SCONJ))(2 (2 (DET))(1 (2 (NOUN))(2 (NOUN))))))) |ET| 
1  |BT| (4 (4 (2 (ADP))(3 (2 (NOUN))(3 (2 (ADP))(4 (2 (2 (VERB))(2 (PRON)))(3 (2 (ADP))(4 (3 (2 (DET))(3 (NOUN)))(2 (2 (ADP))(2 (2 (DET))(3 (NOUN))))))))))(3 (2 (PUNCT))(4 (2 (2 (VERB))(2 (PROPN)))(4 (3 (2 (2 (AUX))(2 (ADV)))(3 (2 (2 (DET))(2 (NOUN)))(4 (2 (ADP))(3 (3 (NOUN))(3 (2 (PUNCT))(3 (2 (3 (NOUN))(2 (CCONJ)))(2 (NOUN))))))))(2 (PUNCT)))))) |ET| 
-1  |BT| (1 (0 (1 (2 (ADJ))(2 (PUNCT)))(1 (1 (1 (ADJ))(2 (CCONJ)))(3 (ADJ))))(2 (PUNCT))) |ET| 
1  |BT| (3 (2 (PRON))(3 (2 (2 (VERB))(2 (2 (NOUN))(3 (2 (2 (VERB))(2 (DET)))(3 (2 (NOUN))(2 (2 (AUX))(2 (DET)))))))(2 (NOUN)))) |ET| 
-1  |BT| (1 (2 (2 (NUM))(1 (2 (PROPN))(2 (PROPN))))(1 (1 (2 (2 (VERB))(2 (PART)))(3 (3 (2 (VERB))(3 (2 (2 (DET))(2 (NOUN)))(3 (2 (ADP))(3 (4 (ADJ))(3 (2 (NOUN))(2 (3 (SYM))(2 (NOUN))))))))(3 (2 (NOUN))(3 (2 (NOUN))(2 (2 (DET))(3 (2 (PRON))(2 (2 (AUX))(4 (VERB)))))))))(2 (PART)))) |ET| 
1  |BT| (4 (2 (ADJ))(3 (2 (PUNCT))(3 (2 (ADJ))(4 (2 (PUNCT))(4 (3 (2 (ADV))(3 (ADJ)))(2 (PUNCT))))))) |ET| 
-1  |BT| (0 (2 (PUNCT))(1 (2 (ADV))(2 (2 (ADJ))(2 (PUNCT))))) |ET| 
1  |BT| (3 (2 (NOUN))(1 (2 (VERB))(3 (2 (SCONJ))(2 (2 (PRON))(2 (2 (AUX))(3 (2 (VERB))(3 (2 (ADP))(2 (2 (2 (2 (2 (PROPN))(2 (2 (PROPN))(2 (PART))))(3 (NOUN)))(2 (PUNCT)))(1 (2 (VERB))(2 (2 (1 (2 (ADP))(2 (2 (3 (PROPN))(2 (PART)))(2 (2 (NOUN))(2 (NOUN)))))(2 (CCONJ)))(2 (2 (ADP))(2 (2 (2 (PROPN))(2 (PART)))(2 (NOUN)))))))))))))) |ET| 
-1  |BT| (1 (4 (3 (PROPN))(3 (3 (NOUN))(2 (NOUN))))(1 (1 (2 (AUX))(2 (PART)))(3 (2 (2 (VERB))(2 (ADP)))(2 (2 (ADP))(2 (NOUN)))))) |ET| 
1  |BT| (3 (1 (2 (ADV))(2 (ADJ)))(2 (PUNCT))) |ET| 
-1  |BT| (0 (0 (2 (ADV))(2 (ADJ)))(2 (PUNCT))) |ET| 
1  |BT| (3 (3 (3 (3 (2 (2 (2 (DET))(2 (2 (NOUN))(2 (PART))))(2 (NOUN)))(2 (2 (ADP))(3 (NOUN))))(2 (CCONJ)))(3 (3 (2 (DET))(3 (3 (ADJ))(2 (NOUN))))(2 (2 (ADP))(2 (NOUN)))))(3 (3 (2 (VERB))(2 (2 (2 (DET))(2 (3 (ADJ))(2 (NOUN))))(2 (2 (ADP))(2 (2 (2 (DET))(2 (2 (NOUN))(2 (PART))))(2 (NOUN))))))(2 (PUNCT)))) |ET| 
-1  |BT| (0 (2 (DET))(2 (0 (1 (2 (VERB))(1 (2 (NOUN))(3 (2 (ADP))(2 (3 (3 (2 (NOUN))(2 (2 (ADP))(2 (2 (DET))(2 (NOUN)))))(2 (CCONJ)))(2 (3 (2 (DET))(2 (NOUN)))(2 (2 (ADP))(3 (3 (ADJ))(1 (NOUN)))))))))(2 (2 (ADP))(2 (2 (DET))(3 (NOUN)))))(2 (PUNCT)))) |ET| 
1  |BT| (3 (3 (2 (1 (ADV))(2 (ADV)))(2 (ADJ)))(2 (PUNCT))) |ET| 
-1  |BT| (1 (2 (PROPN))(1 (0 (1 (1 (3 (2 (3 (2 (VERB))(2 (1 (ADV))(2 (ADV))))(2 (3 (2 (2 (VERB))(2 (2 (ADP))(2 (2 (DET))(2 (NOUN)))))(2 (PUNCT)))(2 (1 (2 (2 (VERB))(1 (ADP)))(1 (2 (ADJ))(2 (NOUN))))(2 (2 (SCONJ))(1 (4 (4 (2 (PUNCT))(4 (4 (NOUN))(2 (2 (PUNCT))(2 (2 (CCONJ))(3 (2 (PUNCT))(3 (3 (NOUN))(2 (PUNCT))))))))(2 (CCONJ)))(2 (2 (DET))(1 (2 (DET))(1 (NOUN)))))))))(2 (PUNCT)))(2 (CCONJ)))(2 (ADV)))(1 (2 (3 (2 (AUX))(3 (2 (DET))(3 (2 (VERB))(2 (NOUN)))))(2 (ADV)))(0 (2 (ADV))(1 (0 (1 (VERB))(2 (2 (2 (NOUN))(2 (PART)))(2 (NOUN))))(2 (2 (ADP))(3 (2 (2 (DET))(2 (NOUN)))(2 (2 (SCONJ))(2 (DET)))))))))(2 (PUNCT)))) |ET| 
1  |BT| (3 (2 (2 (DET))(2 (NOUN)))(1 (1 (2 (VERB))(1 (2 (ADP))(1 (2 (NOUN))(2 (2 (ADP))(2 (2 (2 (DET))(2 (NOUN)))(2 (2 (ADP))(2 (2 (DET))(2 (NOUN)))))))))(2 (PUNCT)))) |ET| 
-1  |BT| (1 (2 (2 (ADV))(2 (2 (ADP))(2 (2 (DET))(2 (2 (2 (SYM))(2 (NOUN)))(2 (3 (PROPN))(2 (NOUN)))))))(1 (2 (PUNCT))(1 (2 (PROPN))(1 (1 (2 (ADV))(2 (ADV)))(3 (3 (2 (VERB))(3 (2 (2 (DET))(2 (NOUN)))(3 (2 (ADP))(3 (2 (DET))(3 (3 (ADJ))(2 (2 (NOUN))(2 (NOUN))))))))(2 (PUNCT))))))) |ET| 
1  |BT| (4 (3 (3 (2 (ADJ))(2 (CCONJ)))(2 (ADJ)))(2 (PUNCT))) |ET| 
-1  |BT| (1 (2 (VERB))(3 (2 (2 (ADJ))(3 (2 (PUNCT))(3 (2 (2 (ADJ))(2 (CCONJ)))(2 (ADJ)))))(2 (PUNCT)))) |ET| 
1  |BT| (3 (2 (PRON))(4 (2 (AUX))(4 (2 (NOUN))(3 (2 (ADP))(4 (3 (3 (ADJ))(2 (NOUN)))(2 (2 (VERB))(2 (2 (ADP))(2 (2 (3 (PROPN))(2 (PART)))(2 (2 (PROPN))(2 (PROPN))))))))))) |ET| 
-1  |BT| (1 (2 (PRON))(2 (1 (2 (VERB))(1 (2 (AUX))(2 (2 (AUX))(1 (3 (3 (ADJ))(2 (2 (ADP))(2 (NOUN))))(1 (2 (SCONJ))(1 (3 (3 (2 (DET))(3 (3 (ADJ))(2 (2 (NOUN))(2 (NOUN)))))(2 (2 (ADP))(2 (2 (2 (PROPN))(2 (2 (PROPN))(2 (PART))))(3 (NOUN)))))(1 (0 (VERB))(2 (2 (PART))(2 (2 (VERB))(2 (2 (ADP))(2 (2 (DET))(3 (4 (ADJ))(2 (NOUN))))))))))))))(2 (PUNCT)))) |ET| 
1  |BT| (3 (2 (2 (ADJ))(2 (2 (PUNCT))(1 (2 (CCONJ))(1 (2 (ADV))(1 (ADJ))))))(3 (2 (PUNCT))(3 (3 (NOUN))(2 (2 (VERB))(2 (PUNCT)))))) |ET| 
-1  |BT| (1 (2 (DET))(0 (1 (2 (NOUN))(1 (2 (DET))(0 (1 (VERB))(2 (2 (NOUN))(2 (2 (ADP))(2 (2 (DET))(2 (2 (ADJ))(2 (NOUN)))))))))(2 (PUNCT)))) |ET| 
1  |BT| (4 (3 (4 (2 (DET))(3 (2 (ADJ))(2 (NOUN))))(2 (2 (ADP))(2 (2 (DET))(2 (2 (NOUN))(2 (NOUN))))))(3 (2 (VERB))(3 (2 (ADP))(2 (2 (DET))(3 (2 (NOUN))(2 (2 (PART))(3 (2 (VERB))(2 (2 (DET))(2 (NOUN)))))))))) |ET| 
-1  |BT| (1 (2 (PRON))(1 (1 (2 (AUX))(1 (2 (SCONJ))(1 (2 (2 (2 (VERB))(2 (2 (ADP))(2 (2 (DET))(2 (2 (NOUN))(2 (NOUN))))))(2 (CCONJ)))(2 (2 (VERB))(2 (2 (2 (DET))(2 (NOUN)))(2 (3 (2 (VERB))(2 (PRON)))(2 (2 (ADP))(2 (2 (DET))(2 (1 (VERB))(2 (NOUN)))))))))))(2 (NOUN)))) |ET| 
1  |BT| (3 (3 (3 (4 (3 (3 (ADJ))(2 (PUNCT)))(4 (ADJ)))(2 (PUNCT)))(3 (2 (ADV))(1 (4 (ADJ))(1 (2 (PUNCT))(1 (1 (ADJ))(1 (2 (PUNCT))(1 (1 (1 (NOUN))(2 (PUNCT)))(1 (ADJ)))))))))(2 (CCONJ))) |ET| 
-1  |BT| (1 (2 (PUNCT))(1 (3 (ADJ))(1 (1 (PROPN))(2 (PUNCT))))) |ET| 
1  |BT| (3 (2 (PRON))(2 (2 (1 (2 (AUX))(2 (PART)))(2 (2 (VERB))(2 (2 (SCONJ))(2 (2 (2 (DET))(2 (NOUN)))(2 (2 (AUX))(2 (2 (2 (ADJ))(2 (2 (SCONJ))(2 (NUM))))(2 (NOUN))))))))(2 (PUNCT)))) |ET| 
-0.10965709968164838450377374101663  |BT| (1 (2 (2 (DET))(2 (1 (ADJ))(2 (PUNCT))))(1 (1 (2 (2 (2 (NOUN))(2 (2 (NOUN))(2 (AUX))))(2 (ADV)))(1 (2 (NOUN))(3 (2 (2 (PUNCT))(2 (2 (NOUN))(2 (NOUN))))(2 (2 (DET))(2 (2 (DET))(2 (ADJ)))))))(2 (NOUN)))) |ET| 
1  |BT| (3 (3 (1 (ADV))(3 (ADJ)))(2 (PUNCT))) |ET| 
-1  |BT| (1 (2 (2 (DET))(2 (NOUN)))(2 (2 (ADV))(2 (2 (VERB))(2 (2 (ADP))(2 (2 (2 (2 (DET))(2 (ADJ)))(2 (PUNCT)))(3 (2 (NUM))(2 (2 (NOUN))(2 (NOUN))))))))) |ET| 
1  |BT| (3 (2 (3 (PROPN))(2 (2 (ADP))(1 (PROPN))))(4 (2 (ADV))(4 (4 (2 (VERB))(4 (2 (2 (VERB))(2 (ADP)))(4 (2 (SCONJ))(4 (2 (NUM))(3 (2 (ADP))(4 (2 (DET))(4 (2 (DET))(2 (4 (PUNCT))(2 (2 (NOUN))(2 (ADJ)))))))))))(2 (NOUN))))) |ET| 
-1  |BT| (1 (3 (2 (ADV))(4 (ADJ)))(2 (2 (ADP))(2 (2 (2 (VERB))(2 (NOUN)))(3 (2 (SCONJ))(3 (2 (ADP))(3 (2 (VERB))(4 (2 (DET))(3 (3 (2 (ADV))(3 (ADJ)))(3 (2 (PUNCT))(4 (4 (2 (ADV))(4 (VERB)))(3 (NOUN)))))))))))) |ET| 
1  |BT| (3 (1 (3 (ADV))(1 (ADJ)))(2 (PUNCT))) |ET| 
-1  |BT| (0 (2 (2 (DET))(2 (3 (PROPN))(2 (PROPN))))(1 (0 (1 (VERB))(3 (2 (DET))(4 (4 (3 (ADV))(3 (ADJ)))(2 (NOUN)))))(2 (PUNCT)))) |ET| 
1  |BT| (4 (2 (PRON))(3 (3 (3 (3 (2 (2 (AUX))(2 (ADV)))(0 (ADJ)))(2 (CCONJ)))(4 (2 (ADV))(3 (2 (VERB))(3 (ADJ)))))(2 (PUNCT)))) |ET| 
-1  |BT| (1 (1 (2 (ADV))(0 (2 (CCONJ))(1 (3 (ADV))(1 (ADJ)))))(2 (PUNCT))) |ET| 
1  |BT| (3 (2 (PRON))(3 (3 (2 (2 (AUX))(2 (2 (2 (DET))(2 (2 (ADJ))(2 (NOUN))))(2 (2 (ADP))(3 (3 (NOUN))(2 (2 (ADP))(2 (DET)))))))(3 (2 (ADP))(3 (2 (2 (DET))(2 (PROPN)))(3 (2 (DET))(3 (2 (AUX))(3 (2 (ADJ))(2 (2 (PART))(1 (VERB)))))))))(2 (PUNCT)))) |ET| 
-1  |BT| (1 (1 (2 (SCONJ))(1 (2 (PRON))(1 (2 (VERB))(2 (2 (PART))(2 (2 (VERB))(2 (2 (2 (DET))(3 (NOUN)))(3 (2 (ADP))(2 (2 (ADJ))(2 (NOUN))))))))))(1 (2 (PUNCT))(1 (2 (PRON))(1 (2 (2 (AUX))(2 (2 (ADJ))(1 (2 (ADP))(3 (2 (AUX))(3 (ADJ))))))(2 (PUNCT)))))) |ET| 
-1  |BT| (0 (1 (1 (0 (2 (PRON))(1 (2 (2 (AUX))(1 (PART)))(2 (2 (2 (ADV))(3 (2 (DET))(2 (NOUN))))(1 (2 (DET))(2 (2 (AUX))(1 (1 (ADJ))(2 (2 (ADP))(2 (2 (NOUN))(2 (2 (ADP))(2 (2 (DET))(1 (PROPN))))))))))))(2 (PUNCT)))(1 (2 (2 (DET))(2 (NOUN)))(2 (2 (VERB))(2 (2 (VERB))(2 (2 (PRON))(1 (2 (VERB))(2 (2 (DET))(2 (2 (ADJ))(2 (NOUN))))))))))(2 (PUNCT))) |ET| 
-1  |BT| (1 (2 (2 (3 (ADJ))(2 (CCONJ)))(0 (ADJ)))(2 (PUNCT))) |ET| 
1  |BT| (3 (2 (PRON))(3 (3 (2 (VERB))(4 (2 (AUX))(3 (1 (VERB))(3 (2 (SCONJ))(3 (2 (PRON))(2 (2 (VERB))(1 (3 (2 (DET))(2 (NOUN)))(2 (2 (2 (AUX))(2 (PART)))(1 (1 (VERB))(2 (2 (ADP))(2 (2 (2 (DET))(2 (NOUN)))(2 (2 (ADP))(2 (2 (PROPN))(3 (PROPN)))))))))))))))(2 (PUNCT)))) |ET| 
-1  |BT| (1 (2 (PRON))(1 (2 (AUX))(1 (2 (PART))(1 (2 (VERB))(2 (2 (SCONJ))(1 (2 (PRON))(1 (2 (AUX))(0 (2 (VERB))(2 (2 (ADP))(2 (2 (PROPN))(2 (PROPN)))))))))))) |ET| 
1  |BT| (4 (4 (3 (3 (3 (3 (ADJ))(2 (PUNCT)))(4 (ADJ)))(2 (PUNCT)))(2 (2 (0 (ADJ))(2 (CCONJ)))(3 (1 (ADV))(2 (ADJ)))))(2 (PUNCT))) |ET| 
-1  |BT| (1 (1 (2 (2 (DET))(3 (4 (ADJ))(2 (NOUN))))(1 (2 (ADP))(2 (2 (2 (ADJ))(2 (2 (PUNCT))(1 (2 (2 (3 (3 (ADV))(2 (PUNCT)))(2 (ADJ)))(1 (2 (PUNCT))(2 (CCONJ))))(2 (ADV)))))(2 (ADJ)))))(2 (NOUN))) |ET| 
1  |BT| (4 (2 (2 (2 (PROPN))(2 (1 (PROPN))(2 (PART))))(2 (2 (PROPN))(2 (PROPN))))(2 (3 (2 (2 (AUX))(2 (PROPN)))(2 (2 (SCONJ))(3 (2 (PRON))(2 (2 (VERB))(2 (2 (AUX))(3 (2 (VERB))(2 (ADV))))))))(2 (PUNCT)))) |ET| 
-0.28473560237986300647250459405768  |BT| (1 (2 (2 (PROPN))(2 (PROPN)))(0 (0 (2 (AUX))(0 (2 (2 (DET))(2 (NOUN)))(0 (2 (ADP))(1 (2 (2 (ADV))(2 (2 (ADJ))(2 (NOUN))))(1 (1 (2 (VERB))(2 (ADP)))(1 (1 (2 (ADV))(1 (ADJ)))(2 (2 (DET))(2 (NOUN)))))))))(2 (PUNCT)))) |ET| 
1  |BT| (3 (2 (3 (2 (ADJ))(3 (2 (ADJ))(3 (NOUN))))(2 (2 (ADP))(2 (2 (ADJ))(1 (2 (2 (NOUN))(2 (CCONJ)))(1 (NOUN))))))(2 (PUNCT))) |ET| 
-1  |BT| (1 (2 (2 (DET))(2 (NOUN)))(0 (1 (2 (AUX))(2 (PART)))(3 (2 (2 (VERB))(3 (2 (DET))(2 (2 (ADJ))(3 (NOUN)))))(1 (2 (ADP))(1 (3 (2 (DET))(3 (2 (ADJ))(2 (2 (PUNCT))(2 (2 (ADJ))(2 (PUNCT))))))(1 (1 (ADJ))(2 (2 (NOUN))(2 (2 (VERB))(2 (2 (ADP))(2 (DET))))))))))) |ET| 
1  |BT| (3 (2 (2 (SCONJ))(2 (2 (PRON))(2 (2 (VERB))(1 (ADP)))))(2 (2 (PUNCT))(2 (2 (PRON))(2 (3 (2 (VERB))(2 (2 (2 (VERB))(2 (ADV)))(2 (ADV))))(2 (PUNCT)))))) |ET| 
-1  |BT| (1 (2 (PRON))(2 (2 (2 (VERB))(2 (ADV)))(2 (PUNCT)))) |ET| 
1  |BT| (3 (3 (3 (2 (DET))(2 (2 (2 (ADJ))(2 (CCONJ)))(2 (ADJ))))(2 (2 (ADP))(2 (2 (2 (PROPN))(2 (PART)))(1 (1 (ADJ))(2 (NOUN))))))(2 (PUNCT))) |ET| 
-1  |BT| (1 (0 (3 (VERB))(1 (2 (ADP))(2 (2 (1 (2 (DET))(1 (2 (ADJ))(2 (NOUN))))(2 (CCONJ)))(2 (ADJ)))))(2 (PUNCT))) |ET| 
-0.74833524955861863148243173782248  |BT| (0 (0 (1 (1 (0 (2 (DET))(0 (2 (ADJ))(0 (0 (NOUN))(2 (VERB)))))(2 (PUNCT)))(2 (2 (SCONJ))(2 (2 (PRON))(2 (AUX)))))(2 (PUNCT)))(2 (2 (ADP))(3 (2 (2 (2 (NOUN))(2 (CCONJ)))(2 (NOUN)))(2 (2 (ADP))(2 (2 (DET))(2 (NOUN))))))) |ET| 
-1  |BT| (1 (2 (2 (2 (2 (2 (PRON))(2 (2 (AUX))(3 (2 (ADV))(4 (ADJ)))))(2 (PUNCT)))(2 (CCONJ)))(1 (2 (PRON))(0 (3 (ADV))(0 (2 (2 (VERB))(2 (PART)))(3 (3 (VERB))(2 (PRON)))))))(2 (PUNCT))) |ET| 
1  |BT| (3 (2 (2 (DET))(2 (2 (ADJ))(2 (NOUN))))(3 (3 (2 (2 (VERB))(2 (2 (ADP))(2 (2 (DET))(2 (2 (ADJ))(2 (NOUN))))))(3 (2 (ADP))(3 (3 (1 (2 (2 (2 (DET))(2 (ADJ)))(2 (ADJ)))(2 (2 (NOUN))(3 (2 (PUNCT))(2 (DET)))))(2 (ADJ)))(3 (2 (ADJ))(4 (3 (ADJ))(2 (NOUN)))))))(2 (CCONJ)))) |ET| 
-1  |BT| (1 (2 (1 (2 (VERB))(1 (2 (ADP))(0 (1 (0 (1 (1 (1 (ADJ))(4 (PUNCT)))(2 (NOUN)))(2 (2 (NOUN))(0 (PUNCT))))(2 (ADJ)))(0 (2 (NOUN))(1 (1 (CCONJ))(2 (DET)))))))(2 (2 (ADJ))(3 (NOUN))))(2 (ADP))) |ET| 
1  |BT| (3 (4 (3 (VERB))(2 (2 (PART))(3 (3 (VERB))(2 (ADV)))))(2 (PUNCT))) |ET| 
-1  |BT| (0 (0 (3 (VERB))(2 (ADV)))(2 (PUNCT))) |ET| 
1  |BT| (3 (2 (2 (PRON))(2 (VERB)))(3 (2 (2 (AUX))(2 (1 (2 (DET))(2 (2 (ADJ))(2 (NOUN))))(1 (2 (ADP))(3 (3 (2 (NOUN))(2 (NOUN)))(1 (2 (VERB))(1 (2 (ADP))(1 (2 (ADJ))(2 (NOUN)))))))))(2 (PUNCT)))) |ET| 
-1  |BT| (1 (2 (2 (VERB))(2 (2 (ADP))(2 (2 (2 (DET))(2 (2 (NOUN))(2 (NOUN))))(3 (2 (SCONJ))(2 (2 (DET))(2 (2 (ADJ))(2 (NOUN))))))))(1 (2 (VERB))(1 (2 (VERB))(1 (2 (ADP))(1 (2 (2 (DET))(1 (NOUN)))(2 (2 (ADP))(3 (2 (DET))(2 (2 (ADJ))(2 (NOUN)))))))))) |ET| 
1  |BT| (3 (4 (3 (3 (2 (NOUN))(3 (2 (ADP))(4 (3 (2 (DET))(3 (3 (ADJ))(2 (PUNCT))))(2 (2 (ADJ))(2 (2 (NOUN))(2 (DET)))))))(2 (2 (ADJ))(2 (NOUN))))(2 (2 (ADP))(2 (2 (NOUN))(2 (2 (2 (2 (ADP))(2 (PRON)))(2 (2 (DET))(2 (NOUN))))(2 (2 (ADP))(2 (NOUN)))))))(2 (VERB))) |ET| 
-1  |BT| (0 (3 (2 (2 (1 (PUNCT))(2 (2 (PROPN))(3 (PUNCT))))(2 (NOUN)))(2 (2 (ADP))(2 (2 (DET))(2 (NOUN)))))(0 (0 (2 (2 (2 (2 (ADJ))(2 (NOUN)))(2 (ADV)))(2 (CCONJ)))(0 (2 (VERB))(0 (2 (2 (ADV))(0 (ADJ)))(3 (2 (3 (2 (DET))(2 (NOUN)))(2 (PRON)))(2 (AUX))))))(2 (PUNCT)))) |ET| 
1  |BT| (4 (2 (DET))(3 (2 (VERB))(2 (2 (VERB))(2 (2 (ADP))(2 (3 (2 (DET))(2 (NOUN)))(2 (2 (ADP))(2 (2 (DET))(2 (2 (ADJ))(2 (NOUN)))))))))) |ET| 
-1  |BT| (1 (1 (2 (2 (DET))(2 (NOUN)))(2 (2 (2 (DET))(2 (NOUN)))(2 (2 (VERB))(2 (2 (PART))(2 (2 (AUX))(2 (2 (DET))(2 (2 (NOUN))(2 (2 (PART))(2 (2 (VERB))(2 (ADV)))))))))))(1 (2 (2 (2 (VERB))(2 (PART)))(3 (2 (VERB))(3 (2 (ADP))(3 (2 (2 (ADJ))(3 (ADJ)))(2 (NOUN))))))(2 (PUNCT)))) |ET| 
1  |BT| (4 (4 (4 (4 (2 (ADV))(4 (2 (PUNCT))(4 (2 (PRON))(3 (2 (AUX))(4 (4 (2 (DET))(3 (4 (2 (ADV))(4 (ADJ)))(4 (2 (PUNCT))(3 (3 (NOUN))(2 (PUNCT))))))(2 (2 (VERB))(3 (2 (NOUN))(3 (2 (ADP))(2 (DET))))))))))(2 (ADJ)))(2 (2 (NOUN))(2 (2 (PUNCT))(4 (PROPN)))))(2 (AUX))) |ET| 
-1  |BT| (1 (2 (PRON))(1 (2 (2 (ADV))(3 (3 (2 (ADJ))(2 (CCONJ)))(2 (ADJ))))(2 (PUNCT)))) |ET| 
1  |BT| (4 (3 (2 (3 (ADJ))(2 (NOUN)))(2 (2 (PUNCT))(2 (2 (NOUN))(2 (2 (VERB))(2 (SCONJ))))))(4 (3 (2 (DET))(3 (2 (NOUN))(3 (2 (VERB))(3 (3 (3 (2 (VERB))(2 (SCONJ)))(2 (2 (DET))(3 (PROPN))))(3 (2 (ADP))(3 (2 (NOUN))(4 (2 (VERB))(3 (4 (ADP))(2 (DET))))))))))(2 (VERB)))) |ET| 
-1  |BT| (1 (2 (AUX))(2 (1 (2 (VERB))(3 (2 (DET))(3 (2 (ADP))(3 (2 (2 (DET))(2 (3 (ADJ))(2 (NOUN))))(3 (2 (DET))(2 (2 (VERB))(3 (4 (2 (DET))(4 (ADJ)))(2 (2 (ADP))(2 (NOUN))))))))))(2 (PUNCT)))) |ET| 
1  |BT| (3 (3 (2 (ADV))(2 (ADJ)))(2 (PUNCT))) |ET| 
-1  |BT| (0 (3 (ADV))(0 (2 (PUNCT))(0 (0 (2 (ADV))(2 (ADJ)))(2 (PUNCT))))) |ET| 
1  |BT| (4 (3 (1 (1 (VERB))(2 (PRON)))(4 (2 (ADP))(3 (2 (DET))(4 (2 (2 (PROPN))(3 (2 (PART))(4 (3 (ADV))(4 (2 (2 (VERB))(2 (2 (2 (DET))(1 (2 (ADJ))(2 (NOUN))))(2 (2 (ADP))(2 (2 (DET))(2 (2 (ADJ))(2 (2 (NOUN))(2 (NOUN))))))))(2 (2 (ADP))(2 (2 (2 (VERB))(2 (2 (DET))(2 (NOUN))))(0 (2 (ADP))(2 (1 (1 (2 (1 (2 (DET))(2 (0 (ADJ))(3 (NOUN))))(2 (PUNCT)))(0 (2 (DET))(1 (1 (ADJ))(3 (NOUN)))))(2 (CCONJ)))(2 (2 (DET))(1 (ADJ)))))))))))(2 (NOUN))))))(2 (PUNCT))) |ET| 
-1  |BT| (1 (3 (2 (SCONJ))(2 (2 (2 (PROPN))(2 (NOUN)))(4 (2 (AUX))(3 (2 (2 (DET))(3 (NOUN)))(3 (2 (ADP))(3 (3 (2 (NOUN))(3 (NOUN)))(3 (1 (PUNCT))(3 (3 (2 (VERB))(3 (3 (2 (DET))(3 (NOUN)))(2 (2 (ADP))(2 (2 (DET))(2 (2 (NOUN))(2 (NOUN)))))))(3 (PUNCT))))))))))(1 (2 (PUNCT))(1 (2 (2 (DET))(2 (NOUN)))(1 (1 (2 (2 (VERB))(2 (ADP)))(1 (2 (VERB))(1 (2 (SCONJ))(1 (2 (DET))(1 (4 (ADJ))(1 (2 (ADJ))(2 (NOUN))))))))(2 (PUNCT)))))) |ET| 
1  |BT| (3 (2 (2 (ADV))(2 (1 (0 (ADJ))(2 (CCONJ)))(3 (ADJ))))(2 (PUNCT))) |ET| 
-1  |BT| (1 (4 (VERB))(1 (2 (2 (2 (ADV))(2 (PUNCT)))(2 (CCONJ)))(0 (1 (PRON))(3 (ADJ))))) |ET| 
1  |BT| (3 (3 (2 (2 (DET))(3 (NOUN)))(2 (2 (ADP))(2 (2 (DET))(3 (2 (ADJ))(2 (NOUN))))))(2 (2 (2 (VERB))(1 (3 (PRON))(2 (2 (PART))(2 (1 (VERB))(2 (2 (ADJ))(1 (2 (ADP))(1 (2 (2 (DET))(2 (2 (NOUN))(2 (PART))))(2 (NOUN)))))))))(2 (PUNCT)))) |ET| 
-1  |BT| (1 (2 (2 (NOUN))(1 (2 (ADP))(1 (2 (DET))(1 (2 (ADV))(2 (PUNCT))))))(2 (2 (2 (3 (2 (2 (VERB))(2 (2 (NOUN))(2 (AUX))))(2 (2 (DET))(2 (NOUN))))(2 (ADP)))(2 (2 (PRON))(2 (2 (PUNCT))(2 (2 (SCONJ))(2 (2 (SCONJ))(2 (2 (PROPN))(1 (2 (AUX))(2 (2 (ADJ))(3 (2 (2 (ADP))(2 (VERB)))(3 (2 (DET))(3 (2 (2 (NOUN))(2 (2 (DET))(2 (2 (AUX))(2 (2 (2 (ADV))(2 (2 (PUNCT))(2 (ADP))))(2 (DET))))))(3 (2 (2 (NOUN))(2 (PUNCT)))(2 (2 (VERB))(2 (ADP)))))))))))))))(2 (ADP)))) |ET| 
1  |BT| (4 (3 (2 (DET))(4 (4 (2 (ADV))(4 (ADJ)))(2 (NOUN))))(3 (2 (PUNCT))(2 (2 (2 (SCONJ))(1 (PRON)))(2 (2 (PRON))(3 (2 (2 (PUNCT))(2 (2 (PROPN))(2 (2 (ADV))(2 (2 (VERB))(2 (2 (ADV))(3 (2 (PUNCT))(2 (2 (CCONJ))(3 (2 (ADV))(2 (ADV))))))))))(2 (ADJ))))))) |ET| 
-1  |BT| (1 (1 (2 (ADV))(1 (1 (2 (ADJ))(2 (CCONJ)))(2 (ADJ))))(2 (1 (2 (SCONJ))(0 (2 (PRON))(0 (3 (VERB))(1 (2 (1 (ADP))(2 (ADV)))(1 (0 (ADJ))(2 (2 (ADV))(2 (2 (SCONJ))(4 (ADJ)))))))))(2 (PUNCT)))) |ET| 
1  |BT| (3 (3 (2 (VERB))(2 (2 (2 (PROPN))(2 (PROPN)))(2 (2 (3 (2 (DET))(2 (2 (NOUN))(2 (NOUN))))(2 (CCONJ)))(3 (2 (DET))(2 (NOUN))))))(2 (3 (2 (2 (AUX))(2 (PART)))(2 (1 (VERB))(2 (2 (DET))(2 (NOUN)))))(2 (PUNCT)))) |ET| 
-1  |BT| (0 (0 (0 (0 (2 (VERB))(2 (2 (DET))(2 (NOUN))))(2 (CCONJ)))(2 (2 (VERB))(2 (2 (DET))(2 (2 (PROPN))(2 (2 (PROPN))(2 (2 (NOUN))(2 (NOUN))))))))(2 (PUNCT))) |ET| 
0.64024645244999855986378634042921  |BT| (3 (2 (ADV))(3 (3 (ADJ))(2 (2 (SCONJ))(2 (ADJ))))) |ET| 
0.31083126436262803471421989343071  |BT| (3 (3 (2 (2 (DET))(2 (NOUN)))(2 (2 (ADP))(3 (3 (3 (3 (ADJ))(2 (NOUN)))(2 (PUNCT)))(2 (ADV)))))(2 (PUNCT))) |ET| 
1  |BT| (4 (2 (2 (2 (2 (ADJ))(2 (PUNCT)))(2 (VERB)))(3 (3 (2 (PUNCT))(2 (CCONJ)))(1 (2 (ADV))(2 (1 (ADJ))(2 (2 (ADP))(2 (2 (DET))(3 (NOUN))))))))(4 (2 (PUNCT))(2 (2 (2 (PROPN))(3 (PROPN)))(3 (4 (2 (AUX))(2 (2 (3 (2 (DET))(3 (2 (3 (ADV))(2 (ADJ)))(2 (NOUN))))(2 (PUNCT)))(3 (2 (DET))(3 (2 (VERB))(3 (2 (AUX))(3 (2 (ADV))(4 (2 (PRON))(3 (2 (AUX))(3 (2 (ADV))(3 (4 (ADJ))(2 (2 (ADP))(2 (2 (2 (VERB))(2 (PRON)))(2 (2 (ADP))(3 (2 (DET))(2 (NOUN))))))))))))))))(2 (PUNCT)))))) |ET| 
-1  |BT| (1 (3 (2 (DET))(3 (ADV)))(1 (1 (2 (2 (VERB))(1 (1 (2 (CCONJ))(1 (1 (0 (ADJ))(2 (CCONJ)))(2 (NOUN))))(4 (2 (PUNCT))(3 (ADJ)))))(2 (PUNCT)))(2 (NOUN)))) |ET| 
1  |BT| (3 (2 (2 (ADV))(1 (2 (ADV))(1 (2 (PRON))(1 (VERB)))))(4 (2 (PUNCT))(3 (2 (PRON))(4 (2 (AUX))(4 (1 (VERB))(3 (2 (PART))(3 (3 (VERB))(4 (2 (SCONJ))(4 (3 (2 (DET))(2 (2 (ADJ))(3 (NOUN))))(4 (2 (AUX))(4 (VERB)))))))))))) |ET| 
-1  |BT| (1 (2 (PRON))(0 (2 (ADV))(1 (1 (2 (VERB))(1 (2 (SCONJ))(1 (2 (SCONJ))(1 (2 (2 (DET))(2 (NOUN)))(1 (2 (AUX))(1 (1 (2 (ADV))(3 (3 (ADJ))(2 (2 (ADP))(3 (4 (VERB))(2 (PRON))))))(2 (2 (SCONJ))(3 (2 (ADP))(3 (4 (VERB))(3 (PRON)))))))))))(2 (PUNCT))))) |ET| 
1  |BT| (3 (3 (2 (DET))(3 (4 (3 (4 (ADJ))(2 (CCONJ)))(2 (ADV)))(2 (ADJ))))(2 (2 (2 (NOUN))(2 (2 (2 (2 (ADP))(2 (1 (ADJ))(2 (NOUN))))(2 (CCONJ)))(3 (2 (ADV))(2 (2 (NOUN))(2 (2 (VERB))(2 (2 (VERB))(2 (2 (CCONJ))(2 (2 (1 (NOUN))(2 (CCONJ)))(2 (NOUN))))))))))(2 (PUNCT)))) |ET| 
-1  |BT| (1 (4 (2 (DET))(3 (ADV)))(1 (1 (3 (3 (VERB))(2 (CCONJ)))(1 (2 (ADV))(1 (1 (ADJ))(2 (NOUN)))))(2 (PUNCT)))) |ET| 
1  |BT| (3 (2 (2 (2 (DET))(2 (NOUN)))(1 (2 (ADP))(2 (0 (NOUN))(2 (2 (SCONJ))(2 (2 (VERB))(2 (PRON)))))))(1 (2 (2 (AUX))(2 (0 (ADJ))(2 (2 (PART))(2 (VERB)))))(2 (PUNCT)))) |ET| 
-1  |BT| (0 (2 (PRON))(0 (0 (2 (AUX))(0 (2 (PART))(0 (2 (VERB))(1 (2 (PRON))(1 (0 (2 (VERB))(1 (SCONJ)))(2 (2 (ADP))(2 (PROPN))))))))(2 (PUNCT)))) |ET| 
0.48348578206195408357714882185974  |BT| (4 (2 (ADV))(4 (4 (VERB))(2 (PUNCT)))) |ET| 
-1  |BT| (1 (2 (2 (ADP))(2 (2 (NUM))(2 (NOUN))))(1 (2 (PUNCT))(1 (2 (PRON))(2 (2 (2 (VERB))(2 (1 (1 (1 (3 (1 (1 (2 (DET))(2 (NOUN)))(1 (2 (ADP))(2 (2 (NOUN))(2 (NOUN)))))(2 (PUNCT)))(2 (2 (2 (DET))(0 (2 (ADJ))(0 (PUNCT))))(2 (2 (ADJ))(3 (2 (2 (NOUN))(2 (2 (PUNCT))(2 (NOUN))))(2 (3 (ADP))(2 (PROPN)))))))(2 (PROPN)))(2 (PART)))(2 (2 (ADJ))(2 (2 (NOUN))(2 (PUNCT))))))(2 (CCONJ)))))) |ET| 
0.7398703242675188640475880674785  |BT| (3 (2 (PRON))(4 (4 (3 (VERB))(2 (2 (2 (DET))(2 (NOUN)))(2 (2 (DET))(2 (NOUN)))))(2 (PUNCT)))) |ET| 
-1  |BT| (1 (2 (2 (2 (DET))(2 (2 (PROPN))(2 (2 (PROPN))(2 (2 (2))(2 (PROPN))))))(2 (PART)))(1 (1 (2 (NOUN))(1 (2 (VERB))(1 (2 (VERB))(1 (2 (SCONJ))(2 (2 (2 (PRON))(2 (2 (AUX))(2 (2 (VERB))(2 (3 (VERB))(2 (2 (2 (VERB))(2 (ADP)))(2 (PROPN)))))))(2 (2 (NOUN))(2 (2 (CCONJ))(2 (2 (NOUN))(2 (ADP))))))))))(2 (DET)))) |ET| 
1  |BT| (3 (2 (2 (ADV))(2 (1 (1 (ADJ))(2 (CCONJ)))(2 (ADV))))(2 (3 (ADJ))(2 (PUNCT)))) |ET| 
-1  |BT| (0 (2 (2 (DET))(2 (NOUN)))(2 (2 (2 (VERB))(1 (0 (1 (1 (1 (ADJ))(2 (PUNCT)))(2 (2 (DET))(1 (2 (NOUN))(2 (2 (CCONJ))(2 (2 (VERB))(2 (1 (ADJ))(1 (2 (PROPN))(2 (2 (NOUN))(2 (PUNCT))))))))))(2 (NOUN)))(2 (2 (NOUN))(1 (2 (2 (PUNCT))(2 (SCONJ)))(1 (2 (2 (DET))(2 (2 (NOUN))(2 (2 (VERB))(2 (2 (2 (ADJ))(2 (ADP)))(1 (2 (DET))(2 (2 (NOUN))(2 (ADP))))))))(3 (2 (NOUN))(2 (NOUN))))))))(2 (SCONJ)))) |ET| 
1  |BT| (4 (2 (PRON))(3 (2 (AUX))(2 (1 (DET))(1 (2 (NOUN))(2 (2 (PART))(2 (1 (VERB))(2 (2 (PROPN))(2 (2 (ADP))(2 (2 (DET))(2 (PROPN))))))))))) |ET| 
-1  |BT| (1 (2 (PROPN))(1 (0 (2 (AUX))(0 (1 (1 (VERB))(2 (0 (2 (DET))(2 (2 (DET))(1 (NOUN))))(2 (2 (ADP))(3 (3 (2 (PROPN))(3 (2 (PROPN))(2 (PART))))(3 (4 (ADJ))(2 (NOUN)))))))(1 (2 (ADP))(2 (2 (2 (PROPN))(2 (PART)))(1 (2 (NOUN))(1 (2 (PUNCT))(2 (ADJ))))))))(2 (NOUN)))) |ET| 
1  |BT| (3 (2 (PUNCT))(2 (2 (PUNCT))(2 (2 (PUNCT))(3 (2 (2 (PRON))(3 (1 (AUX))(2 (2 (ADV))(2 (ADV)))))(2 (PUNCT)))))) |ET| 
-1  |BT| (1 (2 (2 (2 (2 (ADV))(2 (2 (PUNCT))(2 (2 (PUNCT))(2 (2 (PRON))(2 (2 (PUNCT))(2 (AUX)))))))(2 (ADV)))(2 (2 (CCONJ))(2 (2 (PRON))(2 (2 (PUNCT))(3 (2 (PUNCT))(2 (2 (2 (2 (PRON))(2 (PUNCT)))(2 (VERB)))(3 (CCONJ))))))))(1 (2 (ADV))(1 (2 (ADV))(1 (1 (2 (2 (PUNCT))(2 (PRON)))(3 (AUX)))(2 (PART)))))) |ET| 
1  |BT| (3 (2 (2 (1 (PUNCT))(1 (2 (NOUN))(3 (PUNCT))))(2 (2 (PROPN))(2 (2 (PROPN))(2 (2 (ADP))(2 (2 (2 (PROPN))(2 (2 (PROPN))(2 (PROPN))))(2 (2 (ADP))(2 (2 (DET))(2 (2 (NOUN))(2 (3 (PUNCT))(2 (NOUN)))))))))))(3 (3 (2 (NOUN))(3 (2 (PROPN))(2 (2 (VERB))(3 (2 (VERB))(4 (2 (PART))(2 (AUX)))))))(2 (NOUN)))) |ET| 
-1  |BT| (1 (3 (2 (PROPN))(2 (2 (PROPN))(2 (PROPN))))(0 (1 (2 (NOUN))(1 (2 (ADP))(1 (1 (1 (1 (NOUN))(2 (CCONJ)))(2 (NOUN)))(2 (1 (PUNCT))(3 (2 (NOUN))(3 (2 (VERB))(3 (SCONJ))))))))(2 (DET)))) |ET| 
1  |BT| (3 (1 (2 (2 (2 (2 (PROPN))(2 (PROPN)))(3 (2 (VERB))(2 (2 (2 (2 (VERB))(3 (2 (2 (DET))(3 (NOUN)))(3 (2 (ADP))(2 (2 (DET))(3 (2 (PROPN))(2 (2 (PROPN))(2 (2 (PROPN))(2 (NOUN)))))))))(2 (PUNCT)))(2 (2 (SCONJ))(3 (2 (2 (DET))(2 (NOUN)))(2 (2 (VERB))(2 (2 (2 (NUM))(2 (NOUN)))(3 (4 (ADV))(2 (ADJ))))))))))(2 (PUNCT)))(3 (2 (3 (4 (2 (PRON))(3 (2 (AUX))(3 (2 (DET))(2 (4 (ADJ))(2 (NOUN))))))(2 (PUNCT)))(2 (CCONJ)))(2 (2 (PRON))(2 (2 (AUX))(2 (1 (DET))(2 (2 (ADJ))(2 (NOUN))))))))(2 (PUNCT))) |ET| 
-1  |BT| (1 (1 (2 (2 (DET))(1 (2 (ADJ))(1 (2 (ADJ))(1 (3 (NOUN))(2 (2 (NOUN))(2 (ADV)))))))(1 (2 (VERB))(3 (2 (SCONJ))(2 (3 (2 (DET))(2 (2 (ADJ))(1 (NOUN))))(2 (2 (ADP))(1 (2 (NOUN))(1 (NOUN))))))))(2 (PUNCT))) |ET| 
1  |BT| (3 (2 (PROPN))(2 (2 (2 (VERB))(2 (2 (DET))(2 (2 (NOUN))(2 (2 (PART))(2 (2 (2 (VERB))(3 (2 (DET))(3 (2 (PROPN))(2 (VERB)))))(1 (2 (ADP))(1 (2 (2 (DET))(2 (NOUN)))(2 (2 (ADP))(1 (2 (1 (NOUN))(2 (CCONJ)))(1 (NOUN)))))))))))(2 (PUNCT)))) |ET| 
-1  |BT| (1 (2 (2 (2 (DET))(2 (24NUM)))(2 (2 (2 (PUNCT))(2 (2 (NOUN))(2 (2 (VERB))(2 (2 (ADP))(3 (DET))))))(3 (2 (ADJ))(2 (2 (PROPN))(2 (2 (PART))(3 (2 (VERB))(3 (2 (SCONJ))(2 (DET)))))))))(1 (2 (2 (ADJ))(2 (2 (NOUN))(2 (2 (VERB))(2 (2 (AUX))(2 (2 (PART))(2 (VERB)))))))(2 (ADP)))) |ET| 
1  |BT| (3 (2 (CCONJ))(3 (2 (PRON))(2 (2 (2 (AUX))(3 (2 (AUX))(2 (2 (NUM))(3 (3 (NOUN))(3 (NOUN))))))(2 (PUNCT))))) |ET| 
-1  |BT| (1 (3 (ADV))(1 (2 (ADV))(1 (1 (1 (2 (0 (NOUN))(2 (PUNCT)))(2 (CCONJ)))(3 (2 (AUX))(3 (3 (3 (2 (DET))(3 (3 (ADJ))(3 (NOUN))))(2 (CCONJ)))(2 (NUM)))))(2 (PUNCT))))) |ET| 
1  |BT| (3 (3 (3 (SCONJ))(3 (2 (2 (DET))(2 (2 (VERB))(2 (NOUN))))(3 (2 (ADP))(3 (2 (2 (ADJ))(2 (NOUN)))(2 (2 (VERB))(2 (2 (ADP))(2 (NOUN))))))))(2 (PUNCT))) |ET| 
-1  |BT| (0 (2 (AUX))(0 (1 (2 (DET))(1 (ADJ)))(1 (2 (2 (NOUN))(2 (2 (ADP))(1 (2 (2 (DET))(2 (NOUN)))(1 (2 (ADP))(2 (2 (NOUN))(3 (3 (PUNCT))(2 (ADP))))))))(2 (NOUN))))) |ET| 
-1  |BT| (1 (2 (2 (2 (DET))(2 (NOUN)))(3 (2 (ADP))(2 (2 (DET))(2 (NOUN)))))(2 (1 (1 (2 (VERB))(2 (2 (PART))(2 (2 (AUX))(2 (2 (AUX))(1 (2 (PUNCT))(1 (2 (2 (PRON))(2 (2 (2 (AUX))(2 (ADV)))(2 (2 (DET))(2 (NOUN)))))(2 (2 (PART))(2 (NOUN)))))))))(2 (PUNCT)))(2 (PUNCT)))) |ET| 
-1  |BT| (1 (3 (2 (SCONJ))(3 (2 (PUNCT))(3 (3 (ADV))(2 (3 (3 (ADJ))(2 (CCONJ)))(3 (3 (ADJ))(2 (VERB)))))))(1 (2 (PUNCT))(0 (2 (PRON))(1 (2 (2 (2 (AUX))(2 (ADV)))(0 (1 (1 (2 (1 (1 (1 (ADJ))(2 (PUNCT)))(2 (ADJ)))(2 (PUNCT)))(2 (ADJ)))(2 (CCONJ)))(1 (2 (ADV))(1 (ADJ)))))(2 (PUNCT)))))) |ET| 
1  |BT| (3 (4 (2 (3 (VERB))(2 (2 (DET))(2 (2 (1ADJ))(2 (NOUN)))))(3 (2 (ADP))(3 (2 (2 (DET))(2 (NOUN)))(2 (2 (DET))(3 (2 (AUX))(3 (2 (2 (DET))(3 (2 (NOUN))(2 (NOUN))))(2 (2 (ADP))(2 (2 (NOUN))(2 (NOUN))))))))))(2 (PUNCT))) |ET| 
-1  |BT| (1 (2 (2 (DET))(2 (NOUN)))(0 (2 (3 (2 (VERB))(2 (2 (NOUN))(2 (NOUN))))(1 (2 (ADP))(1 (2 (2 (DET))(2 (NOUN)))(1 (2 (ADP))(1 (2 (NOUN))(2 (2 (ADV))(2 (2 (3 (VERB))(2 (ADV)))(2 (2 (ADP))(2 (2 (NOUN))(2 (NOUN)))))))))))(2 (PUNCT)))) |ET| 
1  |BT| (3 (2 (2 (DET))(2 (NOUN)))(2 (2 (PUNCT))(3 (1 (2 (SCONJ))(1 (2 (1 (2 (DET))(1 (1 (ADJ))(2 (NOUN))))(2 (CCONJ)))(0 (2 (DET))(2 (3 (NOUN))(1 (2 (PART))(1 (2 (VERB))(2 (2 (ADP))(2 (3 (ADJ))(2 (NOUN))))))))))(3 (2 (PUNCT))(3 (2 (2 (AUX))(3 (2 (2 (ADJ))(2 (CCONJ)))(4 (ADJ))))(2 (PUNCT))))))) |ET| 
-1  |BT| (1 (1 (0 (2 (ADJ))(2 (2 (PUNCT))(1 (2 (0 (ADJ))(2 (CCONJ)))(1 (ADV)))))(4 (ADJ)))(2 (PUNCT))) |ET| 
1  |BT| (3 (2 (NOUN))(3 (1 (1 (VERB))(2 (2 (PART))(2 (2 (VERB))(2 (2 (PROPN))(2 (2 (AUX))(2 (2 (VERB))(2 (2 (SCONJ))(1 (1 (1 (2 (ADV))(2 (2 (DET))(2 (2 (NOUN))(2 (NOUN)))))(2 (PUNCT)))(1 (2 (DET))(2 (2 (VERB))(3 (2 (PRON))(2 (2 (VERB))(1 (2 (AUX))(2 (2 (VERB))(1 (2 (ADP))(1 (2 (ADV))(2 (1 (VERB))(2 (2 (ADP))(2 (3 (NOUN))(1 (2 (ADP))(0 (2 (DET))(2 (2 (NOUN))(3 (PUNCT))))))))))))))))))))))))(2 (ADP)))) |ET| 
-1  |BT| (1 (2 (2 (PROPN))(2 (PROPN)))(1 (3 (2 (VERB))(2 (2 (DET))(3 (NOUN))))(1 (2 (ADP))(0 (2 (2 (DET))(2 (2 (ADJ))(2 (NOUN))))(2 (2 (VERB))(1 (2 (VERB))(1 (2 (ADP))(1 (2 (2 (DET))(2 (NOUN)))(2 (2 (ADP))(1 (3 (NOUN))(2 (2 (PRON))(2 (2 (2 (AUX))(3 (ADJ)))(2 (2 (SCONJ))(2 (PRON))))))))))))))) |ET| 
0.79065639625430694792385111213662  |BT| (3 (2 (ADJ))(3 (2 (PUNCT))(4 (3 (2 (1 (ADJ))(2 (CCONJ)))(4 (ADJ)))(2 (PUNCT))))) |ET| 
-1  |BT| (1 (1 (2 (2 (ADJ))(2 (PUNCT)))(1 (1 (3 (ADJ))(2 (CCONJ)))(1 (ADJ))))(2 (PUNCT))) |ET| 
1  |BT| (3 (3 (3 (2 (VERB))(2 (PRON)))(2 (2 (ADP))(2 (2 (2 (DET))(2 (NOUN)))(2 (2 (SCONJ))(2 (1 (PRON))(2 (ADV)))))))(2 (PUNCT))) |ET| 
-1  |BT| (1 (2 (2 (DET))(2 (2 (NOUN))(2 (VERB))))(2 (1 (2 (2 (3 (NOUN))(2 (2 (ADV))(2 (DET))))(3 (2 (ADV))(4 (ADJ))))(2 (2 (SCONJ))(2 (2 (PRON))(2 (2 (VERB))(3 (2 (PRON))(2 (AUX)))))))(2 (PUNCT)))) |ET| 
1  |BT| (3 (2 (DET))(4 (3 (2 (2 (ADJ))(2 (CCONJ)))(4 (1 (ADV))(3 (ADJ))))(2 (PUNCT)))) |ET| 
-1  |BT| (1 (1 (1 (1 (ADV))(2 (2 (ADP))(2 (2 (2 (3 (ADJ))(2 (PUNCT)))(2 (ADJ)))(2 (ADJ)))))(1 (2 (PUNCT))(1 (NOUN))))(2 (CCONJ))) |ET| 
1  |BT| (4 (4 (2 (2 (VERB))(2 (PRON)))(2 (2 (AUX))(4 (2 (AUX))(2 (2 (2 (ADV))(2 (ADJ)))(2 (2 (ADV))(3 (2 (PRON))(2 (2 (VERB))(2 (2 (SCONJ))(2 (2 (2 (PROPN))(2 (13)))(2 (2 (NUM))(2 (2 (AUX))(3 (2 (VERB))(2 (2 (PART))(3 (2 (AUX))(2 (2 (VERB))(2 (2 (ADP))(2 (NOUN))))))))))))))))))(2 (NOUN))) |ET| 
-1  |BT| (0 (0 (1 (2 (DET))(0 (3 (ADJ))(2 (NOUN))))(2 (2 (2 (DET))(2 (NOUN)))(2 (2 (VERB))(2 (2 (VERB))(2 (2 (ADP))(2 (2 (VERB))(2 (NOUN))))))))(2 (2 (2 (AUX))(2 (2 (AUX))(2 (2 (VERB))(2 (ADV)))))(2 (PUNCT)))) |ET| 
1  |BT| (3 (3 (2 (2 (DET))(3 (3 (3 (2 (ADV))(3 (ADJ)))(3 (2 (PUNCT))(2 (2 (SCONJ))(2 (2 (2 (2 (ADJ))(2 (CCONJ)))(2 (ADJ)))(2 (PUNCT))))))(3 (NOUN))))(2 (2 (ADP))(2 (2 (DET))(2 (2 (ADJ))(1 (NOUN))))))(2 (2 (2 (VERB))(2 (2 (ADP))(2 (2 (DET))(2 (2 (ADJ))(2 (2 (1ADJ))(2 (NOUN)))))))(2 (PUNCT)))) |ET| 
-1  |BT| (1 (2 (2 (2 (SCONJ))(2 (ADV)))(2 (2 (PRON))(2 (AUX))))(3 (2 (PUNCT))(2 (3 (INTJ))(3 (2 (PUNCT))(3 (3 (ADJ))(2 (PUNCT))))))) |ET| 
1  |BT| (3 (4 (3 (2 (DET))(3 (2 (ADJ))(1 (NOUN))))(2 (2 (ADP))(2 (2 (2 (DET))(2 (1 (ADJ))(2 (NOUN))))(3 (2 (PRON))(3 (2 (VERB))(2 (NOUN)))))))(2 (VERB))) |ET| 
-1  |BT| (0 (2 (VERB))(3 (0 (2 (VERB))(3 (2 (PRON))(2 (2 (PART))(1 (1 (VERB))(2 (2 (DET))(1 (2 (NOUN))(1 (2 (PART))(1 (2 (VERB))(1 (2 (ADP))(1 (4 (VERB))(1 (2 (ADP))(1 (1 (1 (2 (DET))(0 (1 (ADJ))(2 (NOUN))))(2 (CCONJ)))(2 (2 (DET))(2 (2 (INTJ))(2 (3 (PUNCT))(2 (2 (ADV))(2 (ADJ))))))))))))))))))(2 (NOUN)))) |ET| 
1  |BT| (3 (2 (PRON))(3 (3 (3 (3 (VERB))(2 (PRON)))(3 (2 (SCONJ))(3 (2 (PRON))(3 (1 (0 (2 (1 (2 (AUX))(2 (2 (ADV))(1 (ADV))))(2 (PUNCT)))(0 (ADV)))(2 (PUNCT)))(3 (ADJ))))))(2 (PUNCT)))) |ET| 
-0.35655904953525963119176367399632  |BT| (0 (1 (INTJ))(0 (2 (PUNCT))(0 (2 (PRON))(1 (0 (0 (VERB))(2 (PRON)))(2 (PUNCT)))))) |ET| 
1  |BT| (4 (3 (ADV))(2 (4 (3 (3 (3 (2 (VERB))(2 (2 (ADV))(2 (2 (ADP))(2 (2 (DET))(2 (NOUN))))))(2 (2 (ADP))(2 (2 (DET))(2 (2 (ADJ))(2 (2 (CCONJ))(2 (2 (ADJ))(2 (NOUN))))))))(2 (CCONJ)))(3 (1 (2 (AUX))(2 (PART)))(1 (1 (2 (VERB))(3 (PRON)))(1 (2 (ADP))(1 (1 (ADJ))(2 (2 (2 (NOUN))(2 (CCONJ)))(2 (NOUN))))))))(2 (PUNCT)))) |ET| 
-1  |BT| (1 (1 (PROPN))(1 (2 (2 (VERB))(0 (2 (2 (NUM))(2 (NOUN)))(1 (2 (2 (2 (VERB))(2 (NOUN)))(1 (ADP)))(2 (1 (2 (2 (SCONJ))(2 (CCONJ)))(1 (PART)))(2 (1 (2 (DET))(2 (2 (ADJ))(1 (2 (ADJ))(2 (ADJ)))))(1 (2 (2 (2 (2 (ADJ))(2 (NOUN)))(2 (2 (AUX))(3 (ADV))))(2 (VERB)))(2 (2 (NOUN))(2 (CCONJ)))))))))(2 (AUX)))) |ET| 
1  |BT| (3 (1 (INTJ))(3 (2 (PUNCT))(3 (2 (PRON))(3 (2 (4 (4 (4 (VERB))(2 (PRON)))(2 (PUNCT)))(1 (0 (INTJ))(2 (2 (PUNCT))(2 (2 (PRON))(2 (VERB))))))(2 (PUNCT)))))) |ET| 
-1  |BT| (1 (1 (2 (2 (PRON))(3 (VERB)))(2 (PUNCT)))(2 (3 (PUNCT))(2 (PUNCT)))) |ET| 
1  |BT| (4 (2 (DET))(3 (3 (4 (2 (AUX))(4 (2 (DET))(4 (3 (ADJ))(2 (NOUN)))))(2 (2 (SCONJ))(2 (2 (PRON))(2 (2 (AUX))(1 (2 (1 (1 (DET))(3 (3 (ADV))(3 (PUNCT))))(2 (VERB)))(2 (1 (NOUN))(2 (1 (CCONJ))(1 (DET)))))))))(2 (ADV)))) |ET| 
-1  |BT| (0 (0 (1 (1 (2 (DET))(1 (3 (ADJ))(1 (NOUN))))(1 (2 (DET))(2 (ADV))))(2 (2 (VERB))(3 (ADJ))))(2 (PUNCT))) |ET| 
1  |BT| (3 (3 (INTJ))(2 (PUNCT))) |ET| 
-1  |BT| (1 (2 (PRON))(1 (1 (2 (2 (AUX))(2 (PART)))(4 (VERB)))(2 (PUNCT)))) |ET| 
1  |BT| (3 (1 (1 (ADP))(1 (2 (DET))(0 (ADJ))))(3 (2 (PUNCT))(3 (3 (2 (2 (ADJ))(1 (NOUN)))(2 (2 (ADP))(3 (2 (ADJ))(2 (NOUN)))))(3 (3 (2 (VERB))(4 (2 (DET))(3 (3 (ADJ))(2 (2 (NOUN))(2 (NOUN))))))(2 (PUNCT)))))) |ET| 
-1  |BT| (1 (1 (3 (ADV))(1 (1 (2 (DET))(2 (NOUN)))(2 (2 (NOUN))(2 (2 (NOUN))(2 (2 (ADP))(2 (2 (DET))(2 (ADJ))))))))(2 (NUM))) |ET| 
1  |BT| (3 (2 (PRON))(4 (2 (ADV))(4 (4 (2 (2 (VERB))(2 (PART)))(3 (3 (VERB))(2 (2 (PRON))(2 (ADV)))))(2 (PUNCT))))) |ET| 
-1  |BT| (1 (2 (2 (DET))(2 (1 (NOUN))(2 (NOUN))))(2 (2 (ADV))(1 (1 (1 (VERB))(2 (2 (PRON))(2 (2 (2 (ADJ))(2 (PRON)))(2 (2 (2 (VERB))(2 (ADP)))(2 (2 (2 (DET))(2 (NOUN)))(2 (2 (ADP))(2 (2 (ADJ))(3 (NOUN)))))))))(2 (PUNCT))))) |ET| 
1  |BT| (4 (2 (DET))(4 (4 (2 (AUX))(4 (2 (NUM))(3 (2 (ADP))(4 (2 (2 (DET))(2 (2 (NOUN))(2 (PART))))(4 (4 (ADJ))(2 (NOUN)))))))(2 (PUNCT)))) |ET| 
-1  |BT| (1 (3 (2 (ADP))(4 (ADJ)))(2 (2 (DET))(2 (1 (2 (AUX))(2 (2 (2 (DET))(2 (NOUN)))(1 (2 (ADP))(3 (2 (DET))(2 (2 (PROPN))(2 (NOUN)))))))(2 (PUNCT))))) |ET| 
1  |BT| (3 (3 (1 (ADJ))(3 (2 (CCONJ))(3 (2 (ADV))(3 (ADJ)))))(2 (PUNCT))) |ET| 
-1  |BT| (0 (2 (CCONJ))(1 (3 (ADJ))(0 (1 (2 (CCONJ))(2 (2 (2 (3 (3 (3 (ADV))(2 (ADJ)))(2 (PUNCT)))(1 (2 (ADV))(1 (1 (ADV))(2 (ADJ)))))(2 (CCONJ)))(1 (2 (ADV))(1 (ADJ)))))(2 (PUNCT))))) |ET| 
1  |BT| (4 (2 (PROPN))(4 (3 (2 (AUX))(3 (3 (2 (VERB))(4 (2 (DET))(3 (4 (ADJ))(2 (NOUN)))))(2 (2 (ADP))(2 (2 (DET))(3 (2 (PART))(4 (2 (2 (VERB))(2 (2 (DET))(2 (2 (ADJ))(2 (2 (PROPN))(2 (1 (PROPN))(1 (2 (PROPN))(2 (NOUN))))))))(2 (2 (ADP))(2 (2 (DET))(3 (2 (NOUN))(2 (NOUN)))))))))))(2 (PUNCT)))) |ET| 
-1  |BT| (1 (1 (2 (3 (DET))(2 (NOUN)))(2 (2 (ADP))(2 (2 (NOUN))(3 (2 (VERB))(2 (2 (ADP))(3 (2 (DET))(3 (3 (ADJ))(2 (NOUN)))))))))(1 (1 (2 (AUX))(1 (1 (2 (VERB))(1 (ADP)))(1 (2 (ADP))(1 (2 (2 (NOUN))(2 (2 (PROPN))(2 (3 (PROPN))(2 (PART)))))(2 (2 (NOUN))(2 (PROPN)))))))(2 (PUNCT)))) |ET| 
1  |BT| (3 (3 (2 (2 (2 (2 (ADJ))(3 (2 (PRON))(2 (AUX))))(2 (PUNCT)))(2 (CCONJ)))(3 (3 (ADV))(2 (ADV))))(2 (PUNCT))) |ET| 
-1  |BT| (1 (1 (2 (PRON))(2 (2 (PUNCT))(2 (2 (ADV))(2 (2 (PUNCT))(2 (2 (AUX))(2 (2 (2 (VERB))(2 (PRON)))(2 (ADV))))))))(2 (PUNCT))) |ET| 
1  |BT| (3 (2 (1 (PROPN))(2 (PROPN)))(3 (3 (3 (1 (VERB))(2 (3 (2 (DET))(3 (3 (ADJ))(2 (NOUN))))(2 (2 (ADP))(2 (PROPN)))))(3 (2 (ADP))(3 (2 (2 (2 (NOUN))(2 (2 (PROPN))(2 (2 (PROPN))(2 (PART)))))(2 (2 (NOUN))(2 (1 (PUNCT))(2 (VERB)))))(3 (2 (NOUN))(2 (3 (2 (NOUN))(2 (ADP)))(2 (2 (DET))(2 (NOUN))))))))(2 (ADP)))) |ET| 
-1  |BT| (0 (3 (2 (SCONJ))(3 (4 (4 (4 (ADJ))(2 (3 (ADJ))(2 (NOUN))))(2 (CCONJ)))(3 (3 (ADJ))(2 (NOUN)))))(0 (2 (PUNCT))(0 (2 (2 (2 (2 (PROPN))(2 (PROPN)))(2 (CCONJ)))(2 (2 (2 (DET))(2 (PROPN)))(2 (2 (ADP))(2 (PROPN)))))(0 (1 (2 (VERB))(0 (2 (DET))(0 (2 (NOUN))(0 (2 (PART))(1 (3 (2 (VERB))(4 (2 (2 (PROPN))(2 (2 (PROPN))(2 (PART))))(4 (4 (ADJ))(2 (NOUN)))))(0 (2 (ADP))(0 (2 (DET))(0 (2 (ADJ))(0 (NOUN))))))))))(2 (PUNCT)))))) |ET| 
1  |BT| (3 (2 (CCONJ))(3 (2 (ADV))(3 (2 (PUNCT))(3 (2 (PRON))(3 (2 (ADV))(2 (2 (VERB))(2 (PUNCT)))))))) |ET| 
1  |BT| (4 (3 (1 (2 (DET))(1 (ADV)))(3 (3 (ADJ))(4 (2 (NOUN))(3 (2 (DET))(4 (4 (3 (3 (2 (VERB))(4 (NOUN)))(2 (2 (ADP))(2 (2 (DET))(2 (2 (ADJ))(2 (NOUN))))))(2 (CCONJ)))(3 (2 (VERB))(2 (2 (2 (DET))(2 (NOUN)))(3 (2 (ADP))(3 (2 (ADJ))(3 (NOUN)))))))))))(3 (3 (2 (VERB))(3 (2 (SCONJ))(3 (2 (DET))(3 (2 (10NOUN))(2 (NOUN))))))(2 (PUNCT)))) |ET| 
1  |BT| (3 (3 (2 (PROPN))(2 (3 (PROPN))(2 (PROPN))))(3 (3 (2 (AUX))(3 (2 (VERB))(3 (2 (2 (DET))(2 (NOUN)))(2 (2 (ADP))(1 (NOUN))))))(2 (PUNCT)))) |ET| 
-1  |BT| (1 (2 (2 (2 (VERB))(3 (INTJ)))(2 (2 (ADP))(2 (2 (DET))(2 (NOUN)))))(2 (PUNCT))) |ET| 
1  |BT| (4 (4 (2 (ADV))(4 (2 (ADV))(3 (ADJ))))(2 (PUNCT))) |ET| 
-1  |BT| (1 (2 (1 (2 (DET))(2 (3 (ADJ))(1 (NOUN))))(2 (2 (ADP))(2 (2 (PROPN))(2 (PROPN)))))(2 (2 (2 (AUX))(2 (2 (PROPN))(2 (PRON))))(2 (PUNCT)))) |ET| 
1  |BT| (4 (4 (2 (2 (DET))(2 (NOUN)))(3 (2 (ADP))(2 (3 (3 (2 (2 (ADJ))(2 (NOUN)))(2 (2 (SCONJ))(2 (2 (NOUN))(2 (2 (VERB))(2 (VERB))))))(2 (CCONJ)))(2 (NOUN)))))(3 (3 (2 (VERB))(3 (2 (2 (VERB))(2 (ADP)))(2 (2 (ADP))(2 (NOUN)))))(2 (PUNCT)))) |ET| 
-1  |BT| (1 (2 (2 (1 (1 (1 (1 (DET))(2 (3 (ADJ))(2 (2 (NOUN))(2 (NOUN)))))(2 (CCONJ)))(2 (2 (ADJ))(2 (NOUN))))(2 (PUNCT)))(1 (2 (2 (2 (ADV))(2 (2 (ADJ))(2 (NOUN))))(2 (2 (ADP))(3 (3 (ADJ))(2 (NOUN)))))(2 (2 (PART))(2 (2 (VERB))(2 (ADV))))))(2 (PUNCT))) |ET| 
1  |BT| (3 (2 (PRON))(3 (2 (2 (AUX))(3 (2 (2 (DET))(3 (NOUN)))(2 (2 (ADP))(2 (2 (PROPN))(2 (2 (PROPN))(2 (2 (PROPN))(2 (PROPN))))))))(2 (PUNCT)))) |ET| 
-1  |BT| (1 (2 (2 (VERB))(2 (2 (3 (PROPN))(2 (PROPN)))(2 (3 (3 (VERB))(2 (2 (ADP))(4 (NOUN))))(2 (2 (ADP))(2 (2 (PROPN))(2 (PROPN)))))))(2 (PUNCT))) |ET| 
1  |BT| (4 (2 (2 (NUM))(2 (2 (ADP))(2 (2 (DET))(2 (NOUN)))))(2 (3 (2 (2 (PART))(2 (ADV)))(3 (1 (ADV))(3 (4 (ADJ))(2 (2 (CCONJ))(2 (2 (ADJ))(2 (2 (NOUN))(2 (NOUN))))))))(2 (PUNCT)))) |ET| 
-1  |BT| (0 (2 (PRON))(0 (0 (2 (AUX))(0 (3 (2 (DET))(1 (2 (NOUN))(3 (3 (NOUN))(2 (NOUN)))))(0 (2 (DET))(1 (2 (AUX))(0 (2 (2 (NUM))(2 (NOUN)))(1 (2 (ADV))(2 (ADV))))))))(2 (PUNCT)))) |ET| 
1  |BT| (3 (2 (2 (ADP))(2 (PROPN)))(2 (3 (2 (VERB))(2 (2 (ADP))(2 (PROPN))))(2 (PUNCT)))) |ET| 
-1  |BT| (1 (2 (2 (2 (2 (PROPN))(2 (PROPN)))(2 (CCONJ)))(2 (2 (PROPN))(2 (2 (PROPN))(2 (PROPN)))))(0 (1 (2 (VERB))(1 (2 (ADP))(1 (1 (NOUN))(2 (2 (ADP))(1 (2 (2 (DET))(2 (NOUN)))(2 (2 (PRON))(2 (2 (VERB))(2 (VERB)))))))))(2 (PUNCT)))) |ET| 
1  |BT| (3 (2 (2 (ADV))(2 (2 (DET))(2 (NOUN))))(3 (3 (2 (AUX))(3 (ADJ)))(2 (PUNCT)))) |ET| 
-1  |BT| (1 (3 (3 (3 (2 (DET))(3 (3 (2 (ADV))(3 (ADJ)))(2 (2 (ADJ))(2 (NOUN)))))(2 (CCONJ)))(4 (4 (ADJ))(2 (NOUN))))(0 (1 (2 (2 (AUX))(0 (ADV)))(1 (VERB)))(2 (PUNCT)))) |ET| 
1  |BT| (3 (4 (3 (4 (3 (2 (PRON))(3 (2 (AUX))(3 (2 (DET))(3 (4 (ADJ))(2 (NOUN))))))(2 (PUNCT)))(2 (CCONJ)))(2 (2 (2 (2 (2 (2 (DET))(2 (NOUN)))(2 (PUNCT)))(2 (2 (VERB))(2 (2 (ADP))(2 (2 (2 (DET))(2 (NOUN)))(2 (2 (ADP))(2 (2 (DET))(2 (2 (NOUN))(2 (NOUN)))))))))(2 (PUNCT)))(3 (2 (2 (VERB))(2 (2 (DET))(2 (ADV))))(3 (2 (2 (VERB))(2 (PRON)))(2 (2 (ADP))(2 (2 (ADJ))(2 (NOUN))))))))(2 (PUNCT))) |ET| 
1  |BT| (3 (2 (2 (DET))(2 (NOUN)))(3 (3 (2 (2 (VERB))(2 (2 (ADV))(2 (2 (ADP))(2 (2 (DET))(2 (NOUN))))))(3 (2 (2 (DET))(2 (2 (ADJ))(2 (NOUN))))(3 (2 (PROPN))(3 (2 (2 (AUX))(2 (PUNCT)))(3 (2 (ADP))(3 (2 (DET))(3 (2 (ADJ))(3 (2 (ADJ))(3 (3 (NOUN))(2 (2 (PUNCT))(3 (2 (3 (NOUN))(2 (CCONJ)))(3 (NOUN)))))))))))))(2 (PUNCT)))) |ET| 
-1  |BT| (1 (2 (ADV))(1 (1 (2 (2 (DET))(2 (2 (PROPN))(2 (NOUN))))(1 (2 (DET))(2 (0 (VERB))(2 (2 (PART))(2 (2 (VERB))(2 (ADJ)))))))(3 (3 (2 (NOUN))(2 (2 (ADP))(2 (2 (DET))(3 (2 (ADJ))(3 (NOUN))))))(2 (PUNCT))))) |ET| 
-1  |BT| (0 (2 (2 (ADV))(2 (3 (ADJ))(2 (SCONJ))))(2 (2 (2 (2 (ADJ))(2 (2 (NOUN))(2 (PART))))(2 (NOUN)))(2 (3 (NOUN))(2 (PUNCT))))) |ET| 
1  |BT| (3 (1 (2 (DET))(0 (NOUN)))(1 (2 (PUNCT))(0 (1 (ADV))(1 (0 (1 (1 (2 (VERB))(1 (0 (NOUN))(2 (2 (VERB))(2 (PRON)))))(2 (PUNCT)))(2 (2 (VERB))(2 (2 (ADJ))(2 (2 (ADP))(2 (2 (DET))(2 (NOUN)))))))(2 (PUNCT)))))) |ET| 
-1  |BT| (1 (2 (ADV))(2 (3 (2 (DET))(4 (NOUN)))(1 (1 (2 (VERB))(1 (3 (2 (DET))(2 (VERB)))(2 (2 (ADP))(2 (2 (PRON))(2 (VERB))))))(2 (PUNCT))))) |ET| 
1  |BT| (3 (2 (2 (SCONJ))(2 (2 (NOUN))(2 (2 (VERB))(3 (2 (VERB))(2 (3 (PRON))(3 (2 (VERB))(2 (2 (ADP))(3 (3 (2 (DET))(2 (2 (ADJ))(2 (NOUN))))(2 (2 (ADP))(2 (3 (2 (2 (2 (2 (NOUN))(2 (PUNCT)))(2 (NOUN)))(2 (CCONJ)))(3 (NOUN)))(3 (PUNCT))))))))))))(4 (2 (VERB))(4 (2 (NOUN))(3 (3 (2 (2 (PUNCT))(2 (PRON)))(4 (2 (AUX))(3 (3 (ADV))(2 (DET)))))(2 (ADJ)))))) |ET| 
-1  |BT| (1 (2 (ADJ))(2 (2 (NOUN))(2 (PUNCT)))) |ET| 
1  |BT| (3 (2 (PRON))(3 (3 (3 (2 (VERB))(2 (ADV)))(3 (2 (VERB))(2 (2 (PART))(2 (2 (VERB))(2 (2 (ADP))(2 (VERB)))))))(2 (PUNCT)))) |ET| 
-1  |BT| (1 (1 (2 (VERB))(2 (2 (PART))(2 (3 (2 (VERB))(2 (PRON)))(2 (ADV)))))(2 (PUNCT))) |ET| 
1  |BT| (3 (2 (2 (2 (DET))(2 (2 (ADJ))(2 (NOUN))))(2 (2 (ADP))(2 (2 (DET))(2 (NOUN)))))(2 (3 (2 (AUX))(2 (1 (VERB))(2 (2 (PUNCT))(3 (2 (0 (ADJ))(2 (CCONJ)))(2 (ADJ))))))(2 (PUNCT)))) |ET| 
-1  |BT| (1 (1 (2 (AUX))(1 (3 (2 (2 (DET))(2 (2 (DET))(3 (NOUN))))(2 (CCONJ)))(3 (2 (2 (ADJ))(2 (2 (ADJ))(2 (NOUN))))(2 (2 (ADP))(2 (2 (2 (DET))(2 (NOUN)))(2 (2 (ADP))(2 (2 (PROPN))(2 (PROPN)))))))))(2 (PUNCT))) |ET| 
1  |BT| (3 (2 (PRON))(2 (2 (2 (1 (2 (2 (VERB))(2 (ADP)))(2 (ADV)))(2 (PUNCT)))(2 (2 (VERB))(1 (2 (ADV))(2 (1 (DET))(1 (NOUN))))))(2 (PUNCT)))) |ET| 
-1  |BT| (0 (0 (1 (1 (2 (PRON))(1 (2 (AUX))(2 (2 (2 (VERB))(2 (2 (ADP))(2 (2 (DET))(2 (NOUN)))))(2 (2 (PART))(2 (1 (VERB))(2 (PRON)))))))(2 (PUNCT)))(1 (1 (2 (2 (2 (2 (DET))(2 (NOUN)))(2 (2 (AUX))(2 (2 (2 (NUM))(2 (NOUN)))(2 (ADJ)))))(2 (PUNCT)))(2 (CCONJ)))(2 (3 (NOUN))(1 (2 (AUX))(2 (2 (ADV))(2 (ADJ)))))))(2 (PUNCT))) |ET| 
1  |BT| (3 (3 (2 (2 (DET))(2 (2 (ADJ))(2 (2 (PROPN))(2 (NOUN)))))(2 (2 (ADP))(3 (2 (NOUN))(2 (2 (DET))(2 (1 (2 (AUX))(2 (PART)))(2 (1 (ADJ))(4 (NOUN))))))))(2 (PUNCT))) |ET| 
-1  |BT| (1 (2 (2 (DET))(2 (NOUN)))(1 (1 (2 (2 (AUX))(2 (2 (ADV))(2 (ADJ))))(2 (2 (ADP))(2 (2 (NOUN))(2 (2 (SCONJ))(2 (2 (2 (DET))(1 (2 (ADJ))(2 (NOUN))))(1 (2 (ADP))(2 (2 (PRON))(1 (2 (AUX))(1 (1 (ADJ))(2 (2 (ADP))(2 (2 (2 (DET))(2 (2 (2 (ADV))(3 (ADJ)))(2 (NOUN))))(2 (2 (ADP))(2 (2 (ADJ))(2 (NOUN)))))))))))))))(2 (PUNCT)))) |ET| 
1  |BT| (3 (3 (2 (1 (PUNCT))(2 (1 (NOUN))(3 (PUNCT))))(3 (3 (3 (3 (ADV))(3 (3 (3 (ADJ))(2 (CCONJ)))(2 (NOUN))))(2 (PUNCT)))(1 (2 (VERB))(1 (NOUN)))))(2 (ADP))) |ET| 
-0.37182897360111311080288487573853  |BT| (1 (1 (DET))(2 (3 (VERB))(2 (PUNCT)))) |ET| 
1  |BT| (3 (2 (2 (SCONJ))(1 (2 (2 (2 (DET))(3 (NOUN)))(2 (ADV)))(2 (2 (2 (PROPN))(2 (101)))(3 (2 (NUM))(2 (2 (ADP))(3 (3 (DET))(2 (ADJ))))))))(3 (2 (NOUN))(3 (3 (PUNCT))(3 (3 (2 (PROPN))(3 (2 (VERB))(3 (2 (PART))(3 (3 (2 (AUX))(3 (3 (DET))(2 (ADJ))))(2 (2 (NOUN))(2 (2 (2 (ADP))(2 (DET)))(2 (2 (NOUN))(2 (2 (ADP))(2 (NUM))))))))))(2 (NOUN)))))) |ET| 
-1  |BT| (1 (2 (2 (2 (PROPN))(2 (3 (PROPN))(2 (PART))))(3 (2 (NUM))(2 (2 (PROPN))(2 (PROPN)))))(0 (0 (2 (AUX))(0 (2 (NUM))(0 (1 (1 (VERB))(2 (2 (NOUN))(2 (2 (ADP))(3 (PROPN)))))(1 (2 (SCONJ))(0 (2 (2 (DET))(2 (2 (NOUN))(3 (PUNCT))))(1 (2 (ADP))(1 (2 (2 (2 (NOUN))(2 (3 (ADP))(2 (PROPN))))(2 (1 (PROPN))(2 (PART))))(2 (2 (ADJ))(2 (2 (NOUN))(2 (2 (ADP))(2 (2 (DET))(2 (ADJ)))))))))))))(2 (NOUN)))) |ET| 
1  |BT| (3 (2 (INTJ))(3 (2 (PUNCT))(3 (2 (VERB))(2 (PUNCT))))) |ET| 
-1  |BT| (1 (2 (DET))(1 (1 (2 (VERB))(4 (ADJ)))(2 (PUNCT)))) |ET| 
1  |BT| (3 (2 (2 (2 (PROPN))(2 (CCONJ)))(2 (2 (DET))(2 (2 (ADJ))(2 (NOUN)))))(3 (3 (2 (AUX))(3 (2 (2 (ADJ))(2 (ADV)))(2 (2 (PART))(3 (3 (VERB))(2 (2 (2 (DET))(2 (NOUN)))(2 (2 (ADP))(3 (2 (DET))(1 (3 (PROPN))(2 (2 (101))(2 (NUM)))))))))))(2 (NOUN)))) |ET| 
-1  |BT| (1 (2 (0 (2 (2 (ADV))(1 (ADJ)))(2 (CCONJ)))(3 (2 (ADV))(3 (ADJ))))(2 (1 (2 (PART))(2 (2 (AUX))(2 (3 (ADV))(2 (ADJ)))))(2 (PUNCT)))) |ET| 
1  |BT| (3 (2 (PRON))(2 (3 (2 (VERB))(2 (2 (2 (VERB))(2 (ADP)))(3 (VERB))))(2 (PUNCT)))) |ET| 
-1  |BT| (1 (3 (2 (PRON))(2 (2 (VERB))(3 (ADV))))(0 (1 (2 (VERB))(1 (2 (VERB))(1 (2 (ADP))(2 (2 (ADP))(2 (2 (140))(2 (NUM)))))))(2 (NOUN)))) |ET| 
1  |BT| (3 (2 (PROPN))(3 (3 (2 (2 (2 (AUX))(2 (2 (ADV))(2 (ADJ))))(2 (ADV)))(2 (2 (SCONJ))(2 (ADV))))(2 (PUNCT)))) |ET| 
-1  |BT| (1 (1 (0 (1 (1 (2 (PROPN))(2 (NOUN)))(2 (ADV)))(2 (PUNCT)))(2 (ADV)))(2 (PUNCT))) |ET| 
1  |BT| (3 (3 (2 (DET))(4 (3 (ADJ))(2 (3 (PUNCT))(2 (VERB)))))(3 (3 (2 (NOUN))(2 (2 (NOUN))(2 (2 (NOUN))(3 (2 (2 (DET))(2 (VERB)))(2 (2 (VERB))(2 (2 (NOUN))(2 (ADP))))))))(2 (DET)))) |ET| 
-1  |BT| (1 (0 (0 (2 (DET))(0 (1 (NOUN))(3 (PUNCT))))(3 (2 (VERB))(2 (2 (NOUN))(2 (ADP)))))(2 (2 (2 (DET))(2 (2 (ADJ))(1 (2 (2 (NOUN))(2 (2 (DET))(2 (2 (2 (PRON))(2 (SCONJ)))(2 (2 (DET))(2 (NOUN))))))(1 (2 (ADP))(1 (2 (PRON))(2 (2 (2 (VERB))(2 (2 (VERB))(2 (VERB))))(2 (DET))))))))(2 (NOUN)))) |ET| 
1  |BT| (4 (2 (2 (SCONJ))(1 (1 (2 (DET))(2 (2 (ADJ))(2 (NOUN))))(2 (2 (ADP))(2 (2 (NOUN))(3 (2 (VERB))(2 (PUNCT)))))))(4 (2 (ADP))(4 (3 (4 (4 (3 (PUNCT))(4 (2 (NOUN))(2 (2 (NOUN))(2 (PUNCT)))))(2 (ADJ)))(2 (2 (2 (PUNCT))(2 (NOUN)))(2 (2 (2 (2 (PUNCT))(2 (ADJ)))(2 (2 (NOUN))(3 (3 (CCONJ))(3 (DET)))))(2 (NOUN)))))(4 (3 (2 (ADP))(3 (2 (PUNCT))(3 (2 (PUNCT))(3 (DET)))))(2 (ADJ)))))) |ET| 
-1  |BT| (1 (0 (2 (3 (ADJ))(2 (CCONJ)))(1 (ADJ)))(2 (PUNCT))) |ET| 
1  |BT| (4 (2 (2 (2 (PROPN))(2 (PROPN)))(2 (2 (SCONJ))(2 (2 (2 (DET))(2 (2 (PROPN))(3 (PUNCT))))(2 (2 (PROPN))(2 (2 (NOUN))(2 (ADP)))))))(3 (4 (2 (2 (DET))(3 (PROPN)))(3 (3 (2 (2 (VERB))(2 (ADV)))(2 (VERB)))(2 (2 (PRON))(2 (2 (ADP))(1 (1 (2 (ADP))(2 (2 (DET))(2 (2 (NOUN))(2 (2 (3 (PUNCT))(2 (2 (ADV))(2 (VERB))))(2 (ADP))))))(2 (2 (NOUN))(2 (PUNCT))))))))(2 (ADJ)))) |ET| 
-1  |BT| (1 (1 (2 (SCONJ))(0 (2 (2 (3 (PROPN))(2 (PROPN)))(3 (2 (ADP))(3 (2 (DET))(2 (2 (PROPN))(2 (PUNCT))))))(2 (2 (PROPN))(1 (2 (PROPN))(3 (2 (VERB))(1 (2 (2 (ADP))(2 (DET)))(2 (ADV))))))))(3 (2 (ADJ))(2 (2 (NOUN))(3 (2 (3 (PUNCT))(3 (2 (PRON))(4 (3 (VERB))(2 (2 (ADP))(2 (2 (NOUN))(2 (ADP)))))))(2 (DET)))))) |ET| 
1  |BT| (3 (3 (1 (ADJ))(3 (2 (PUNCT))(3 (ADJ))))(2 (CCONJ))) |ET| 
1  |BT| (4 (2 (NOUN))(4 (3 (2 (VERB))(4 (2 (2 (DET))(2 (NOUN)))(3 (2 (DET))(4 (2 (AUX))(3 (ADJ))))))(2 (PUNCT)))) |ET| 
1  |BT| (3 (3 (3 (VERB))(1 (2 (ADV))(1 (2 (2 (DET))(2 (2 (ADJ))(2 (NOUN))))(0 (ADV)))))(1 (0 (0 (VERB))(2 (2 (SCONJ))(3 (2 (PRON))(1 (2 (VERB))(2 (2 (SCONJ))(1 (2 (PRON))(2 (2 (2 (VERB))(2 (0 (2 (DET))(0 (NOUN)))(1 (2 (ADP))(1 (NOUN)))))(2 (2 (ADP))(2 (2 (DET))(2 (NOUN)))))))))))(2 (PUNCT)))) |ET| 
-1  |BT| (1 (2 (PRON))(0 (2 (DET))(1 (1 (2 (2 (2 (VERB))(2 (CCONJ)))(2 (VERB)))(2 (2 (SCONJ))(1 (1 (2 (2 (DET))(2 (2 (2 (2 (SYM))(2 (40)))(2 (NUM)))(2 (NUM))))(2 (2 (NOUN))(2 (2 (ADP))(2 (DET)))))(1 (2 (NOUN))(1 (2 (PRON))(2 (2 (AUX))(2 (2 (ADV))(2 (2 (ADJ))(2 (4 (PART))(2 (2 (VERB))(2 (2 (ADP))(2 (DET)))))))))))))(2 (NOUN))))) |ET| 
1  |BT| (4 (2 (PUNCT))(3 (2 (2 (PUNCT))(3 (PROPN)))(3 (2 (PROPN))(3 (3 (2 (PUNCT))(4 (AUX)))(2 (ADJ)))))) |ET| 
-1  |BT| (1 (2 (PRON))(2 (2 (ADV))(0 (0 (2 (VERB))(1 (2 (SCONJ))(2 (2 (DET))(2 (2 (NOUN))(2 (NOUN))))))(2 (PUNCT))))) |ET| 
1  |BT| (3 (4 (2 (DET))(3 (4 (2 (DET))(3 (4 (ADJ))(2 (NOUN))))(2 (2 (PART))(2 (2 (VERB))(2 (2 (2 (4))(2 (NUM)))(2 (2 (NOUN))(2 (2 (ADP))(2 (DET)))))))))(2 (NOUN))) |ET| 
-1  |BT| (0 (1 (ADV))(1 (2 (PUNCT))(1 (2 (2 (2 (DET))(2 (NOUN)))(2 (2 (ADP))(2 (2 (ADV))(2 (2 (VERB))(2 (2 (DET))(2 (NOUN)))))))(1 (1 (2 (AUX))(1 (2 (ADV))(2 (3 (ADJ))(2 (2 (SCONJ))(2 (2 (2 (DET))(2 (NOUN)))(2 (2 (ADP))(2 (2 (DET))(2 (NOUN)))))))))(2 (PUNCT)))))) |ET| 
1  |BT| (3 (2 (2 (DET))(2 (2 (ADJ))(2 (PUNCT))))(3 (3 (2 (ADJ))(4 (3 (NOUN))(2 (3 (AUX))(3 (2 (ADV))(4 (2 (2 (ADJ))(3 (2 (2 (ADP))(1 (3 (DET))(1 (2 (ADV))(1 (ADJ)))))(2 (PUNCT))))(2 (2 (ADJ))(3 (1 (NOUN))(4 (ADP)))))))))(2 (ADJ)))) |ET| 
-1  |BT| (0 (3 (2 (DET))(2 (2 (ADJ))(2 (PUNCT))))(1 (3 (2 (NOUN))(2 (2 (2 (PROPN))(2 (3 (VERB))(3 (3 (DET))(2 (ADJ)))))(3 (3 (2 (ADJ))(4 (3 (4 (NOUN))(2 (VERB)))(3 (ADJ))))(2 (2 (CCONJ))(2 (ADV))))))(2 (PUNCT)))) |ET| 
1  |BT| (3 (2 (PRON))(1 (3 (2 (AUX))(2 (0 (2 (DET))(1 (0 (ADJ))(2 (NOUN))))(2 (2 (ADP))(2 (1 (1 (2 (DET))(0 (0 (ADJ))(2 (NOUN))))(2 (PUNCT)))(2 (3 (2 (VERB))(3 (3 (ADJ))(3 (2 (ADP))(4 (2 (DET))(3 (3 (ADJ))(2 (NOUN)))))))(3 (2 (ADP))(3 (3 (2 (DET))(3 (3 (ADJ))(2 (NOUN))))(3 (1 (ADJ))(1 (2 (ADP))(1 (2 (AUX))(0 (ADJ))))))))))))(2 (PUNCT)))) |ET| 
-1  |BT| (1 (3 (2 (PRON))(2 (2 (DET))(3 (2 (AUX))(2 (3 (ADJ))(2 (2 (ADP))(2 (PROPN)))))))(1 (1 (2 (AUX))(2 (1 (ADJ))(2 (2 (ADP))(2 (2 (DET))(2 (NOUN))))))(2 (PUNCT)))) |ET| 
1  |BT| (3 (2 (CCONJ))(3 (2 (ADJ))(2 (PUNCT)))) |ET| 
-1  |BT| (1 (3 (3 (2 (DET))(4 (4 (ADJ))(2 (NOUN))))(2 (2 (ADP))(0 (2 (1 (NOUN))(2 (2 (NOUN))(2 (2 (2 (NOUN))(2 (CCONJ)))(2 (NOUN)))))(3 (2 (ADP))(1 (1 (ADJ))(2 (NOUN)))))))(1 (1 (2 (AUX))(1 (2 (VERB))(1 (2 (ADP))(1 (2 (2 (2 (2 (DET))(2 (2 (NOUN))(2 (PART))))(2 (NOUN)))(2 (PUNCT)))(0 (2 (DET))(1 (2 (2 (AUX))(2 (ADV)))(1 (2 (ADV))(2 (ADJ)))))))))(2 (PUNCT)))) |ET| 
1  |BT| (4 (2 (PRON))(3 (4 (2 (AUX))(4 (1 (DET))(3 (1 (NOUN))(3 (2 (SCONJ))(4 (2 (PROPN))(4 (2 (AUX))(3 (2 (2 (DET))(2 (NOUN)))(3 (2 (ADP))(3 (4 (2 (DET))(3 (3 (ADJ))(2 (NOUN))))(2 (2 (ADV))(2 (2 (ADP))(2 (PRON)))))))))))))(2 (PUNCT)))) |ET| 
-1  |BT| (1 (3 (2 (DET))(4 (4 (2 (ADV))(3 (ADJ)))(2 (NOUN))))(1 (1 (2 (AUX))(1 (1 (1 (VERB))(2 (ADP)))(1 (2 (ADP))(1 (2 (NOUN))(1 (PUNCT))))))(2 (ADP)))) |ET| 
1  |BT| (4 (3 (2 (2 (ADJ))(2 (PUNCT)))(4 (3 (ADJ))(4 (2 (PUNCT))(4 (1 (ADJ))(3 (2 (PUNCT))(4 (4 (4 (ADJ))(2 (CCONJ)))(1 (ADJ))))))))(2 (PUNCT))) |ET| 
-1  |BT| (1 (0 (2 (ADJ))(2 (2 (SCONJ))(4 (ADJ))))(2 (PUNCT))) |ET| 
1  |BT| (3 (2 (2 (PROPN))(2 (PROPN)))(3 (3 (2 (2 (AUX))(2 (ADV)))(3 (3 (2 (VERB))(1 (1 (2 (DET))(1 (2 (ADJ))(2 (NOUN))))(2 (2 (ADP))(2 (2 (PROPN))(2 (PROPN))))))(2 (2 (ADP))(3 (3 (NOUN))(2 (2 (ADP))(2 (2 (DET))(1 (2 (2 (ADV))(1 (ADJ)))(2 (NOUN)))))))))(2 (PUNCT)))) |ET| 
-1  |BT| (1 (4 (2 (2 (PROPN))(2 (2 (PROPN))(2 (PART))))(4 (3 (ADJ))(2 (NOUN))))(0 (2 (2 (2 (VERB))(2 (PART)))(1 (2 (2 (VERB))(2 (2 (2 (PROPN))(2 (2 (PROPN))(2 (PART))))(2 (PROPN))))(1 (2 (ADP))(0 (2 (DET))(1 (1 (ADJ))(3 (NOUN)))))))(2 (PUNCT)))) |ET| 
1  |BT| (3 (3 (1 (ADJ))(2 (2 (ADJ))(3 (1 (PUNCT))(2 (SCONJ)))))(1 (2 (1 (PUNCT))(2 (2 (NOUN))(2 (2 (ADJ))(1 (2 (NOUN))(1 (2 (VERB))(2 (1 (PART))(1 (2 (VERB))(1 (2 (ADP))(2 (2 (DET))(2 (2 (ADJ))(3 (PUNCT))))))))))))(2 (ADJ)))) |ET| 
-1  |BT| (1 (1 (2 (VERB))(3 (2 (DET))(1 (1 (2 (1 (2 (ADJ))(1 (2 (ADV))(2 (NOUN))))(2 (PUNCT)))(3 (2 (2 (NOUN))(2 (CCONJ)))(2 (DET))))(3 (NOUN)))))(2 (ADJ))) |ET| 
1  |BT| (3 (2 (2 (2 (PROPN))(2 (2 (PROPN))(2 (PART))))(3 (PROPN)))(2 (2 (2 (AUX))(2 (2 (SCONJ))(2 (2 (DET))(2 (2 (1NUM))(2 (2 (PROPN))(2 (PROPN)))))))(2 (PUNCT)))) |ET| 
-1  |BT| (1 (2 (2 (PROPN))(2 (PROPN)))(1 (2 (2 (2 (AUX))(2 (PUNCT)))(2 (2 (2 (2 (INTJ))(2 (PUNCT)))(1 (DET)))(2 (2 (PROPN))(2 (PROPN)))))(2 (PUNCT)))) |ET| 
1  |BT| (3 (4 (2 (ADJ))(3 (NOUN)))(2 (3 (3 (1 (VERB))(3 (2 (2 (DET))(2 (2 (NOUN))(2 (PART))))(3 (2 (ADJ))(3 (PUNCT)))))(2 (2 (NOUN))(2 (2 (NOUN))(2 (2 (ADP))(2 (2 (NOUN))(2 (VERB)))))))(2 (ADV)))) |ET| 
-1  |BT| (1 (2 (2 (DET))(2 (NOUN)))(0 (0 (2 (AUX))(0 (2 (0 (2 (DET))(1 (NOUN)))(2 (2 (ADP))(2 (NOUN))))(2 (2 (ADP))(2 (NOUN)))))(2 (PUNCT)))) |ET| 
1  |BT| (3 (2 (2 (SCONJ))(2 (1 (1 (PART))(2 (ADV)))(2 (2 (PUNCT))(2 (2 (2 (2 (2 (3 (PUNCT))(2 (PROPN)))(2 (PUNCT)))(2 (CCONJ)))(2 (2 (PUNCT))(2 (2 (PUNCT))(2 (PROPN)))))(2 (PUNCT))))))(3 (2 (PROPN))(2 (2 (PUNCT))(2 (3 (2 (2 (PUNCT))(1 (PRON)))(1 (2 (AUX))(0 (PART))))(2 (ADV)))))) |ET| 
-1  |BT| (1 (1 (1 (1 (1 (2 (2 (DET))(2 (1 (ADJ))(2 (NOUN))))(1 (2 (ADP))(1 (1 (2 (1 (NOUN))(2 (CCONJ)))(2 (ADJ)))(0 (NOUN)))))(1 (1 (VERB))(2 (2 (2 (DET))(2 (NOUN)))(2 (2 (VERB))(2 (2 (ADP))(2 (2 (DET))(2 (2 (NUM))(2 (NOUN)))))))))(2 (CCONJ)))(2 (1 (2 (2 (DET))(1 (2 (ADJ))(2 (NOUN))))(2 (2 (ADP))(4 (NOUN))))(2 (2 (VERB))(1 (2 (PART))(3 (4 (VERB))(1 (2 (ADP))(1 (2 (DET))(1 (2 (ADJ))(2 (2 (NOUN))(1 (2 (NOUN))(2 (NOUN))))))))))))(2 (PUNCT))) |ET| 
1  |BT| (3 (2 (3 (2 (DET))(2 (NOUN)))(2 (2 (ADP))(2 (2 (DET))(2 (2 (ADJ))(2 (SYM))))))(3 (3 (2 (2 (ADJ))(3 (3 (2 (SYM))(2 (ADJ)))(3 (NOUN))))(2 (2 (AUX))(1 (ADJ))))(2 (CCONJ)))) |ET| 
-1  |BT| (1 (1 (1 (2 (2 (PART))(2 (ADJ)))(2 (ADV)))(1 (2 (PART))(1 (2 (AUX))(2 (2 (2 (DET))(2 (NOUN)))(2 (2 (ADP))(1 (1 (2 (2 (1 (2 (2 (NOUN))(2 (PUNCT)))(2 (ADP)))(2 (3 (NOUN))(2 (PUNCT))))(2 (NOUN)))(2 (NOUN)))(2 (2 (2 (PUNCT))(2 (CCONJ)))(2 (2 (ADV))(2 (NOUN))))))))))(2 (ADP))) |ET| 
-1  |BT| (0 (0 (0 (2 (DET))(2 (1 (ADJ))(1 (2 (ADJ))(2 (NOUN)))))(1 (2 (ADP))(1 (2 (2 (2 (DET))(2 (NOUN)))(2 (PUNCT)))(1 (2 (2 (DET))(2 (2 (ADJ))(1 (2 (NOUN))(2 (NOUN)))))(2 (2 (DET))(1 (1 (2 (AUX))(2 (PART)))(2 (2 (VERB))(2 (ADJ)))))))))(2 (2 (2 (2 (NOUN))(2 (ADV)))(2 (2 (ADP))(2 (2 (DET))(2 (2 (ADJ))(2 (NOUN))))))(2 (PUNCT)))) |ET| 
-1  |BT| (1 (2 (PUNCT))(1 (2 (1 (2 (3 (3 (2 (PRON))(2 (2 (VERB))(3 (3 (3 (ADJ))(2 (PUNCT)))(2 (PROPN)))))(2 (PUNCT)))(2 (CCONJ)))(1 (2 (PRON))(1 (2 (VERB))(2 (2 (DET))(2 (NOUN))))))(2 (PUNCT)))(2 (PUNCT)))) |ET| 
1  |BT| (3 (2 (2 (2 (PROPN))(2 (PART)))(3 (ADV)))(1 (2 (1 (1 (ADJ))(2 (NOUN)))(2 (2 (ADP))(2 (2 (DET))(2 (2 (PRON))(1 (PUNCT))))))(2 (VERB)))) |ET| 
-1  |BT| (0 (2 (3 (2 (DET))(2 (NOUN)))(2 (2 (ADP))(2 (PRON))))(1 (2 (DET))(2 (1 (2 (VERB))(1 (2 (AUX))(1 (2 (PROPN))(2 (2 (ADP))(2 (2 (2 (PRON))(1 (PART)))(1 (2 (ADJ))(1 (2 (ADP))(1 (2 (2 (DET))(2 (2 (NOUN))(2 (PART))))(1 (1 (ADJ))(0 (2 (CCONJ))(2 (1 (ADJ))(4 (NOUN)))))))))))))(2 (PUNCT))))) |ET| 
-1  |BT| (1 (1 (2 (2 (NUM))(2 (2 (ADJ))(1 (NOUN))))(2 (2 (ADP))(2 (2 (DET))(2 (2 (ADV))(2 (3 (ADJ))(2 (NOUN)))))))(2 (1 (2 (AUX))(2 (2 (SCONJ))(2 (2 (PRON))(1 (2 (2 (AUX))(2 (ADV)))(2 (2 (2 (DET))(2 (NOUN)))(2 (2 (ADP))(2 (2 (ADV))(3 (2 (NOUN))(3 (2 (VERB))(2 (2 (VERB))(1 (ADP))))))))))))(2 (PUNCT)))) |ET| 
-1  |BT| (1 (2 (2 (ADV))(3 (ADV)))(2 (2 (ADJ))(2 (PUNCT)))) |ET| 
1  |BT| (3 (3 (2 (3 (2 (2 (DET))(2 (4 (ADJ))(2 (2 (ADJ))(2 (NOUN)))))(2 (2 (ADP))(2 (2 (NUM))(2 (2 (ADJ))(2 (NOUN))))))(2 (CCONJ)))(2 (2 (DET))(2 (1 (2 (2 (ADJ))(2 (CCONJ)))(1 (ADJ)))(2 (NOUN)))))(2 (2 (PRON))(1 (2 (2 (2 (VERB))(2 (2 (ADP))(2 (2 (DET))(2 (NOUN)))))(2 (2 (ADV))(2 (1 (NOUN))(2 (2 (AUX))(1 (2 (VERB))(2 (2 (2 (DET))(2 (2 (2 (NOUN))(2 (CCONJ)))(2 (NOUN))))(2 (2 (ADP))(1 (1 (2 (2 (DET))(1 (ADJ)))(2 (CCONJ)))(2 (2 (DET))(2 (NOUN)))))))))))(2 (PUNCT))))) |ET| 
-1  |BT| (1 (1 (2 (3 (2 (2 (2 (DET))(2 (NOUN)))(3 (2 (VERB))(2 (2 (DET))(2 (3 (ADJ))(2 (2 (NOUN))(4 (PUNCT)))))))(2 (NOUN)))(2 (NOUN)))(1 (2 (2 (PUNCT))(2 (CCONJ)))(1 (2 (DET))(1 (1 (1 (NOUN))(2 (2 (AUX))(2 (PART))))(2 (2 (DET))(3 (2 (2 (NOUN))(2 (ADP)))(3 (NOUN))))))))(2 (CCONJ))) |ET| 
0.78314438955085829974223088356666  |BT| (3 (2 (PROPN))(3 (3 (2 (AUX))(3 (3 (VERB))(4 (3 (3 (3 (2 (DET))(4 (3 (ADJ))(2 (NOUN))))(2 (2 (ADP))(2 (2 (ADJ))(2 (NOUN)))))(2 (CCONJ)))(1 (2 (0 (ADJ))(2 (NOUN)))(2 (2 (ADP))(3 (NOUN)))))))(2 (PUNCT)))) |ET| 
-1  |BT| (1 (2 (1 (3 (3 (2 (3 (ADV))(1 (ADJ)))(2 (2 (ADJ))(2 (NOUN))))(2 (ADV)))(2 (PUNCT)))(2 (2 (SYM))(2 (NUM))))(1 (1 (2 (ADV))(2 (ADJ)))(2 (3 (NOUN))(2 (PUNCT))))) |ET| 
1  |BT| (3 (1 (2 (DET))(1 (1 (ADJ))(2 (2 (NOUN))(2 (NOUN)))))(3 (3 (3 (VERB))(3 (2 (2 (DET))(1 (NOUN)))(2 (2 (DET))(3 (2 (VERB))(3 (3 (2 (VERB))(2 (NOUN)))(2 (2 (ADP))(2 (2 (DET))(2 (NOUN)))))))))(2 (PUNCT)))) |ET| 
-1  |BT| (1 (2 (PRON))(2 (1 (2 (VERB))(1 (2 (PART))(2 (2 (VERB))(2 (2 (2 (DET))(2 (NOUN)))(1 (2 (2 (ADP))(2 (DET)))(2 (2 (2 (2 (DET))(2 (NOUN)))(2 (2 (ADP))(2 (2 (DET))(2 (NOUN)))))(2 (2 (VERB))(2 (2 (AUX))(2 (VERB))))))))))(2 (PUNCT)))) |ET| 
1  |BT| (3 (3 (2 (1 (2 (2 (PRON))(2 (2 (2 (AUX))(2 (ADV)))(3 (3 (NOUN))(3 (PUNCT)))))(2 (ADP)))(2 (PUNCT)))(2 (2 (ADV))(3 (2 (2 (ADJ))(2 (PUNCT)))(4 (CCONJ)))))(2 (PRON))) |ET| 
1  |BT| (4 (3 (2 (2 (ADV))(2 (2 (DET))(2 (NOUN))))(3 (2 (VERB))(3 (2 (ADP))(4 (2 (VERB))(3 (3 (2 (DET))(3 (3 (ADJ))(2 (NOUN))))(3 (2 (ADP))(3 (2 (2 (DET))(2 (NOUN)))(2 (2 (ADP))(3 (2 (2 (DET))(2 (NOUN)))(2 (2 (ADP))(2 (2 (2 (NOUN))(2 (CCONJ)))(2 (NOUN)))))))))))))(3 (3 (2 (AUX))(4 (ADJ)))(2 (PUNCT)))) |ET| 
1  |BT| (4 (3 (2 (NOUN))(2 (2 (SCONJ))(2 (PROPN))))(2 (3 (1 (2 (AUX))(2 (PART)))(2 (1 (2 (VERB))(1 (2 (1 (ADJ))(2 (CCONJ)))(1 (ADJ))))(2 (2 (ADP))(2 (2 (DET))(2 (NOUN))))))(2 (PUNCT)))) |ET| 
-1  |BT| (1 (2 (PRON))(1 (1 (1 (1 (2 (AUX))(2 (2 (ADJ))(2 (2 (PART))(4 (3 (VERB))(2 (2 (PROPN))(2 (PROPN)))))))(2 (PUNCT)))(1 (2 (SCONJ))(2 (2 (PRON))(2 (2 (VERB))(1 (1 (1 (1 (1 (ADJ))(2 (NOUN)))(2 (CCONJ)))(2 (1 (ADJ))(2 (NOUN))))(3 (2 (2 (DET))(2 (NOUN)))(3 (2 (ADP))(4 (3 (ADJ))(3 (NOUN))))))))))(2 (PUNCT)))) |ET| 
1  |BT| (3 (3 (2 (ADV))(3 (ADJ)))(1 (2 (PUNCT))(2 (2 (2 (2 (1 (ADV))(2 (ADV)))(2 (ADV)))(2 (1 (2 (ADJ))(2 (NOUN)))(2 (VERB))))(2 (PUNCT))))) |ET| 
-1  |BT| (1 (1 (2 (3 (2 (ADV))(3 (ADJ)))(2 (PUNCT)))(1 (2 (CCONJ))(2 (2 (PRON))(2 (2 (2 (AUX))(2 (ADV)))(2 (2 (ADV))(1 (2 (ADV))(2 (ADV))))))))(2 (PUNCT))) |ET| 
1  |BT| (3 (0 (2 (2 (DET))(2 (NOUN)))(2 (2 (ADP))(0 (1 (2 (DET))(1 (1 (ADJ))(0 (2 (PUNCT))(1 (1 (ADJ))(3 (NOUN))))))(2 (2 (PRON))(2 (2 (2 (VERB))(2 (PART)))(2 (1 (2 (AUX))(1 (SCONJ)))(2 (2 (ADP))(2 (2 (DET))(2 (2 (ADJ))(2 (NOUN)))))))))))(2 (PUNCT))) |ET| 
1  |BT| (3 (3 (3 (2 (3 (2 (PRON))(3 (2 (3 (2 (VERB))(3 (3 (ADV))(2 (ADV))))(2 (PUNCT)))(3 (2 (SCONJ))(3 (3 (2 (DET))(4 (NOUN)))(2 (2 (2 (VERB))(2 (ADP)))(2 (ADV)))))))(2 (PUNCT)))(2 (CCONJ)))(3 (2 (2 (2 (DET))(2 (NOUN)))(2 (2 (ADP))(2 (2 (DET))(2 (NOUN)))))(3 (3 (2 (AUX))(3 (2 (ADV))(3 (2 (ADV))(4 (ADJ)))))(2 (2 (SCONJ))(2 (2 (PRON))(2 (2 (AUX))(2 (ADJ))))))))(2 (PUNCT))) |ET| 
1  |BT| (3 (2 (PRON))(3 (3 (3 (VERB))(2 (2 (PRON))(2 (2 (ADV))(2 (ADV)))))(2 (PUNCT)))) |ET| 
-1  |BT| (0 (2 (PRON))(0 (0 (2 (2 (VERB))(2 (PART)))(3 (3 (VERB))(2 (PRON))))(2 (PUNCT)))) |ET| 
1  |BT| (3 (3 (2 (2 (2 (PROPN))(3 (2 (VERB))(2 (PROPN))))(2 (CCONJ)))(2 (1 (2 (DET))(2 (NOUN)))(2 (2 (ADP))(2 (2 (3 (2 (VERB))(2 (2 (DET))(2 (2 (ADJ))(3 (2 (PROPN))(1 (NOUN))))))(2 (CCONJ)))(2 (2 (2 (VERB))(2 (ADP)))(2 (2 (ADP))(2 (2 (DET))(2 (NOUN)))))))))(3 (4 (PUNCT))(2 (NOUN)))) |ET| 
-1  |BT| (1 (1 (2 (2 (DET))(1 (2 (2 (2 (ADJ))(2 (CCONJ)))(0 (ADJ)))(2 (2 (NOUN))(1 (NOUN)))))(2 (ADV)))(1 (1 (2 (1 (3 (ADJ))(2 (2 (ADP))(2 (2 (2 (DET))(2 (2 (ADJ))(2 (NOUN))))(2 (2 (ADP))(2 (PROPN))))))(2 (2 (SCONJ))(2 (2 (DET))(3 (2 (NOUN))(1 (ADP))))))(2 (2 (ADP))(2 (2 (DET))(2 (PROPN)))))(2 (PUNCT)))) |ET| 
1  |BT| (4 (2 (PRON))(3 (3 (2 (AUX))(2 (2 (PART))(3 (2 (VERB))(2 (PRON)))))(2 (PUNCT)))) |ET| 
-1  |BT| (0 (2 (2 (PRON))(2 (2 (AUX))(1 (2 (ADJ))(2 (2 (PART))(2 (VERB))))))(1 (2 (2 (AUX))(2 (2 (ADV))(2 (2 (PRON))(2 (2 (2 (VERB))(2 (PRON)))(2 (ADP))))))(2 (PUNCT)))) |ET| 
1  |BT| (3 (3 (2 (NUM))(3 (2 (ADP))(4 (2 (DET))(3 (2 (2 (2 (2 (ADV))(3 (3 (ADV))(1 (ADJ))))(2 (CCONJ)))(3 (ADJ)))(2 (ADJ))))))(2 (3 (2 (NOUN))(1 (2 (SCONJ))(2 (2 (DET))(2 (2 (PROPN))(0 (PROPN))))))(2 (PUNCT)))) |ET| 
-1  |BT| (0 (2 (2 (DET))(2 (NOUN)))(1 (2 (PUNCT))(2 (1 (2 (VERB))(2 (2 (AUX))(1 (2 (AUX))(1 (1 (2 (VERB))(2 (ADV)))(1 (2 (ADP))(2 (2 (2 (DET))(2 (NOUN)))(3 (2 (ADP))(3 (2 (DET))(2 (2 (ADJ))(2 (NOUN)))))))))))(2 (PUNCT))))) |ET| 
1  |BT| (3 (2 (PRON))(3 (3 (2 (AUX))(3 (3 (2 (NOUN))(2 (2 (ADP))(3 (NOUN))))(2 (2 (PART))(2 (2 (AUX))(2 (VERB))))))(2 (PUNCT)))) |ET| 
-1  |BT| (1 (2 (3 (3 (3 (2 (PRON))(3 (2 (AUX))(3 (2 (DET))(4 (3 (ADV))(3 (2 (ADJ))(2 (2 (NOUN))(2 (2 (PART))(2 (2 (AUX))(2 (2 (VERB))(2 (2 (ADP))(2 (VERB))))))))))))(2 (PUNCT)))(2 (CCONJ)))(2 (2 (NOUN))(2 (1 (2 (AUX))(2 (PART)))(2 (PRON)))))(2 (PUNCT))) |ET| 
1  |BT| (4 (3 (2 (DET))(3 (3 (3 (ADJ))(3 (2 (PUNCT))(3 (VERB))))(2 (NOUN))))(3 (3 (1 (VERB))(3 (2 (ADP))(2 (2 (DET))(2 (NOUN)))))(2 (PUNCT)))) |ET| 
-1  |BT| (1 (0 (2 (ADP))(0 (1 (2 (2 (2 (PROPN))(3 (2 (PROPN))(2 (PUNCT))))(1 (1 (PROPN))(3 (3 (PART))(3 (2 (ADJ))(3 (2 (3 (NOUN))(2 (4 (PUNCT))(2 (PUNCT))))(2 (PROPN)))))))(2 (PROPN)))(2 (2 (PROPN))(2 (2 (PUNCT))(2 (PUNCT))))))(2 (PRON))) |ET| 
1  |BT| (3 (3 (1 (2 (1 (2 (2 (2 (2 (DET))(2 (2 (NOUN))(2 (PART))))(2 (NOUN)))(2 (2 (ADP))(3 (2 (2 (NOUN))(2 (CCONJ)))(2 (NOUN)))))(2 (1 (2 (AUX))(2 (PART)))(3 (2 (ADV))(3 (ADJ)))))(2 (PUNCT)))(2 (CCONJ)))(3 (2 (PRON))(3 (2 (2 (2 (2 (VERB))(2 (PART)))(2 (VERB)))(2 (CCONJ)))(3 (2 (AUX))(3 (2 (VERB))(3 (2 (ADP))(2 (2 (ADP))(2 (2 (DET))(3 (2 (ADJ))(2 (NOUN)))))))))))(2 (PUNCT))) |ET| 
-1  |BT| (0 (2 (CCONJ))(1 (2 (2 (DET))(2 (2 (NOUN))(2 (DET))))(1 (2 (1 (2 (AUX))(2 (PART)))(2 (ADV)))(2 (3 (VERB))(2 (2 (2 (2 (ADP))(2 (2 (NOUN))(3 (2 (NOUN))(3 (NOUN)))))(2 (CCONJ)))(2 (2 (ADP))(2 (3 (NOUN))(2 (NOUN))))))))) |ET| 
1  |BT| (3 (2 (2 (PROPN))(2 (PROPN)))(2 (2 (PUNCT))(2 (2 (PRON))(3 (2 (1 (VERB))(2 (PRON)))(2 (PUNCT)))))) |ET| 
-0.55013899224985440827850879941252  |BT| (1 (2 (PROPN))(1 (1 (1 (VERB))(2 (PRON)))(2 (PUNCT)))) |ET| 
1  |BT| (3 (3 (2 (NOUN))(3 (2 (ADP))(2 (2 (ADJ))(2 (3 (3 (NOUN))(2 (CCONJ)))(2 (ADJ))))))(3 (3 (2 (1 (NOUN))(2 (CCONJ)))(3 (1 (2 (AUX))(2 (PART)))(1 (2 (ADJ))(3 (2 (PART))(3 (2 (2 (VERB))(2 (NOUN)))(2 (2 (ADP))(2 (2 (CCONJ))(3 (2 (2 (2 (DET))(2 (NOUN)))(2 (CCONJ)))(2 (2 (DET))(2 (NOUN)))))))))))(2 (PUNCT)))) |ET| 
-1  |BT| (1 (2 (3 (2 (2 (ADV))(3 (2 (2 (PROPN))(2 (PART)))(4 (2 (ADJ))(2 (2 (ADJ))(2 (NOUN))))))(2 (CCONJ)))(3 (3 (ADJ))(3 (NOUN))))(1 (1 (2 (2 (VERB))(2 (PART)))(2 (2 (VERB))(2 (2 (DET))(2 (NOUN)))))(2 (PUNCT)))) |ET| 
1  |BT| (3 (2 (PUNCT))(2 (2 (2 (2 (3 (2 (INTJ))(2 (2 (PUNCT))(3 (2 (DET))(2 (2 (AUX))(3 (ADJ))))))(2 (PUNCT)))(2 (2 (2 (2 (PRON))(2 (2 (AUX))(2 (2 (PROPN))(2 (PROPN)))))(2 (PUNCT)))(1 (3 (PROPN))(2 (2 (ADP))(1 (PROPN))))))(2 (PUNCT)))(2 (PUNCT)))) |ET| 
-1  |BT| (0 (2 (PRON))(1 (0 (2 (AUX))(1 (0 (0 (1 (1 (PRON))(3 (ADJ)))(0 (2 (ADP))(1 (2 (DET))(1 (2 (DET))(2 (2 (PUNCT))(2 (NOUN)))))))(2 (PUNCT)))(2 (2 (2 (AUX))(2 (PUNCT)))(2 (2 (AUX))(2 (PUNCT))))))(2 (VERB)))) |ET| 
1  |BT| (3 (3 (2 (PRON))(2 (2 (PRON))(2 (2 (ADV))(2 (2 (2 (3 (VERB))(2 (2 (ADP))(2 (2 (NOUN))(2 (NOUN)))))(2 (CCONJ)))(2 (2 (2 (VERB))(2 (PART)))(3 (2 (VERB))(2 (2 (DET))(2 (2 (2 (2 (SYM))(2 (20)))(2 (NUM)))(2 (2 (NUM))(2 (2 (NOUN))(2 (2 (PART))(2 (2 (VERB))(2 (2 (DET))(2 (ADJ)))))))))))))))(3 (3 (2 (NOUN))(3 (2 (VERB))(2 (2 (VERB))(2 (2 (DET))(2 (ADJ))))))(2 (NOUN)))) |ET| 
-1  |BT| (1 (2 (2 (VERB))(2 (2 (SCONJ))(2 (2 (2 (2 (PRON))(2 (ADJ)))(2 (CCONJ)))(2 (2 (ADJ))(2 (2 (NOUN))(2 (NOUN)))))))(2 (2 (2 (AUX))(2 (2 (VERB))(2 (2 (2 (20))(2 (NUM)))(2 (NOUN)))))(2 (ADV)))) |ET| 
1  |BT| (4 (4 (2 (3 (2 (PRON))(2 (2 (AUX))(3 (1 (DET))(1 (NOUN)))))(2 (PUNCT)))(4 (2 (2 (ADJ))(2 (1 (PROPN))(1 (PROPN))))(3 (2 (AUX))(4 (2 (DET))(2 (3 (ADV))(3 (ADJ)))))))(2 (PUNCT))) |ET| 
1  |BT| (3 (3 (2 (2 (2 (2 (PROPN))(3 (2 (ADV))(1 (2 (VERB))(3 (2 (ADP))(2 (2 (ADJ))(3 (ADJ)))))))(2 (ADJ)))(2 (NOUN)))(3 (2 (2 (PUNCT))(2 (2 (CCONJ))(2 (2 (ADP))(2 (DET)))))(3 (2 (ADJ))(3 (3 (3 (2 (NOUN))(2 (2 (PRON))(3 (2 (2 (VERB))(2 (2 (ADJ))(2 (DET))))(3 (2 (PROPN))(3 (2 (2 (PROPN))(2 (VERB)))(2 (3 (2 (DET))(3 (3 (NOUN))(2 (DET))))(2 (ADJ))))))))(2 (NOUN)))(2 (2 (VERB))(3 (2 (PUNCT))(3 (2 (3 (VERB))(2 (PRON)))(0 (ADJ)))))))))(2 (CCONJ))) |ET| 
1  |BT| (3 (3 (2 (VERB))(3 (2 (AUX))(3 (2 (VERB))(3 (2 (SCONJ))(2 (3 (3 (3 (4 (ADJ))(2 (NOUN)))(2 (CCONJ)))(2 (NOUN)))(2 (PUNCT)))))))(2 (2 (NOUN))(2 (2 (SCONJ))(2 (NOUN))))) |ET| 
-1  |BT| (1 (2 (3 (PROPN))(4 (3 (PROPN))(2 (PROPN))))(1 (3 (ADV))(1 (1 (2 (2 (VERB))(2 (PART)))(4 (2 (AUX))(3 (2 (VERB))(3 (2 (SCONJ))(3 (2 (NUM))(3 (2 (ADP))(2 (2 (1 (PUNCT))(2 (2 (2 (PROPN))(2 (PART)))(3 (PUNCT))))(1 (4 (ADJ))(2 (NOUN))))))))))(2 (PUNCT))))) |ET| 
1  |BT| (3 (4 (3 (2 (DET))(4 (3 (NOUN))(3 (2 (PUNCT))(3 (3 (VERB))(1 (CCONJ))))))(2 (2 (ADV))(1 (PUNCT))))(2 (ADJ))) |ET| 
-1  |BT| (1 (1 (1 (2 (DET))(2 (1 (2 (3 (2 (ADV))(2 (ADJ)))(2 (CCONJ)))(0 (2 (ADV))(2 (ADJ))))(3 (NOUN))))(2 (2 (PUNCT))(3 (NOUN))))(2 (NOUN))) |ET| 
1  |BT| (4 (2 (2 (PROPN))(2 (PROPN)))(3 (3 (2 (AUX))(2 (2 (VERB))(2 (2 (PART))(2 (2 (VERB))(2 (PROPN))))))(2 (PUNCT)))) |ET| 
-1  |BT| (1 (2 (2 (PROPN))(2 (PROPN)))(2 (2 (3 (VERB))(2 (2 (PART))(2 (2 (VERB))(2 (PRON)))))(2 (PUNCT)))) |ET| 
1  |BT| (4 (3 (2 (2 (PART))(2 (ADV)))(4 (2 (2 (3 (3 (2 (2 (DET))(2 (2 (ADJ))(2 (PUNCT))))(2 (ADP)))(2 (2 (PUNCT))(2 (NOUN))))(2 (NOUN)))(2 (2 (CCONJ))(2 (ADJ))))(3 (2 (NOUN))(3 (3 (4 (PUNCT))(2 (CCONJ)))(2 (2 (ADV))(2 (DET)))))))(2 (ADV))) |ET| 
-1  |BT| (1 (1 (2 (DET))(1 (1 (2 (2 (3 (3 (ADV))(3 (ADJ)))(2 (CCONJ)))(2 (2 (ADV))(2 (ADJ))))(2 (CCONJ)))(1 (2 (ADV))(1 (ADJ)))))(3 (3 (2 (NOUN))(2 (2 (ADP))(3 (3 (2 (NOUN))(2 (CCONJ)))(2 (NOUN)))))(2 (PUNCT)))) |ET| 
1  |BT| (3 (2 (2 (PROPN))(2 (PROPN)))(3 (2 (2 (2 (VERB))(2 (PRON)))(2 (2 (DET))(3 (3 (NOUN))(2 (2 (PART))(1 (2 (VERB))(1 (1 (ADJ))(2 (NOUN))))))))(2 (PUNCT)))) |ET| 
-1  |BT| (1 (2 (PRON))(0 (1 (2 (VERB))(1 (2 (AUX))(1 (1 (2 (VERB))(1 (2 (DET))(3 (2 (2 (2 (NUM))(2 (NOUN)))(4 (ADV)))(2 (VERB)))))(2 (2 (2 (AUX))(2 (2 (PROPN))(2 (PROPN))))(2 (ADV))))))(2 (PUNCT)))) |ET| 
1  |BT| (3 (2 (2 (ADJ))(3 (3 (2 (2 (CCONJ))(2 (ADV)))(3 (ADJ)))(1 (NOUN))))(2 (PUNCT))) |ET| 
-1  |BT| (0 (2 (ADJ))(2 (PUNCT))) |ET| 
1  |BT| (4 (4 (1 (0 (1 (VERB))(2 (2 (ADP))(3 (4 (2 (NUM))(3 (3 (PROPN))(2 (NOUN))))(2 (2 (ADP))(2 (2 (2 (PROPN))(2 (PROPN)))(2 (2 (DET))(2 (NOUN))))))))(2 (PUNCT)))(2 (2 (PRON))(3 (2 (VERB))(3 (2 (AUX))(2 (2 (DET))(2 (NUM)))))))(2 (PUNCT))) |ET| 
-1  |BT| (0 (1 (1 (2 (2 (VERB))(3 (2 (DET))(3 (3 (ADJ))(2 (NOUN)))))(1 (2 (ADP))(0 (2 (2 (NOUN))(2 (CCONJ)))(1 (3 (2 (DET))(2 (NOUN)))(1 (2 (PRON))(0 (2 (VERB))(0 (2 (ADP))(1 (2 (2 (DET))(2 (2 (DET))(2 (NOUN))))(1 (2 (ADP))(1 (2 (1 (NOUN))(2 (CCONJ)))(1 (2 (VERB))(2 (NOUN)))))))))))))(2 (2 (SCONJ))(2 (2 (PRON))(1 (2 (2 (VERB))(2 (2 (ADV))(3 (ADV))))(2 (2 (AUX))(2 (2 (VERB))(2 (2 (2 (PROPN))(2 (PROPN)))(2 (1 (ADP))(2 (2 (DET))(2 (1 (PROPN))(1 (PROPN))))))))))))(2 (PUNCT))) |ET| 
1  |BT| (3 (3 (3 (2 (ADJ))(2 (CCONJ)))(2 (ADJ)))(2 (PUNCT))) |ET| 
-1  |BT| (1 (2 (CCONJ))(2 (2 (ADV))(2 (2 (3 (2 (AUX))(2 (2 (2 (DET))(2 (NOUN)))(2 (2 (ADP))(2 (PRON)))))(2 (ADV)))(2 (PUNCT))))) |ET| 
1  |BT| (4 (3 (3 (2 (DET))(4 (4 (ADJ))(2 (NOUN))))(2 (2 (PRON))(2 (2 (VERB))(2 (2 (VERB))(2 (2 (ADP))(2 (2 (DET))(2 (NOUN))))))))(3 (4 (2 (AUX))(4 (2 (SCONJ))(3 (2 (PRON))(3 (2 (2 (VERB))(2 (PART)))(2 (2 (VERB))(2 (2 (PART))(2 (2 (VERB))(2 (2 (PRON))(2 (2 (2 (DET))(2 (NOUN)))(2 (2 (AUX))(2 (ADV))))))))))))(2 (PUNCT)))) |ET| 
-1  |BT| (1 (2 (PRON))(2 (2 (2 (AUX))(1 (2 (2 (DET))(3 (3 (ADJ))(2 (NOUN))))(1 (2 (DET))(1 (3 (2 (VERB))(2 (ADV)))(1 (2 (VERB))(2 (3 (2 (2 (DET))(2 (NOUN)))(3 (2 (ADP))(2 (PRON))))(3 (2 (PRON))(2 (1 (2 (AUX))(2 (PART)))(2 (2 (2 (VERB))(2 (2 (ADP))(2 (2 (NOUN))(2 (2 (DET))(2 (NOUN))))))(2 (ADV)))))))))))(2 (PUNCT)))) |ET| 
1  |BT| (3 (4 (3 (2 (2 (3 (2 (ADV))(3 (4 (4 (ADJ))(2 (CCONJ)))(1 (ADJ))))(2 (PUNCT)))(1 (ADJ)))(2 (CCONJ)))(3 (3 (2 (3 (3 (ADJ))(2 (PUNCT)))(1 (ADJ)))(2 (CCONJ)))(3 (ADJ))))(2 (PUNCT))) |ET| 
-1  |BT| (0 (3 (3 (2 (DET))(2 (3 (ADJ))(3 (NOUN))))(2 (DET)))(0 (2 (1 (2 (2 (2 (AUX))(2 (CCONJ)))(1 (1 (1 (2 (ADV))(3 (ADJ)))(2 (CCONJ)))(4 (2 (ADV))(4 (ADJ)))))(2 (PUNCT)))(2 (ADV)))(2 (PUNCT)))) |ET| 
1  |BT| (3 (1 (2 (SCONJ))(1 (2 (2 (2 (PROPN))(2 (PART)))(2 (NOUN)))(1 (1 (2 (AUX))(2 (PART)))(2 (2 (2 (VERB))(2 (2 (2 (DET))(2 (NOUN)))(1 (2 (ADP))(2 (2 (DET))(1 (2 (ADJ))(1 (NOUN)))))))(2 (2 (ADP))(2 (2 (NOUN))(2 (PUNCT))))))))(3 (2 (NOUN))(3 (2 (NOUN))(4 (3 (3 (PUNCT))(3 (2 (PRON))(3 (3 (2 (VERB))(3 (4 (SCONJ))(2 (DET))))(1 (2 (ADJ))(2 (0 (2 (NOUN))(0 (ADP)))(2 (2 (DET))(2 (2 (NOUN))(2 (2 (ADP))(2 (DET))))))))))(2 (NOUN)))))) |ET| 
-1  |BT| (1 (3 (2 (2 (NOUN))(2 (NOUN)))(2 (2 (ADP))(3 (2 (PUNCT))(3 (2 (2 (PUNCT))(3 (PROPN)))(3 (2 (PROPN))(4 (PUNCT)))))))(2 (0 (2 (NOUN))(0 (2 (1 (AUX))(2 (ADJ)))(1 (CCONJ))))(2 (ADJ)))) |ET| 
1  |BT| (4 (2 (PRON))(4 (4 (2 (AUX))(4 (4 (3 (3 (2 (DET))(3 (NOUN)))(3 (2 (PUNCT))(3 (2 (PROPN))(3 (PUNCT)))))(2 (ADV)))(4 (3 (4 (3 (3 (VERB))(2 (PUNCT)))(2 (ADV)))(2 (2 (VERB))(2 (2 (CCONJ))(2 (PUNCT)))))(3 (2 (ADV))(3 (PUNCT))))))(2 (ADV)))) |ET| 
-1  |BT| (0 (0 (1 (2 (1 (2 (ADV))(3 (ADJ)))(2 (2 (SCONJ))(2 (2 (PRON))(2 (2 (VERB))(2 (AUX))))))(2 (CCONJ)))(1 (1 (2 (ADV))(3 (ADJ)))(2 (2 (SCONJ))(2 (2 (PRON))(2 (2 (VERB))(3 (2 (PRON))(2 (AUX))))))))(2 (PUNCT))) |ET| 
1  |BT| (3 (2 (2 (ADP))(2 (2 (ADJ))(2 (NOUN))))(4 (2 (3 (PROPN))(2 (PROPN)))(4 (3 (2 (VERB))(3 (3 (2 (DET))(3 (2 (ADJ))(2 (2 (ADJ))(2 (NOUN)))))(2 (2 (ADP))(2 (2 (ADJ))(2 (NOUN))))))(2 (PUNCT))))) |ET| 
-1  |BT| (1 (2 (2 (DET))(2 (ADJ)))(2 (1 (1 (1 (ADJ))(2 (2 (2 (NOUN))(2 (PART)))(2 (NOUN))))(2 (2 (PART))(2 (2 (3 (VERB))(2 (2 (DET))(2 (NOUN))))(2 (2 (ADP))(3 (2 (2 (PROPN))(2 (2 (PROPN))(2 (PART))))(2 (PROPN)))))))(2 (PUNCT)))) |ET| 
1  |BT| (3 (2 (ADV))(3 (2 (2 (3 (ADJ))(2 (CCONJ)))(2 (ADV)))(2 (2 (3 (ADJ))(2 (2 (SCONJ))(2 (2 (PRON))(2 (2 (ADV))(2 (3 (2 (VERB))(1 (ADP)))(2 (2 (PART))(2 (AUX))))))))(2 (PUNCT))))) |ET| 
1  |BT| (3 (3 (4 (2 (DET))(3 (3 (ADV))(2 (2 (PUNCT))(2 (ADJ)))))(2 (2 (NOUN))(2 (3 (2 (NOUN))(3 (ADP)))(2 (2 (DET))(3 (NOUN))))))(2 (3 (2 (ADP))(2 (2 (PROPN))(1 (2 (NOUN))(2 (2 (2 (PRON))(2 (2 (1VERB))(2 (NOUN))))(2 (2 (NUM))(2 (2 (NOUN))(1 (ADP))))))))(2 (DET)))) |ET| 
1  |BT| (3 (2 (PRON))(4 (3 (2 (AUX))(3 (1 (DET))(2 (1 (VERB))(3 (3 (2 (DET))(2 (NOUN)))(2 (2 (ADP))(2 (2 (2 (PROPN))(2 (PART)))(2 (NOUN))))))))(2 (PUNCT)))) |ET| 
-1  |BT| (0 (2 (2 (1 (DET))(2 (NOUN)))(2 (2 (ADP))(3 (3 (ADJ))(2 (NOUN)))))(2 (3 (2 (AUX))(2 (3 (ADJ))(2 (2 (PART))(3 (2 (VERB))(2 (1 (2 (DET))(2 (NOUN)))(2 (2 (ADP))(2 (2 (DET))(2 (NOUN)))))))))(2 (PUNCT)))) |ET| 
1  |BT| (4 (2 (2 (ADV))(3 (2 (2 (ADV))(2 (ADJ)))(4 (3 (2 (DET))(3 (NOUN)))(2 (SCONJ)))))(2 (2 (PRON))(2 (2 (ADV))(2 (2 (VERB))(2 (PUNCT)))))) |ET| 
-1  |BT| (1 (2 (PUNCT))(0 (0 (2 (VERB))(0 (2 (2 (2 (2 (ADV))(2 (ADJ)))(3 (NOUN)))(2 (CCONJ)))(1 (2 (2 (ADV))(2 (ADJ)))(3 (NOUN)))))(2 (PUNCT)))) |ET| 
1  |BT| (3 (1 (2 (NUM))(1 (ADJ)))(3 (4 (2 (2 (NOUN))(2 (NOUN)))(3 (2 (ADP))(3 (3 (3 (4 (ADJ))(2 (NOUN)))(2 (CCONJ)))(3 (2 (DET))(4 (3 (ADJ))(2 (2 (NOUN))(2 (NOUN))))))))(2 (PUNCT)))) |ET| 
-1  |BT| (0 (2 (PRON))(1 (0 (2 (2 (AUX))(1 (PART)))(1 (3 (2 (3 (2 (NUM))(3 (3 (ADJ))(2 (NOUN))))(2 (2 (ADP))(2 (2 (DET))(2 (NOUN)))))(2 (CCONJ)))(0 (0 (1 (PART))(3 (2 (NUM))(2 (4 (ADJ))(2 (NOUN)))))(2 (2 (ADP))(2 (NOUN))))))(2 (PUNCT)))) |ET| 
1  |BT| (4 (3 (2 (PROPN))(3 (NOUN)))(4 (3 (1 (2 (VERB))(2 (ADV)))(2 (2 (VERB))(2 (2 (ADP))(2 (ADJ)))))(2 (PUNCT)))) |ET| 
-1  |BT| (0 (2 (PRON))(1 (2 (2 (2 (VERB))(2 (ADV)))(1 (2 (VERB))(1 (2 (2 (PROPN))(2 (PROPN)))(2 (2 (VERB))(2 (ADP))))))(2 (PUNCT)))) |ET| 
1  |BT| (3 (2 (2 (DET))(2 (NOUN)))(2 (2 (1 (2 (AUX))(1 (PART)))(0 (0 (2 (ADV))(1 (2 (ADV))(0 (ADJ))))(2 (2 (SCONJ))(1 (VERB)))))(2 (PUNCT)))) |ET| 
-1  |BT| (1 (3 (3 (2 (DET))(3 (3 (ADV))(3 (PUNCT))))(2 (ADV)))(0 (2 (NOUN))(4 (3 (2 (DET))(3 (2 (ADV))(1 (VERB))))(2 (ADP))))) |ET| 
1  |BT| (3 (2 (PRON))(2 (4 (2 (PUNCT))(2 (2 (PROPN))(3 (2 (VERB))(3 (2 (3 (PART))(2 (VERB)))(3 (3 (2 (PRON))(2 (1 (DET))(2 (ADJ))))(2 (NOUN)))))))(2 (ADP)))) |ET| 
-1  |BT| (1 (1 (2 (3 (2 (2 (PRON))(2 (2 (VERB))(2 (2 (VERB))(2 (PRON)))))(2 (PUNCT)))(2 (CCONJ)))(1 (2 (PRON))(1 (2 (AUX))(2 (1 (DET))(2 (NOUN))))))(2 (PUNCT))) |ET| 
1  |BT| (3 (2 (2 (2 (DET))(2 (NOUN)))(2 (2 (ADV))(2 (2 (VERB))(2 (PROPN)))))(3 (3 (2 (AUX))(3 (2 (PART))(3 (3 (4 (3 (2 (2 (2 (VERB))(2 (2 (2 (DET))(2 (NOUN)))(2 (2 (ADP))(2 (2 (DET))(2 (NOUN))))))(2 (PUNCT)))(3 (3 (VERB))(3 (3 (2 (DET))(4 (NOUN)))(2 (2 (ADP))(2 (2 (DET))(2 (2 (2 (NOUN))(2 (CCONJ)))(2 (NOUN))))))))(2 (PUNCT)))(2 (CCONJ)))(2 (2 (VERB))(2 (3 (2 (3 (2 (2 (2 (DET))(2 (ADJ)))(2 (PUNCT)))(3 (ADJ)))(2 (PUNCT)))(2 (CCONJ)))(2 (2 (2 (ADJ))(2 (NOUN)))(2 (2 (DET))(2 (2 (VERB))(2 (2 (ADP))(2 (PRON)))))))))))(2 (PUNCT)))) |ET| 
-1  |BT| (1 (3 (2 (SCONJ))(4 (2 (3 (ADJ))(2 (CCONJ)))(3 (ADJ))))(2 (2 (2 (SCONJ))(2 (2 (ADJ))(2 (NOUN))))(2 (3 (2 (PART))(2 (2 (NOUN))(2 (2 (ADP))(2 (2 (PROPN))(2 (2 (DET))(2 (PROPN)))))))(2 (PUNCT))))) |ET| 
1  |BT| (3 (2 (PRON))(3 (4 (2 (VERB))(2 (2 (PART))(1 (2 (AUX))(2 (2 (VERB))(3 (ADV))))))(2 (PUNCT)))) |ET| 
1  |BT| (4 (2 (2 (2 (DET))(2 (3 (ADJ))(2 (NOUN))))(3 (2 (ADP))(3 (3 (2 (2 (2 (PROPN))(2 (PROPN)))(2 (PUNCT)))(3 (2 (DET))(3 (2 (NOUN))(2 (NOUN)))))(2 (PUNCT)))))(3 (3 (2 (2 (AUX))(2 (ADV)))(2 (ADJ)))(2 (PUNCT)))) |ET| 
-1  |BT| (1 (0 (3 (SCONJ))(1 (2 (2 (2 (DET))(2 (NOUN)))(2 (PUNCT)))(0 (2 (DET))(1 (2 (2 (NOUN))(1 (2 (VERB))(2 (NOUN))))(1 (2 (3 (1 (VERB))(2 (2 (ADV))(2 (2 (PART))(2 (VERB)))))(2 (2 (DET))(2 (2 (ADJ))(2 (2 (ADJ))(2 (2 (NOUN))(3 (NOUN)))))))(2 (ADV)))))))(1 (2 (PUNCT))(0 (2 (2 (2 (DET))(2 (NOUN)))(2 (2 (ADP))(2 (PROPN))))(0 (0 (2 (VERB))(1 (2 (1 (3 (VERB))(2 (2 (ADP))(1 (PRON))))(2 (ADJ)))(2 (2 (ADP))(0 (0 (ADJ))(1 (2 (PUNCT))(2 (2 (NOUN))(2 (PUNCT))))))))(2 (VERB)))))) |ET| 
-1  |BT| (0 (1 (2 (PRON))(0 (2 (AUX))(1 (1 (1 (DET))(3 (3 (ADJ))(2 (NOUN))))(2 (2 (ADP))(2 (2 (PROPN))(2 (2 (CCONJ))(2 (2 (ADJ))(2 (2 (NOUN))(2 (2 (PROPN))(2 (PROPN)))))))))))(2 (2 (PUNCT))(1 (2 (2 (3 (CCONJ))(2 (2 (DET))(2 (NOUN))))(1 (2 (ADP))(2 (2 (PROPN))(2 (2 (PROPN))(2 (2 (NOUN))(2 (2 (PROPN))(2 (PROPN))))))))(1 (1 (2 (AUX))(3 (3 (ADJ))(2 (2 (ADP))(2 (2 (DET))(2 (NOUN))))))(2 (PUNCT)))))) |ET| 
0.36712853297631009574786276061786  |BT| (4 (1 (3 (3 (3 (ADJ))(2 (CCONJ)))(2 (ADJ)))(1 (2 (SCONJ))(1 (2 (DET))(2 (2 (VERB))(3 (PUNCT))))))(3 (2 (ADP))(3 (1 (NOUN))(3 (3 (2 (2 (2 (PUNCT))(2 (2 (NOUN))(2 (2 (VERB))(2 (2 (DET))(2 (2 (NOUN))(2 (PUNCT)))))))(2 (ADJ)))(3 (3 (2 (PUNCT))(2 (3 (NOUN))(3 (PUNCT))))(2 (2 (NOUN))(2 (NOUN)))))(2 (CCONJ)))))) |ET| 
-1  |BT| (1 (2 (VERB))(1 (1 (2 (VERB))(3 (2 (DET))(2 (3 (2 (ADV))(2 (ADJ)))(3 (NOUN)))))(2 (PUNCT)))) |ET| 
1  |BT| (3 (2 (2 (DET))(2 (NOUN)))(3 (2 (AUX))(4 (2 (SCONJ))(4 (2 (PRON))(3 (3 (ADV))(3 (3 (3 (VERB))(2 (2 (ADJ))(2 (2 (ADP))(2 (2 (ADV))(2 (PROPN))))))(2 (2 (SCONJ))(2 (2 (PRON))(2 (VERB)))))))))) |ET| 
-1  |BT| (1 (2 (1 (0 (2 (DET))(1 (NOUN)))(2 (2 (ADP))(3 (3 (ADJ))(2 (NOUN)))))(2 (2 (ADP))(2 (2 (DET))(2 (2 (NOUN))(2 (NOUN))))))(2 (PUNCT))) |ET| 
-1  |BT| (0 (0 (1 (2 (0 (VERB))(1 (2 (SCONJ))(2 (2 (DET))(2 (3 (ADJ))(2 (NOUN))))))(2 (PUNCT)))(1 (2 (SCONJ))(1 (2 (2 (1 (2 (2 (2 (2 (DET))(2 (NOUN)))(2 (2 (ADP))(3 (2 (PROPN))(2 (4NUM)))))(2 (PUNCT)))(2 (CCONJ)))(2 (ADV)))(2 (SCONJ)))(1 (2 (2 (DET))(0 (NOUN)))(2 (2 (PUNCT))(2 (2 (NOUN))(2 (ADP))))))))(2 (DET))) |ET| 
1  |BT| (4 (4 (2 (NUM))(4 (2 (ADP))(4 (2 (DET))(3 (4 (2 (ADV))(4 (ADJ)))(2 (NOUN))))))(2 (2 (ADV))(2 (2 (2 (VERB))(2 (2 (ADP))(2 (2 (2 (DET))(3 (NOUN)))(2 (2 (ADP))(2 (NOUN))))))(2 (PUNCT))))) |ET| 
1  |BT| (4 (2 (PRON))(3 (4 (2 (2 (AUX))(2 (ADV)))(3 (2 (1 (DET))(2 (NOUN)))(3 (2 (SCONJ))(4 (2 (2 (DET))(2 (NOUN)))(3 (3 (2 (VERB))(2 (2 (DET))(3 (3 (ADJ))(2 (NOUN)))))(2 (2 (ADP))(3 (2 (2 (DET))(2 (3 (ADJ))(2 (NOUN))))(2 (2 (ADP))(2 (2 (2 (DET))(2 (NOUN)))(2 (2 (ADP))(2 (2 (DET))(2 (NOUN)))))))))))))(2 (PUNCT)))) |ET| 
-1  |BT| (1 (1 (2 (2 (2 (2 (1 (VERB))(3 (2 (2 (DET))(2 (2 (NOUN))(2 (2 (101))(2 (NUM)))))(3 (2 (NOUN))(2 (2 (ADP))(2 (ADJ))))))(2 (NOUN)))(2 (2 (CCONJ))(2 (2 (ADV))(2 (3 (2 (VERB))(2 (DET)))(2 (2 (NOUN))(2 (2 (ADP))(2 (2 (NOUN))(2 (ADP)))))))))(2 (NOUN)))(1 (2 (CCONJ))(2 (2 (2 (DET))(2 (VERB)))(1 (2 (PART))(1 (2 (VERB))(1 (2 (2 (SCONJ))(2 (DET)))(0 (DET))))))))(2 (NOUN))) |ET| 
1  |BT| (3 (2 (PRON))(2 (2 (2 (AUX))(2 (ADJ)))(2 (PUNCT)))) |ET| 
-1  |BT| (0 (2 (PRON))(0 (0 (2 (AUX))(0 (2 (2 (PROPN))(2 (PROPN)))(2 (ADJ))))(2 (PUNCT)))) |ET| 
1  |BT| (3 (3 (3 (2 (2 (DET))(2 (1 (NOUN))(2 (NOUN))))(2 (2 (ADP))(2 (2 (DET))(2 (NOUN)))))(2 (2 (PART))(2 (VERB))))(2 (PUNCT))) |ET| 
-1  |BT| (1 (1 (2 (VERB))(1 (2 (2 (VERB))(2 (2 (DET))(2 (NOUN))))(2 (2 (ADP))(2 (3 (VERB))(2 (2 (DET))(2 (2 (ADJ))(2 (NOUN))))))))(2 (PUNCT))) |ET| 
1  |BT| (3 (3 (3 (2 (PROPN))(2 (PROPN)))(2 (PROPN)))(2 (PUNCT))) |ET| 
-1  |BT| (0 (0 (1 (1 (PROPN))(2 (PUNCT)))(2 (2 (PROPN))(2 (PUNCT))))(2 (2 (PROPN))(2 (PROPN)))) |ET| 
1  |BT| (3 (2 (2 (2 (2 (DET))(2 (2 (ADJ))(2 (NOUN))))(2 (CCONJ)))(2 (2 (ADJ))(2 (NOUN))))(3 (3 (2 (VERB))(3 (2 (VERB))(3 (2 (ADV))(2 (2 (ADP))(2 (2 (2 (DET))(2 (NOUN)))(2 (2 (AUX))(2 (VERB))))))))(2 (PUNCT)))) |ET| 
-1  |BT| (1 (2 (NOUN))(1 (1 (1 (1 (2 (2 (NOUN))(1 (ADP)))(2 (2 (ADP))(1 (2 (DET))(1 (NOUN)))))(2 (CCONJ)))(2 (2 (VERB))(3 (2 (DET))(4 (4 (ADJ))(2 (NOUN))))))(2 (PUNCT)))) |ET| 
1  |BT| (3 (2 (PROPN))(2 (2 (PROPN))(2 (PUNCT)))) |ET| 
-0.71864496682452483344860638680984  |BT| (1 (1 (2 (2 (2 (PROPN))(2 (1 (2 (AUX))(2 (PART)))(2 (PROPN))))(2 (CCONJ)))(2 (2 (PROPN))(2 (1 (2 (AUX))(2 (PART)))(2 (PROPN)))))(2 (PUNCT))) |ET| 
1  |BT| (3 (1 (PROPN))(4 (4 (2 (VERB))(4 (4 (2 (DET))(4 (4 (ADJ))(2 (NOUN))))(3 (2 (DET))(3 (2 (VERB))(2 (2 (3 (2 (DET))(2 (NOUN)))(2 (CCONJ)))(2 (2 (2 (VERB))(1 (NOUN)))(3 (2 (ADP))(2 (2 (DET))(2 (NOUN))))))))))(2 (PUNCT)))) |ET| 
-1  |BT| (0 (2 (2 (DET))(2 (NOUN)))(1 (0 (2 (VERB))(0 (2 (ADP))(1 (2 (2 (2 (DET))(1 (NOUN)))(2 (CCONJ)))(3 (2 (VERB))(3 (2 (DET))(3 (2 (ADJ))(3 (NOUN))))))))(2 (PUNCT)))) |ET| 
1  |BT| (4 (3 (2 (2 (PROPN))(2 (2 (PROPN))(2 (PART))))(2 (PROPN)))(3 (3 (2 (AUX))(3 (1 (1 (2 (3 (ADJ))(2 (PUNCT)))(1 (ADJ)))(2 (CCONJ)))(4 (1 (ADV))(4 (ADJ)))))(2 (PUNCT)))) |ET| 
-1  |BT| (0 (2 (ADV))(1 (1 (2 (3 (ADJ))(2 (CCONJ)))(2 (PROPN)))(2 (2 (VERB))(2 (PUNCT))))) |ET| 
1  |BT| (3 (3 (3 (2 (DET))(3 (3 (2 (1 (ADV))(2 (PUNCT)))(3 (NOUN)))(2 (CCONJ))))(3 (2 (ADJ))(2 (2 (2 (NOUN))(2 (2 (ADP))(2 (DET))))(2 (2 (ADJ))(2 (2 (NOUN))(2 (2 (ADP))(2 (2 (NOUN))(2 (2 (PART))(2 (2 (VERB))(2 (ADP)))))))))))(1 (2 (2 (DET))(2 (2 (DET))(2 (2 (AUX))(2 (2 (ADJ))(2 (ADP))))))(2 (DET)))) |ET| 
-1  |BT| (1 (2 (2 (DET))(2 (NOUN)))(1 (2 (1 (1 (2 (AUX))(1 (2 (DET))(1 (1 (ADJ))(2 (NOUN)))))(2 (PUNCT)))(1 (2 (ADP))(2 (2 (2 (ADJ))(2 (NOUN)))(2 (2 (ADP))(2 (4 (NOUN))(2 (3 (VERB))(2 (2 (ADP))(1 (2 (DET))(1 (2 (ADJ))(2 (NOUN)))))))))))(2 (PUNCT)))) |ET| 
1  |BT| (3 (3 (3 (3 (2 (ADV))(3 (ADJ)))(2 (CCONJ)))(2 (2 (ADV))(2 (VERB))))(2 (PUNCT))) |ET| 
-1  |BT| (1 (2 (2 (ADV))(3 (ADJ)))(2 (2 (2 (PART))(2 (2 (VERB))(2 (ADV))))(2 (PUNCT)))) |ET| 
1  |BT| (3 (3 (1 (2 (0 (2 (VERB))(2 (3 (PROPN))(2 (2 (PUNCT))(2 (NOUN)))))(2 (2 (DET))(2 (2 (NOUN))(2 (2 (ADP))(2 (2 (DET))(2 (ADJ)))))))(2 (NOUN)))(3 (2 (NOUN))(4 (2 (2 (CCONJ))(2 (PRON)))(3 (2 (AUX))(4 (2 (ADJ))(3 (2 (SCONJ))(3 (2 (2 (DET))(2 (2 (AUX))(2 (NUM))))(3 (2 (NOUN))(4 (NOUN))))))))))(2 (DET))) |ET| 
-1  |BT| (1 (3 (2 (3 (2 (DET))(2 (NOUN)))(2 (CCONJ)))(2 (2 (DET))(2 (NOUN))))(1 (2 (PRON))(2 (2 (2 (AUX))(1 (2 (2 (ADJ))(2 (ADJ)))(2 (2 (SCONJ))(2 (NOUN)))))(2 (PUNCT))))) |ET| 
1  |BT| (4 (3 (2 (2 (2 (ADV))(2 (ADV)))(2 (PUNCT)))(4 (2 (DET))(4 (4 (NOUN))(2 (2 (PART))(3 (2 (2 (2 (VERB))(2 (CCONJ)))(2 (2 (PUNCT))(2 (2 (ADV))(2 (PUNCT)))))(2 (2 (PART))(2 (2 (VERB))(2 (ADP)))))))))(2 (PUNCT))) |ET| 
-1  |BT| (0 (2 (2 (PROPN))(2 (2 (ADP))(2 (PROPN))))(1 (1 (2 (VERB))(2 (2 (SCONJ))(1 (2 (PRON))(1 (1 (2 (2 (AUX))(2 (ADJ)))(2 (2 (PART))(2 (2 (VERB))(2 (2 (DET))(2 (NOUN))))))(1 (2 (SCONJ))(1 (2 (PART))(1 (1 (2 (VERB))(1 (1 (ADJ))(2 (NOUN))))(2 (2 (ADV))(2 (2 (PRON))(3 (3 (VERB))(2 (2 (ADP))(3 (2 (2 (VERB))(2 (ADP)))(2 (2 (ADJ))(2 (NOUN)))))))))))))))(2 (PUNCT)))) |ET| 
1  |BT| (4 (2 (2 (DET))(2 (NOUN)))(3 (4 (2 (AUX))(3 (1 (2 (DET))(2 (2 (ADJ))(2 (NOUN))))(3 (2 (ADP))(4 (2 (NUM))(3 (3 (ADJ))(2 (NOUN)))))))(2 (PUNCT)))) |ET| 
-1  |BT| (0 (1 (2 (0 (2 (DET))(0 (2 (ADV))(2 (ADJ))))(2 (PUNCT)))(1 (2 (2 (PUNCT))(2 (2 (ADJ))(3 (2 (ADJ))(2 (ADJ)))))(0 (3 (PUNCT))(1 (2 (ADJ))(0 (2 (NOUN))(0 (2 (2 (DET))(0 (1 (3 (VERB))(1 (DET)))(2 (ADV))))(2 (2 (ADJ))(2 (NOUN)))))))))(2 (ADP))) |ET| 
1  |BT| (4 (2 (2 (DET))(2 (NOUN)))(4 (4 (2 (AUX))(4 (2 (NUM))(3 (2 (ADP))(4 (2 (2 (DET))(2 (2 (NOUN))(2 (PART))))(4 (ADJ))))))(2 (PUNCT)))) |ET| 
-1  |BT| (1 (4 (4 (2 (2 (DET))(4 (2 (ADJ))(3 (NOUN))))(2 (CCONJ)))(3 (2 (DET))(4 (ADJ))))(1 (0 (NOUN))(2 (PUNCT)))) |ET| 
1  |BT| (3 (2 (1 (0 (1 (2 (ADJ))(2 (CCONJ)))(2 (ADJ)))(2 (PUNCT)))(3 (2 (SCONJ))(2 (2 (2 (PROPN))(2 (PROPN)))(2 (3 (2 (2 (AUX))(2 (2 (ADV))(2 (ADJ))))(1 (2 (ADP))(2 (2 (2 (DET))(2 (NOUN)))(2 (2 (ADP))(2 (2 (DET))(2 (NOUN)))))))(2 (2 (ADP))(2 (2 (NOUN))(2 (2 (2 (VERB))(2 (ADJ)))(2 (2 (SCONJ))(3 (2 (PRON))(3 (2 (VERB))(3 (3 (2 (ADJ))(2 (2 (3 (NOUN))(2 (CCONJ)))(1 (VERB))))(2 (2 (SCONJ))(2 (2 (DET))(1 (2 (ADJ))(2 (1 (ADJ))(2 (2 (ADJ))(2 (NOUN))))))))))))))))))(2 (PUNCT))) |ET| 
-1  |BT| (1 (2 (2 (2 (1 (PUNCT))(2 (2 (NOUN))(3 (PUNCT))))(2 (PRON)))(2 (2 (NOUN))(2 (2 (ADP))(2 (2 (PROPN))(2 (2 (SYM))(2 (NUM)))))))(3 (2 (AUX))(2 (2 (ADV))(2 (3 (ADJ))(2 (2 (SCONJ))(1 (2 (DET))(2 (NOUN)))))))) |ET| 
1  |BT| (4 (2 (DET))(4 (3 (VERB))(3 (1 (NOUN))(2 (PUNCT))))) |ET| 
-1  |BT| (1 (1 (1 (0 (2 (ADJ))(1 (NOUN)))(2 (PUNCT)))(2 (DET)))(2 (PUNCT))) |ET| 
1  |BT| (3 (2 (1 (1 (2 (2 (PRON))(2 (2 (AUX))(1 (2 (2 (2 (DET))(2 (NOUN)))(2 (2 (ADV))(2 (ADJ))))(1 (2 (PRON))(2 (2 (NOUN))(2 (2 (ADP))(2 (ADJ))))))))(2 (PUNCT)))(2 (CCONJ)))(2 (2 (2 (2 (VERB))(2 (2 (DET))(2 (NOUN))))(1 (2 (ADP))(0 (1 (ADJ))(1 (PUNCT)))))(2 (2 (NOUN))(3 (2 (NOUN))(3 (2 (AUX))(2 (DET)))))))(2 (NOUN))) |ET| 
-1  |BT| (1 (2 (CCONJ))(2 (2 (NOUN))(2 (1 (2 (2 (VERB))(3 (4 (NOUN))(2 (2 (ADP))(3 (PRON)))))(2 (2 (ADP))(3 (3 (VERB))(2 (NOUN)))))(2 (PUNCT))))) |ET| 
-1  |BT| (1 (1 (2 (INTJ))(2 (2 (PUNCT))(2 (2 (PROPN))(3 (2 (AUX))(2 (2 (VERB))(2 (2 (ADP))(2 (2 (2 (PROPN))(2 (CCONJ)))(1 (PROPN)))))))))(1 (2 (PUNCT))(1 (2 (PRON))(1 (0 (2 (VERB))(1 (2 (2 (2 (DET))(2 (2 (NOUN))(2 (NOUN))))(2 (2 (ADP))(2 (2 (DET))(2 (2 (NOUN))(2 (24NUM))))))(0 (2 (VERB))(1 (2 (AUX))(1 (2 (2 (VERB))(1 (ADP)))(2 (2 (2 (DET))(1 (NOUN)))(1 (2 (ADP))(1 (2 (2 (NOUN))(2 (2 (ADP))(2 (2 (DET))(2 (2 (ADJ))(2 (2 (NOUN))(2 (NOUN)))))))(2 (1 (PUNCT))(2 (2 (2 (2 (INTJ))(2 (PUNCT)))(2 (2 (2 (AUX))(2 (PART)))(2 (1 (VERB))(2 (2 (DET))(3 (NOUN))))))(3 (PUNCT))))))))))))(2 (PUNCT)))))) |ET| 
-1  |BT| (0 (3 (2 (DET))(3 (NOUN)))(1 (2 (2 (AUX))(2 (ADJ)))(2 (PUNCT)))) |ET| 
-1  |BT| (1 (2 (2 (SCONJ))(4 (2 (2 (3 (PROPN))(2 (PART)))(3 (PROPN)))(2 (2 (VERB))(2 (2 (2 (SCONJ))(2 (PUNCT)))(3 (3 (2 (DET))(3 (NOUN)))(2 (2 (AUX))(3 (2 (2 (DET))(2 (NOUN)))(2 (2 (2 (DET))(2 (NOUN)))(2 (VERB))))))))))(2 (2 (PUNCT))(2 (2 (PUNCT))(2 (2 (2 (ADV))(2 (3 (PROPN))(2 (PROPN))))(1 (2 (2 (VERB))(1 (2 (SCONJ))(2 (1 (2 (DET))(0 (NOUN)))(4 (2 (AUX))(2 (2 (2 (DET))(2 (NOUN)))(2 (2 (2 (2 (DET))(2 (2 (NOUN))(2 (PART))))(2 (NOUN)))(2 (VERB))))))))(2 (PUNCT))))))) |ET| 
-1  |BT| (0 (3 (ADV))(2 (3 (2 (2 (2 (ADP))(2 (VERB)))(3 (PRON)))(2 (2 (ADP))(2 (2 (VERB))(3 (2 (PRON))(3 (ADJ))))))(2 (PUNCT)))) |ET| 
1  |BT| (4 (2 (2 (DET))(2 (NOUN)))(4 (4 (2 (AUX))(2 (4 (4 (4 (ADJ))(2 (PUNCT)))(2 (ADV)))(2 (2 (DET))(2 (NOUN)))))(2 (PUNCT)))) |ET| 
-1  |BT| (1 (2 (2 (2 (AUX))(2 (3 (2 (DET))(2 (2 (ADV))(4 (3 (ADJ))(2 (NOUN)))))(2 (2 (CCONJ))(1 (1 (2 (DET))(1 (NOUN)))(2 (2 (ADP))(2 (NOUN)))))))(3 (PUNCT)))(2 (NOUN))) |ET| 
1  |BT| (3 (2 (PROPN))(3 (3 (2 (VERB))(3 (2 (PART))(3 (2 (2 (VERB))(2 (2 (2 (DET))(1 (1 (NOUN))(2 (PUNCT))))(2 (2 (VERB))(2 (3 (NOUN))(2 (2 (ADP))(2 (ADJ)))))))(2 (2 (ADJ))(2 (2 (VERB))(2 (2 (ADP))(2 (2 (VERB))(2 (ADP)))))))))(2 (ADP)))) |ET| 
-1  |BT| (1 (2 (ADJ))(2 (2 (PUNCT))(1 (2 (2 (ADP))(4 (ADJ)))(2 (2 (PUNCT))(2 (2 (PRON))(1 (2 (2 (VERB))(2 (PROPN)))(2 (ADJ)))))))) |ET| 
1  |BT| (3 (2 (PRON))(3 (3 (2 (AUX))(3 (3 (2 (DET))(3 (3 (ADJ))(2 (NOUN))))(1 (2 (ADP))(1 (1 (2 (ADV))(0 (ADJ)))(2 (NOUN))))))(2 (PUNCT)))) |ET| 
-1  |BT| (1 (3 (2 (DET))(3 (NOUN)))(1 (2 (2 (ADV))(2 (ADP)))(0 (0 (2 (4 (NOUN))(2 (2 (ADP))(1 (2 (DET))(1 (1 (ADJ))(2 (NOUN))))))(1 (2 (SCONJ))(1 (2 (PRON))(1 (2 (1 (ADV))(2 (ADV)))(3 (2 (VERB))(1 (2 (2 (DET))(2 (NOUN)))(3 (2 (ADP))(3 (2 (NOUN))(2 (2 (ADP))(4 (2 (3 (3 (ADJ))(2 (NOUN)))(2 (CCONJ)))(3 (3 (ADJ))(2 (NOUN)))))))))))))(2 (PUNCT))))) |ET| 
1  |BT| (3 (3 (3 (2 (DET))(3 (3 (2 (1 (2 (ADJ))(2 (PUNCT)))(2 (CCONJ)))(3 (ADV)))(2 (PUNCT))))(2 (2 (VERB))(2 (2 (2 (NOUN))(2 (3 (ADP))(1 (2 (DET))(2 (ADJ)))))(3 (2 (ADJ))(2 (2 (NOUN))(2 (2 (ADP))(2 (2 (PROPN))(2 (ADP)))))))))(2 (2 (2 (DET))(2 (3 (NOUN))(2 (2 (PART))(2 (2 (ADJ))(2 (2 (PART))(2 (2 (VERB))(3 (DET))))))))(2 (ADJ)))) |ET| 
-1  |BT| (1 (2 (PUNCT))(1 (2 (2 (PUNCT))(2 (PROPN)))(2 (2 (PROPN))(2 (2 (PUNCT))(2 (2 (PUNCT))(2 (2 (2 (PRON))(1 (AUX)))(2 (PART)))))))) |ET| 
1  |BT| (3 (3 (3 (3 (2 (DET))(4 (3 (2 (ADV))(2 (ADJ)))(2 (NOUN))))(2 (2 (ADP))(3 (3 (2 (DET))(2 (NOUN)))(2 (2 (ADP))(2 (NOUN))))))(2 (2 (PART))(2 (2 (3 (VERB))(3 (PRON)))(2 (2 (2 (2 (SCONJ))(3 (2 (PRON))(2 (2 (VERB))(2 (2 (ADP))(2 (PRON))))))(2 (CCONJ)))(1 (PART))))))(2 (PUNCT))) |ET| 
-1  |BT| (0 (2 (VERB))(1 (2 (ADV))(1 (0 (2 (AUX))(1 (2 (NUM))(2 (2 (ADP))(1 (2 (2 (DET))(2 (NOUN)))(1 (2 (ADV))(2 (2 (VERB))(2 (1 (2 (DET))(2 (NOUN)))(2 (2 (ADP))(2 (2 (2 (DET))(2 (2 (NOUN))(2 (NOUN))))(2 (2 (ADP))(2 (2002))))))))))))(2 (NUM))))) |ET| 
1  |BT| (3 (4 (2 (SCONJ))(3 (4 (2 (3 (ADJ))(2 (CCONJ)))(3 (ADJ)))(2 (2 (SCONJ))(2 (2 (2 (PROPN))(2 (2 (PROPN))(2 (PART))))(2 (2 (ADJ))(2 (PROPN)))))))(1 (2 (PUNCT))(1 (1 (1 (0 (NOUN))(2 (PUNCT)))(1 (PROPN)))(2 (CCONJ))))) |ET| 
-1  |BT| (0 (2 (1 (PUNCT))(2 (2 (PROPN))(3 (PUNCT))))(1 (1 (2 (2 (PROPN))(2 (CCONJ)))(2 (ADJ)))(2 (PUNCT)))) |ET| 
1  |BT| (3 (2 (2 (2 (DET))(2 (ADV)))(2 (2 (ADP))(2 (2 (2 (2 (DET))(2 (NOUN)))(2 (PUNCT)))(2 (2 (DET))(2 (NOUN))))))(2 (2 (VERB))(3 (2 (VERB))(2 (2 (ADP))(1 (1 (2 (DET))(1 (2 (2 (2 (VERB))(3 (PRON)))(1 (2 (ADP))(1 (1 (2 (DET))(1 (0 (ADJ))(2 (NOUN))))(2 (2 (ADP))(2 (NOUN))))))(1 (2 (DET))(0 (2 (PRON))(1 (2 (ADV))(1 (0 (VERB))(2 (2 (VERB))(2 (2 (DET))(2 (ADV))))))))))(2 (2 (PUNCT))(2 (2 (DET))(1 (NOUN))))))))) |ET| 
-1  |BT| (1 (1 (2 (2 (DET))(2 (NOUN)))(1 (2 (SCONJ))(1 (2 (2 (DET))(1 (2 (ADV))(3 (ADJ))))(1 (2 (VERB))(1 (2 (VERB))(1 (2 (SCONJ))(2 (2 (DET))(1 (VERB)))))))))(2 (3 (2 (NOUN))(2 (2 (ADP))(2 (2 (3 (PROPN))(2 (CCONJ)))(2 (PROPN)))))(2 (PUNCT)))) |ET| 
1  |BT| (3 (2 (2 (2 (DET))(2 (NOUN)))(2 (2 (NOUN))(3 (2 (2 (2 (NOUN))(2 (2 (ADP))(2 (PROPN))))(2 (2 (PROPN))(2 (13))))(2 (2 (PART))(2 (2 (PROPN))(2 (2 (NUM))(2 (ADP))))))))(4 (3 (2 (2 (DET))(3 (NOUN)))(4 (2 (NOUN))(4 (2 (VERB))(3 (2 (ADV))(3 (3 (4 (2 (SCONJ))(4 (2 (ADV))(4 (2 (PUNCT))(3 (ADV)))))(2 (PUNCT)))(2 (2 (ADV))(2 (2 (ADJ))(2 (2 (NOUN))(3 (3 (VERB))(2 (VERB)))))))))))(2 (ADP)))) |ET| 
-1  |BT| (0 (1 (2 (3 (AUX))(2 (PART)))(2 (2 (3 (VERB))(2 (ADP)))(2 (2 (ADP))(2 (ADJ)))))(2 (PUNCT))) |ET| 
1  |BT| (4 (2 (2 (DET))(2 (2 (2 (2 (DET))(2 (NOUN)))(2 (CCONJ)))(2 (2 (2 (2 (DET))(2 (NOUN)))(2 (2 (2 (1 (PUNCT))(2 (CCONJ)))(2 (NOUN)))(3 (PUNCT))))(2 (NOUN)))))(3 (2 (2 (2 (VERB))(2 (2 (NOUN))(2 (SCONJ))))(3 (2 (VERB))(2 (2 (DET))(2 (2 (NOUN))(3 (2 (PART))(2 (VERB)))))))(2 (PUNCT)))) |ET| 
1  |BT| (3 (1 (2 (DET))(1 (1 (2 (ADV))(2 (ADJ)))(2 (NOUN))))(4 (3 (2 (AUX))(3 (4 (2 (VERB))(4 (4 (ADJ))(4 (2 (ADP))(4 (4 (4 (2 (DET))(3 (3 (ADJ))(2 (NOUN))))(2 (CCONJ)))(3 (3 (VERB))(2 (NOUN)))))))(2 (2 (ADP))(2 (2 (DET))(2 (1 (1 (ADJ))(2 (2 (PUNCT))(2 (NOUN))))(2 (2 (PUNCT))(2 (2 (NOUN))(2 (2 (PUNCT))(2 (NOUN))))))))))(2 (PUNCT)))) |ET| 
1  |BT| (3 (3 (2 (3 (2 (3 (VERB))(2 (PUNCT)))(2 (ADJ)))(2 (CCONJ)))(2 (2 (2 (VERB))(2 (ADP)))(2 (2 (ADP))(1 (2 (ADJ))(1 (NOUN))))))(2 (PUNCT))) |ET| 
-1  |BT| (1 (2 (3 (4 (ADJ))(2 (2 (CCONJ))(1 (PART))))(1 (2 (2 (ADJ))(2 (2 (SCONJ))(1 (ADJ))))(2 (NOUN))))(1 (1 (NOUN))(2 (PUNCT)))) |ET| 
1  |BT| (3 (2 (2 (PROPN))(2 (PROPN)))(3 (3 (2 (AUX))(3 (2 (VERB))(2 (2 (2 (DET))(2 (ADV)))(0 (ADJ)))))(2 (PUNCT)))) |ET| 
-1  |BT| (1 (2 (3 (ADV))(2 (VERB)))(2 (2 (PUNCT))(2 (2 (PRON))(1 (1 (2 (VERB))(2 (2 (AUX))(3 (2 (AUX))(2 (2 (DET))(1 (3 (2 (ADV))(3 (ADJ)))(2 (2 (NOUN))(2 (2 (PART))(2 (2 (VERB))(2 (2 (3 (3 (PROPN))(2 (PROPN)))(2 (CCONJ)))(3 (2 (PROPN))(2 (PROPN))))))))))))(2 (PUNCT)))))) |ET| 
1  |BT| (4 (4 (3 (4 (ADJ))(2 (2 (PUNCT))(2 (NOUN))))(2 (2 (NOUN))(2 (2 (NOUN))(1 (DET)))))(2 (ADJ))) |ET| 
-1  |BT| (1 (1 (1 (3 (ADJ))(2 (NOUN)))(1 (2 (NOUN))(3 (2 (NOUN))(2 (2 (NOUN))(2 (2 (ADP))(2 (ADJ)))))))(2 (NOUN))) |ET| 
1  |BT| (3 (4 (2 (2 (2 (PRON))(2 (2 (AUX))(2 (2 (ADP))(2 (1 (ADJ))(2 (2 (PUNCT))(2 (1 (ADJ))(3 (NOUN))))))))(2 (CCONJ)))(3 (2 (PRON))(3 (3 (2 (VERB))(3 (2 (ADV))(3 (ADJ))))(2 (2 (SCONJ))(3 (2 (PRON))(2 (2 (2 (AUX))(1 (PART)))(2 (2 (VERB))(2 (2 (PART))(3 (2 (2 (VERB))(1 (ADP)))(2 (2 (DET))(3 (NOUN))))))))))))(2 (PUNCT))) |ET| 
-1  |BT| (1 (2 (3 (2 (2 (PROPN))(2 (PUNCT)))(2 (2 (PRON))(3 (2 (AUX))(2 (2 (VERB))(3 (3 (2 (DET))(2 (4 (ADJ))(3 (NOUN))))(2 (2 (ADP))(3 (NOUN))))))))(2 (PUNCT)))(1 (1 (2 (VERB))(1 (2 (ADJ))(2 (2 (SCONJ))(2 (2 (PRON))(3 (2 (VERB))(2 (VERB)))))))(2 (PUNCT)))) |ET| 
1  |BT| (4 (2 (DET))(3 (2 (ADJ))(2 (2 (NOUN))(3 (3 (PUNCT))(2 (NOUN)))))) |ET| 
-1  |BT| (1 (2 (2 (DET))(2 (NOUN)))(1 (2 (2 (AUX))(2 (2 (ADV))(2 (2 (ADV))(2 (ADJ)))))(1 (2 (SCONJ))(1 (2 (2 (DET))(2 (NOUN)))(2 (2 (ADP))(2 (2 (DET))(2 (NOUN)))))))) |ET| 
1  |BT| (3 (3 (2 (2 (2 (VERB))(2 (PRON)))(2 (PUNCT)))(2 (2 (SCONJ))(2 (2 (PRON))(2 (VERB)))))(2 (PUNCT))) |ET| 
-1  |BT| (1 (2 (PRON))(2 (0 (1 (2 (VERB))(2 (ADV)))(1 (1 (PART))(2 (2 (ADV))(2 (2 (VERB))(2 (2 (PRON))(2 (2 (PUNCT))(2 (2 (PUNCT))(2 (2 (PRON))(2 (2 (2 (PUNCT))(2 (AUX)))(2 (2 (PUNCT))(2 (2 (PRON))(2 (2 (PUNCT))(2 (2 (PUNCT))(2 (2 (PRON))(2 (PUNCT))))))))))))))))(2 (VERB)))) |ET| 
1  |BT| (4 (2 (2 (PART))(2 (2 (ADJ))(2 (NOUN))))(2 (3 (2 (AUX))(3 (2 (2 (DET))(3 (NOUN)))(2 (2 (ADP))(2 (2 (2 (NOUN))(2 (2 (ADP))(3 (PRON))))(2 (2 (DET))(2 (NOUN)))))))(2 (PUNCT)))) |ET| 
-1  |BT| (0 (2 (2 (DET))(2 (2 (ADJ))(2 (NOUN))))(1 (0 (3 (VERB))(0 (1 (1 (1 (DET))(2 (NOUN)))(2 (CCONJ)))(3 (4 (VERB))(3 (NOUN)))))(2 (PUNCT)))) |ET| 
1  |BT| (3 (3 (4 (4 (3 (2 (2 (PROPN))(2 (2 (2 (PROPN))(2 (CCONJ)))(2 (PROPN))))(4 (2 (AUX))(3 (2 (DET))(4 (4 (3 (ADV))(3 (ADJ)))(2 (NOUN))))))(2 (PUNCT)))(2 (CCONJ)))(3 (2 (2 (ADV))(1 (2 (SCONJ))(1 (2 (2 (DET))(2 (NOUN)))(1 (2 (AUX))(2 (ADJ))))))(2 (2 (PUNCT))(3 (2 (PRON))(2 (2 (VERB))(2 (2 (VERB))(2 (2 (NOUN))(2 (2 (PART))(2 (2 (VERB))(1 (ADP)))))))))))(2 (PUNCT))) |ET| 
-0.2905852918091594849769876418577  |BT| (1 (1 (1 (1 (0 (2 (2 (AUX))(2 (2 (1 (DET))(2 (NOUN)))(2 (2 (ADP))(2 (2 (DET))(2 (NOUN))))))(3 (2 (AUX))(2 (2 (2 (DET))(2 (NOUN)))(2 (2 (ADP))(4 (NOUN))))))(2 (PUNCT)))(2 (CCONJ)))(1 (3 (2 (2 (AUX))(2 (PRON)))(1 (PART)))(2 (2 (AUX))(3 (2 (DET))(2 (2 (NOUN))(2 (2 (PART))(2 (2 (VERB))(2 (ADP)))))))))(2 (PUNCT))) |ET| 
1  |BT| (3 (2 (2 (SCONJ))(1 (2 (DET))(2 (NOUN))))(3 (2 (PUNCT))(3 (2 (NOUN))(3 (3 (3 (VERB))(2 (2 (ADP))(3 (1 (3 (NOUN))(2 (CCONJ)))(2 (NOUN)))))(2 (PUNCT)))))) |ET| 
-1  |BT| (1 (3 (2 (ADP))(4 (ADV)))(0 (2 (PUNCT))(0 (2 (2 (PROPN))(2 (PROPN)))(1 (0 (2 (VERB))(0 (3 (2 (2 (3 (VERB))(3 (2 (DET))(2 (NOUN))))(2 (2 (ADP))(2 (2 (DET))(2 (2 (NOUN))(2 (NOUN))))))(2 (PUNCT)))(1 (2 (ADP))(2 (2 (NOUN))(2 (2 (ADP))(4 (2 (DET))(3 (4 (ADJ))(2 (2 (NOUN))(2 (NOUN))))))))))(2 (PUNCT)))))) |ET| 
1  |BT| (3 (2 (2 (DET))(2 (NOUN)))(3 (2 (2 (AUX))(2 (3 (3 (3 (2 (2 (ADJ))(2 (PUNCT)))(2 (2 (ADJ))(4 (PUNCT))))(2 (ADV)))(2 (2 (ADJ))(3 (CCONJ))))(2 (2 (ADV))(2 (ADJ)))))(2 (SCONJ)))) |ET| 
-1  |BT| (0 (0 (1 (2 (2 (2 (SCONJ))(2 (ADJ)))(2 (CCONJ)))(2 (3 (NOUN))(2 (SCONJ))))(2 (NOUN)))(2 (PUNCT))) |ET| 
1  |BT| (4 (2 (2 (ADP))(1 (ADJ)))(4 (2 (PRON))(3 (3 (2 (AUX))(4 (4 (2 (DET))(3 (2 (2 (ADV))(4 (ADJ)))(2 (NOUN))))(2 (2 (ADP))(2 (2 (2 (2 (DET))(2 (NOUN)))(2 (PUNCT)))(2 (2 (PROPN))(2 (2 (PROPN))(2 (PROPN))))))))(2 (PUNCT))))) |ET| 
-1  |BT| (0 (2 (2 (2 (DET))(2 (PROPN)))(2 (2 (ADP))(2 (2 (PROPN))(2 (PROPN)))))(1 (1 (2 (AUX))(0 (3 (2 (DET))(2 (2 (ADJ))(2 (NOUN))))(2 (2 (ADP))(2 (PROPN)))))(2 (PUNCT)))) |ET| 
1  |BT| (3 (2 (2 (SCONJ))(3 (2 (PRON))(3 (2 (VERB))(2 (NOUN)))))(3 (2 (PUNCT))(3 (2 (PRON))(2 (2 (2 (VERB))(2 (2 (VERB))(3 (NOUN))))(2 (PUNCT)))))) |ET| 
-1  |BT| (0 (2 (2 (ADP))(2 (2 (VERB))(2 (2 (DET))(2 (NOUN)))))(0 (2 (PUNCT))(0 (2 (PRON))(1 (1 (2 (VERB))(1 (3 (2 (VERB))(2 (PRON)))(1 (2 (SCONJ))(0 (2 (PRON))(1 (2 (AUX))(1 (2 (1 (DET))(2 (2 (ADJ))(2 (NOUN))))(1 (2 (ADV))(2 (2 (PRON))(2 (2 (VERB))(2 (2 (VERB))(2 (2 (VERB))(2 (PRON)))))))))))))(2 (PUNCT)))))) |ET| 
1  |BT| (4 (2 (PROPN))(3 (PROPN))) |ET| 
-1  |BT| (1 (2 (2 (DET))(2 (NOUN)))(1 (1 (2 (AUX))(1 (2 (1 (0 (2 (1 (2 (DET))(1 (1 (ADJ))(2 (NOUN))))(2 (2 (ADP))(2 (2 (2 (NOUN))(2 (CCONJ)))(2 (NOUN)))))(2 (PUNCT)))(2 (3 (2 (NUM))(3 (NOUN)))(2 (2 (DET))(2 (2 (ADJ))(2 (NOUN))))))(2 (CCONJ)))(1 (2 (2 (DET))(2 (ADJ)))(2 (2 (DET))(2 (1 (ADJ))(1 (NOUN)))))))(2 (PUNCT)))) |ET| 
