SVM-light Version V5.01-TK-1.5
5 # kernel type
3 # kernel parameter -d 
1 # kernel parameter -g 
1 # kernel parameter -s 
1 # kernel parameter -r 
empty# kernel parameter -u 
0.4 # kernel parameter -L 
1 # kernel parameter -T 
T # kernel parameter -C 
2 # kernel parameter -F 
1 # kernel parameter -S 
0.400000 # kernel parameter -M 
3 # kernel parameter -N 
S # kernel parameter -V 
S # kernel parameter -W 
0 # kernel parameter -U 
0 # highest feature index 
6920 # number of training documents 
1721 # number of support vectors plus 1 
0.32367069 # threshold b, each following line is a SV (starting with alpha*y)
-1  |BT| (1 (2 (2 (2 (2 (VERB))(2 (2 (PART))(2 (2 (AUX))(2 (PROPN)))))(2 (AUX)))(2 (2 (2 (2 (DET))(2 (2 (PROPN))(3 (2 (PROPN))(3 (PROPN)))))(2 (PUNCT)))(2 (2 (2 (DET))(2 (2 (ADJ))(2 (2 (ADJ))(2 (NOUN)))))(2 (2 (ADP))(2 (2 (NOUN))(2 (2 (PUNCT))(1 (2 (NOUN))(2 (2 (PUNCT))(2 (1 (1 (NOUN))(2 (CCONJ)))(2 (NOUN)))))))))))(2 (PUNCT))) |ET| 
0.95716470240886797338220048914081  |BT| (3 (4 (4 (2 (DET))(4 (3 (VERB))(2 (NOUN))))(2 (DET)))(2 (2 (2 (VERB))(2 (2 (2 (ADV))(2 (ADJ)))(2 (2 (2 (DET))(2 (NOUN)))(2 (2 (VERB))(2 (2 (ADP))(2 (2 (NOUN))(2 (PUNCT))))))))(2 (VERB)))) |ET| 
-0.83168305554513777266834040347021  |BT| (1 (1 (3 (1 (2 (PRON))(2 (3 (2 (AUX))(3 (ADJ)))(1 (2 (SCONJ))(2 (2 (2 (DET))(2 (NOUN)))(3 (2 (VERB))(2 (3 (2 (AUX))(3 (2 (ADV))(3 (ADJ))))(2 (2 (SCONJ))(2 (2 (2 (DET))(2 (NOUN)))(2 (2 (AUX))(2 (2 (ADP))(2 (2 (2 (DET))(3 (NOUN)))(2 (2 (SCONJ))(2 (2 (DET))(2 (NOUN)))))))))))))))(2 (PUNCT)))(1 (3 (2 (PRON))(3 (2 (DET))(3 (2 (AUX))(3 (ADJ)))))(0 (3 (2 (AUX))(2 (ADV)))(1 (1 (VERB))(0 (2 (ADP))(1 (2 (2 (DET))(2 (NOUN)))(0 (2 (DET))(0 (2 (2 (AUX))(2 (ADV)))(0 (2 (ADV))(1 (2 (0 (ADJ))(2 (CCONJ)))(1 (ADJ))))))))))))(2 (PUNCT))) |ET| 
-1  |BT| (1 (2 (2 (DET))(3 (2 (ADJ))(2 (PUNCT))))(2 (2 (2 (NOUN))(2 (1 (NOUN))(2 (2 (AUX))(2 (2 (2 (PRON))(2 (ADP)))(2 (2 (DET))(2 (2 (NOUN))(2 (3 (ADV))(2 (2 (PRON))(2 (VERB))))))))))(2 (ADP)))) |ET| 
0.31346801006119623389523098921927  |BT| (3 (2 (PROPN))(2 (2 (2 (2 (VERB))(3 (2 (DET))(1 (NOUN))))(2 (2 (ADP))(2 (2 (DET))(2 (2 (1NUM))(2 (NOUN))))))(2 (PUNCT)))) |ET| 
1  |BT| (3 (2 (2 (DET))(2 (PROPN)))(4 (3 (2 (AUX))(4 (2 (VERB))(2 (2 (2 (2 (2 (PART))(2 (2 (AUX))(2 (2 (DET))(2 (2 (21ADJ))(2 (2 (2 (PROPN))(2 (PART)))(2 (3 (ADJ))(2 (2 (PUNCT))(2 (PUNCT)))))))))(2 (PROPN)))(2 (PUNCT)))(3 (2 (CCONJ))(3 (2 (SCONJ))(3 (2 (PRON))(3 (2 (AUX))(3 (2 (VERB))(4 (3 (2 (PART))(3 (3 (2 (VERB))(3 (DET)))(2 (2 (NOUN))(3 (ADV)))))(2 (2 (ADJ))(2 (2 (2 (2 (1 (2 (SCONJ))(2 (PROPN)))(2 (PROPN)))(2 (2 (PUNCT))(2 (2 (PROPN))(2 (PUNCT)))))(2 (PROPN)))(2 (2 (PROPN))(2 (PROPN))))))))))))))(2 (CCONJ)))) |ET| 
0.60144793261155438113263471677783  |BT| (4 (4 (4 (2 (DET))(4 (3 (ADV))(3 (2 (ADJ))(2 (NOUN)))))(2 (2 (2 (ADP))(2 (PUNCT)))(2 (2 (PUNCT))(2 (2 (2 (DET))(2 (2 (PROPN))(2 (2 (ADP))(2 (DET)))))(2 (2 (PROPN))(2 (PUNCT)))))))(2 (3 (2 (2 (NOUN))(2 (2 (AUX))(2 (ADV))))(2 (2 (ADJ))(3 (2 (2 (2 (SCONJ))(2 (DET)))(2 (2 (NOUN))(2 (ADP))))(2 (2 (2 (2 (NOUN))(1 (VERB)))(3 (PART)))(2 (2 (ADV))(2 (3 (2 (2 (VERB))(2 (2 (NOUN))(3 (2 (NOUN))(2 (NOUN)))))(3 (2 (SYM))(2 (NOUN))))(2 (2 (PROPN))(2 (2 (2 (PROPN))(2 (2 (PART))(2 (VERB))))(2 (NOUN))))))))))(2 (ADP)))) |ET| 
1  |BT| (3 (3 (2 (2 (2 (2 (2 (NOUN))(2 (2 (SYM))(2 (NOUN))))(2 (2 (PROPN))(2 (2 (2 (PROPN))(2 (VERB)))(2 (2 (DET))(2 (NOUN))))))(2 (2 (ADP))(2 (2 (2 (2 (NOUN))(2 (2 (PUNCT))(3 (DET))))(2 (2 (2 (ADJ))(2 (ADJ)))(2 (2 (2 (NOUN))(2 (PUNCT)))(1 (1 (2 (DET))(1 (2 (ADJ))(2 (ADV))))(2 (2 (ADV))(2 (2 (ADJ))(2 (ADP))))))))(2 (DET)))))(2 (NOUN)))(3 (4 (2 (PUNCT))(3 (2 (CCONJ))(2 (DET))))(2 (3 (ADJ))(3 (2 (NOUN))(2 (1 (2 (ADV))(2 (2 (2 (VERB))(2 (2 (DET))(2 (2 (VERB))(2 (PUNCT)))))(3 (INTJ))))(2 (2 (PUNCT))(2 (2 (NOUN))(2 (ADP)))))))))(2 (DET))) |ET| 
0.19418193206185588306489364640584  |BT| (3 (2 (1 (PUNCT))(2 (2 (PROPN))(3 (PUNCT))))(4 (3 (2 (VERB))(3 (2 (ADV))(2 (2 (ADV))(3 (2 (PRON))(3 (2 (2 (AUX))(2 (PART)))(1 (1 (1 (2 (VERB))(2 (2 (DET))(3 (NOUN))))(2 (PUNCT)))(3 (2 (2 (VERB))(1 (ADP)))(2 (4 (2 (DET))(4 (4 (ADJ))(2 (NOUN))))(1 (2 (ADP))(3 (2 (DET))(2 (2 (2 (ADV))(2 (ADJ)))(2 (NOUN)))))))))))))(2 (PUNCT)))) |ET| 
-0.50244581656379894152308906996041  |BT| (0 (2 (2 (DET))(2 (3 (PROPN))(2 (PROPN))))(1 (0 (1 (VERB))(3 (2 (DET))(4 (4 (3 (ADV))(3 (ADJ)))(2 (NOUN)))))(2 (PUNCT)))) |ET| 
-0.13210795036293532245252890788834  |BT| (1 (2 (PRON))(2 (1 (2 (AUX))(1 (1 (2 (DET))(1 (1 (ADJ))(2 (2 (NOUN))(2 (NOUN)))))(2 (2 (ADP))(2 (3 (2 (3 (2 (DET))(2 (NOUN)))(2 (PUNCT)))(3 (2 (ADV))(4 (ADV))))(2 (2 (3 (ADJ))(2 (2 (ADP))(2 (NOUN))))(2 (2 (PUNCT))(2 (2 (NOUN))(2 (SCONJ)))))))))(2 (DET)))) |ET| 
1  |BT| (3 (3 (2 (PRON))(3 (2 (AUX))(3 (4 (VERB))(2 (ADP)))))(1 (2 (PRON))(2 (1 (2 (AUX))(1 (2 (SCONJ))(1 (2 (PRON))(2 (1 (2 (AUX))(2 (PART)))(2 (3 (VERB))(2 (2 (DET))(1 (NOUN))))))))(2 (PUNCT))))) |ET| 
-1  |BT| (1 (2 (PUNCT))(2 (2 (2 (ADV))(3 (2 (ADJ))(3 (2 (PART))(3 (2 (AUX))(3 (3 (2 (ADV))(4 (2 (ADV))(4 (ADJ))))(2 (2 (SCONJ))(2 (2 (PRON))(2 (2 (VERB))(2 (2 (PART))(2 (AUX)))))))))))(2 (PUNCT)))) |ET| 
1  |BT| (3 (3 (2 (PRON))(4 (2 (VERB))(3 (2 (2 (DET))(2 (NOUN)))(4 (3 (ADV))(3 (2 (ADP))(1 (1 (VERB))(2 (1 (PUNCT))(2 (ADP)))))))))(2 (2 (2 (PUNCT))(1 (2 (DET))(0 (1 (PUNCT))(2 (2 (NOUN))(2 (1 (2 (3 (NOUN))(2 (1 (2 (1 (2 (NOUN))(2 (2 (AUX))(2 (2 (DET))(2 (NOUN)))))(2 (PART)))(2 (2 (VERB))(2 (DET))))(2 (2 (ADP))(2 (2 (DET))(2 (NOUN))))))(2 (2 (PUNCT))(0 (2 (SCONJ))(2 (2 (SCONJ))(1 (0 (VERB))(2 (DET)))))))(1 (2 (NOUN))(2 (2 (ADP))(2 (ADP)))))))))(2 (DET)))) |ET| 
-1  |BT| (0 (2 (PRON))(0 (0 (1 (2 (AUX))(2 (PART)))(3 (3 (2 (NUM))(3 (NOUN)))(3 (2 (ADP))(3 (2 (2 (DET))(2 (NOUN)))(3 (2 (DET))(3 (2 (3 (VERB))(2 (CCONJ)))(3 (NOUN))))))))(2 (PUNCT)))) |ET| 
1  |BT| (3 (3 (ADV))(2 (1 (2 (PUNCT))(2 (ADV)))(2 (ADJ)))) |ET| 
-0.32074641449090313116698780504521  |BT| (0 (2 (CCONJ))(1 (3 (ADJ))(0 (1 (2 (CCONJ))(2 (2 (2 (3 (3 (3 (ADV))(2 (ADJ)))(2 (PUNCT)))(1 (2 (ADV))(1 (1 (ADV))(2 (ADJ)))))(2 (CCONJ)))(1 (2 (ADV))(1 (ADJ)))))(2 (PUNCT))))) |ET| 
1  |BT| (3 (2 (3 (2 (DET))(2 (3 (ADJ))(2 (NOUN))))(2 (2 (DET))(2 (2 (VERB))(2 (3 (VERB))(2 (2 (ADP))(2 (2 (2 (DET))(3 (NOUN)))(2 (2 (ADP))(2 (NOUN)))))))))(2 (PUNCT))) |ET| 
-1  |BT| (0 (2 (ADV))(2 (2 (2 (VERB))(2 (2 (ADP))(2 (2 (2 (DET))(2 (NOUN)))(2 (2 (ADP))(2 (2 (DET))(2 (NOUN)))))))(2 (PUNCT)))) |ET| 
1  |BT| (3 (3 (ADJ))(1 (1 (2 (CCONJ))(1 (2 (ADV))(1 (ADJ))))(2 (PUNCT)))) |ET| 
-1  |BT| (1 (1 (2 (2 (2 (2 (PROPN))(2 (2 (VERB))(2 (2 (AUX))(2 (1 (2 (2 (VERB))(2 (2 (ADJ))(2 (2 (ADP))(2 (2 (DET))(2 (NOUN))))))(2 (PUNCT)))(2 (2 (VERB))(2 (3 (2 (DET))(2 (NOUN)))(2 (VERB))))))))(2 (PUNCT)))(2 (CCONJ)))(1 (2 (2 (DET))(2 (NOUN)))(1 (1 (VERB))(2 (2 (ADV))(2 (2 (VERB))(2 (2 (SCONJ))(2 (2 (2 (DET))(2 (NOUN)))(2 (2 (ADP))(2 (2 (DET))(2 (2 (NOUN))(2 (NOUN))))))))))))(2 (PUNCT))) |ET| 
1  |BT| (4 (2 (PRON))(1 (2 (2 (2 (AUX))(2 (2 (ADV))(2 (3 (3 (VERB))(2 (2 (ADP))(2 (2 (DET))(2 (NOUN)))))(2 (2 (SCONJ))(2 (2 (PRON))(2 (2 (AUX))(2 (2 (VERB))(2 (2 (ADP))(2 (2 (2 (DET))(2 (NOUN)))(2 (2 (ADP))(2 (NOUN))))))))))))(2 (2 (ADV))(3 (2 (PRON))(2 (2 (AUX))(3 (2 (AUX))(3 (2 (VERB))(2 (2 (2 (ADJ))(2 (ADV)))(1 (2 (PART))(1 (2 (VERB))(2 (2 (2 (DET))(2 (NOUN)))(2 (2 (2 (ADP))(2 (DET)))(2 (2 (PRON))(2 (2 (AUX))(2 (2 (PART))(2 (2 (AUX))(2 (2 (VERB))(2 (2 (PART))(2 (2 (VERB))(2 (2 (PROPN))(2 (PROPN)))))))))))))))))))))(2 (PUNCT)))) |ET| 
-1  |BT| (1 (1 (2 (3 (2 (2 (2 (PROPN))(2 (2 (PROPN))(2 (2 (PROPN))(2 (2 (CCONJ))(2 (2 (NOUN))(2 (2 (PROPN))(2 (3 (PROPN))(2 (2 (CCONJ))(2 (3 (PROPN))(2 (PROPN)))))))))))(2 (2 (AUX))(2 (3 (2 (VERB))(2 (ADV)))(2 (2 (PART))(2 (2 (2 (2 (VERB))(2 (CCONJ)))(2 (ADJ)))(2 (NOUN)))))))(2 (PUNCT)))(2 (CCONJ)))(1 (2 (2 (DET))(2 (NOUN)))(2 (2 (ADV))(2 (2 (VERB))(3 (2 (PART))(2 (2 (AUX))(3 (2 (ADV))(4 (ADJ)))))))))(2 (PUNCT))) |ET| 
1  |BT| (3 (3 (2 (DET))(3 (2 (3 (NOUN))(1 (2 (PUNCT))(3 (2 (SCONJ))(1 (1 (ADJ))(2 (PUNCT))))))(3 (NOUN))))(2 (PUNCT))) |ET| 
-1  |BT| (1 (3 (3 (2 (DET))(3 (3 (ADV))(3 (PUNCT))))(2 (ADV)))(0 (2 (NOUN))(4 (3 (2 (DET))(3 (2 (ADV))(1 (VERB))))(2 (ADP))))) |ET| 
1  |BT| (3 (2 (2 (2 (PROPN))(2 (2 (PROPN))(2 (PART))))(3 (PROPN)))(2 (2 (2 (AUX))(2 (2 (SCONJ))(2 (2 (DET))(2 (2 (1NUM))(2 (2 (PROPN))(2 (PROPN)))))))(2 (PUNCT)))) |ET| 
-1  |BT| (1 (2 (VERB))(2 (2 (2 (2 (SCONJ))(2 (2 (NUM))(2 (2 (ADP))(2 (2 (DET))(2 (NOUN))))))(2 (2 (DET))(2 (2 (2 (2 (PROPN))(2 (2 (PROPN))(2 (PROPN))))(2 (2 (ADP))(2 (2 (PUNCT))(2 (2 (PUNCT))(2 (2 (DET))(2 (PROPN)))))))(2 (PUNCT)))))(2 (AUX)))) |ET| 
1  |BT| (3 (1 (2 (2 (DET))(2 (NOUN)))(0 (2 (DET))(1 (2 (VERB))(1 (2 (AUX))(2 (4 (ADV))(2 (3 (VERB))(1 (2 (ADP))(1 (2 (DET))(2 (2 (ADJ))(1 (2 (PART))(2 (2 (VERB))(2 (1 (2 (2 (DET))(1 (2 (ADV))(2 (2 (ADJ))(2 (NOUN)))))(2 (PUNCT)))(2 (2 (VERB))(3 (2 (ADP))(3 (PROPN))))))))))))))))(2 (3 (2 (AUX))(2 (2 (ADV))(1 (4 (ADJ))(1 (2 (ADP))(2 (2 (VERB))(4 (2 (ADJ))(3 (3 (ADJ))(2 (NOUN)))))))))(2 (PUNCT)))) |ET| 
-1  |BT| (1 (2 (VERB))(2 (1 (3 (3 (2 (AUX))(3 (2 (AUX))(3 (2 (ADJ))(2 (3 (VERB))(2 (2 (SCONJ))(3 (2 (DET))(3 (NOUN))))))))(2 (CCONJ)))(1 (2 (AUX))(0 (2 (ADJ))(2 (2 (ADP))(3 (2 (2 (NOUN))(2 (CCONJ)))(4 (NOUN)))))))(2 (PUNCT)))) |ET| 
1  |BT| (3 (2 (2 (DET))(2 (NOUN)))(1 (1 (2 (2 (AUX))(2 (ADV)))(1 (1 (ADV))(2 (VERB))))(2 (PUNCT)))) |ET| 
-0.069073151357319284571190110000316  |BT| (1 (2 (2 (DET))(0 (VERB)))(1 (1 (2 (2 (ADJ))(2 (NOUN)))(1 (2 (ADV))(1 (2 (ADV))(1 (3 (3 (3 (3 (3 (ADJ))(2 (NOUN)))(2 (PUNCT)))(2 (2 (ADV))(2 (PROPN))))(2 (PUNCT)))(2 (2 (AUX))(1 (2 (VERB))(2 (2 (PART))(1 (2 (VERB))(0 (ADJ))))))))))(2 (PUNCT)))) |ET| 
1  |BT| (3 (3 (2 (2 (DET))(2 (2 (ADJ))(2 (NOUN))))(2 (2 (ADP))(2 (2 (DET))(2 (NOUN)))))(2 (2 (2 (VERB))(2 (2 (ADP))(2 (2 (2 (2 (DET))(2 (NOUN)))(2 (PUNCT)))(3 (2 (NOUN))(2 (2 (PUNCT))(2 (2 (NOUN))(2 (2 (2 (DET))(2 (VERB)))(2 (2 (DET))(2 (2 (2 (2 (2 (2 (NOUN))(2 (ADP)))(2 (NOUN)))(2 (PUNCT)))(2 (ADJ)))(3 (2 (PUNCT))(2 (CCONJ))))))))))))(2 (ADJ)))) |ET| 
-1  |BT| (1 (0 (1 (2 (DET))(0 (NOUN)))(2 (2 (ADP))(2 (2 (2 (DET))(2 (NOUN)))(3 (2 (DET))(3 (2 (VERB))(3 (2 (AUX))(3 (2 (AUX))(3 (2 (DET))(4 (3 (ADJ))(3 (2 (NOUN))(2 (NOUN))))))))))))(2 (PUNCT))) |ET| 
1  |BT| (3 (1 (2 (ADV))(2 (ADJ)))(2 (PUNCT))) |ET| 
-1  |BT| (1 (2 (PRON))(2 (2 (2 (VERB))(1 (2 (VERB))(2 (2 (2 (3 (2 (PRON))(2 (2 (AUX))(2 (2 (2 (2 (VERB))(2 (1 (ADP))(2 (2 (1 (2 (DET))(1 (NOUN)))(2 (CCONJ)))(2 (2 (DET))(2 (NOUN))))))(2 (2 (ADP))(2 (2 (DET))(2 (2 (NOUN))(2 (NOUN))))))(2 (2 (ADP))(2 (2 (PROPN))(2 (2 (NOUN))(2 (2 (PROPN))(2 (PROPN)))))))))(2 (PUNCT)))(2 (CCONJ)))(2 (2 (SCONJ))(1 (2 (PRON))(2 (2 (AUX))(1 (2 (VERB))(1 (2 (PRON))(1 (2 (2 (VERB))(1 (ADP)))(2 (2 (ADP))(2 (2 (DET))(2 (NOUN)))))))))))))(2 (PUNCT)))) |ET| 
1  |BT| (3 (1 (3 (VERB))(1 (2 (ADP))(1 (2 (DET))(0 (1 (1 (NOUN))(2 (CCONJ)))(1 (NOUN))))))(2 (3 (2 (AUX))(3 (2 (NOUN))(2 (2 (ADP))(3 (2 (DET))(4 (NOUN))))))(2 (PUNCT)))) |ET| 
-1  |BT| (1 (2 (2 (DET))(2 (NOUN)))(3 (1 (3 (2 (VERB))(2 (ADV)))(2 (2 (AUX))(2 (3 (ADJ))(2 (2 (PART))(3 (1 (2 (VERB))(1 (2 (DET))(3 (2 (ADP))(3 (2 (DET))(1 (1 (ADJ))(2 (NOUN)))))))(2 (2 (ADP))(3 (2 (DET))(2 (2 (ADJ))(2 (NOUN))))))))))(2 (PUNCT)))) |ET| 
-1  |BT| (1 (1 (1 (2 (2 (DET))(2 (ADJ)))(2 (PUNCT)))(3 (1 (0 (ADJ))(2 (ADJ)))(3 (2 (DET))(2 (2 (2 (VERB))(4 (NOUN)))(2 (2 (ADP))(2 (2 (2 (3 (2 (DET))(2 (NOUN)))(2 (2 (ADP))(2 (NOUN))))(2 (CCONJ)))(2 (2 (2 (ADJ))(2 (PUNCT)))(2 (2 (NOUN))(2 (2 (NOUN))(2 (2 (ADP))(2 (3 (DET))(2 (PROPN)))))))))))))(2 (PROPN))) |ET| 
-1  |BT| (1 (1 (ADJ))(3 (2 (PUNCT))(3 (3 (2 (SCONJ))(3 (ADJ)))(2 (2 (PUNCT))(2 (2 (ADJ))(2 (PUNCT))))))) |ET| 
1  |BT| (3 (3 (2 (2 (DET))(2 (NOUN)))(2 (2 (ADP))(1 (1 (2 (DET))(2 (2 (VERB))(2 (NOUN))))(2 (2 (DET))(2 (1 (2 (AUX))(2 (PART)))(0 (2 (ADV))(1 (ADJ))))))))(2 (PUNCT))) |ET| 
0.61609559416339321202826795342844  |BT| (3 (3 (2 (1 (1 (1 (VERB))(2 (2 (ADP))(2 (1 (2 (DET))(1 (2 (ADJ))(2 (NOUN))))(2 (2 (ADP))(2 (2 (2 (NOUN))(2 (CCONJ)))(2 (NOUN)))))))(2 (PUNCT)))(2 (CCONJ)))(3 (3 (2 (DET))(2 (NOUN)))(4 (2 (AUX))(4 (3 (4 (ADJ))(2 (CCONJ)))(3 (ADJ))))))(2 (PUNCT))) |ET| 
1  |BT| (3 (3 (2 (3 (3 (3 (2 (2 (2 (3 (2 (DET))(2 (NOUN)))(2 (2 (VERB))(2 (2 (AUX))(2 (3 (NOUN))(2 (NOUN))))))(2 (PUNCT)))(2 (CCONJ)))(3 (2 (2 (DET))(2 (2 (ADJ))(2 (NOUN))))(3 (2 (2 (AUX))(2 (2 (SCONJ))(2 (NOUN))))(2 (2 (SCONJ))(2 (2 (PRON))(2 (2 (VERB))(2 (AUX))))))))(2 (PUNCT)))(2 (2 (2 (2 (DET))(2 (NOUN)))(3 (2 (ADP))(2 (2 (DET))(2 (NOUN)))))(2 (2 (AUX))(3 (2 (VERB))(2 (2 (ADP))(2 (2 (DET))(2 (2 (2 (ADV))(2 (2 (ADJ))(2 (2 (PUNCT))(2 (2 (ADV))(2 (VERB))))))(2 (2 (ADJ))(2 (NOUN))))))))))(2 (CCONJ)))(2 (2 (2 (DET))(2 (2 (NUM))(2 (PUNCT))))(1 (2 (NOUN))(1 (2 (NOUN))(2 (2 (2 (VERB))(2 (ADP)))(2 (2 (DET))(2 (NOUN))))))))(2 (ADP))) |ET| 
-1  |BT| (1 (3 (3 (3 (2 (ADV))(3 (ADJ)))(2 (NOUN)))(2 (2 (ADP))(2 (NOUN))))(2 (PUNCT))) |ET| 
1  |BT| (3 (2 (PROPN))(2 (2 (2 (VERB))(2 (2 (PART))(3 (2 (AUX))(3 (2 (VERB))(1 (2 (2 (DET))(2 (NOUN)))(2 (2 (ADP))(2 (2 (2 (3 (2 (ADV))(2 (2 (2 (ADJ))(2 (NOUN)))(2 (2 (ADV))(2 (2 (ADP))(2 (2 (PRON))(2 (2 (PRON))(2 (2 (2 (AUX))(2 (PART)))(2 (AUX)))))))))(2 (PUNCT)))(2 (CCONJ)))(1 (2 (ADV))(1 (2 (DET))(2 (3 (2 (VERB))(3 (PRON)))(2 (2 (ADP))(2 (NOUN)))))))))))))(2 (PUNCT)))) |ET| 
-1  |BT| (1 (2 (PRON))(2 (1 (2 (2 (VERB))(2 (ADP)))(3 (2 (3 (VERB))(2 (2 (ADP))(2 (2 (ADJ))(2 (NOUN)))))(2 (2 (SCONJ))(1 (2 (PRON))(3 (2 (2 (VERB))(1 (1 (PUNCT))(2 (1 (1 (ADJ))(2 (2 (PUNCT))(2 (2 (PRON))(2 (VERB)))))(3 (PUNCT)))))(2 (2 (ADP))(3 (2 (PRON))(2 (4 (ADJ))(2 (2 (PART))(2 (VERB)))))))))))(2 (PUNCT)))) |ET| 
1  |BT| (3 (2 (2 (PROPN))(2 (2 (2 (3 (PROPN))(2 (PART)))(2 (NOUN)))(1 (2 (VERB))(1 (2 (ADV))(2 (ADJ))))))(4 (2 (PUNCT))(3 (2 (2 (DET))(2 (NOUN)))(2 (3 (2 (VERB))(2 (2 (2 (DET))(3 (3 (VERB))(3 (2 (3 (NOUN))(2 (CCONJ)))(3 (NOUN)))))(2 (2 (DET))(2 (2 (VERB))(2 (2 (PRON))(2 (3 (ADJ))(2 (2 (ADP))(2 (2 (DET))(2 (2 (ADJ))(2 (ADJ)))))))))))(2 (ADJ)))))) |ET| 
-1  |BT| (1 (3 (2 (ADV))(4 (ADJ)))(2 (2 (ADP))(2 (2 (2 (VERB))(2 (NOUN)))(3 (2 (SCONJ))(3 (2 (ADP))(3 (2 (VERB))(4 (2 (DET))(3 (3 (2 (ADV))(3 (ADJ)))(3 (2 (PUNCT))(4 (4 (2 (ADV))(4 (VERB)))(3 (NOUN)))))))))))) |ET| 
1  |BT| (3 (2 (1 (PUNCT))(2 (2 (NOUN))(3 (PUNCT))))(2 (3 (2 (2 (VERB))(3 (PRON)))(2 (2 (ADV))(1 (3 (ADV))(1 (2 (VERB))(2 (2 (2 (DET))(3 (2 (PROPN))(2 (2 (PROPN))(3 (2 (PROPN))(2 (NOUN))))))(2 (2 (VERB))(1 (2 (AUX))(1 (2 (ADV))(1 (2 (PRON))(1 (2 (1 (2 (AUX))(1 (PART)))(2 (ADV)))(1 (3 (ADV))(2 (3 (VERB))(1 (2 (ADP))(1 (1 (1 (1 (2 (DET))(1 (1 (ADJ))(1 (NOUN))))(2 (2 (PUNCT))(2 (2 (ADJ))(2 (2 (2 (ADP))(2 (PUNCT)))(2 (2 (VERB))(2 (1 (DET))(2 (2 (1PUNCT))(3 (PUNCT)))))))))(2 (NUM)))(2 (2 (PUNCT))(2 (2 (2 (2 (2 (CCONJ))(2 (PUNCT)))(2 (VERB)))(2 (DET)))(1 (2 (2 (2 (PUNCT))(2 (2 (2 (1 (PUNCT))(2 (VERB)))(2 (PUNCT)))(3 (CCONJ))))(2 (VERB)))(2 (2 (PUNCT))(2 (2 (ADP))(2 (ADV)))))))))))))))))))))(2 (DET)))) |ET| 
-1  |BT| (1 (1 (ADV))(2 (3 (2 (2 (AUX))(2 (2 (PUNCT))(4 (2 (2 (2 (PUNCT))(2 (PROPN)))(2 (CCONJ)))(3 (2 (PROPN))(3 (2 (PUNCT))(3 (3 (3 (3 (4 (2 (2 (VERB))(2 (2 (2 (DET))(2 (NOUN)))(3 (CCONJ))))(3 (2 (NOUN))(3 (2 (3 (ADP))(2 (PROPN)))(3 (4 (PART))(2 (ADJ))))))(2 (NOUN)))(2 (PUNCT)))(2 (CCONJ)))(2 (2 (ADV))(2 (2 (DET))(2 (3 (2 (ADP))(3 (2 (ADJ))(3 (ADJ))))(2 (2 (NOUN))(2 (2 (ADJ))(2 (2 (SCONJ))(2 (2 (2 (2 (2 (PUNCT))(2 (PUNCT)))(2 (PROPN)))(2 (PUNCT)))(2 (CCONJ)))))))))))))))(2 (PUNCT)))(2 (PUNCT)))) |ET| 
1  |BT| (4 (2 (1 (1 (2 (VERB))(2 (1 (0 (2 (VERB))(1 (2 (ADP))(1 (1 (1 (ADJ))(2 (NOUN)))(2 (2 (ADV))(2 (2 (ADP))(0 (1 (ADJ))(2 (NOUN))))))))(2 (PUNCT)))(2 (2 (SCONJ))(2 (3 (NOUN))(2 (AUX))))))(2 (PUNCT)))(3 (2 (ADV))(3 (2 (PUNCT))(4 (3 (NOUN))(4 (2 (AUX))(3 (2 (ADV))(3 (2 (ADV))(3 (ADJ)))))))))(2 (PUNCT))) |ET| 
-1  |BT| (1 (3 (PROPN))(2 (0 (2 (1 (2 (3 (VERB))(2 (ADV)))(2 (2 (ADP))(2 (2 (ADJ))(2 (NOUN)))))(2 (PUNCT)))(2 (2 (2 (2 (2 (2 (VERB))(2 (3 (ADJ))(2 (2 (NOUN))(2 (2 (NOUN))(2 (2 (CCONJ))(2 (3 (NOUN))(2 (NOUN))))))))(2 (PUNCT)))(2 (2 (2 (VERB))(2 (2 (DET))(2 (NOUN))))(2 (2 (ADP))(2 (2 (DET))(2 (NOUN))))))(2 (CCONJ)))(2 (2 (VERB))(3 (2 (DET))(3 (2 (AUX))(3 (2 (ADJ))(3 (2 (PART))(3 (2 (VERB))(3 (NOUN))))))))))(2 (PUNCT)))) |ET| 
1  |BT| (3 (2 (1 (1 (2 (2 (PROPN))(1 (2 (VERB))(2 (2 (NOUN))(1 (2 (PROPN))(2 (1 (ADP))(2 (ADV)))))))(2 (PUNCT)))(2 (CCONJ)))(4 (2 (PRON))(3 (2 (2 (AUX))(2 (ADV)))(3 (2 (4 (ADV))(3 (2 (2 (VERB))(3 (3 (2 (2 (PUNCT))(2 (CCONJ)))(3 (1 (2 (ADV))(2 (ADV)))(2 (ADJ))))(2 (PUNCT))))(2 (2 (SCONJ))(2 (2 (DET))(2 (2 (ADJ))(2 (2 (ADJ))(2 (NOUN))))))))(2 (2 (ADP))(2 (2 (2 (DET))(2 (2 (VERB))(2 (NOUN))))(2 (2 (ADP))(2 (2 (NOUN))(2 (2 (ADP))(1 (2 (ADJ))(2 (2 (ADJ))(3 (NOUN)))))))))))))(2 (PUNCT))) |ET| 
-1  |BT| (1 (1 (2 (ADP))(1 (1 (1 (2 (1 (DET))(2 (NOUN)))(3 (2 (DET))(4 (NOUN))))(2 (PUNCT)))(1 (0 (0 (2 (NOUN))(1 (2 (CCONJ))(0 (2 (ADJ))(1 (0 (PART))(2 (2 (ADV))(2 (VERB)))))))(3 (DET)))(3 (2 (NOUN))(3 (2 (NOUN))(4 (2 (PRON))(3 (3 (3 (VERB))(3 (2 (AUX))(4 (3 (2 (VERB))(3 (ADP)))(2 (2 (DET))(3 (2 (NOUN))(2 (ADP)))))))(3 (2 (DET))(4 (2 (NOUN))(4 (3 (ADP))(2 (2 (DET))(2 (ADJ)))))))))))))(4 (2 (ADJ))(4 (2 (NOUN))(4 (2 (PUNCT))(3 (3 (2 (3 (PRON))(1 (ADV)))(3 (2 (VERB))(3 (2 (ADP))(4 (3 (SCONJ))(2 (2 (DET))(3 (3 (ADJ))(2 (4 (PUNCT))(2 (ADJ)))))))))(2 (NOUN))))))) |ET| 
1  |BT| (3 (4 (3 (4 (ADJ))(2 (CCONJ)))(3 (ADJ)))(1 (2 (PUNCT))(2 (2 (PRON))(1 (1 (2 (2 (AUX))(2 (ADV)))(1 (2 (ADV))(1 (ADJ))))(2 (PUNCT)))))) |ET| 
-0.68669234241233756410593969121692  |BT| (1 (2 (3 (4 (2 (ADV))(4 (ADJ)))(2 (CCONJ)))(1 (2 (ADV))(2 (ADJ))))(2 (PUNCT))) |ET| 
1  |BT| (3 (2 (CCONJ))(3 (2 (PUNCT))(4 (2 (PRON))(4 (3 (2 (AUX))(2 (1 (1 (DET))(2 (NOUN)))(0 (2 (PRON))(0 (2 (2 (VERB))(2 (PART)))(3 (2 (AUX))(2 (2 (2 (VERB))(2 (2 (ADP))(2 (2 (DET))(2 (NOUN)))))(2 (2 (SCONJ))(1 (2 (PRON))(1 (2 (VERB))(2 (2 (DET))(3 (NOUN))))))))))))(2 (PUNCT)))))) |ET| 
-1  |BT| (0 (1 (4 (3 (2 (2 (2 (DET))(2 (2 (PROPN))(2 (PART))))(2 (NOUN)))(3 (2 (AUX))(3 (ADJ))))(2 (PUNCT)))(0 (3 (2 (2 (DET))(2 (NOUN)))(2 (2 (SCONJ))(2 (2 (DET))(2 (NOUN)))))(0 (2 (AUX))(0 (0 (1 (0 (ADJ))(2 (NOUN)))(2 (CCONJ)))(2 (1 (2 (DET))(1 (NOUN)))(2 (2 (ADP))(2 (2 (DET))(2 (2 (NOUN))(2 (PUNCT))))))))))(2 (VERB))) |ET| 
1  |BT| (3 (4 (2 (2 (ADV))(2 (CCONJ)))(2 (2 (ADV))(2 (VERB))))(2 (2 (PUNCT))(2 (2 (2 (ADV))(2 (2 (ADP))(3 (PROPN))))(1 (1 (2 (1 (1 (2 (2 (AUX))(2 (ADV)))(1 (2 (NOUN))(2 (3 (3 (2 (NOUN))(4 (NOUN)))(2 (PUNCT)))(1 (2 (2 (2 (ADV))(3 (ADJ)))(2 (CCONJ)))(2 (3 (ADJ))(2 (NOUN)))))))(2 (PUNCT)))(1 (2 (ADJ))(2 (PUNCT))))(2 (2 (ADV))(3 (2 (ADV))(2 (2 (DET))(2 (NOUN))))))(2 (PART)))))) |ET| 
-1  |BT| (1 (2 (2 (PRON))(1 (2 (AUX))(2 (PART))))(2 (2 (PUNCT))(2 (2 (ADV))(2 (2 (PUNCT))(2 (2 (2 (3 (VERB))(2 (2 (2 (ADV))(2 (ADJ)))(2 (2 (ADP))(2 (2 (2 (DET))(2 (2 (NOUN))(2 (PART))))(2 (NOUN))))))(3 (3 (2 (NOUN))(2 (CCONJ)))(2 (NOUN))))(2 (PUNCT))))))) |ET| 
1  |BT| (3 (2 (2 (2 (DET))(2 (NOUN)))(1 (2 (ADP))(2 (0 (NOUN))(2 (2 (SCONJ))(2 (2 (VERB))(2 (PRON)))))))(1 (2 (2 (AUX))(2 (0 (ADJ))(2 (2 (PART))(2 (VERB)))))(2 (PUNCT)))) |ET| 
-1  |BT| (1 (2 (2 (2 (2 (PROPN))(2 (PART)))(2 (NOUN)))(2 (1 (PUNCT))(2 (2 (2 (NOUN))(1 (2 (VERB))(2 (2 (VERB))(1 (1 (ADP))(2 (2 (PROPN))(2 (NOUN)))))))(3 (PROPN)))))(2 (1 (2 (PROPN))(2 (2 (1 (2 (PUNCT))(2 (2 (AUX))(2 (DET))))(2 (2 (ADJ))(2 (NOUN))))(2 (2 (ADP))(2 (2 (2 (NOUN))(2 (2 (DET))(2 (2 (VERB))(2 (2 (ADJ))(2 (ADP))))))(2 (2 (PROPN))(2 (2 (2 (PROPN))(2 (SCONJ)))(2 (2 (DET))(2 (PROPN)))))))))(2 (ADP)))) |ET| 
1  |BT| (3 (3 (ADV))(1 (1 (1 (1 (ADJ))(2 (PUNCT)))(3 (ADJ)))(3 (2 (CCONJ))(2 (ADV))))) |ET| 
-1  |BT| (1 (2 (PRON))(0 (0 (0 (1 (1 (1 (VERB))(2 (CCONJ)))(1 (VERB)))(3 (PRON)))(1 (2 (SCONJ))(1 (2 (2 (2 (PROPN))(2 (2 (PROPN))(2 (PART))))(2 (2 (ADJ))(2 (NOUN))))(1 (2 (VERB))(1 (1 (0 (3 (VERB))(1 (ADV)))(2 (2 (ADP))(2 (2 (2NUM))(2 (NOUN)))))(1 (2 (SCONJ))(3 (3 (2 (PRON))(3 (2 (ADP))(3 (2 (2 (PROPN))(2 (2 (PROPN))(2 (PUNCT))))(3 (2 (2 (PROPN))(2 (PART)))(3 (ADV))))))(2 (2 (ADJ))(2 (2 (2 (NOUN))(2 (VERB)))(1 (1 (VERB))(2 (2 (ADP))(2 (2 (2 (VERB))(2 (ADP)))(2 (DET))))))))))))))(2 (NOUN)))) |ET| 
1  |BT| (3 (2 (2 (ADP))(2 (2 (2 (DET))(2 (NOUN)))(2 (2 (ADP))(2 (2 (NOUN))(2 (2 (SCONJ))(2 (2 (2 (PROPN))(2 (PROPN)))(2 (2 (ADP))(2 (2 (PART))(2 (2 (VERB))(2 (2 (ADP))(2 (2 (2 (PROPN))(2 (PART)))(2 (2 (NOUN))(2 (2 (NOUN))(2 (NOUN)))))))))))))))(4 (2 (PRON))(3 (3 (2 (AUX))(4 (2 (DET))(3 (4 (NOUN))(2 (2 (PART))(2 (2 (AUX))(2 (2 (2 (DET))(2 (NOUN)))(3 (2 (SCONJ))(2 (2 (2 (DET))(2 (PROPN)))(2 (2 (SCONJ))(2 (2 (DET))(2 (NOUN))))))))))))(2 (PUNCT))))) |ET| 
-1  |BT| (0 (2 (2 (VERB))(2 (2 (ADP))(1 (NOUN))))(3 (2 (PUNCT))(2 (2 (2 (2 (2 (VERB))(2 (2 (DET))(2 (NOUN))))(2 (ADP)))(3 (2 (ADP))(3 (3 (2 (DET))(2 (NOUN)))(2 (2 (ADP))(3 (3 (4 (ADJ))(2 (NOUN)))(2 (2 (2 (ADV))(2 (CCONJ)))(2 (ADV))))))))(2 (PUNCT))))) |ET| 
1  |BT| (3 (4 (3 (4 (2 (DET))(4 (ADJ)))(2 (PUNCT)))(0 (2 (2 (ADJ))(2 (CCONJ)))(1 (2 (ADV))(2 (2 (ADJ))(3 (PUNCT))))))(2 (ADJ))) |ET| 
-1  |BT| (1 (3 (ADV))(2 (1 (1 (PART))(4 (2 (DET))(3 (3 (ADJ))(2 (NOUN)))))(2 (2 (PUNCT))(3 (3 (2 (CCONJ))(3 (2 (PRON))(2 (2 (2 (AUX))(2 (PART)))(2 (0 (ADJ))(2 (ADV))))))(2 (PUNCT)))))) |ET| 
1  |BT| (3 (2 (2 (PRON))(1 (2 (PUNCT))(1 (2 (PUNCT))(1 (2 (NOUN))(1 (1 (PUNCT))(2 (2 (VERB))(2 (ADP))))))))(3 (2 (NOUN))(3 (3 (2 (2 (PRON))(2 (VERB)))(4 (2 (ADP))(2 (2 (ADP))(3 (2 (ADP))(2 (DET))))))(2 (NOUN))))) |ET| 
-1  |BT| (0 (3 (ADV))(2 (3 (2 (2 (2 (ADP))(2 (VERB)))(3 (PRON)))(2 (2 (ADP))(2 (2 (VERB))(3 (2 (PRON))(3 (ADJ))))))(2 (PUNCT)))) |ET| 
1  |BT| (3 (3 (1 (1 (1 (2 (2 (2 (PROPN))(2 (PART)))(2 (NOUN)))(2 (1 (2 (AUX))(1 (PART)))(3 (ADJ))))(2 (PUNCT)))(2 (CCONJ)))(3 (2 (PRON))(3 (2 (AUX))(3 (ADJ)))))(2 (PUNCT))) |ET| 
-1  |BT| (1 (2 (PRON))(1 (1 (2 (2 (AUX))(1 (PART)))(4 (2 (DET))(4 (4 (ADJ))(2 (2 (NOUN))(2 (NOUN))))))(2 (PUNCT)))) |ET| 
-1  |BT| (1 (2 (1 (2 (DET))(2 (NOUN)))(2 (2 (ADP))(2 (NOUN))))(2 (2 (ADV))(2 (2 (ADV))(2 (2 (2 (VERB))(2 (2 (ADP))(2 (2 (PROPN))(2 (PROPN)))))(2 (PUNCT)))))) |ET| 
-1  |BT| (1 (2 (2 (4 (3 (2 (PRON))(3 (2 (AUX))(3 (2 (ADJ))(2 (2 (PART))(3 (4 (VERB))(3 (2 (PROPN))(2 (PROPN))))))))(3 (2 (PUNCT))(3 (3 (4 (3 (2 (PRON))(2 (2 (AUX))(4 (ADJ))))(2 (CCONJ)))(3 (2 (PRON))(3 (2 (VERB))(2 (VERB)))))(2 (PUNCT)))))(2 (CCONJ)))(3 (2 (PRON))(1 (2 (VERB))(2 (2 (2 (2 (ADJ))(2 (CCONJ)))(2 (ADV)))(2 (2 (PART))(3 (2 (VERB))(2 (2 (DET))(2 (NOUN)))))))))(2 (PUNCT))) |ET| 
1  |BT| (3 (3 (2 (NOUN))(2 (2 (PUNCT))(3 (2 (4 (NOUN))(2 (CCONJ)))(2 (NOUN)))))(3 (2 (2 (VERB))(2 (ADV)))(3 (2 (3 (VERB))(2 (2 (2 (DET))(2 (NOUN)))(2 (2 (ADP))(2 (2 (DET))(2 (NOUN))))))(3 (2 (ADV))(3 (3 (2 (DET))(3 (3 (ADJ))(2 (NOUN))))(2 (2 (2 (3 (VERB))(2 (ADV)))(2 (PUNCT)))(2 (2 (ADV))(2 (2 (SCONJ))(2 (2 (PRON))(2 (2 (VERB))(2 (2 (ADP))(2 (2 (2 (DET))(2 (NOUN)))(2 (2 (ADP))(2 (3 (PROPN))(2 (PROPN)))))))))))))))) |ET| 
1  |BT| (3 (1 (2 (2 (CCONJ))(4 (2 (DET))(4 (4 (ADJ))(2 (NOUN)))))(2 (2 (DET))(1 (2 (2 (PROPN))(2 (2 (PROPN))(2 (2 (CCONJ))(2 (2 (PROPN))(2 (2 (PROPN))(2 (PROPN)))))))(2 (2 (2 (AUX))(2 (ADV)))(2 (VERB))))))(2 (2 (PUNCT))(3 (2 (PROPN))(3 (3 (2 (AUX))(3 (3 (2 (ADV))(3 (ADV)))(3 (4 (ADJ))(2 (2 (ADP))(2 (2 (DET))(2 (3 (ADJ))(2 (NOUN))))))))(2 (PUNCT)))))) |ET| 
1  |BT| (3 (3 (1 (1 (1 (2 (PRON))(1 (0 (1 (VERB))(1 (2 (ADV))(2 (ADV))))(2 (2 (ADP))(3 (NOUN)))))(2 (PUNCT)))(2 (CCONJ)))(3 (2 (PRON))(3 (2 (2 (AUX))(1 (PART)))(1 (0 (ADJ))(2 (NOUN))))))(2 (PUNCT))) |ET| 
-1  |BT| (0 (1 (2 (PRON))(2 (2 (AUX))(2 (2 (2 (VERB))(2 (2 (ADP))(2 (NOUN))))(2 (2 (ADP))(2 (NOUN))))))(2 (2 (2 (AUX))(2 (2 (2 (DET))(3 (3 (ADJ))(2 (3 (ADJ))(2 (NOUN)))))(2 (2 (ADP))(2 (2 (2 (DET))(2 (2 (NOUN))(2 (PART))))(1 (1 (ADJ))(2 (NOUN)))))))(2 (PUNCT)))) |ET| 
1  |BT| (3 (2 (2 (PROPN))(2 (PROPN)))(2 (3 (2 (2 (VERB))(2 (2 (2 (NOUN))(2 (CCONJ)))(2 (NOUN))))(3 (2 (ADP))(3 (2 (2 (VERB))(2 (2 (2 (2 (2 (2 (2 (2 (2 (2 (2 (2 (2 (2 (2 (NOUN))(2 (PUNCT)))(2 (2 (NOUN))(1 (NOUN))))(2 (PUNCT)))(2 (1 (NOUN))(2 (NOUN))))(2 (PUNCT)))(2 (NOUN)))(2 (PUNCT)))(2 (2 (PROPN))(2 (PROPN))))(2 (PUNCT)))(2 (NOUN)))(2 (PUNCT)))(2 (PROPN)))(2 (PUNCT)))(2 (PROPN))))(2 (2 (CCONJ))(2 (2 (NOUN))(1 (2 (ADP))(2 (1 (NUM))(2 (ADJ)))))))))(2 (ADJ)))) |ET| 
-1  |BT| (0 (3 (2 (2 (DET))(1 (NOUN)))(2 (2 (ADP))(2 (2 (PROPN))(2 (PROPN)))))(3 (2 (2 (AUX))(2 (2 (SCONJ))(2 (2 (PRON))(2 (2 (AUX))(2 (2 (2 (DET))(2 (NOUN)))(2 (3 (VERB))(2 (2 (ADP))(2 (2 (2 (PROPN))(2 (PROPN)))(2 (2 (2 (VERB))(2 (2 (ADP))(2 (2 (DET))(2 (NOUN)))))(2 (2 (ADP))(2 (2 (PROPN))(2 (PROPN)))))))))))))(2 (PUNCT)))) |ET| 
1  |BT| (3 (2 (1 (1 (1 (2 (2 (DET))(2 (NOUN)))(1 (2 (AUX))(1 (ADJ))))(2 (PUNCT)))(2 (CCONJ)))(2 (2 (PRON))(3 (2 (AUX))(3 (2 (DET))(2 (2 (ADJ))(3 (NOUN)))))))(2 (PUNCT))) |ET| 
-1  |BT| (1 (1 (2 (VERB))(0 (4 (2 (DET))(4 (4 (NOUN))(3 (2 (PUNCT))(4 (2 (NOUN))(3 (2 (PUNCT))(3 (1 (NOUN))(3 (3 (2 (PUNCT))(2 (CCONJ)))(3 (NOUN)))))))))(2 (2 (ADP))(0 (2 (DET))(1 (0 (ADJ))(2 (NOUN)))))))(2 (PUNCT))) |ET| 
1  |BT| (3 (2 (2 (2 (PROPN))(2 (2 (PROPN))(2 (PROPN))))(2 (2 (SCONJ))(2 (2 (DET))(2 (PROPN)))))(2 (2 (2 (2 (2 (VERB))(2 (ADV)))(2 (CCONJ)))(3 (0 (VERB))(2 (2 (DET))(2 (NOUN)))))(2 (PUNCT)))) |ET| 
-1  |BT| (1 (2 (2 (PROPN))(2 (2 (PROPN))(2 (3 (PROPN))(2 (2 (PROPN))(2 (PROPN))))))(1 (2 (2 (2 (VERB))(2 (ADV)))(1 (2 (AUX))(1 (3 (2 (ADV))(3 (ADJ)))(2 (2 (SCONJ))(2 (2 (VERB))(2 (2 (SCONJ))(2 (2 (DET))(2 (2 (NOUN))(2 (2 (PART))(2 (2 (VERB))(2 (2 (ADJ))(2 (ADJ)))))))))))))(2 (ADJ)))) |ET| 
1  |BT| (4 (2 (NOUN))(3 (3 (2 (PUNCT))(1 (2 (1 (2 (NOUN))(0 (2 (2 (ADV))(3 (2 (ADP))(3 (NOUN))))(2 (2 (PUNCT))(2 (2 (ADP))(2 (PUNCT))))))(2 (NOUN)))(2 (2 (ADJ))(1 (NOUN)))))(2 (3 (SCONJ))(2 (PROPN))))) |ET| 
-1  |BT| (1 (1 (2 (SCONJ))(2 (1 (1 (2 (DET))(2 (NOUN)))(1 (2 (ADP))(2 (1 (ADJ))(3 (3 (NOUN))(2 (NOUN))))))(3 (3 (NOUN))(2 (2 (ADP))(2 (PRON))))))(3 (2 (PUNCT))(3 (2 (ADV))(3 (2 (2 (DET))(2 (NOUN)))(3 (3 (2 (AUX))(3 (2 (DET))(3 (4 (ADJ))(2 (2 (ADJ))(2 (NOUN))))))(2 (PUNCT))))))) |ET| 
1  |BT| (3 (1 (2 (DET))(0 (NOUN)))(1 (2 (PUNCT))(0 (1 (ADV))(1 (0 (1 (1 (2 (VERB))(1 (0 (NOUN))(2 (2 (VERB))(2 (PRON)))))(2 (PUNCT)))(2 (2 (VERB))(2 (2 (ADJ))(2 (2 (ADP))(2 (2 (DET))(2 (NOUN)))))))(2 (PUNCT)))))) |ET| 
-1  |BT| (1 (2 (PRON))(2 (1 (2 (2 (VERB))(2 (ADV)))(1 (2 (2 (3 (2 (2 (2 (2 (3 (2 (3 (2 (2 (VERB))(2 (2 (DET))(2 (NOUN))))(2 (2 (ADP))(2 (2 (DET))(3 (NOUN)))))(2 (PUNCT)))(2 (VERB)))(2 (PUNCT)))(2 (NOUN)))(2 (PUNCT)))(2 (NOUN)))(2 (PUNCT)))(2 (NOUN)))(2 (PUNCT)))(2 (2 (2 (2 (VERB))(2 (ADP)))(2 (PUNCT)))(3 (2 (ADP))(2 (2 (DET))(2 (NOUN)))))))(2 (PUNCT)))) |ET| 
1  |BT| (4 (1 (3 (2 (VERB))(3 (2 (ADP))(3 (2 (2 (DET))(2 (2 (DET))(2 (NOUN))))(3 (2 (ADP))(3 (2 (PRON))(2 (PUNCT)))))))(2 (2 (AUX))(3 (2 (2 (PUNCT))(2 (2 (2 (PRON))(2 (NOUN)))(2 (2 (SCONJ))(2 (2 (ADV))(2 (DET))))))(2 (2 (NOUN))(1 (3 (2 (VERB))(2 (2 (PART))(2 (VERB))))(2 (2 (PUNCT))(2 (2 (DET))(2 (ADJ)))))))))(2 (NOUN))) |ET| 
-1  |BT| (0 (0 (1 (0 (2 (2 (ADJ))(1 (2 (VERB))(2 (2 (PART))(1 (3 (2 (2 (VERB))(2 (2 (DET))(4 (NOUN))))(2 (2 (ADP))(2 (2 (DET))(2 (2 (ADJ))(2 (NOUN))))))(2 (2 (SCONJ))(2 (2 (2 (2 (PRON))(2 (2 (AUX))(2 (4 (ADJ))(2 (ADV)))))(2 (CCONJ)))(2 (2 (PRON))(2 (2 (AUX))(2 (2 (2 (NOUN))(2 (NOUN)))(2 (ADV)))))))))))(2 (PUNCT)))(2 (CCONJ)))(1 (2 (PRON))(1 (2 (2 (AUX))(2 (PART)))(2 (2 (VERB))(2 (2 (SCONJ))(3 (2 (PROPN))(2 (2 (VERB))(1 (2 (VERB))(2 (2 (DET))(2 (2 (NOUN))(2 (2 (NUM))(2 (NOUN)))))))))))))(2 (PUNCT))) |ET| 
1  |BT| (3 (2 (1 (PUNCT))(2 (2 (2 (2 (PROPN))(2 (PART)))(2 (NOUN)))(3 (PUNCT))))(1 (2 (2 (2 (NOUN))(2 (2 (DET))(2 (2 (2 (NOUN))(2 (CCONJ)))(3 (NOUN)))))(2 (2 (ADP))(2 (3 (2 (DET))(2 (NOUN)))(2 (2 (ADP))(2 (NOUN))))))(2 (PUNCT)))) |ET| 
-1  |BT| (1 (2 (2 (DET))(2 (NOUN)))(2 (2 (2 (2 (2 (2 (2 (VERB))(2 (2 (ADJ))(2 (NOUN))))(2 (2 (ADP))(2 (PROPN))))(2 (2 (SCONJ))(2 (2 (ADP))(2 (2 (NOUN))(2 (PROPN))))))(2 (PUNCT)))(3 (2 (ADV))(3 (2 (SCONJ))(2 (2 (2 (DET))(2 (NOUN)))(3 (3 (3 (2 (AUX))(3 (2 (ADV))(3 (ADJ))))(2 (3 (2 (1 (PUNCT))(2 (CCONJ)))(3 (ADJ)))(3 (PUNCT))))(2 (2 (SCONJ))(2 (PRON))))))))(2 (PUNCT)))) |ET| 
1  |BT| (3 (1 (3 (ADV))(1 (ADJ)))(2 (PUNCT))) |ET| 
-1  |BT| (1 (1 (2 (2 (DET))(2 (NOUN)))(1 (2 (DET))(2 (2 (2 (2 (2 (VERB))(2 (2 (2 (ADJ))(2 (PROPN)))(2 (NOUN))))(2 (2 (ADP))(0 (2 (2 (DET))(2 (NOUN)))(2 (2 (ADP))(2 (2 (DET))(1 (2 (1 (2 (ADJ))(2 (CCONJ)))(2 (ADJ)))(2 (2 (ADJ))(3 (NOUN)))))))))(2 (PUNCT)))(2 (2 (ADV))(3 (2 (ADV))(2 (2 (PRON))(2 (2 (PRON))(2 (2 (VERB))(2 (2 (ADP))(2 (2 (DET))(2 (NOUN))))))))))))(3 (3 (2 (AUX))(3 (2 (PART))(4 (2 (AUX))(4 (VERB)))))(2 (PUNCT)))) |ET| 
1  |BT| (3 (2 (3 (3 (3 (2 (DET))(3 (NOUN)))(2 (2 (ADP))(2 (2 (DET))(3 (NOUN)))))(2 (PUNCT)))(2 (2 (DET))(3 (2 (AUX))(3 (2 (PART))(3 (2 (VERB))(3 (2 (SCONJ))(3 (2 (PRON))(3 (1 (2 (AUX))(2 (PART)))(0 (2 (VERB))(1 (1 (2 (DET))(0 (2 (ADJ))(2 (2 (PUNCT))(2 (1 (ADJ))(2 (2 (PUNCT))(2 (2 (VERB))(2 (PUNCT))))))))(2 (2 (DET))(2 (2 (PUNCT))(2 (2 (2 (NOUN))(2 (NOUN)))(2 (2 (DET))(2 (2 (AUX))(3 (2 (VERB))(2 (2 (ADJ))(2 (2 (2 (ADP))(2 (2 (NOUN))(2 (DET))))(2 (2 (VERB))(1 (2 (DET))(2 (2 (ADJ))(2 (NOUN)))))))))))))))))))))))(2 (ADP))) |ET| 
-1  |BT| (1 (2 (2 (NOUN))(2 (2 (ADP))(3 (NOUN))))(3 (2 (2 (VERB))(2 (2 (SCONJ))(2 (2 (2 (2 (DET))(2 (NOUN)))(2 (2 (ADP))(2 (2 (ADJ))(2 (2 (ADJ))(2 (NOUN))))))(1 (2 (VERB))(2 (2 (PART))(2 (3 (2 (VERB))(2 (2 (ADJ))(3 (NOUN))))(3 (2 (SCONJ))(3 (3 (3 (3 (ADJ))(2 (2 (NOUN))(2 (NOUN))))(2 (CCONJ)))(3 (3 (ADJ))(2 (NOUN)))))))))))(2 (PUNCT)))) |ET| 
1  |BT| (3 (3 (2 (3 (ADJ))(2 (CCONJ)))(3 (ADJ)))(0 (2 (2 (CCONJ))(1 (1 (1 (ADJ))(2 (CCONJ)))(1 (ADJ))))(2 (PUNCT)))) |ET| 
-1  |BT| (0 (1 (2 (DET))(1 (2 (2 (ADV))(2 (ADJ)))(2 (NOUN))))(2 (2 (2 (2 (VERB))(2 (ADP)))(2 (2 (ADP))(2 (2 (2 (VERB))(2 (NOUN)))(3 (2 (VERB))(2 (2 (DET))(2 (2 (ADJ))(2 (ADJ))))))))(2 (NOUN)))) |ET| 
1  |BT| (3 (1 (2 (SCONJ))(1 (3 (2 (2 (PROPN))(2 (2 (PROPN))(2 (PART))))(3 (3 (3 (ADV))(2 (VERB)))(2 (2 (NOUN))(1 (NOUN)))))(2 (2 (2 (2 (2 (VERB))(2 (PUNCT)))(2 (2 (ADP))(2 (NOUN))))(2 (PUNCT)))(1 (2 (1 (VERB))(2 (2 (ADP))(2 (NOUN))))(1 (2 (ADP))(2 (2 (2 (DET))(2 (NOUN)))(2 (2 (ADP))(1 (2 (DET))(1 (1 (ADV))(2 (PUNCT)))))))))))(1 (2 (ADJ))(1 (2 (2 (NOUN))(2 (2 (PUNCT))(2 (2 (DET))(2 (NUM)))))(3 (2 (2 (PUNCT))(2 (2 (NOUN))(2 (2 (NOUN))(2 (NOUN)))))(2 (VERB)))))) |ET| 
-1  |BT| (1 (2 (PROPN))(2 (2 (3 (VERB))(2 (2 (2 (DET))(2 (NOUN)))(1 (2 (DET))(2 (3 (3 (3 (2 (2 (VERB))(2 (2 (DET))(2 (3 (PROPN))(2 (PROPN)))))(4 (2 (DET))(4 (2 (VERB))(3 (NOUN)))))(2 (PUNCT)))(2 (CCONJ)))(1 (1 (VERB))(3 (2 (PART))(2 (3 (VERB))(3 (2 (2 (DET))(2 (NOUN)))(3 (2 (DET))(3 (2 (VERB))(2 (2 (PRON))(2 (2 (DET))(2 (NOUN))))))))))))))(2 (PUNCT)))) |ET| 
0.17187436936176508917029082113004  |BT| (3 (1 (3 (ADV))(2 (ADJ)))(3 (2 (CCONJ))(2 (2 (ADV))(4 (ADJ))))) |ET| 
-1  |BT| (1 (3 (ADV))(1 (2 (2 (3 (VERB))(2 (2 (CCONJ))(2 (ADV))))(2 (1 (1 (ADJ))(2 (PUNCT)))(2 (2 (2 (DET))(2 (NOUN)))(2 (2 (2 (DET))(2 (2 (2 (ADJ))(2 (NOUN)))(2 (PRON))))(2 (2 (3 (2 (VERB))(3 (VERB)))(2 (CCONJ)))(1 (2 (AUX))(1 (1 (ADJ))(2 (2 (PART))(3 (2 (VERB))(2 (2 (ADP))(2 (2 (ADP))(2 (2 (DET))(2 (2 (ADJ))(2 (NOUN)))))))))))))))(2 (PUNCT)))) |ET| 
1  |BT| (3 (2 (PRON))(2 (2 (2 (AUX))(2 (3 (2 (DET))(3 (NOUN)))(2 (2 (ADP))(2 (2 (VERB))(2 (2 (NOUN))(1 (2 (DET))(2 (2 (AUX))(1 (2 (2 (0 (0 (2 (DET))(1 (NOUN)))(2 (PUNCT)))(3 (2 (DET))(3 (ADV))))(2 (PUNCT)))(1 (2 (VERB))(1 (CCONJ)))))))))))(2 (DET)))) |ET| 
-1  |BT| (1 (0 (2 (SCONJ))(2 (2 (2 (SCONJ))(2 (2 (VERB))(2 (2 (PART))(2 (2 (VERB))(3 (2 (2 (DET))(2 (NOUN)))(2 (2 (ADP))(2 (NOUN))))))))(2 (2 (PUNCT))(2 (2 (2 (PROPN))(2 (PUNCT)))(2 (2 (2 (DET))(2 (ADJ)))(2 (2 (DET))(2 (2 (PROPN))(2 (2 (VERB))(2 (2 (PART))(2 (VERB)))))))))))(1 (2 (DET))(2 (2 (2 (NOUN))(2 (2 (PUNCT))(2 (DET))))(2 (2 (2 (2 (ADJ))(1 (NOUN)))(2 (2 (VERB))(2 (2 (ADP))(2 (ADP)))))(2 (DET)))))) |ET| 
1  |BT| (3 (2 (CCONJ))(1 (2 (PRON))(2 (1 (2 (AUX))(1 (4 (ADJ))(1 (2 (ADP))(1 (2 (DET))(1 (0 (ADJ))(2 (NOUN)))))))(2 (PUNCT))))) |ET| 
-1  |BT| (1 (4 (4 (2 (2 (DET))(4 (2 (ADJ))(3 (NOUN))))(2 (CCONJ)))(3 (2 (DET))(4 (ADJ))))(1 (0 (NOUN))(2 (PUNCT)))) |ET| 
1  |BT| (3 (2 (PROPN))(2 (3 (2 (VERB))(3 (3 (PRON))(2 (2 (VERB))(2 (2 (SCONJ))(2 (1 (2 (2 (DET))(2 (2 (NOUN))(3 (VERB))))(2 (2 (ADP))(2 (2 (2 (DET))(2 (NOUN)))(2 (2 (SCONJ))(2 (2 (PART))(2 (2 (AUX))(2 (ADJ))))))))(2 (2 (2 (AUX))(2 (ADV)))(2 (2 (PART))(2 (2 (AUX))(2 (2 (PART))(2 (VERB)))))))))))(2 (PUNCT)))) |ET| 
-1  |BT| (1 (2 (2 (SCONJ))(3 (2 (PROPN))(2 (2 (AUX))(2 (2 (VERB))(2 (ADP))))))(1 (2 (PUNCT))(3 (2 (PRON))(2 (2 (2 (VERB))(2 (2 (AUX))(2 (2 (SCONJ))(3 (2 (NOUN))(2 (2 (AUX))(2 (2 (2 (VERB))(2 (2 (ADP))(2 (PRON))))(2 (2 (PART))(3 (2 (VERB))(2 (2 (PRON))(3 (VERB)))))))))))(2 (PUNCT)))))) |ET| 
1  |BT| (3 (4 (1 (2 (1 (3 (2 (DET))(2 (2 (ADJ))(2 (PROPN))))(1 (3 (2 (VERB))(2 (ADV)))(1 (2 (ADV))(3 (3 (VERB))(2 (2 (2 (DET))(2 (NOUN)))(2 (2 (ADP))(2 (2 (DET))(2 (2 (ADJ))(2 (1 (ADJ))(2 (2 (ADJ))(3 (NOUN))))))))))))(2 (PUNCT)))(2 (CCONJ)))(3 (2 (2 (DET))(3 (3 (ADJ))(2 (2 (ADJ))(3 (2 (NOUN))(2 (NOUN))))))(2 (2 (AUX))(3 (2 (2 (ADV))(2 (ADJ)))(2 (NOUN))))))(2 (PUNCT))) |ET| 
-1  |BT| (1 (2 (PRON))(3 (2 (1 (2 (AUX))(1 (2 (ADV))(0 (ADJ))))(3 (2 (SCONJ))(2 (3 (2 (DET))(3 (3 (ADJ))(2 (NOUN))))(2 (1 (2 (AUX))(2 (PART)))(3 (2 (ADV))(3 (ADJ)))))))(2 (PUNCT)))) |ET| 
-0.14184887500693449391420131178165  |BT| (1 (2 (1 (PUNCT))(2 (2 (DET))(3 (PUNCT))))(2 (1 (NOUN))(2 (PUNCT)))) |ET| 
-1  |BT| (1 (1 (ADV))(2 (2 (2 (2 (2 (2 (VERB))(2 (2 (ADP))(2 (2 (PROPN))(2 (2 (PROPN))(2 (PROPN))))))(2 (PUNCT)))(2 (2 (ADP))(2 (2 (DET))(1 (1 (ADJ))(2 (NOUN))))))(2 (2 (ADP))(2 (2 (2 (2 (PROPN))(2 (PROPN)))(2 (CCONJ)))(2 (2 (NOUN))(2 (2 (PROPN))(3 (PROPN)))))))(2 (PUNCT)))) |ET| 
1  |BT| (3 (2 (1 (1 (0 (2 (NOUN))(1 (2 (AUX))(1 (2 (VERB))(2 (2 (PART))(0 (2 (1 (2 (VERB))(2 (2 (SCONJ))(2 (2 (DET))(2 (NOUN)))))(2 (CCONJ)))(1 (2 (VERB))(1 (2 (PART))(1 (0 (VERB))(1 (2 (VERB))(2 (2 (DET))(1 (1 (3 (ADV))(2 (ADJ)))(2 (NOUN)))))))))))))(2 (PUNCT)))(2 (ADJ)))(3 (2 (ADJ))(3 (2 (2 (ADJ))(2 (PUNCT)))(3 (2 (CCONJ))(3 (2 (ADV))(4 (DET)))))))(2 (NOUN))) |ET| 
-1  |BT| (1 (2 (CCONJ))(1 (4 (3 (3 (2 (DET))(3 (2 (NOUN))(2 (NOUN))))(2 (CCONJ)))(2 (3 (ADJ))(2 (NOUN))))(2 (1 (2 (2 (AUX))(2 (DET)))(1 (ADJ)))(2 (PUNCT))))) |ET| 
-1  |BT| (1 (1 (3 (2 (1 (2 (PRON))(1 (3 (VERB))(2 (2 (2 (DET))(2 (NOUN)))(1 (2 (2 (VERB))(2 (PART)))(2 (2 (2 (VERB))(2 (ADV)))(2 (2 (ADP))(2 (2 (DET))(2 (2 (NOUN))(2 (NOUN))))))))))(1 (2 (PUNCT))(3 (3 (2 (ADV))(3 (3 (ADV))(2 (VERB))))(2 (PUNCT)))))(2 (ADV)))(1 (2 (PRON))(2 (2 (2 (VERB))(1 (ADP)))(1 (2 (1 (2 (2 (DET))(2 (2 (ADJ))(2 (2 (NOUN))(2 (PUNCT)))))(2 (2 (NOUN))(2 (2 (NOUN))(2 (ADP)))))(2 (NOUN)))(1 (2 (2 (PUNCT))(2 (ADJ)))(2 (2 (NOUN))(2 (1 (CCONJ))(2 (ADJ)))))))))(2 (NOUN))) |ET| 
-1  |BT| (1 (1 (2 (SCONJ))(0 (2 (2 (3 (PROPN))(2 (PROPN)))(3 (2 (ADP))(3 (2 (DET))(2 (2 (PROPN))(2 (PUNCT))))))(2 (2 (PROPN))(1 (2 (PROPN))(3 (2 (VERB))(1 (2 (2 (ADP))(2 (DET)))(2 (ADV))))))))(3 (2 (ADJ))(2 (2 (NOUN))(3 (2 (3 (PUNCT))(3 (2 (PRON))(4 (3 (VERB))(2 (2 (ADP))(2 (2 (NOUN))(2 (ADP)))))))(2 (DET)))))) |ET| 
0.76470589880754225031722626226838  |BT| (3 (3 (2 (DET))(3 (3 (3 (ADJ))(2 (2 (PUNCT))(1 (2 (SCONJ))(1 (2 (ADV))(1 (1 (ADJ))(2 (PUNCT)))))))(2 (NOUN))))(2 (PUNCT))) |ET| 
-1  |BT| (0 (2 (PUNCT))(0 (0 (2 (VERB))(1 (2 (SCONJ))(2 (2 (SCONJ))(2 (2 (1 (PUNCT))(2 (2 (2 (PRON))(2 (AUX)))(3 (PUNCT))))(2 (1 (1 (2 (DET))(2 (1 (NOUN))(2 (NOUN))))(2 (2 (ADP))(2 (2 (2 (DET))(2 (NOUN)))(2 (2 (SCONJ))(2 (2 (NOUN))(2 (2 (PROPN))(2 (PROPN))))))))(2 (2 (VERB))(2 (2 (3 (VERB))(2 (PRON)))(2 (3 (2 (DET))(2 (3 (ADJ))(2 (2 (PUNCT))(2 (2 (ADJ))(3 (NOUN))))))(2 (2 (ADV))(3 (2 (PRON))(2 (3 (VERB))(2 (2 (PRON))(2 (2 (PART))(2 (2 (VERB))(2 (PRON))))))))))))))))(2 (PUNCT)))) |ET| 
0.37505760260905768310735197701433  |BT| (3 (3 (2 (2 (2 (PROPN))(3 (2 (VERB))(2 (PROPN))))(2 (CCONJ)))(2 (1 (2 (DET))(2 (NOUN)))(2 (2 (ADP))(2 (2 (3 (2 (VERB))(2 (2 (DET))(2 (2 (ADJ))(3 (2 (PROPN))(1 (NOUN))))))(2 (CCONJ)))(2 (2 (2 (VERB))(2 (ADP)))(2 (2 (ADP))(2 (2 (DET))(2 (NOUN)))))))))(3 (4 (PUNCT))(2 (NOUN)))) |ET| 
-1  |BT| (1 (3 (3 (3 (4 (2 (2 (PROPN))(2 (2 (PROPN))(2 (2 (CCONJ))(2 (2 (PROPN))(2 (PROPN))))))(4 (3 (VERB))(4 (3 (3 (3 (ADJ))(2 (CCONJ)))(3 (ADJ)))(2 (NOUN)))))(2 (PUNCT)))(2 (CCONJ)))(1 (2 (DET))(2 (2 (VERB))(3 (2 (ADP))(2 (2 (2 (DET))(1 (2 (ADJ))(2 (NOUN))))(2 (2 (ADP))(3 (2 (DET))(2 (2 (NOUN))(2 (2 (PART))(3 (2 (VERB))(3 (2 (2 (DET))(2 (2 (VERB))(2 (NOUN))))(3 (2 (ADP))(1 (2 (NOUN))(2 (2 (PUNCT))(2 (2 (2 (NOUN))(2 (CCONJ)))(2 (NOUN)))))))))))))))))(2 (PUNCT))) |ET| 
0.82615163024699123095473396460875  |BT| (3 (3 (2 (1 (1 (2 (DET))(1 (1 (1 (2 (AUX))(1 (2 (ADJ))(2 (NOUN))))(2 (PUNCT)))(2 (2 (PART))(2 (2 (AUX))(2 (ADJ))))))(2 (PUNCT)))(2 (CCONJ)))(3 (2 (PRON))(3 (2 (AUX))(3 (3 (3 (3 (4 (ADJ))(2 (ADV)))(2 (PUNCT)))(2 (CCONJ)))(4 (2 (VERB))(3 (2 (ADP))(3 (3 (ADJ))(2 (NOUN)))))))))(2 (PUNCT))) |ET| 
-0.67941528394201189389178807687131  |BT| (1 (3 (2 (PROPN))(3 (2 (2 (2 (PROPN))(2 (2 (PROPN))(2 (PART))))(2 (NOUN)))(2 (2 (VERB))(3 (1 (ADP))(2 (2 (ADV))(2 (ADV)))))))(1 (2 (PUNCT))(2 (2 (2 (ADP))(2 (DET)))(1 (2 (ADJ))(1 (1 (2 (NOUN))(1 (2 (PRON))(1 (2 (2 (VERB))(2 (2 (DET))(2 (1 (ADJ))(2 (NOUN)))))(2 (2 (ADP))(2 (1 (2 (2 (NOUN))(2 (NOUN)))(2 (CCONJ)))(2 (1 (ADJ))(2 (NOUN))))))))(2 (PUNCT))))))) |ET| 
1  |BT| (3 (3 (2 (ADV))(2 (2 (ADP))(2 (2 (DET))(2 (1 (ADJ))(2 (4 (NOUN))(1 (1 (NOUN))(2 (PUNCT))))))))(2 (2 (NOUN))(3 (2 (3 (NOUN))(2 (2 (PUNCT))(1 (PROPN))))(2 (2 (1 (2 (ADP))(0 (2 (PROPN))(0 (3 (AUX))(1 (ADV)))))(3 (2 (ADV))(3 (2 (ADJ))(4 (1 (2 (SCONJ))(3 (PRON)))(3 (AUX))))))(2 (ADV)))))) |ET| 
-1  |BT| (1 (2 (PUNCT))(1 (1 (3 (3 (3 (3 (3 (3 (2 (DET))(4 (3 (ADJ))(2 (2 (NOUN))(2 (NOUN)))))(2 (PUNCT)))(3 (ADJ)))(2 (PUNCT)))(2 (2 (ADV))(2 (ADV))))(2 (PUNCT)))(2 (2 (ADP))(2 (3 (2 (ADV))(2 (NUM)))(2 (NOUN)))))(2 (PUNCT)))) |ET| 
1  |BT| (3 (3 (2 (0 (2 (2 (2 (PROPN))(2 (PROPN)))(1 (2 (VERB))(2 (1 (VERB))(2 (2 (PRON))(1 (1 (2 (VERB))(2 (2 (DET))(2 (NOUN))))(2 (2 (ADP))(1 (2 (DET))(2 (NOUN)))))))))(2 (PUNCT)))(2 (CCONJ)))(2 (2 (DET))(3 (1 (2 (AUX))(2 (PART)))(2 (1 (VERB))(0 (2 (PRON))(1 (2 (2 (VERB))(2 (PART)))(2 (2 (VERB))(2 (2 (VERB))(2 (2 (ADP))(2 (PRON)))))))))))(2 (PUNCT))) |ET| 
-0.84202484564330770666629177867435  |BT| (1 (1 (2 (VERB))(1 (2 (ADP))(2 (2 (VERB))(2 (1 (2 (1 (PRON))(2 (ADJ)))(2 (2 (SCONJ))(2 (2 (DET))(2 (2 (ADJ))(2 (2 (2 (PROPN))(2 (CCONJ)))(2 (PROPN)))))))(2 (NOUN))))))(2 (2 (VERB))(2 (PUNCT)))) |ET| 
1  |BT| (3 (0 (2 (ADP))(1 (1 (2 (1 (0 (2 (ADV))(1 (2 (2 (ADP))(2 (2 (DET))(2 (NOUN))))(1 (2 (PRON))(1 (2 (AUX))(1 (2 (VERB))(1 (2 (PART))(0 (0 (VERB))(2 (PRON)))))))))(2 (PUNCT)))(2 (CCONJ)))(2 (PUNCT)))(2 (2 (ADP))(2 (NOUN)))))(2 (2 (PUNCT))(3 (2 (2 (1 (1 (2 (VERB))(1 (ADJ)))(2 (2 (ADP))(2 (PRON))))(2 (PUNCT)))(2 (2 (ADV))(2 (2 (PUNCT))(2 (3 (3 (NOUN))(2 (2 (ADP))(2 (3 (3 (NOUN))(2 (PUNCT)))(2 (2 (DET))(2 (NOUN))))))(2 (2 (AUX))(2 (2 (DET))(2 (NOUN))))))))(2 (PUNCT))))) |ET| 
-1  |BT| (1 (2 (PRON))(2 (3 (3 (1 (VERB))(3 (2 (DET))(2 (NOUN))))(2 (2 (ADP))(2 (2 (2 (DET))(2 (NOUN)))(1 (2 (ADP))(2 (2 (DET))(1 (2 (ADJ))(3 (2 (ADJ))(2 (NOUN)))))))))(2 (PUNCT)))) |ET| 
1  |BT| (4 (2 (2 (PROPN))(2 (2 (VERB))(3 (PRON))))(1 (2 (PRON))(1 (2 (2 (AUX))(2 (2 (2 (DET))(2 (2 (2 (ADJ))(2 (2 (PUNCT))(2 (2 (ADV))(2 (ADJ)))))(2 (NOUN))))(2 (2 (PRON))(2 (2 (2 (VERB))(3 (ADV)))(2 (2 (AUX))(2 (2 (2 (VERB))(2 (2 (DET))(2 (NOUN))))(3 (2 (SCONJ))(2 (2 (PRON))(3 (2 (VERB))(2 (2 (PRON))(2 (2 (VERB))(4 (ADJ)))))))))))))(2 (PUNCT))))) |ET| 
-1  |BT| (0 (2 (PART))(2 (1 (2 (2 (2 (ADV))(2 (ADV)))(2 (ADJ)))(2 (3 (2 (2 (PRON))(2 (2 (PRON))(2 (2 (AUX))(2 (2 (VERB))(2 (2 (PART))(2 (VERB)))))))(2 (CCONJ)))(2 (2 (ADV))(2 (2 (SCONJ))(2 (2 (PRON))(2 (2 (2 (AUX))(2 (PUNCT)))(2 (2 (PRON))(1 (2 (VERB))(2 (PRON))))))))))(2 (2 (2 (VERB))(2 (2 (AUX))(2 (2 (2 (DET))(2 (ADV)))(3 (ADJ)))))(2 (PUNCT))))) |ET| 
1  |BT| (3 (2 (PRON))(1 (3 (2 (AUX))(2 (0 (2 (DET))(1 (0 (ADJ))(2 (NOUN))))(2 (2 (ADP))(2 (1 (1 (2 (DET))(0 (0 (ADJ))(2 (NOUN))))(2 (PUNCT)))(2 (3 (2 (VERB))(3 (3 (ADJ))(3 (2 (ADP))(4 (2 (DET))(3 (3 (ADJ))(2 (NOUN)))))))(3 (2 (ADP))(3 (3 (2 (DET))(3 (3 (ADJ))(2 (NOUN))))(3 (1 (ADJ))(1 (2 (ADP))(1 (2 (AUX))(0 (ADJ))))))))))))(2 (PUNCT)))) |ET| 
1  |BT| (3 (2 (2 (VERB))(2 (ADV)))(2 (3 (2 (ADV))(2 (2 (ADJ))(2 (2 (PART))(2 (2 (VERB))(2 (2 (DET))(2 (2 (2 (ADV))(3 (ADJ)))(2 (NOUN))))))))(2 (PUNCT)))) |ET| 
1  |BT| (3 (2 (2 (VERB))(2 (2 (PRON))(2 (3 (NOUN))(2 (2 (VERB))(2 (2 (AUX))(2 (2 (2 (2 (2 (VERB))(2 (2 (ADP))(1 (2 (ADJ))(2 (ADJ)))))(2 (ADJ)))(2 (NOUN)))(2 (PUNCT))))))))(1 (1 (2 (CCONJ))(2 (2 (2 (2 (ADV))(2 (VERB)))(2 (NOUN)))(2 (2 (PART))(2 (3 (NOUN))(3 (ADP))))))(2 (VERB)))) |ET| 
-1  |BT| (1 (2 (2 (SCONJ))(2 (2 (PRON))(2 (2 (VERB))(2 (NOUN)))))(3 (2 (PUNCT))(3 (2 (PRON))(3 (2 (2 (VERB))(3 (2 (VERB))(2 (2 (DET))(2 (NOUN)))))(2 (PUNCT)))))) |ET| 
0.023860369201243680770119226508541  |BT| (3 (2 (DET))(3 (3 (ADJ))(2 (3 (NOUN))(2 (PUNCT))))) |ET| 
-1  |BT| (1 (2 (2 (SCONJ))(2 (2 (2 (ADV))(2 (PROPN)))(2 (2 (2 (VERB))(2 (2 (ADJ))(2 (NOUN))))(2 (2 (DET))(2 (NOUN))))))(2 (PUNCT))) |ET| 
1  |BT| (3 (4 (3 (2 (DET))(4 (2 (NUM))(4 (2 (NOUN))(2 (NOUN)))))(1 (2 (ADP))(1 (2 (2 (PROPN))(2 (PROPN)))(1 (2 (PRON))(2 (1 (ADV))(2 (2 (VERB))(2 (2 (ADP))(1 (2 (DET))(1 (2 (NUM))(3 (2 (NOUN))(2 (NOUN))))))))))))(2 (PUNCT))) |ET| 
-1  |BT| (1 (0 (2 (DET))(1 (0 (ADJ))(2 (2 (PROPN))(2 (PROPN)))))(3 (2 (2 (ADV))(2 (CCONJ)))(2 (4 (1 (2 (VERB))(1 (ADP)))(4 (4 (2 (3 (PROPN))(2 (2 (PROPN))(2 (PART))))(3 (3 (ADJ))(2 (NOUN))))(2 (2 (ADP))(2 (2 (DET))(2 (2 (NOUN))(2 (NOUN)))))))(2 (PUNCT))))) |ET| 
-1  |BT| (1 (2 (2 (2 (2 (2 (DET))(2 (2 (ADJ))(1 (PUNCT))))(2 (ADJ)))(2 (2 (NOUN))(2 (2 (PUNCT))(2 (2 (VERB))(2 (2 (ADP))(2 (2 (2 (2 (NUM))(2 (ADP)))(2 (DET)))(2 (2 (NOUN))(2 (2 (PUNCT))(2 (PROPN))))))))))(2 (PROPN)))(1 (2 (2 (PROPN))(2 (1 (PUNCT))(1 (2 (AUX))(1 (2 (2 (ADJ))(2 (ADP)))(2 (2 (DET))(1 (2 (NOUN))(0 (2 (2 (DET))(1 (2 (VERB))(2 (DET))))(2 (2 (2 (NOUN))(2 (2 (NOUN))(2 (2 (VERB))(2 (DET)))))(2 (ADJ))))))))))(2 (NOUN)))) |ET| 
-1  |BT| (0 (1 (2 (DET))(0 (NOUN)))(3 (2 (VERB))(2 (PUNCT)))) |ET| 
1  |BT| (3 (2 (PRON))(2 (2 (2 (AUX))(2 (2 (2 (ADV))(2 (2 (ADJ))(2 (2 (CCONJ))(2 (3 (ADJ))(2 (NOUN))))))(2 (2 (ADP))(2 (2 (2 (DET))(2 (NOUN)))(2 (2 (PRON))(2 (2 (VERB))(1 (1 (VERB))(2 (2 (SCONJ))(2 (2 (3 (VERB))(2 (2 (DET))(2 (2 (NOUN))(2 (2 (PUNCT))(2 (2 (2 (NOUN))(2 (CCONJ)))(2 (PROPN)))))))(1 (1 (2 (AUX))(2 (PART)))(2 (1 (VERB))(1 (2 (PRON))(0 (2 (AUX))(1 (2 (PART))(1 (1 (3 (VERB))(2 (2 (DET))(2 (NOUN))))(2 (2 (ADP))(2 (2 (DET))(2 (NOUN)))))))))))))))))))(2 (PUNCT)))) |ET| 
-1  |BT| (1 (2 (2 (2 (2 (2 (AUX))(2 (PART)))(2 (PRON)))(2 (2 (2 (2 (DET))(2 (NOUN)))(2 (ADV)))(2 (2 (ADP))(2 (2 (2 (DET))(3 (NOUN)))(2 (2 (ADP))(2 (2 (NOUN))(2 (2 (PROPN))(2 (PROPN)))))))))(2 (2 (PART))(2 (3 (2 (AUX))(3 (2 (DET))(3 (NOUN))))(2 (2 (ADP))(2 (PRON))))))(2 (PUNCT))) |ET| 
1  |BT| (3 (2 (PUNCT))(3 (2 (PROPN))(2 (3 (2 (AUX))(3 (4 (ADJ))(3 (2 (PART))(2 (2 (VERB))(2 (2 (2 (2 (2 (DET))(2 (NOUN)))(2 (2 (ADP))(2 (2 (DET))(2 (NOUN)))))(2 (PUNCT)))(3 (2 (VERB))(2 (2 (1 (VERB))(2 (2 (NOUN))(2 (NOUN))))(2 (2 (ADP))(2 (2 (1 (2 (ADJ))(2 (2 (ADJ))(2 (NOUN))))(2 (2 (ADP))(2 (NOUN))))(2 (2 (2 (ADV))(2 (ADV)))(1 (2 (VERB))(2 (1 (PROPN))(2 (2 (PROPN))(2 (NOUN)))))))))))))))(2 (PUNCT))))) |ET| 
1  |BT| (3 (2 (PRON))(3 (2 (2 (2 (VERB))(2 (2 (DET))(2 (2 (ADP))(2 (2 (DET))(2 (NOUN))))))(3 (2 (ADP))(2 (2 (DET))(2 (2 (ADJ))(2 (2 (PUNCT))(2 (2 (NOUN))(2 (3 (2 (NOUN))(2 (PART)))(2 (2 (VERB))(2 (2 (PRON))(2 (ADP)))))))))))(2 (DET)))) |ET| 
1  |BT| (3 (2 (2 (2 (2 (2 (PRON))(2 (2 (2 (AUX))(2 (2 (2 (2 (CCONJ))(1 (2 (ADV))(1 (1 (ADJ))(2 (2 (SCONJ))(2 (2 (PROPN))(2 (PROPN)))))))(2 (CCONJ)))(2 (2 (SCONJ))(2 (ADJ)))))(2 (2 (SCONJ))(3 (2 (2 (3 (PROPN))(2 (PROPN)))(2 (CCONJ)))(2 (2 (DET))(2 (PROPN)))))))(2 (PUNCT)))(2 (CCONJ)))(3 (2 (PRON))(3 (2 (AUX))(2 (2 (DET))(2 (NOUN))))))(2 (PUNCT))) |ET| 
-1  |BT| (1 (3 (2 (2 (3 (2 (2 (DET))(2 (NOUN)))(2 (2 (AUX))(3 (2 (2 (DET))(2 (2 (ADJ))(2 (NOUN))))(2 (2 (ADP))(2 (2 (PROPN))(2 (PROPN)))))))(2 (PUNCT)))(2 (CCONJ)))(2 (2 (PRON))(2 (2 (VERB))(2 (2 (AUX))(3 (1 (2 (ADV))(2 (2 (ADV))(2 (ADJ))))(2 (2 (SCONJ))(3 (2 (PRON))(3 (2 (AUX))(3 (2 (2 (AUX))(2 (PRON)))(3 (1 (PART))(3 (2 (ADP))(3 (3 (2 (DET))(3 (3 (NOUN))(2 (2 (PUNCT))(2 (3 (2 (ADV))(2 (ADJ)))(3 (NOUN))))))(2 (2 (ADP))(2 (2 (PROPN))(2 (PROPN))))))))))))))))(2 (PUNCT))) |ET| 
1  |BT| (3 (3 (1 (1 (0 (2 (PRON))(1 (1 (1 (1 (DET))(2 (X)))(2 (NOUN)))(3 (2 (NOUN))(4 (2 (ADV))(3 (ADJ))))))(2 (PUNCT)))(2 (CCONJ)))(4 (2 (PRON))(4 (2 (ADV))(4 (3 (VERB))(2 (2 (DET))(2 (4 (NOUN))(2 (NOUN))))))))(2 (PUNCT))) |ET| 
-1  |BT| (1 (1 (2 (DET))(1 (1 (2 (2 (3 (3 (ADV))(3 (ADJ)))(2 (CCONJ)))(2 (2 (ADV))(2 (ADJ))))(2 (CCONJ)))(1 (2 (ADV))(1 (ADJ)))))(3 (3 (2 (NOUN))(2 (2 (ADP))(3 (3 (2 (NOUN))(2 (CCONJ)))(2 (NOUN)))))(2 (PUNCT)))) |ET| 
1  |BT| (3 (2 (2 (DET))(2 (2 (ADP))(2 (2 (2 (DET))(2 (PUNCT)))(2 (2 (PROPN))(2 (2 (ADP))(3 (PROPN)))))))(3 (1 (2 (2 (AUX))(2 (2 (ADJ))(2 (2 (ADP))(4 (NOUN)))))(1 (2 (ADP))(2 (2 (NOUN))(2 (2 (SCONJ))(4 (NOUN))))))(2 (PUNCT)))) |ET| 
1  |BT| (3 (3 (2 (ADP))(2 (2 (DET))(2 (NOUN))))(3 (2 (PUNCT))(3 (2 (PRON))(2 (3 (2 (VERB))(4 (2 (VERB))(3 (2 (SCONJ))(3 (2 (2 (2 (DET))(3 (NOUN)))(2 (2 (ADP))(2 (2 (2 (VERB))(2 (NOUN)))(2 (2 (ADP))(2 (2 (DET))(2 (NOUN)))))))(3 (2 (ADV))(2 (2 (2 (2 (2 (VERB))(2 (PUNCT)))(2 (VERB)))(2 (CCONJ)))(0 (2 (2 (VERB))(2 (2 (2 (ADP))(2 (CCONJ)))(2 (ADP))))(2 (2 (2 (DET))(2 (NOUN)))(1 (2 (ADP))(2 (2 (NOUN))(2 (NOUN))))))))))))(2 (PUNCT)))))) |ET| 
1  |BT| (3 (2 (2 (DET))(2 (NOUN)))(2 (2 (1 (2 (AUX))(1 (PART)))(0 (0 (2 (ADV))(1 (2 (ADV))(0 (ADJ))))(2 (2 (SCONJ))(1 (VERB)))))(2 (PUNCT)))) |ET| 
-1  |BT| (0 (2 (1 (1 (2 (2 (DET))(3 (NOUN)))(1 (2 (2 (AUX))(2 (PART)))(4 (2 (DET))(3 (3 (ADJ))(2 (NOUN))))))(2 (CCONJ)))(2 (2 (2 (DET))(2 (NOUN)))(4 (2 (VERB))(4 (2 (PRON))(3 (2 (VERB))(4 (2 (SCONJ))(4 (2 (DET))(4 (NOUN)))))))))(2 (PUNCT))) |ET| 
-1  |BT| (1 (1 (1 (1 (1 (2 (2 (NUM))(2 (2 (ADP))(2 (2 (DET))(2 (NOUN)))))(2 (2 (PROPN))(2 (2 (VERB))(1 (2 (2 (VERB))(2 (ADP)))(3 (2 (ADP))(3 (3 (2 (DET))(2 (3 (ADJ))(2 (NOUN))))(2 (2 (ADP))(2 (2 (DET))(2 (2 (NOUN))(2 (NOUN)))))))))))(2 (PUNCT)))(2 (CCONJ)))(1 (2 (2 (ADP))(2 (ADV)))(1 (2 (PRON))(3 (2 (2 (AUX))(2 (ADV)))(2 (2 (DET))(1 (1 (NOUN))(3 (2 (PART))(2 (2 (VERB))(2 (2 (ADP))(2 (2 (DET))(3 (2 (ADJ))(2 (NOUN)))))))))))))(2 (PUNCT))) |ET| 
-1  |BT| (1 (1 (2 (SCONJ))(1 (2 (2 (DET))(2 (2 (ADP))(2 (PRON))))(2 (2 (1 (VERB))(2 (2 (2 (DET))(2 (2 (PUNCT))(2 (2 (NOUN))(2 (PUNCT)))))(2 (2 (ADP))(2 (2 (DET))(2 (NOUN))))))(2 (2 (ADP))(2 (2 (DET))(2 (NOUN)))))))(1 (2 (PUNCT))(1 (2 (DET))(2 (2 (2 (VERB))(1 (3 (2 (AUX))(3 (2 (ADV))(4 (3 (ADJ))(2 (2 (SCONJ))(2 (PRON))))))(2 (2 (ADP))(2 (2 (DET))(2 (NOUN))))))(2 (PUNCT)))))) |ET| 
1  |BT| (3 (2 (2 (DET))(2 (2 (2 (2 (DET))(3 (2 (NOUN))(2 (NOUN))))(2 (CCONJ)))(2 (2 (DET))(3 (NOUN)))))(3 (3 (3 (VERB))(2 (2 (ADP))(3 (2 (2 (DET))(3 (NOUN)))(1 (2 (ADP))(2 (3 (ADJ))(2 (1 (2 (NOUN))(2 (CCONJ)))(1 (NOUN))))))))(2 (PUNCT)))) |ET| 
-1  |BT| (1 (2 (3 (3 (2 (3 (3 (3 (2 (2 (DET))(2 (2 (ADP))(2 (2 (DET))(2 (2 (NOUN))(2 (NOUN))))))(3 (2 (AUX))(2 (ADJ))))(2 (PUNCT)))(2 (CCONJ)))(3 (3 (2 (ADJ))(3 (4 (ADJ))(2 (NOUN))))(3 (3 (3 (VERB))(3 (2 (ADV))(3 (PUNCT))))(1 (2 (VERB))(2 (2 (NOUN))(1 (1 (2 (ADP))(1 (DET)))(2 (ADV))))))))(2 (ADJ)))(2 (NOUN)))(2 (2 (2 (PUNCT))(2 (2 (CCONJ))(2 (ADV))))(1 (2 (DET))(2 (2 (NOUN))(2 (2 (ADV))(1 (VERB)))))))(2 (ADP))) |ET| 
0.017236451492355142622869834667654  |BT| (4 (2 (2 (PROPN))(2 (PROPN)))(4 (2 (2 (VERB))(3 (PRON)))(4 (2 (DET))(4 (NOUN))))) |ET| 
-1  |BT| (0 (2 (PRON))(0 (0 (2 (2 (AUX))(1 (PART)))(3 (3 (2 (DET))(2 (3 (ADJ))(3 (NOUN))))(3 (2 (ADP))(3 (2 (DET))(2 (2 (ADJ))(3 (NOUN)))))))(2 (PUNCT)))) |ET| 
1  |BT| (3 (4 (4 (4 (4 (3 (2 (PRON))(3 (2 (AUX))(3 (3 (NOUN))(3 (ADJ)))))(2 (PUNCT)))(2 (CCONJ)))(2 (2 (PUNCT))(2 (2 (2 (SCONJ))(3 (2 (DET))(3 (NOUN))))(2 (PUNCT)))))(3 (2 (NOUN))(2 (2 (2 (AUX))(2 (PART)))(0 (1 (2 (AUX))(1 (2 (PART))(0 (1 (VERB))(1 (2 (ADP))(1 (2 (AUX))(1 (2 (VERB))(0 (2 (ADP))(2 (1 (2 (0 (1 (1 (1 (1 (2 (1 (NOUN))(2 (PUNCT)))(2 (NOUN)))(2 (PUNCT)))(1 (NOUN)))(2 (PUNCT)))(2 (NOUN)))(2 (PUNCT)))(2 (CCONJ)))(2 (2 (DET))(1 (2 (ADP))(2 (2 (DET))(1 (2 (ADJ))(1 (1 (ADJ))(2 (NOUN)))))))))))))))(2 (2 (DET))(2 (2 (AUX))(1 (1 (VERB))(3 (2 (ADJ))(2 (PUNCT))))))))))(2 (NOUN))) |ET| 
-1  |BT| (1 (1 (0 (VERB))(2 (2 (PART))(1 (3 (ADV))(3 (2 (VERB))(2 (2 (3 (2 (2 (2 (DET))(1 (2 (NOUN))(1 (NOUN))))(2 (PUNCT)))(3 (2 (NOUN))(4 (NOUN))))(2 (CCONJ)))(2 (2 (ADJ))(4 (NOUN))))))))(2 (PUNCT))) |ET| 
1  |BT| (3 (4 (3 (2 (DET))(3 (3 (3 (ADV))(3 (ADJ)))(2 (2 (ADJ))(2 (NOUN)))))(2 (2 (ADP))(2 (2 (ADJ))(2 (NOUN)))))(0 (1 (2 (DET))(1 (1 (2 (2 (VERB))(2 (2 (DET))(2 (NOUN))))(1 (2 (ADV))(2 (2 (ADJ))(2 (NOUN)))))(1 (2 (ADP))(2 (2 (DET))(1 (1 (2 (ADV))(0 (ADJ)))(2 (NOUN)))))))(2 (PUNCT)))) |ET| 
-1  |BT| (1 (2 (3 (4 (3 (2 (2 (DET))(2 (2 (ADP))(2 (2 (DET))(2 (NOUN)))))(3 (2 (AUX))(4 (2 (ADP))(3 (2 (NOUN))(3 (2 (ADP))(3 (2 (DET))(4 (4 (ADJ))(2 (2 (NOUN))(2 (NOUN))))))))))(2 (PUNCT)))(2 (CCONJ)))(2 (2 (2 (2 (2 (NOUN))(3 (2 (PROPN))(2 (2 (PROPN))(2 (PART)))))(2 (NOUN)))(2 (2 (ADP))(2 (2 (DET))(2 (NOUN)))))(1 (2 (AUX))(2 (2 (ADV))(3 (ADJ))))))(2 (PUNCT))) |ET| 
-0.016499751315895982983761314244475  |BT| (1 (3 (2 (SCONJ))(2 (2 (2 (DET))(2 (ADJ)))(3 (2 (NOUN))(3 (1 (PUNCT))(4 (2 (2 (ADV))(2 (2 (DET))(2 (2 (ADJ))(2 (3 (NOUN))(2 (NOUN))))))(3 (3 (PUNCT))(3 (2 (VERB))(3 (2 (SCONJ))(4 (2 (2 (DET))(2 (NOUN)))(3 (2 (2 (AUX))(2 (ADV)))(0 (ADJ))))))))))))(1 (2 (PUNCT))(1 (2 (3 (2 (PROPN))(2 (PART)))(2 (2 (NOUN))(3 (PUNCT))))(0 (1 (1 (2 (3 (2 (ADP))(2 (NOUN)))(2 (2 (AUX))(1 (1 (3 (ADV))(2 (ADV)))(1 (ADJ)))))(2 (CCONJ)))(0 (2 (ADJ))(1 (2 (2 (PUNCT))(1 (3 (VERB))(2 (DET))))(1 (1 (2 (ADJ))(2 (NOUN)))(1 (2 (VERB))(2 (2 (ADJ))(3 (ADV))))))))(2 (SCONJ)))))) |ET| 
-1  |BT| (1 (3 (ADV))(1 (1 (3 (2 (AUX))(2 (PRON)))(2 (2 (2 (VERB))(3 (2 (2 (DET))(2 (NOUN)))(3 (2 (ADP))(2 (NOUN)))))(2 (2 (ADP))(2 (2 (2 (DET))(2 (NOUN)))(2 (2 (PRON))(1 (1 (VERB))(2 (DET))))))))(2 (PUNCT)))) |ET| 
1  |BT| (3 (3 (2 (VERB))(3 (2 (ADP))(3 (2 (2 (DET))(2 (NOUN)))(2 (2 (ADP))(2 (NOUN))))))(2 (2 (PUNCT))(1 (2 (2 (2 (ADJ))(2 (2 (NOUN))(2 (2 (PROPN))(2 (2 (PROPN))(2 (PART))))))(2 (NOUN)))(1 (1 (2 (AUX))(1 (2 (2 (2 (DET))(1 (1 (ADJ))(2 (NOUN))))(2 (2 (ADP))(2 (2 (ADJ))(2 (2 (NOUN))(2 (NOUN))))))(2 (2 (DET))(2 (1 (2 (VERB))(2 (2 (2 (DET))(2 (2 (ADJ))(2 (3 (NOUN))(2 (NOUN)))))(1 (2 (ADP))(1 (NOUN)))))(2 (2 (ADP))(2 (NOUN)))))))(2 (PUNCT)))))) |ET| 
-1  |BT| (1 (2 (2 (3 (4 (2 (2 (2 (PROPN))(2 (PART)))(2 (NOUN)))(4 (2 (AUX))(4 (4 (4 (ADJ))(2 (NOUN)))(3 (2 (ADP))(3 (2 (2 (2 (2 (2 (2 (DET))(2 (NOUN)))(2 (PUNCT)))(2 (ADJ)))(2 (PUNCT)))(2 (2 (2 (ADJ))(2 (CCONJ)))(2 (ADJ))))(3 (2 (ADP))(3 (2 (DET))(3 (4 (ADJ))(2 (2 (ADJ))(2 (NOUN)))))))))))(2 (PUNCT)))(2 (CCONJ)))(1 (2 (PROPN))(1 (2 (AUX))(1 (2 (VERB))(2 (2 (ADP))(2 (2 (DET))(2 (2 (ADJ))(3 (NOUN)))))))))(2 (PUNCT))) |ET| 
1  |BT| (3 (4 (ADV))(1 (2 (2 (PUNCT))(2 (VERB)))(2 (CCONJ)))) |ET| 
-1  |BT| (1 (1 (ADV))(3 (3 (3 (3 (VERB))(2 (ADV)))(2 (2 (SCONJ))(3 (2 (DET))(2 (3 (ADJ))(2 (NOUN))))))(2 (PUNCT)))) |ET| 
1  |BT| (3 (1 (2 (ADV))(2 (2 (2 (PROPN))(2 (PROPN)))(1 (1 (VERB))(0 (2 (ADP))(0 (0 (1 (1 (1 (1 (2 (DET))(2 (1 (VERB))(2 (NOUN))))(2 (PUNCT)))(2 (NOUN)))(2 (PUNCT)))(2 (CCONJ)))(1 (1 (NOUN))(2 (2 (ADP))(2 (NOUN)))))))))(3 (2 (PUNCT))(3 (2 (PRON))(4 (2 (2 (VERB))(3 (2 (ADP))(3 (3 (4 (4 (2 (DET))(3 (NOUN)))(2 (PUNCT)))(2 (CCONJ)))(3 (3 (ADJ))(2 (NOUN))))))(2 (PUNCT)))))) |ET| 
-1  |BT| (1 (2 (PROPN))(2 (3 (2 (VERB))(3 (2 (PART))(3 (3 (2 (VERB))(3 (2 (DET))(3 (2 (ADJ))(2 (NOUN)))))(1 (2 (ADP))(1 (2 (2 (2 (2 (NUM))(2 (2 (NOUN))(2 (PART))))(1 (NOUN)))(2 (PUNCT)))(2 (2 (VERB))(2 (2 (ADP))(1 (2 (ADP))(1 (1 (2 (DET))(2 (NOUN)))(2 (2 (ADP))(2 (NOUN))))))))))))(2 (PUNCT)))) |ET| 
1  |BT| (3 (3 (3 (2 (2 (2 (2 (DET))(2 (2 (DET))(2 (NOUN))))(1 (2 (2 (VERB))(2 (ADV)))(2 (2 (ADP))(2 (2 (ADJ))(2 (NOUN))))))(2 (PUNCT)))(2 (CCONJ)))(2 (2 (2 (ADJ))(2 (NOUN)))(3 (2 (3 (VERB))(2 (PRON)))(2 (2 (DET))(2 (NOUN))))))(2 (PUNCT))) |ET| 
0.040014743108714778685452984063886  |BT| (3 (2 (2 (ADV))(2 (2 (ADP))(2 (2 (2 (2 (PROPN))(2 (PART)))(3 (3 (ADJ))(2 (NOUN))))(2 (2 (VERB))(2 (2 (NOUN))(2 (2 (ADP))(2 (NOUN))))))))(3 (2 (PUNCT))(3 (2 (2 (2 (2 (DET))(2 (PROPN)))(2 (CCONJ)))(2 (2 (DET))(2 (PROPN))))(2 (2 (2 (VERB))(3 (2 (2 (2 (DET))(2 (2 (NOUN))(2 (PART))))(3 (2 (ADJ))(2 (NOUN))))(3 (2 (ADP))(2 (2 (2 (ADJ))(2 (NOUN)))(2 (2 (ADP))(4 (3 (ADJ))(2 (NOUN))))))))(2 (PUNCT)))))) |ET| 
1  |BT| (3 (2 (PROPN))(2 (2 (2 (3 (2 (VERB))(3 (2 (NOUN))(2 (PUNCT))))(1 (2 (ADJ))(1 (1 (2 (NOUN))(1 (ADP)))(1 (2 (DET))(1 (1 (2 (2 (NOUN))(2 (2 (ADP))(2 (DET))))(2 (NOUN)))(0 (2 (2 (NOUN))(1 (CCONJ)))(1 (2 (2 (DET))(2 (NOUN)))(1 (3 (ADP))(3 (PUNCT))))))))))(2 (ADJ)))(2 (NOUN)))) |ET| 
1  |BT| (3 (2 (2 (ADP))(2 (NOUN)))(3 (2 (PRON))(3 (4 (2 (PUNCT))(3 (3 (3 (PROPN))(2 (2 (VERB))(2 (2 (2 (3 (ADP))(2 (PROPN)))(2 (PART)))(2 (2 (NOUN))(2 (2 (ADP))(2 (2 (NOUN))(2 (2 (PUNCT))(2 (2 (NOUN))(2 (2 (2 (PUNCT))(2 (NOUN)))(2 (CCONJ)))))))))))(2 (2 (NOUN))(2 (2 (ADP))(2 (2 (DET))(2 (2 (NOUN))(2 (PUNCT))))))))(2 (VERB))))) |ET| 
1  |BT| (3 (2 (PUNCT))(2 (2 (2 (2 (3 (2 (INTJ))(2 (2 (PUNCT))(3 (2 (DET))(2 (2 (AUX))(3 (ADJ))))))(2 (PUNCT)))(2 (2 (2 (2 (PRON))(2 (2 (AUX))(2 (2 (PROPN))(2 (PROPN)))))(2 (PUNCT)))(1 (3 (PROPN))(2 (2 (ADP))(1 (PROPN))))))(2 (PUNCT)))(2 (PUNCT)))) |ET| 
-1  |BT| (0 (1 (2 (SCONJ))(4 (2 (DET))(3 (2 (AUX))(2 (NOUN)))))(3 (2 (PUNCT))(3 (2 (PRON))(2 (2 (2 (2 (VERB))(2 (NOUN)))(2 (2 (ADP))(2 (2 (2 (PROPN))(2 (CCONJ)))(2 (PROPN)))))(2 (PUNCT)))))) |ET| 
1  |BT| (3 (2 (ADV))(3 (2 (2 (VERB))(1 (1 (2 (DET))(2 (1 (2 (ADV))(1 (ADJ)))(2 (NOUN))))(2 (2 (ADP))(2 (3 (3 (2 (ADJ))(3 (3 (ADJ))(2 (NOUN))))(2 (CCONJ)))(2 (2 (DET))(3 (1 (ADJ))(1 (2 (NOUN))(1 (2 (CCONJ))(2 (2 (ADJ))(3 (NOUN)))))))))))(2 (PUNCT)))) |ET| 
-1  |BT| (0 (3 (2 (DET))(2 (2 (ADJ))(2 (PUNCT))))(1 (3 (2 (NOUN))(2 (2 (2 (PROPN))(2 (3 (VERB))(3 (3 (DET))(2 (ADJ)))))(3 (3 (2 (ADJ))(4 (3 (4 (NOUN))(2 (VERB)))(3 (ADJ))))(2 (2 (CCONJ))(2 (ADV))))))(2 (PUNCT)))) |ET| 
1  |BT| (4 (2 (3 (VERB))(2 (NOUN)))(2 (2 (2 (NOUN))(2 (2 (ADP))(2 (2 (PROPN))(2 (PROPN)))))(2 (PUNCT)))) |ET| 
-1  |BT| (1 (2 (3 (3 (2 (2 (DET))(2 (3 (PROPN))(2 (PROPN))))(3 (2 (AUX))(4 (2 (2 (DET))(2 (NOUN)))(4 (2 (2 (ADP))(2 (DET)))(4 (2 (2 (DET))(3 (NOUN)))(2 (2 (AUX))(2 (ADJ))))))))(2 (CCONJ)))(2 (2 (2 (DET))(2 (NOUN)))(1 (2 (AUX))(1 (ADJ)))))(2 (PUNCT))) |ET| 
1  |BT| (3 (3 (0 (1 (1 (2 (INTJ))(1 (2 (PUNCT))(2 (2 (PRON))(1 (2 (AUX))(1 (2 (2 (ADJ))(2 (CCONJ)))(2 (ADJ)))))))(2 (PUNCT)))(2 (CCONJ)))(3 (3 (2 (DET))(2 (NOUN)))(3 (2 (AUX))(3 (3 (2 (ADV))(3 (ADV)))(2 (2 (VERB))(3 (2 (SCONJ))(3 (2 (2 (DET))(2 (NOUN)))(3 (3 (4 (2 (3 (VERB))(1 (ADP)))(3 (ADV)))(2 (PUNCT)))(2 (2 (ADV))(2 (2 (SCONJ))(1 (2 (PRON))(1 (1 (2 (2 (AUX))(2 (ADV)))(2 (2 (ADV))(3 (ADJ))))(2 (2 (SCONJ))(2 (2 (PRON))(2 (2 (VERB))(2 (2 (PRON))(2 (2 (PART))(2 (AUX)))))))))))))))))))(2 (PUNCT))) |ET| 
-1  |BT| (1 (2 (ADV))(2 (2 (ADV))(3 (2 (3 (1 (2 (1 (NOUN))(3 (2 (PART))(3 (2 (ADV))(3 (3 (3 (VERB))(2 (PRON)))(2 (2 (ADP))(2 (2 (ADJ))(2 (2 (NOUN))(2 (2 (NOUN))(2 (NOUN))))))))))(2 (PUNCT)))(2 (CCONJ)))(3 (2 (PRON))(3 (2 (AUX))(3 (3 (ADJ))(3 (2 (ADP))(2 (2 (DET))(3 (3 (ADJ))(3 (2 (2 (NOUN))(2 (CCONJ)))(2 (NOUN))))))))))(2 (PUNCT))))) |ET| 
1  |BT| (3 (3 (1 (2 (1 (2 (PRON))(2 (2 (2 (AUX))(2 (2 (3 (2 (ADV))(2 (ADJ)))(2 (CCONJ)))(1 (2 (2 (DET))(2 (ADJ)))(1 (ADJ)))))(2 (2 (ADP))(2 (2 (DET))(2 (NOUN))))))(2 (PUNCT)))(2 (CCONJ)))(3 (2 (ADV))(3 (2 (DET))(3 (3 (2 (AUX))(3 (2 (2 (DET))(2 (4 (ADJ))(2 (2 (PUNCT))(2 (2 (ADJ))(3 (NOUN))))))(2 (2 (PUNCT))(2 (NOUN)))))(2 (2 (SCONJ))(3 (2 (2 (PROPN))(2 (2 (PROPN))(2 (ADV))))(2 (2 (VERB))(2 (1 (2 (PROPN))(2 (PROPN)))(2 (2 (ADP))(2 (2 (DET))(3 (PROPN))))))))))))(2 (PUNCT))) |ET| 
-1  |BT| (1 (2 (2 (PROPN))(3 (PROPN)))(2 (0 (2 (2 (2 (2 (AUX))(2 (2 (2 (2 (2 (PROPN))(2 (PART)))(2 (NOUN)))(2 (2 (ADP))(2 (2 (DET))(2 (2 (NOUN))(3 (NOUN))))))(2 (2 (PART))(2 (2 (AUX))(2 (2 (ADP))(2 (2 (DET))(2 (2 (ADJ))(2 (PUNCT)))))))))(2 (NOUN)))(2 (NOUN)))(1 (2 (PUNCT))(1 (2 (CCONJ))(1 (2 (VERB))(2 (3 (2 (2 (SCONJ))(2 (ADV)))(2 (2 (DET))(2 (NOUN))))(2 (2 (ADP))(2 (2 (NOUN))(2 (2 (VERB))(2 (VERB))))))))))(2 (ADV)))) |ET| 
1  |BT| (3 (2 (2 (2 (ADJ))(2 (NOUN)))(2 (DET)))(2 (2 (PUNCT))(1 (2 (2 (DET))(2 (NOUN)))(1 (2 (1 (2 (AUX))(1 (2 (2 (DET))(1 (2 (DET))(2 (NOUN))))(2 (2 (ADP))(2 (2 (2 (DET))(2 (2 (NOUN))(2 (PART))))(2 (2 (NOUN))(2 (NOUN)))))))(3 (2 (DET))(2 (2 (PRON))(2 (2 (AUX))(2 (2 (2 (VERB))(2 (ADV)))(2 (2 (PART))(2 (2 (2 (VERB))(3 (2 (ADP))(2 (PRON))))(2 (2 (ADP))(2 (2 (DET))(2 (NOUN)))))))))))(2 (PUNCT)))))) |ET| 
-1  |BT| (1 (1 (1 (VERB))(3 (2 (ADP))(2 (2 (DET))(2 (NOUN)))))(2 (2 (SCONJ))(1 (2 (PRON))(1 (2 (VERB))(1 (2 (PART))(1 (2 (2 (VERB))(2 (2 (ADV))(2 (ADV))))(2 (2 (SCONJ))(2 (2 (2 (DET))(2 (2 (NUM))(2 (2 (NOUN))(1 (NOUN)))))(2 (2 (DET))(2 (2 (AUX))(2 (2 (DET))(2 (NOUN))))))))))))) |ET| 
0.77950174879392608584538493232685  |BT| (3 (3 (1 (2 (0 (2 (VERB))(2 (3 (PROPN))(2 (2 (PUNCT))(2 (NOUN)))))(2 (2 (DET))(2 (2 (NOUN))(2 (2 (ADP))(2 (2 (DET))(2 (ADJ)))))))(2 (NOUN)))(3 (2 (NOUN))(4 (2 (2 (CCONJ))(2 (PRON)))(3 (2 (AUX))(4 (2 (ADJ))(3 (2 (SCONJ))(3 (2 (2 (DET))(2 (2 (AUX))(2 (NUM))))(3 (2 (NOUN))(4 (NOUN))))))))))(2 (DET))) |ET| 
-0.76574005431157798895469568378758  |BT| (1 (0 (2 (ADP))(0 (1 (2 (2 (2 (PROPN))(3 (2 (PROPN))(2 (PUNCT))))(1 (1 (PROPN))(3 (3 (PART))(3 (2 (ADJ))(3 (2 (3 (NOUN))(2 (4 (PUNCT))(2 (PUNCT))))(2 (PROPN)))))))(2 (PROPN)))(2 (2 (PROPN))(2 (2 (PUNCT))(2 (PUNCT))))))(2 (PRON))) |ET| 
1  |BT| (3 (2 (2 (DET))(1 (1 (VERB))(2 (1 (NOUN))(1 (PUNCT)))))(2 (1 (2 (NOUN))(1 (2 (NOUN))(1 (2 (2 (NOUN))(3 (2 (SCONJ))(2 (2 (NOUN))(2 (ADP)))))(2 (2 (2 (DET))(2 (NOUN)))(2 (2 (PART))(1 (2 (2 (1 (ADV))(2 (VERB)))(2 (NOUN)))(0 (3 (2 (PUNCT))(3 (3 (CCONJ))(3 (DET))))(1 (2 (ADJ))(2 (2 (NOUN))(2 (2 (ADP))(2 (ADJ))))))))))))(2 (PUNCT)))) |ET| 
-1  |BT| (1 (3 (3 (3 (2 (DET))(3 (3 (2 (ADV))(3 (ADJ)))(2 (2 (ADJ))(2 (NOUN)))))(2 (CCONJ)))(4 (4 (ADJ))(2 (NOUN))))(0 (1 (2 (2 (AUX))(0 (ADV)))(1 (VERB)))(2 (PUNCT)))) |ET| 
1  |BT| (4 (2 (2 (2 (PROPN))(2 (1 (PROPN))(2 (PART))))(2 (2 (PROPN))(2 (PROPN))))(2 (3 (2 (2 (AUX))(2 (PROPN)))(2 (2 (SCONJ))(3 (2 (PRON))(2 (2 (VERB))(2 (2 (AUX))(3 (2 (VERB))(2 (ADV))))))))(2 (PUNCT)))) |ET| 
-1  |BT| (1 (2 (PRON))(1 (2 (2 (VERB))(2 (ADV)))(1 (2 (VERB))(1 (2 (SCONJ))(2 (2 (2 (2 (DET))(2 (NOUN)))(2 (2 (PRON))(3 (2 (2 (2 (VERB))(2 (2 (2 (NOUN))(2 (2 (PROPN))(2 (PART))))(2 (2 (NOUN))(2 (PROPN)))))(3 (2 (ADP))(2 (2 (DET))(3 (2 (PROPN))(2 (2 (PROPN))(3 (2 (PROPN))(3 (NOUN))))))))(3 (2 (ADP))(2 (2 (2 (2002))(2 (NUM)))(3 (2 (PART))(3 (PROPN))))))))(2 (2 (PROPN))(2 (3 (AUX))(1 (2 (VERB))(3 (2 (DET))(2 (2 (NOUN))(2 (2 (PART))(2 (2 (AUX))(2 (2 (PRON))(2 (2 (ADJ))(3 (2 (ADP))(2 (2 (2 (ADV))(2 (VERB)))(1 (PRON)))))))))))))))))) |ET| 
1  |BT| (3 (2 (ADV))(3 (ADJ))) |ET| 
-1  |BT| (1 (2 (2 (2 (DET))(2 (2 (PUNCT))(2 (3 (PUNCT))(2 (2 (NOUN))(2 (2 (ADV))(2 (PUNCT)))))))(2 (2 (NOUN))(2 (DET))))(1 (1 (2 (2 (2 (2 (2 (AUX))(2 (2 (2 (VERB))(2 (SCONJ)))(2 (2 (2 (PUNCT))(2 (PUNCT)))(2 (PROPN)))))(2 (PART)))(2 (PROPN)))(2 (PUNCT)))(1 (1 (2 (PUNCT))(1 (CCONJ)))(3 (2 (AUX))(2 (4 (PART))(2 (2 (ADV))(2 (2 (ADV))(2 (2 (PUNCT))(2 (2 (VERB))(2 (SCONJ))))))))))(2 (DET)))) |ET| 
1  |BT| (3 (2 (2 (VERB))(2 (2 (DET))(2 (2 (PROPN))(2 (2 (PROPN))(2 (PROPN))))))(1 (2 (PUNCT))(1 (3 (2 (DET))(2 (NOUN)))(2 (2 (2 (VERB))(1 (2 (VERB))(1 (2 (ADP))(2 (2 (2 (2 (2 (NUM))(2 (NOUN)))(2 (2 (ADP))(2 (NOUN))))(2 (PUNCT)))(1 (2 (3 (2 (DET))(2 (NOUN)))(2 (2 (ADP))(2 (PROPN))))(1 (2 (DET))(1 (2 (2 (VERB))(2 (NOUN)))(2 (NOUN)))))))))(2 (PUNCT)))))) |ET| 
-1  |BT| (0 (2 (2 (DET))(3 (2 (NOUN))(4 (2 (PART))(3 (2 (2 (VERB))(2 (PROPN)))(4 (3 (2 (2 (ADP))(2 (PUNCT)))(4 (4 (2 (DET))(4 (3 (ADJ))(2 (NOUN))))(4 (2 (ADP))(4 (2 (NOUN))(4 (2 (VERB))(4 (2 (ADP))(4 (3 (2 (DET))(3 (3 (NOUN))(2 (PUNCT))))(3 (2 (VERB))(4 (2 (NOUN))(3 (3 (3 (ADP))(3 (DET)))(3 (ADJ))))))))))))(2 (ADJ)))))))(0 (0 (2 (NOUN))(0 (0 (0 (PUNCT))(2 (2 (AUX))(2 (VERB))))(0 (2 (ADV))(0 (2 (2 (ADV))(2 (SCONJ)))(1 (2 (DET))(1 (NOUN)))))))(2 (VERB)))) |ET| 
1  |BT| (3 (3 (2 (ADV))(2 (2 (ADP))(2 (2 (ADV))(2 (2 (2 (VERB))(2 (2 (ADJ))(2 (NOUN))))(2 (2 (ADP))(2 (2 (DET))(2 (2 (ADJ))(2 (NOUN)))))))))(3 (2 (PUNCT))(3 (3 (PROPN))(2 (2 (2 (3 (2 (VERB))(2 (2 (DET))(2 (2 (2 (ADV))(2 (ADJ)))(2 (NOUN)))))(2 (CCONJ)))(3 (2 (2 (VERB))(2 (PRON)))(2 (2 (ADP))(2 (2 (DET))(2 (2 (2 (ADV))(2 (ADJ)))(2 (NOUN)))))))(2 (PUNCT)))))) |ET| 
-1  |BT| (1 (1 (1 (2 (DET))(1 (ADV)))(0 (1 (1 (ADJ))(2 (CCONJ)))(1 (ADJ))))(3 (2 (2 (NOUN))(2 (2 (ADP))(2 (1 (PROPN))(2 (2 (CCONJ))(2 (2 (PROPN))(2 (PROPN)))))))(2 (PUNCT)))) |ET| 
1  |BT| (3 (1 (3 (3 (VERB))(2 (2 (DET))(2 (3 (ADJ))(2 (NOUN)))))(1 (2 (ADP))(2 (NOUN))))(2 (2 (PUNCT))(2 (1 (2 (VERB))(1 (2 (2 (DET))(2 (DET)))(2 (2 (ADV))(2 (4 (ADJ))(1 (2 (ADP))(1 (0 (2 (DET))(1 (1 (ADJ))(2 (NOUN))))(2 (2 (ADP))(2 (2 (NOUN))(2 (NOUN))))))))))(2 (PUNCT))))) |ET| 
-1  |BT| (1 (2 (2 (2 (ADP))(2 (2 (DET))(2 (2 (DET))(2 (NOUN)))))(2 (2 (PRON))(3 (2 (VERB))(2 (2 (ADP))(2 (2 (DET))(2 (NOUN)))))))(1 (2 (PUNCT))(1 (2 (PRON))(2 (2 (ADV))(3 (3 (2 (ADV))(2 (2 (VERB))(2 (2 (ADV))(2 (2 (ADP))(2 (PRON))))))(2 (PUNCT))))))) |ET| 
1  |BT| (3 (4 (2 (SCONJ))(3 (4 (2 (3 (ADJ))(2 (CCONJ)))(3 (ADJ)))(2 (2 (SCONJ))(2 (2 (2 (PROPN))(2 (2 (PROPN))(2 (PART))))(2 (2 (ADJ))(2 (PROPN)))))))(1 (2 (PUNCT))(1 (1 (1 (0 (NOUN))(2 (PUNCT)))(1 (PROPN)))(2 (CCONJ))))) |ET| 
-1  |BT| (1 (2 (3 (4 (ADJ))(2 (2 (CCONJ))(1 (PART))))(1 (2 (2 (ADJ))(2 (2 (SCONJ))(1 (ADJ))))(2 (NOUN))))(1 (1 (NOUN))(2 (PUNCT)))) |ET| 
1  |BT| (4 (3 (ADV))(2 (4 (3 (3 (3 (2 (VERB))(2 (2 (ADV))(2 (2 (ADP))(2 (2 (DET))(2 (NOUN))))))(2 (2 (ADP))(2 (2 (DET))(2 (2 (ADJ))(2 (2 (CCONJ))(2 (2 (ADJ))(2 (NOUN))))))))(2 (CCONJ)))(3 (1 (2 (AUX))(2 (PART)))(1 (1 (2 (VERB))(3 (PRON)))(1 (2 (ADP))(1 (1 (ADJ))(2 (2 (2 (NOUN))(2 (CCONJ)))(2 (NOUN))))))))(2 (PUNCT)))) |ET| 
-1  |BT| (1 (3 (2 (SCONJ))(4 (2 (3 (ADJ))(2 (CCONJ)))(3 (ADJ))))(2 (2 (2 (SCONJ))(2 (2 (ADJ))(2 (NOUN))))(2 (3 (2 (PART))(2 (2 (NOUN))(2 (2 (ADP))(2 (2 (PROPN))(2 (2 (DET))(2 (PROPN)))))))(2 (PUNCT))))) |ET| 
-1  |BT| (1 (2 (2 (PROPN))(2 (2 (PROPN))(2 (2 (PROPN))(2 (2 (CCONJ))(2 (2 (NOUN))(2 (2 (PROPN))(2 (PROPN))))))))(1 (2 (ADV))(1 (1 (2 (VERB))(2 (3 (2 (2 (DET))(2 (2 (NOUN))(2 (PART))))(3 (3 (ADJ))(2 (NOUN))))(1 (2 (ADP))(2 (2 (2 (DET))(2 (NOUN)))(2 (2 (PRON))(2 (2 (VERB))(2 (2 (PART))(2 (2 (VERB))(2 (PRON))))))))))(2 (PUNCT))))) |ET| 
-1  |BT| (0 (2 (1 (ADJ))(2 (2 (ADP))(2 (2 (DET))(3 (2 (ADP))(3 (3 (2 (DET))(3 (NOUN)))(3 (2 (DET))(3 (2 (VERB))(3 (2 (2 (DET))(2 (2 (ADJ))(2 (NOUN))))(3 (2 (ADV))(3 (ADJ)))))))))))(2 (PUNCT))) |ET| 
1  |BT| (3 (2 (1 (1 (1 (1 (0 (1 (2 (2 (NOUN))(2 (2 (ADP))(2 (DET))))(3 (2 (AUX))(2 (2 (3 (ADJ))(2 (CCONJ)))(4 (ADJ)))))(2 (PUNCT)))(2 (CCONJ)))(2 (3 (NOUN))(2 (2 (1 (2 (AUX))(2 (PART)))(2 (PUNCT)))(2 (ADV)))))(2 (PUNCT)))(2 (CCONJ)))(4 (2 (PRON))(4 (2 (2 (VERB))(2 (PART)))(1 (1 (2 (VERB))(2 (ADP)))(2 (2 (2 (DET))(2 (2 (ADJ))(2 (NOUN))))(3 (2 (ADP))(2 (DET))))))))(2 (2 (PUNCT))(2 (2 (2 (VERB))(2 (PRON)))(2 (PUNCT))))) |ET| 
-1  |BT| (1 (1 (2 (PRON))(2 (2 (AUX))(2 (VERB))))(3 (3 (2 (AUX))(3 (2 (PRON))(3 (2 (PRON))(3 (2 (VERB))(1 (2 (DET))(3 (2 (PUNCT))(3 (3 (INTJ))(2 (2 (PUNCT))(2 (NOUN))))))))))(2 (PUNCT)))) |ET| 
-0.22667341007791630413947814304265  |BT| (1 (2 (2 (2 (2 (2 (DET))(2 (1 (ADJ))(2 (NOUN))))(2 (PUNCT)))(2 (2 (2 (ADP))(1 (ADJ)))(2 (2 (ADP))(2 (2 (DET))(2 (NOUN))))))(2 (PUNCT)))(1 (1 (2 (AUX))(1 (2 (PROPN))(1 (1 (2 (VERB))(3 (2 (DET))(2 (2 (4 (ADJ))(2 (ADJ)))(2 (NOUN)))))(2 (2 (SCONJ))(2 (2 (PRON))(2 (2 (AUX))(2 (2 (DET))(2 (NOUN)))))))))(2 (PUNCT)))) |ET| 
-1  |BT| (1 (3 (2 (ADP))(4 (ADV)))(0 (2 (PUNCT))(0 (2 (2 (PROPN))(2 (PROPN)))(1 (0 (2 (VERB))(0 (3 (2 (2 (3 (VERB))(3 (2 (DET))(2 (NOUN))))(2 (2 (ADP))(2 (2 (DET))(2 (2 (NOUN))(2 (NOUN))))))(2 (PUNCT)))(1 (2 (ADP))(2 (2 (NOUN))(2 (2 (ADP))(4 (2 (DET))(3 (4 (ADJ))(2 (2 (NOUN))(2 (NOUN))))))))))(2 (PUNCT)))))) |ET| 
1  |BT| (3 (3 (2 (1 (1 (2 (PROPN))(1 (2 (AUX))(2 (1 (2 (VERB))(2 (2 (DET))(2 (NOUN))))(2 (2 (ADP))(2 (2 (2 (DET))(2 (NOUN)))(2 (2 (ADP))(2 (2 (DET))(2 (NOUN)))))))))(2 (PUNCT)))(2 (CCONJ)))(4 (2 (PRON))(3 (2 (AUX))(3 (2 (VERB))(3 (2 (DET))(4 (3 (ADJ))(3 (NOUN))))))))(2 (PUNCT))) |ET| 
-1  |BT| (1 (2 (2 (DET))(2 (NOUN)))(1 (1 (1 (VERB))(1 (2 (ADJ))(3 (2 (ADP))(3 (3 (3 (2 (NOUN))(3 (2 (PUNCT))(3 (3 (NOUN))(2 (2 (PUNCT))(2 (3 (ADJ))(2 (NOUN)))))))(2 (PUNCT)))(2 (2 (NOUN))(3 (2 (DET))(3 (2 (AUX))(4 (2 (2 (VERB))(3 (2 (2 (DET))(2 (3 (ADJ))(3 (3 (PROPN))(2 (2 (PROPN))(2 (NOUN))))))(3 (2 (ADV))(3 (ADJ)))))(2 (2 (ADP))(2 (2 (20))(2 (NUM))))))))))))(2 (NOUN)))) |ET| 
-1  |BT| (1 (2 (2 (SCONJ))(2 (2 (2 (DET))(2 (2 (ADJ))(2 (NOUN))))(2 (2 (AUX))(2 (2 (2 (DET))(2 (2 (ADJ))(2 (NOUN))))(2 (2 (VERB))(2 (2 (ADP))(2 (NOUN))))))))(1 (2 (PUNCT))(0 (2 (PRON))(1 (0 (2 (VERB))(1 (2 (AUX))(2 (2 (2 (DET))(3 (NOUN)))(0 (2 (PUNCT))(2 (1 (2 (2 (2 (NOUN))(3 (2 (ADP))(2 (2 (2 (VERB))(2 (ADP)))(2 (2 (DET))(2 (NOUN))))))(2 (2 (ADP))(2 (2 (NOUN))(2 (2 (SCONJ))(2 (PRON))))))(2 (VERB)))(2 (3 (2 (PRON))(2 (CCONJ)))(3 (2 (DET))(3 (4 (NOUN))(2 (2 (ADP))(2 (ADJ)))))))))))(2 (NOUN)))))) |ET| 
-1  |BT| (1 (2 (ADV))(3 (3 (3 (3 (ADJ))(2 (CCONJ)))(1 (2 (VERB))(2 (2 (PART))(2 (2 (VERB))(2 (2 (NOUN))(2 (NOUN)))))))(2 (PUNCT)))) |ET| 
1  |BT| (3 (0 (2 (2 (DET))(2 (NOUN)))(2 (2 (ADP))(0 (1 (2 (DET))(1 (1 (ADJ))(0 (2 (PUNCT))(1 (1 (ADJ))(3 (NOUN))))))(2 (2 (PRON))(2 (2 (2 (VERB))(2 (PART)))(2 (1 (2 (AUX))(1 (SCONJ)))(2 (2 (ADP))(2 (2 (DET))(2 (2 (ADJ))(2 (NOUN)))))))))))(2 (PUNCT))) |ET| 
-1  |BT| (1 (2 (PUNCT))(2 (2 (PROPN))(2 (2 (PUNCT))(2 (3 (2 (AUX))(2 (2 (2 (DET))(2 (4 (ADJ))(2 (NOUN))))(3 (2 (ADP))(3 (4 (2 (DET))(3 (4 (ADV))(3 (2 (PUNCT))(4 (4 (3 (VERB))(2 (PUNCT)))(2 (ADV))))))(2 (2 (VERB))(2 (1 (2 (NOUN))(2 (2 (DET))(3 (VERB))))(2 (2 (DET))(3 (2 (NOUN))(4 (3 (ADP))(2 (2 (DET))(2 (ADV))))))))))))(2 (PUNCT)))))) |ET| 
1  |BT| (3 (1 (3 (1 (2 (2 (4PROPN))(0 (2 (AUX))(1 (2 (2 (DET))(3 (2 (ADJ))(2 (2 (NOUN))(3 (NOUN)))))(2 (2 (SCONJ))(2 (2 (PROPN))(2 (NOUN)))))))(2 (PUNCT)))(2 (CCONJ)))(2 (2 (PRON))(2 (2 (3 (3 (2 (VERB))(2 (ADV)))(2 (2 (ADP))(2 (2 (DET))(2 (2 (ADJ))(2 (NOUN))))))(2 (CCONJ)))(1 (0 (2 (VERB))(2 (NOUN)))(1 (2 (ADV))(2 (ADV)))))))(2 (PUNCT))) |ET| 
-1  |BT| (1 (1 (2 (AUX))(1 (3 (2 (2 (DET))(2 (2 (DET))(3 (NOUN))))(2 (CCONJ)))(3 (2 (2 (ADJ))(2 (2 (ADJ))(2 (NOUN))))(2 (2 (ADP))(2 (2 (2 (DET))(2 (NOUN)))(2 (2 (ADP))(2 (2 (PROPN))(2 (PROPN)))))))))(2 (PUNCT))) |ET| 
1  |BT| (3 (2 (PRON))(3 (4 (2 (VERB))(2 (2 (PART))(1 (2 (AUX))(2 (2 (VERB))(3 (ADV))))))(2 (PUNCT)))) |ET| 
-1  |BT| (1 (0 (1 (2 (DET))(0 (0 (ADJ))(2 (NOUN))))(2 (2 (DET))(2 (2 (VERB))(2 (2 (2 (DET))(2 (2 (PROPN))(2 (2 (PROPN))(1 (PROPN)))))(2 (2 (ADP))(2 (2 (NUM))(2 (NOUN))))))))(2 (2 (2 (PART))(2 (2 (NOUN))(3 (2 (PART))(2 (2 (VERB))(2 (2 (DET))(2 (2 (ADJ))(2 (NOUN))))))))(2 (PUNCT)))) |ET| 
1  |BT| (3 (2 (DET))(2 (2 (2 (AUX))(2 (2 (2 (PROPN))(2 (PROPN)))(2 (2 (ADP))(2 (2 (2 (DET))(2 (NOUN)))(2 (2 (ADP))(2 (2 (NOUN))(2 (NOUN))))))))(2 (PUNCT)))) |ET| 
-1  |BT| (1 (2 (2 (DET))(2 (NOUN)))(1 (2 (1 (2 (AUX))(2 (PART)))(2 (2 (VERB))(2 (2 (2 (ADJ))(2 (2 (ADP))(2 (2 (DET))(2 (4 (ADJ))(2 (2 (2 (NOUN))(2 (CCONJ)))(2 (ADV)))))))(3 (2 (ADP))(2 (2 (PRON))(3 (2 (AUX))(2 (2 (2 (VERB))(2 (2 (ADP))(2 (2 (DET))(2 (NOUN)))))(2 (2 (ADJ))(2 (2 (2 (NOUN))(1 (PART)))(2 (2 (VERB))(2 (2 (ADP))(2 (2 (PRON))(2 (2 (VERB))(2 (2 (PROPN))(2 (DET))))))))))))))))(2 (ADJ)))) |ET| 
1  |BT| (3 (3 (3 (4 (3 (3 (ADJ))(2 (PUNCT)))(4 (ADJ)))(2 (PUNCT)))(3 (2 (ADV))(1 (4 (ADJ))(1 (2 (PUNCT))(1 (1 (ADJ))(1 (2 (PUNCT))(1 (1 (1 (NOUN))(2 (PUNCT)))(1 (ADJ)))))))))(2 (CCONJ))) |ET| 
-1  |BT| (0 (2 (0 (2 (1 (1 (2 (DET))(0 (NOUN)))(3 (2 (PUNCT))(2 (NOUN))))(2 (ADV)))(2 (2 (VERB))(1 (2 (PUNCT))(2 (3 (1 (VERB))(2 (2 (1 (ADP))(2 (PUNCT)))(3 (PROPN))))(1 (2 (2 (PART))(1 (PUNCT)))(2 (2 (ADJ))(2 (NOUN))))))))(2 (ADP)))(2 (2 (PROPN))(2 (2 (2 (PUNCT))(2 (2 (ADV))(2 (2 (VERB))(2 (1 (ADP))(2 (2 (SCONJ))(2 (2 (VERB))(2 (2 (ADV))(2 (ADP)))))))))(2 (DET))))) |ET| 
1  |BT| (3 (3 (3 (VERB))(1 (2 (ADV))(1 (2 (2 (DET))(2 (2 (ADJ))(2 (NOUN))))(0 (ADV)))))(1 (0 (0 (VERB))(2 (2 (SCONJ))(3 (2 (PRON))(1 (2 (VERB))(2 (2 (SCONJ))(1 (2 (PRON))(2 (2 (2 (VERB))(2 (0 (2 (DET))(0 (NOUN)))(1 (2 (ADP))(1 (NOUN)))))(2 (2 (ADP))(2 (2 (DET))(2 (NOUN)))))))))))(2 (PUNCT)))) |ET| 
-1  |BT| (1 (2 (2 (DET))(2 (NOUN)))(0 (1 (2 (AUX))(2 (PART)))(3 (2 (2 (VERB))(3 (2 (DET))(2 (2 (ADJ))(3 (NOUN)))))(1 (2 (ADP))(1 (3 (2 (DET))(3 (2 (ADJ))(2 (2 (PUNCT))(2 (2 (ADJ))(2 (PUNCT))))))(1 (1 (ADJ))(2 (2 (NOUN))(2 (2 (VERB))(2 (2 (ADP))(2 (DET))))))))))) |ET| 
1  |BT| (3 (2 (PROPN))(3 (2 (PUNCT))(3 (2 (2 (2 (DET))(2 (PROPN)))(2 (2 (AUX))(3 (0 (1 (3 (ADJ))(0 (2 (PUNCT))(0 (1 (ADJ))(2 (3 (2 (PUNCT))(2 (CCONJ)))(2 (ADJ))))))(2 (PUNCT)))(3 (2 (CCONJ))(4 (3 (ADV))(4 (ADJ)))))))(2 (PUNCT))))) |ET| 
-1  |BT| (1 (2 (2 (3 (3 (2 (2 (PROPN))(2 (PROPN)))(3 (2 (AUX))(3 (3 (ADJ))(2 (2 (ADP))(1 (2 (AUX))(2 (2 (DET))(1 (1 (ADJ))(2 (1 (ADJ))(1 (ADJ))))))))))(2 (NOUN)))(2 (NOUN)))(1 (2 (2 (PUNCT))(2 (CCONJ)))(2 (2 (2 (DET))(3 (NOUN)))(1 (1 (AUX))(3 (2 (ADV))(2 (1)))))))(2 (PART))) |ET| 
1  |BT| (3 (2 (2 (1 (2 (2 (2 (DET))(2 (NOUN)))(2 (2 (VERB))(2 (2 (DET))(2 (2 (ADJ))(2 (2 (NUM))(2 (NOUN)))))))(2 (PUNCT)))(2 (CCONJ)))(2 (2 (PRON))(2 (2 (AUX))(2 (1 (DET))(2 (NOUN))))))(2 (PUNCT))) |ET| 
-1  |BT| (1 (2 (2 (ADV))(2 (2 (SCONJ))(2 (2 (DET))(2 (2 (VERB))(2 (2 (AUX))(2 (2 (PART))(2 (VERB))))))))(2 (2 (PUNCT))(2 (2 (2 (2 (2 (2 (ADV))(2 (2 (ADP))(2 (PROPN))))(2 (PUNCT)))(2 (2 (DET))(2 (1 (3 (ADV))(2 (ADJ)))(2 (2 (NOUN))(1 (NOUN))))))(2 (PUNCT)))(2 (3 (2 (AUX))(4 (2 (DET))(3 (4 (ADJ))(2 (NOUN)))))(2 (PUNCT)))))) |ET| 
1  |BT| (3 (2 (PROPN))(0 (2 (PUNCT))(1 (1 (1 (3 (2 (VERB))(2 (2 (ADJ))(2 (NOUN))))(2 (2 (ADP))(1 (2 (2 (DET))(2 (NOUN)))(1 (2 (ADP))(1 (2 (DET))(1 (2 (1 (0 (ADJ))(2 (CCONJ)))(2 (NOUN)))(2 (PUNCT))))))))(2 (2 (ADJ))(1 (2 (NOUN))(2 (2 (PART))(2 (VERB))))))(2 (PRON))))) |ET| 
-1  |BT| (1 (2 (VERB))(3 (2 (2 (ADJ))(3 (2 (PUNCT))(3 (2 (2 (ADJ))(2 (CCONJ)))(2 (ADJ)))))(2 (PUNCT)))) |ET| 
1  |BT| (3 (2 (PRON))(4 (3 (2 (VERB))(4 (2 (AUX))(3 (2 (PART))(3 (1 (2 (AUX))(1 (2 (DET))(2 (2 (ADV))(2 (2 (ADV))(2 (PUNCT))))))(1 (1 (ADJ))(3 (2 (NOUN))(3 (2 (PART))(3 (3 (PART))(2 (2 (AUX))(2 (2 (VERB))(1 (ADP))))))))))))(2 (DET)))) |ET| 
-1  |BT| (0 (2 (DET))(1 (1 (1 (2 (AUX))(1 (PART)))(4 (2 (NUM))(3 (2 (ADP))(4 (2 (2 (DET))(2 (NOUN)))(4 (2 (PRON))(3 (2 (VERB))(3 (2 (VERB))(2 (2 (PART))(3 (2 (VERB))(1 (2 (SCONJ))(2 (2 (PRON))(1 (2 (ADV))(2 (2 (AUX))(2 (2 (DET))(2 (2 (NOUN))(2 (2 (PART))(2 (VERB))))))))))))))))))(2 (PUNCT)))) |ET| 
-1  |BT| (1 (2 (2 (2 (2 (2 (DET))(2 (NOUN)))(2 (PUNCT)))(2 (2 (VERB))(2 (2 (VERB))(2 (2 (VERB))(2 (2 (ADP))(2 (NOUN)))))))(2 (PROPN)))(1 (1 (1 (PROPN))(2 (3 (2 (PUNCT))(2 (VERB)))(2 (2 (DET))(2 (2 (NOUN))(1 (2 (ADJ))(1 (2 (PART))(1 (3 (3 (2 (2 (ADV))(3 (2 (VERB))(2 (DET))))(2 (2 (ADJ))(2 (2 (NOUN))(2 (ADP)))))(2 (DET)))(1 (2 (NOUN))(1 (2 (2 (PUNCT))(2 (VERB)))(1 (1 (1 (2 (DET))(1 (NOUN)))(2 (ADV)))(3 (2 (ADJ))(4 (SCONJ)))))))))))))(2 (ADV)))) |ET| 
-0.49284213241959001772229953530768  |BT| (1 (2 (2 (DET))(1 (NOUN)))(0 (2 (ADV))(3 (3 (2 (VERB))(1 (2 (ADP))(1 (1 (2 (2 (ADJ))(1 (2 (PUNCT))(1 (ADJ))))(2 (NOUN)))(2 (2 (ADP))(1 (1 (3 (ADV))(2 (ADJ)))(2 (NOUN)))))))(2 (PUNCT))))) |ET| 
0.96066630338352321238915010326309  |BT| (3 (4 (INTJ))(3 (2 (PUNCT))(2 (2 (2 (ADV))(2 (2 (PRON))(2 (VERB))))(2 (2 (2 (PROPN))(2 (PROPN)))(3 (2 (2 (VERB))(3 (2 (AUX))(2 (2 (ADV))(3 (ADJ)))))(2 (PUNCT))))))) |ET| 
0.5191995518036978118914248625515  |BT| (3 (2 (PRON))(2 (3 (3 (2 (VERB))(3 (NOUN)))(2 (2 (SCONJ))(2 (2 (PRON))(2 (2 (VERB))(2 (2 (ADP))(1 (2 (2 (DET))(2 (NOUN)))(1 (2 (ADP))(2 (NOUN)))))))))(2 (PUNCT)))) |ET| 
1  |BT| (3 (3 (2 (2 (DET))(2 (2 (NOUN))(2 (PART))))(2 (3 (ADJ))(2 (NOUN))))(0 (1 (2 (AUX))(1 (2 (2 (VERB))(2 (2 (ADP))(1 (2 (ADJ))(2 (2 (ADJ))(1 (NOUN))))))(2 (2 (ADP))(2 (2 (2 (DET))(2 (2 (ADJ))(1 (NOUN))))(3 (2 (ADP))(2 (2 (DET))(2 (2 (NOUN))(2 (NOUN)))))))))(2 (PUNCT)))) |ET| 
-1  |BT| (1 (2 (2 (DET))(2 (NOUN)))(2 (3 (3 (3 (2 (AUX))(2 (NOUN)))(2 (CCONJ)))(1 (3 (2 (PUNCT))(2 (3 (2 (ADP))(2 (2 (2 (DET))(2 (NOUN)))(3 (2 (ADP))(2 (2 (2 (DET))(3 (3 (2 (ADV))(4 (ADJ)))(2 (NOUN))))(2 (2 (SCONJ))(2 (2 (PROPN))(2 (PROPN))))))))(2 (PUNCT))))(2 (2 (VERB))(2 (2 (AUX))(3 (2 (VERB))(2 (2 (2 (2 (DET))(2 (NOUN)))(2 (CCONJ)))(2 (2 (NUM))(2 (2 (VERB))(3 (NOUN))))))))))(2 (PUNCT)))) |ET| 
1  |BT| (3 (3 (ADV))(1 (1 (ADJ))(2 (PUNCT)))) |ET| 
-1  |BT| (1 (2 (2 (2 (2 (3 (2 (DET))(2 (NOUN)))(2 (PUNCT)))(2 (CCONJ)))(2 (2 (DET))(2 (NOUN))))(2 (PUNCT)))(2 (2 (2 (AUX))(2 (2 (DET))(2 (2 (ADJ))(2 (NOUN)))))(2 (PUNCT)))) |ET| 
1  |BT| (3 (2 (NOUN))(3 (1 (1 (VERB))(2 (2 (PART))(2 (2 (VERB))(2 (2 (PROPN))(2 (2 (AUX))(2 (2 (VERB))(2 (2 (SCONJ))(1 (1 (1 (2 (ADV))(2 (2 (DET))(2 (2 (NOUN))(2 (NOUN)))))(2 (PUNCT)))(1 (2 (DET))(2 (2 (VERB))(3 (2 (PRON))(2 (2 (VERB))(1 (2 (AUX))(2 (2 (VERB))(1 (2 (ADP))(1 (2 (ADV))(2 (1 (VERB))(2 (2 (ADP))(2 (3 (NOUN))(1 (2 (ADP))(0 (2 (DET))(2 (2 (NOUN))(3 (PUNCT))))))))))))))))))))))))(2 (ADP)))) |ET| 
-0.69998622243907360207515466754558  |BT| (1 (2 (2 (ADP))(2 (2 (2 (ADJ))(2 (NOUN)))(1 (2 (PRON))(2 (2 (VERB))(1 (2 (ADP))(1 (2 (NOUN))(2 (2 (2 (VERB))(3 (2 (2 (DET))(2 (NOUN)))(1 (2 (ADP))(2 (2 (ADJ))(2 (2 (PROPN))(2 (NOUN)))))))(2 (2 (2 (VERB))(2 (2 (DET))(2 (NOUN))))(3 (2 (ADP))(2 (2 (2 (PROPN))(2 (PART)))(2 (PROPN))))))))))))(1 (2 (PUNCT))(1 (2 (PRON))(1 (2 (2 (2 (VERB))(2 (ADV)))(1 (2 (2 (VERB))(1 (ADP)))(2 (VERB))))(2 (PUNCT)))))) |ET| 
1  |BT| (3 (1 (2 (1 (2 (1 (2 (2 (DET))(2 (NOUN)))(2 (2 (CCONJ))(3 (2 (0 (ADJ))(2 (CCONJ)))(4 (ADJ)))))(2 (PUNCT)))(1 (2 (CCONJ))(2 (2 (2 (ADJ))(2 (CCONJ)))(3 (ADJ)))))(2 (PUNCT)))(2 (2 (CCONJ))(1 (2 (3 (ADJ))(2 (CCONJ)))(3 (ADJ)))))(2 (PUNCT))) |ET| 
-1  |BT| (1 (2 (2 (DET))(2 (NOUN)))(1 (3 (2 (2 (2 (AUX))(2 (ADV)))(1 (2 (ADV))(2 (ADJ))))(3 (2 (PART))(3 (2 (AUX))(4 (3 (ADV))(4 (ADJ))))))(2 (PUNCT)))) |ET| 
1  |BT| (3 (2 (1 (1 (1 (2 (2 (VERB))(2 (2 (ADP))(2 (1 (PROPN))(2 (PROPN)))))(1 (2 (VERB))(1 (0 (2 (AUX))(2 (1 (2 (DET))(1 (1 (ADJ))(2 (NOUN))))(2 (2 (ADP))(3 (PROPN)))))(2 (2 (PART))(2 (2 (VERB))(2 (2 (ADP))(1 (2 (NOUN))(2 (2 (ADP))(2 (2 (NOUN))(2 (2 (NOUN))(2 (NOUN))))))))))))(2 (PUNCT)))(2 (CCONJ)))(3 (2 (PRON))(2 (2 (2 (AUX))(1 (PART)))(2 (ADV)))))(2 (PUNCT))) |ET| 
-1  |BT| (1 (2 (2 (3 (3 (2 (2 (1 (PROPN))(2 (PART)))(2 (NOUN)))(4 (3 (4 (2 (AUX))(4 (ADJ)))(2 (PUNCT)))(2 (INTJ))))(2 (PUNCT)))(2 (CCONJ)))(1 (2 (3 (2 (DET))(2 (NOUN)))(1 (2 (ADP))(2 (1 (2 (2 (1 (2 (1 (NOUN))(2 (CCONJ)))(2 (NOUN)))(2 (CCONJ)))(2 (2 (NOUN))(2 (PUNCT))))(2 (ADP)))(2 (2 (PUNCT))(2 (2 (NOUN))(2 (2 (PART))(2 (PUNCT))))))))(1 (2 (NOUN))(1 (1 (ADP))(2 (DET))))))(2 (NOUN))) |ET| 
1  |BT| (3 (2 (ADV))(1 (3 (2 (3 (VERB))(1 (ADP)))(2 (2 (SCONJ))(1 (3 (2 (DET))(2 (NOUN)))(2 (2 (2 (2 (ADV))(2 (ADJ)))(2 (SCONJ)))(2 (ADJ))))))(2 (PUNCT)))) |ET| 
-1  |BT| (1 (2 (VERB))(2 (2 (2 (2 (DET))(2 (3 (ADJ))(2 (PROPN))))(2 (2 (ADP))(2 (2 (DET))(3 (2 (ADJ))(2 (2 (ADJ))(2 (NOUN)))))))(2 (2 (AUX))(2 (2 (ADJ))(1 (2 (ADP))(2 (2 (2 (VERB))(2 (2 (DET))(2 (2 (PROPN))(0 (PROPN)))))(2 (2 (ADP))(3 (2 (ADJ))(2 (0 (PROPN))(2 (PROPN))))))))))) |ET| 
1  |BT| (4 (3 (3 (3 (3 (1 (2 (DET))(2 (ADJ)))(2 (CCONJ)))(3 (ADJ)))(2 (PUNCT)))(4 (2 (0 (1 (2 (2 (ADV))(2 (2 (DET))(2 (2 (ADJ))(2 (NOUN)))))(2 (2 (VERB))(2 (2 (ADP))(2 (2 (DET))(1 (0 (ADJ))(2 (NOUN)))))))(2 (PUNCT)))(2 (CCONJ)))(4 (2 (PRON))(4 (2 (AUX))(4 (2 (ADV))(3 (VERB)))))))(2 (PUNCT))) |ET| 
-1  |BT| (1 (2 (2 (2 (SCONJ))(2 (ADV)))(2 (2 (PRON))(2 (AUX))))(3 (2 (PUNCT))(2 (3 (INTJ))(3 (2 (PUNCT))(3 (3 (ADJ))(2 (PUNCT))))))) |ET| 
1  |BT| (3 (2 (2 (2 (2 (2 (2 (DET))(2 (NOUN)))(2 (2 (VERB))(2 (2 (AUX))(1 (ADJ)))))(2 (PUNCT)))(2 (CCONJ)))(2 (2 (2 (DET))(2 (NOUN)))(2 (3 (2 (AUX))(3 (2 (NUM))(2 (2 (ADP))(2 (2 (DET))(3 (3 (DET))(2 (PUNCT)))))))(2 (2 (NOUN))(1 (2 (3 (NOUN))(2 (2 (SCONJ))(2 (2 (NOUN))(2 (ADP)))))(2 (2 (PROPN))(2 (2 (PROPN))(2 (2 (AUX))(1 (2 (VERB))(2 (2 (2 (PART))(2 (VERB)))(1 (2 (2 (AUX))(2 (ADV)))(2 (2 (DET))(2 (2 (NOUN))(2 (ADP)))))))))))))))(2 (PROPN))) |ET| 
-1  |BT| (1 (2 (3 (4 (4 (2 (PRON))(4 (3 (3 (3 (3 (2 (3 (2 (AUX))(3 (ADJ)))(2 (PUNCT)))(3 (3 (ADV))(2 (VERB))))(2 (PUNCT)))(2 (CCONJ)))(1 (ADV)))(2 (VERB))))(2 (PUNCT)))(2 (CCONJ)))(1 (2 (PRON))(1 (2 (2 (1 (VERB))(2 (PRON)))(2 (ADP)))(1 (2 (SCONJ))(2 (2 (2 (DET))(3 (2 (NOUN))(2 (NOUN))))(3 (1 (2 (VERB))(1 (ADP)))(2 (2 (DET))(2 (NOUN)))))))))(2 (PUNCT))) |ET| 
1  |BT| (3 (1 (2 (SCONJ))(1 (2 (PRON))(1 (2 (AUX))(2 (2 (2 (ADV))(2 (ADV)))(1 (2 (2 (ADJ))(2 (NOUN)))(1 (3 (2 (3 (NOUN))(2 (2 (ADP))(2 (DET))))(1 (2 (ADP))(2 (3 (2 (ADJ))(2 (NOUN)))(2 (2 (ADP))(2 (2 (DET))(2 (PROPN)))))))(0 (1 (PUNCT))(1 (1 (2 (2 (ADV))(2 (3 (ADV))(2 (SCONJ))))(0 (1 (1 (1 (NOUN))(1 (0 (NOUN))(2 (2 (ADP))(2 (DET)))))(3 (2 (ADP))(2 (DET))))(1 (2 (NOUN))(1 (2 (ADP))(1 (2 (2 (PROPN))(2 (PART)))(1 (1 (VERB))(2 (PUNCT))))))))(3 (ADP))))))))))(3 (2 (NOUN))(3 (2 (2 (PUNCT))(2 (PUNCT)))(3 (2 (2 (ADJ))(2 (PROPN)))(3 (3 (2 (ADP))(3 (2 (PRON))(2 (3 (AUX))(2 (DET)))))(2 (ADJ))))))) |ET| 
-1  |BT| (0 (3 (2 (PROPN))(2 (2 (PROPN))(1 (PROPN))))(2 (1 (3 (2 (VERB))(2 (2 (ADP))(1 (2 (PROPN))(2 (2 (ADP))(2 (1 (2 (DET))(2 (2 (DET))(2 (1 (ADJ))(3 (NOUN)))))(2 (2 (ADP))(2 (2 (DET))(2 (2 (ADJ))(2 (3 (NOUN))(2 (2 (NOUN))(3 (VERB))))))))))))(2 (2 (ADP))(2 (2 (ADJ))(2 (NOUN)))))(2 (PUNCT)))) |ET| 
1  |BT| (4 (2 (3 (ADV))(2 (VERB)))(4 (2 (PUNCT))(4 (1 (2 (PUNCT))(2 (2 (2 (PUNCT))(2 (1 (ADV))(3 (ADP))))(2 (PROPN))))(4 (4 (2 (PUNCT))(4 (2 (AUX))(4 (DET))))(2 (NOUN)))))) |ET| 
-0.63152287738023460406111553311348  |BT| (0 (2 (ADV))(0 (1 (3 (2 (AUX))(3 (ADV)))(3 (1 (ADP))(2 (NOUN))))(2 (PUNCT)))) |ET| 
1  |BT| (3 (3 (2 (2 (1 (1 (2 (2 (PROPN))(2 (PROPN)))(1 (1 (1 (2 (AUX))(2 (PART)))(2 (ADV)))(3 (2 (VERB))(3 (2 (DET))(2 (NOUN))))))(2 (CCONJ)))(4 (2 (2 (DET))(2 (NOUN)))(3 (2 (AUX))(4 (ADJ)))))(2 (CCONJ)))(2 (2 (PRON))(3 (2 (DET))(2 (3 (3 (VERB))(3 (NOUN)))(1 (2 (ADP))(1 (2 (2 (DET))(1 (2 (VERB))(2 (NOUN))))(1 (2 (PRON))(2 (2 (AUX))(2 (2 (VERB))(1 (2 (PART))(2 (2 (2 (VERB))(2 (2 (DET))(2 (NOUN))))(2 (2 (ADP))(2 (2 (DET))(1 (NOUN)))))))))))))))(2 (PUNCT))) |ET| 
-1  |BT| (0 (2 (2 (2 (2 (2 (2 (PROPN))(2 (PROPN)))(2 (PUNCT)))(2 (2 (DET))(2 (NOUN))))(2 (CCONJ)))(2 (2 (2 (PROPN))(2 (PART)))(2 (NOUN))))(1 (2 (VERB))(2 (2 (VERB))(1 (NOUN))))) |ET| 
1  |BT| (3 (3 (2 (1 (2 (2 (PRON))(2 (2 (2 (AUX))(2 (ADV)))(3 (3 (NOUN))(3 (PUNCT)))))(2 (ADP)))(2 (PUNCT)))(2 (2 (ADV))(3 (2 (2 (ADJ))(2 (PUNCT)))(4 (CCONJ)))))(2 (PRON))) |ET| 
-1  |BT| (1 (0 (2 (2 (ADV))(2 (ADJ)))(1 (2 (SCONJ))(1 (4 (3 (ADJ))(2 (PUNCT)))(1 (1 (1 (0 (ADV))(2 (ADJ)))(2 (CCONJ)))(1 (1 (VERB))(3 (2 (2 (2 (DET))(2 (NOUN)))(2 (2 (ADP))(3 (NOUN))))(3 (2 (DET))(2 (2 (VERB))(4 (2 (AUX))(2 (2 (VERB))(3 (2 (2 (PRON))(2 (DET)))(4 (ADJ)))))))))))))(3 (3 (NOUN))(2 (PUNCT)))) |ET| 
1  |BT| (3 (3 (3 (2 (DET))(3 (3 (2 (ADV))(3 (ADJ)))(2 (NOUN))))(2 (2 (ADP))(2 (2 (2 (2 (2 (PROPN))(2 (PROPN)))(2 (PUNCT)))(2 (CCONJ)))(2 (2 (DET))(2 (2 (1NUM))(2 (2 (PROPN))(2 (PROPN))))))))(2 (2 (2 (NOUN))(2 (2 (2 (2 (PROPN))(2 (PROPN)))(2 (CCONJ)))(2 (2 (NUM))(2 (2 (PROPN))(2 (NOUN))))))(2 (PUNCT)))) |ET| 
-0.85400860646275744691990894352784  |BT| (1 (1 (1 (2 (DET))(2 (1 (PART))(2 (PUNCT))))(2 (2 (ADV))(2 (2 (PUNCT))(2 (PROPN)))))(2 (2 (2 (PROPN))(2 (2 (ADP))(2 (2 (2 (DET))(3 (2 (PROPN))(2 (PUNCT))))(2 (2 (PROPN))(1 (1 (PROPN))(2 (2 (ADP))(2 (DET))))))))(2 (ADJ)))) |ET| 
1  |BT| (3 (2 (SCONJ))(2 (2 (PRON))(3 (2 (2 (VERB))(2 (ADV)))(3 (2 (AUX))(4 (4 (4 (2 (DET))(3 (4 (4 (4 (ADJ))(2 (CCONJ)))(2 (2 (ADV))(3 (ADJ))))(3 (NOUN))))(2 (2 (ADP))(2 (2 (DET))(2 (2 (2002))(3 (2 (NUM))(3 (NOUN)))))))(1 (2 (NOUN))(2 (2 (VERB))(2 (2 (ADJ))(2 (2 (2 (ADP))(3 (DET)))(2 (2 (NOUN))(2 (2 (SCONJ))(2 (DET))))))))))))) |ET| 
-1  |BT| (1 (2 (3 (3 (3 (2 (PRON))(3 (2 (AUX))(3 (2 (DET))(4 (3 (ADV))(3 (2 (ADJ))(2 (2 (NOUN))(2 (2 (PART))(2 (2 (AUX))(2 (2 (VERB))(2 (2 (ADP))(2 (VERB))))))))))))(2 (PUNCT)))(2 (CCONJ)))(2 (2 (NOUN))(2 (1 (2 (AUX))(2 (PART)))(2 (PRON)))))(2 (PUNCT))) |ET| 
1  |BT| (4 (2 (2 (ADP))(2 (2 (PROPN))(3 (NOUN))))(1 (2 (PUNCT))(3 (2 (DET))(2 (3 (2 (AUX))(1 (2 (ADV))(2 (3 (ADJ))(2 (2 (SCONJ))(1 (2 (2 (DET))(2 (2 (NOUN))(2 (NOUN))))(2 (2 (ADP))(2 (NOUN))))))))(2 (PUNCT)))))) |ET| 
-1  |BT| (1 (1 (2 (2 (DET))(2 (NOUN)))(2 (2 (ADP))(2 (NOUN))))(2 (3 (3 (VERB))(3 (2 (ADP))(3 (2 (ADJ))(3 (2 (3 (NOUN))(2 (CCONJ)))(2 (NOUN))))))(2 (PUNCT)))) |ET| 
1  |BT| (3 (1 (1 (1 (1 (2 (PRON))(0 (2 (AUX))(1 (2 (ADJ))(0 (2 (PART))(0 (2 (2 (2 (VERB))(2 (PRON)))(2 (ADV)))(1 (1 (2 (2 (2 (2 (2 (AUX))(2 (PUNCT)))(2 (2 (PUNCT))(2 (2 (ADP))(2 (DET)))))(2 (NOUN)))(2 (2 (PUNCT))(2 (2 (2 (PART))(2 (2 (VERB))(2 (DET))))(2 (2 (NOUN))(2 (SCONJ))))))(2 (ADJ)))(1 (1 (CCONJ))(2 (2 (ADJ))(2 (2 (SCONJ))(1 (2 (DET))(2 (PROPN))))))))))))(2 (PROPN)))(2 (PUNCT)))(4 (2 (CCONJ))(4 (4 (2 (2 (PRON))(2 (2 (AUX))(2 (ADV))))(2 (2 (ADJ))(3 (2 (2 (PART))(2 (VERB)))(3 (2 (PRON))(3 (3 (AUX))(2 (2 (ADJ))(3 (3 (2 (2 (PART))(2 (2 (VERB))(2 (DET))))(2 (NOUN)))(2 (2 (ADV))(2 (2 (ADP))(2 (DET)))))))))))(2 (2 (NOUN))(2 (2 (SCONJ))(2 (2 (PRON))(2 (AUX))))))))(2 (VERB))) |ET| 
-1  |BT| (1 (2 (PUNCT))(1 (3 (2 (SCONJ))(3 (2 (2 (2 (DET))(2 (4 (NOUN))(2 (NOUN))))(2 (2 (2 (2 (ADP))(2 (PUNCT)))(2 (2 (PROPN))(2 (PROPN))))(2 (PUNCT))))(4 (2 (AUX))(4 (4 (2 (ADV))(3 (2 (ADV))(4 (ADJ))))(2 (2 (SCONJ))(2 (2 (PRON))(2 (2 (AUX))(1 (VERB)))))))))(1 (2 (PUNCT))(1 (2 (2 (2 (PRON))(2 (ADV)))(2 (2 (ADP))(2 (2 (DET))(2 (NOUN)))))(1 (1 (NOUN))(2 (PUNCT))))))) |ET| 
1  |BT| (4 (3 (4 (3 (2 (NOUN))(2 (ADP)))(2 (2 (ADP))(2 (PROPN))))(2 (2 (ADP))(3 (1 (PART))(1 (1 (1 (3 (VERB))(2 (2 (ADP))(2 (2 (DET))(1 (2 (PROPN))(2 (NOUN))))))(2 (CCONJ)))(2 (1 (2 (2 (VERB))(1 (2 (DET))(1 (2 (NOUN))(2 (NOUN)))))(2 (2 (ADP))(0 (1 (PRON))(3 (ADJ)))))(2 (2 (PART))(2 (VERB))))))))(2 (PUNCT))) |ET| 
-1  |BT| (1 (3 (2 (SCONJ))(4 (3 (2 (DET))(2 (3 (ADJ))(3 (NOUN))))(2 (2 (ADP))(2 (2 (DET))(2 (NOUN))))))(2 (2 (PUNCT))(1 (2 (2 (DET))(2 (NOUN)))(2 (2 (ADV))(4 (3 (2 (VERB))(3 (2 (PART))(2 (2 (VERB))(3 (3 (2 (DET))(2 (NOUN)))(2 (2 (ADP))(3 (2 (DET))(2 (NOUN))))))))(2 (PUNCT))))))) |ET| 
1  |BT| (3 (2 (2 (SCONJ))(2 (1 (1 (PART))(2 (ADV)))(2 (2 (PUNCT))(2 (2 (2 (2 (2 (3 (PUNCT))(2 (PROPN)))(2 (PUNCT)))(2 (CCONJ)))(2 (2 (PUNCT))(2 (2 (PUNCT))(2 (PROPN)))))(2 (PUNCT))))))(3 (2 (PROPN))(2 (2 (PUNCT))(2 (3 (2 (2 (PUNCT))(1 (PRON)))(1 (2 (AUX))(0 (PART))))(2 (ADV)))))) |ET| 
-0.57957220747915094705149385845289  |BT| (1 (2 (ADV))(2 (2 (2 (2 (VERB))(2 (PRON)))(2 (2 (ADP))(1 (PROPN))))(2 (PUNCT)))) |ET| 
1  |BT| (3 (2 (2 (2 (DET))(2 (2 (NOUN))(2 (PART))))(2 (NOUN)))(2 (1 (2 (3 (2 (3 (VERB))(3 (2 (DET))(3 (NOUN))))(2 (2 (ADP))(2 (2 (DET))(2 (NOUN)))))(2 (CCONJ)))(2 (3 (2 (VERB))(3 (2 (DET))(3 (2 (ADJ))(3 (NOUN)))))(0 (2 (ADP))(1 (2 (DET))(1 (3 (ADJ))(2 (NOUN)))))))(2 (PUNCT)))) |ET| 
-1  |BT| (1 (2 (3 (3 (2 (2 (2 (PROPN))(2 (PART)))(2 (2 (ADJ))(2 (NOUN))))(2 (2 (AUX))(3 (3 (ADJ))(2 (2 (NOUN))(2 (2 (PART))(2 (VERB)))))))(2 (PUNCT)))(2 (CCONJ)))(1 (2 (ADV))(1 (2 (PRON))(1 (2 (AUX))(1 (1 (VERB))(1 (2 (ADP))(1 (2 (DET))(1 (0 (ADJ))(2 (NOUN)))))))))) |ET| 
1  |BT| (4 (4 (2 (DET))(3 (4 (ADJ))(3 (2 (PUNCT))(4 (3 (2 (ADJ))(2 (CCONJ)))(3 (ADV))))))(2 (3 (2 (2 (VERB))(2 (NOUN)))(2 (2 (ADP))(2 (2 (CCONJ))(1 (2 (1 (2 (2 (DET))(1 (2 (3 (ADV))(0 (ADJ)))(2 (NOUN))))(2 (2 (ADP))(2 (2 (2 (NUM))(2 (NOUN)))(2 (ADV)))))(2 (CCONJ)))(2 (2 (2 (DET))(1 (2 (1 (ADJ))(1 (2 (PUNCT))(1 (ADJ))))(3 (3 (NOUN))(2 (NOUN)))))(2 (2 (DET))(2 (2 (AUX))(2 (2 (VERB))(2 (2 (ADP))(2 (2 (DET))(2 (NOUN))))))))))))(2 (PUNCT)))) |ET| 
-1  |BT| (1 (2 (PUNCT))(2 (1 (2 (ADV))(3 (2 (VERB))(1 (2 (VERB))(4 (3 (3 (2 (2 (2 (PUNCT))(2 (2 (PUNCT))(2 (2 (VERB))(2 (2 (DET))(2 (PROPN))))))(2 (PUNCT)))(3 (3 (2 (PUNCT))(3 (2 (DET))(3 (3 (ADV))(2 (ADJ)))))(2 (2 (NOUN))(2 (2 (ADP))(2 (2 (DET))(2 (ADJ)))))))(2 (NOUN)))(4 (2 (CCONJ))(4 (3 (2 (DET))(4 (ADV)))(2 (2 (ADJ))(2 (2 (PROPN))(2 (PROPN))))))))))(2 (NOUN)))) |ET| 
1  |BT| (3 (4 (3 (ADJ))(2 (NOUN)))(2 (1 (2 (2 (VERB))(2 (PRON)))(1 (2 (ADP))(1 (2 (AUX))(1 (2 (DET))(2 (2 (ADJ))(2 (NOUN)))))))(2 (PUNCT)))) |ET| 
-1  |BT| (1 (2 (PUNCT))(2 (1 (2 (DET))(1 (2 (ADJ))(2 (NOUN))))(2 (1 (2 (1 (VERB))(3 (PRON)))(1 (2 (ADP))(2 (2 (VERB))(3 (3 (2 (DET))(2 (NOUN)))(2 (2 (2 (ADP))(2 (DET)))(3 (2 (PRON))(3 (2 (VERB))(2 (PRON)))))))))(2 (PUNCT))))) |ET| 
1  |BT| (3 (2 (2 (2 (PROPN))(2 (PROPN)))(3 (2 (SCONJ))(2 (2 (2 (2 (2 (ADJ))(2 (3 (NOUN))(2 (3 (PROPN))(2 (2 (PROPN))(2 (PROPN))))))(2 (PUNCT)))(2 (2 (2 (PROPN))(2 (PROPN)))(2 (2 (SCONJ))(2 (2 (2 (2 (2 (2 (DET))(2 (NOUN)))(2 (2 (PROPN))(2 (PROPN))))(2 (PUNCT)))(2 (CCONJ)))(2 (2 (PROPN))(1 (2 (SCONJ))(2 (2 (DET))(2 (2 (1 (ADJ))(1 (2 (PUNCT))(1 (ADJ))))(2 (2 (NOUN))(2 (2 (NOUN))(2 (PROPN))))))))))))(2 (PUNCT)))))(3 (2 (DET))(3 (3 (3 (3 (2 (VERB))(3 (ADV)))(2 (CCONJ)))(2 (2 (VERB))(3 (ADV))))(2 (PUNCT))))) |ET| 
-0.7203290592689468585518852705718  |BT| (1 (2 (2 (2 (PROPN))(2 (2 (PROPN))(2 (PART))))(2 (NOUN)))(2 (3 (3 (PUNCT))(1 (2 (3 (2 (2 (2 (NOUN))(2 (VERB)))(2 (2 (PROPN))(2 (PART))))(2 (2 (PROPN))(2 (2 (PROPN))(2 (3 (ADP))(2 (DET))))))(2 (PROPN)))(1 (2 (2 (PROPN))(2 (PUNCT)))(1 (2 (X))(2 (1 (PUNCT))(2 (3 (DET))(2 (ADJ))))))))(2 (ADJ)))) |ET| 
1  |BT| (3 (1 (2 (2 (DET))(3 (NOUN)))(2 (2 (ADP))(2 (2 (ADJ))(2 (NOUN)))))(3 (1 (2 (PUNCT))(1 (2 (2 (ADV))(2 (VERB)))(2 (PUNCT))))(3 (3 (2 (VERB))(1 (2 (ADP))(3 (2 (ADV))(3 (2 (ADJ))(2 (VERB))))))(2 (PUNCT))))) |ET| 
-1  |BT| (1 (1 (2 (1 (ADV))(2 (CCONJ)))(2 (ADV)))(2 (3 (2 (VERB))(2 (2 (ADP))(3 (2 (2 (DET))(2 (2 (2 (ADV))(2 (3 (ADJ))(2 (2 (PUNCT))(2 (ADJ)))))(3 (NOUN))))(2 (2 (ADP))(2 (NOUN))))))(2 (PUNCT)))) |ET| 
1  |BT| (4 (2 (PROPN))(3 (PROPN))) |ET| 
-1  |BT| (1 (2 (3 (PROPN))(4 (3 (PROPN))(2 (PROPN))))(1 (3 (ADV))(1 (1 (2 (2 (VERB))(2 (PART)))(4 (2 (AUX))(3 (2 (VERB))(3 (2 (SCONJ))(3 (2 (NUM))(3 (2 (ADP))(2 (2 (1 (PUNCT))(2 (2 (2 (PROPN))(2 (PART)))(3 (PUNCT))))(1 (4 (ADJ))(2 (NOUN))))))))))(2 (PUNCT))))) |ET| 
1  |BT| (3 (2 (ADV))(1 (2 (2 (3 (ADJ))(2 (2 (2 (PUNCT))(2 (CCONJ)))(2 (ADV))))(1 (2 (ADV))(1 (2 (ADV))(1 (2 (PRON))(0 (1 (1 (2 (AUX))(1 (1 (1 (1 (2 (1 (VERB))(2 (PUNCT)))(1 (2 (ADJ))(2 (2 (ADP))(3 (NOUN)))))(2 (PUNCT)))(2 (CCONJ)))(2 (2 (ADV))(2 (ADJ)))))(2 (2 (PART))(2 (2 (AUX))(3 (2 (ADJ))(2 (2 (ADP))(2 (NOUN)))))))(2 (2 (ADV))(2 (3 (2 (DET))(2 (2 (ADJ))(3 (2 (ADJ))(2 (PUNCT)))))(2 (2 (ADJ))(2 (2 (NOUN))(2 (2 (VERB))(2 (VERB))))))))))))(2 (ADP)))) |ET| 
-0.26888935288556159441952786437469  |BT| (1 (2 (2 (2 (ADV))(2 (2 (ADV))(2 (ADJ))))(2 (2 (SCONJ))(2 (2 (ADV))(2 (VERB)))))(2 (PUNCT))) |ET| 
1  |BT| (4 (3 (3 (3 (2 (PRON))(3 (2 (AUX))(3 (2 (ADJ))(3 (2 (ADP))(1 (2 (2 (NOUN))(2 (2 (ADP))(2 (2 (DET))(2 (NOUN)))))(3 (2 (2 (ADP))(2 (SCONJ)))(3 (2 (PRON))(2 (2 (AUX))(4 (2 (2 (AUX))(1 (PART)))(1 (2 (VERB))(1 (2 (ADP))(1 (1 (0 (1 (1 (1 (1 (ADJ))(2 (NOUN)))(2 (PUNCT)))(2 (2 (ADJ))(4 (NOUN))))(2 (PUNCT)))(2 (CCONJ)))(2 (2 (NOUN))(2 (NOUN)))))))))))))))(2 (PUNCT)))(2 (2 (PRON))(2 (2 (ADV))(2 (2 (2 (VERB))(3 (2 (ADP))(2 (NOUN))))(2 (2 (PART))(3 (2 (VERB))(2 (2 (DET))(2 (NOUN)))))))))(2 (PUNCT))) |ET| 
-1  |BT| (0 (0 (0 (1 (1 (1 (2 (2 (2 (2 (DET))(2 (2 (ADP))(2 (2 (DET))(2 (NOUN)))))(0 (VERB)))(2 (CCONJ)))(2 (2 (3 (2 (2 (NOUN))(2 (2 (AUX))(2 (PART))))(2 (PUNCT)))(2 (CCONJ)))(2 (2 (2 (DET))(2 (NOUN)))(2 (2 (VERB))(2 (2 (SCONJ))(2 (2 (2 (DET))(2 (NOUN)))(2 (2 (AUX))(2 (2 (VERB))(2 (2 (2 (DET))(2 (NOUN)))(2 (2 (ADP))(2 (NOUN))))))))))))(2 (PUNCT)))(2 (CCONJ)))(2 (2 (PUNCT))(2 (2 (ADV))(2 (PUNCT)))))(1 (2 (2 (PRON))(2 (2 (ADP))(2 (2 (DET))(2 (2 (VERB))(2 (NOUN))))))(3 (VERB))))(2 (PUNCT))) |ET| 
1  |BT| (3 (2 (2 (ADP))(2 (1 (PART))(2 (2 (VERB))(2 (2 (DET))(2 (NOUN))))))(2 (2 (PUNCT))(2 (2 (PROPN))(2 (3 (2 (VERB))(2 (3 (PRON))(1 (2 (PART))(2 (2 (VERB))(1 (2 (2 (2 (DET))(2 (ADJ)))(2 (PUNCT)))(1 (0 (0 (2 (DET))(1 (ADJ)))(2 (PUNCT)))(1 (2 (DET))(1 (ADJ)))))))))(2 (PUNCT)))))) |ET| 
-1  |BT| (1 (2 (3 (3 (4 (2 (PRON))(3 (2 (2 (AUX))(3 (3 (4 (ADJ))(2 (CCONJ)))(2 (ADJ))))(2 (2 (ADP))(2 (2 (DET))(2 (NOUN))))))(2 (PUNCT)))(2 (CCONJ)))(1 (2 (PRON))(2 (2 (VERB))(1 (1 (VERB))(1 (2 (PRON))(1 (2 (VERB))(2 (2 (DET))(0 (2 (ADJ))(1 (2 (2 (ADJ))(2 (CCONJ)))(1 (ADJ)))))))))))(2 (PUNCT))) |ET| 
1  |BT| (3 (3 (PROPN))(2 (2 (3 (2 (2 (2 (VERB))(3 (ADV)))(3 (2 (VERB))(3 (2 (DET))(2 (NOUN)))))(2 (PUNCT)))(2 (CCONJ)))(1 (1 (2 (AUX))(2 (PART)))(2 (2 (NOUN))(3 (3 (NOUN))(2 (NOUN))))))) |ET| 
-1  |BT| (0 (2 (2 (1 (DET))(2 (NOUN)))(2 (2 (ADP))(3 (3 (ADJ))(2 (NOUN)))))(2 (3 (2 (AUX))(2 (3 (ADJ))(2 (2 (PART))(3 (2 (VERB))(2 (1 (2 (DET))(2 (NOUN)))(2 (2 (ADP))(2 (2 (DET))(2 (NOUN)))))))))(2 (PUNCT)))) |ET| 
-1  |BT| (0 (1 (3 (VERB))(0 (1 (2 (ADJ))(1 (2 (SCONJ))(2 (2 (DET))(2 (2 (NOUN))(2 (PUNCT))))))(2 (2 (NOUN))(2 (2 (NOUN))(2 (2 (VERB))(2 (2 (ADP))(3 (2 (NOUN))(2 (2 (PRON))(2 (2 (VERB))(2 (PART)))))))))))(1 (1 (2 (2 (2 (VERB))(2 (NOUN)))(2 (ADJ)))(2 (2 (CCONJ))(2 (2 (2 (VERB))(2 (ADP)))(2 (2 (DET))(3 (3 (2 (NOUN))(4 (3 (SCONJ))(2 (DET))))(2 (2 (ADJ))(3 (3 (NOUN))(3 (2 (ADP))(2 (ADJ))))))))))(2 (PUNCT)))) |ET| 
-1  |BT| (0 (1 (ADV))(0 (ADJ))) |ET| 
1  |BT| (3 (2 (2 (DET))(3 (ADV)))(2 (1 (2 (2 (VERB))(2 (PROPN)))(1 (2 (ADP))(2 (1 (1 (2 (NOUN))(2 (2 (ADP))(2 (2 (DET))(2 (NOUN)))))(2 (CCONJ)))(2 (2 (2 (DET))(2 (2 (ADJ))(2 (NOUN))))(2 (2 (ADP))(2 (2 (DET))(2 (NOUN))))))))(2 (PUNCT)))) |ET| 
-1  |BT| (1 (1 (2 (2 (3 (2 (2 (ADP))(2 (2 (2 (2 (DET))(2 (2 (ADJ))(3 (2 (ADJ))(2 (NOUN)))))(2 (CCONJ)))(2 (2 (ADJ))(2 (NOUN)))))(3 (2 (2 (DET))(2 (NOUN)))(3 (2 (VERB))(3 (2 (2 (2 (VERB))(2 (PUNCT)))(2 (ADV)))(2 (2 (SCONJ))(4 (2 (2 (2 (DET))(2 (NOUN)))(2 (2 (ADP))(2 (2 (DET))(2 (2 (ADJ))(2 (NOUN))))))(3 (2 (2 (AUX))(2 (DET)))(3 (2 (2 (ADJ))(2 (SCONJ)))(3 (ADJ))))))))))(2 (PUNCT)))(2 (CCONJ)))(2 (2 (2 (SCONJ))(2 (AUX)))(2 (2 (PUNCT))(1 (3 (2 (PROPN))(2 (PROPN)))(2 (2 (VERB))(2 (2 (PART))(2 (2 (AUX))(1 (2 (VERB))(2 (2 (ADP))(2 (ADJ)))))))))))(2 (PUNCT))) |ET| 
1  |BT| (3 (2 (2 (1 (2 (2 (PRON))(1 (2 (VERB))(1 (2 (NOUN))(2 (2 (2 (ADJ))(2 (NOUN)))(2 (2 (NOUN))(1 (2 (VERB))(2 (AUX))))))))(2 (VERB)))(2 (PUNCT)))(3 (2 (CCONJ))(3 (2 (2 (PUNCT))(2 (2 (ADP))(2 (2 (DET))(2 (3 (2 (2 (ADP))(1 (ADP)))(2 (2 (ADJ))(1 (2 (DET))(3 (ADJ)))))(2 (2 (NOUN))(2 (2 (ADP))(2 (2 (PROPN))(2 (2 (CCONJ))(2 (PROPN))))))))))(3 (2 (PROPN))(4 (2 (2 (PUNCT))(2 (DET)))(3 (2 (PROPN))(3 (2 (VERB))(2 (2 (NUM))(2 (2 (ADP))(3 (3 (DET))(2 (ADV))))))))))))(2 (VERB))) |ET| 
-0.66616872186193054616865083517041  |BT| (1 (3 (ADV))(2 (1 (PART))(2 (PUNCT)))) |ET| 
1  |BT| (3 (2 (3 (2 (DET))(3 (NOUN)))(2 (2 (ADP))(2 (2 (DET))(2 (NOUN)))))(2 (2 (2 (2 (VERB))(2 (2 (ADP))(2 (2 (DET))(3 (2 (NUM))(2 (2 (ADJ))(2 (NOUN)))))))(2 (2 (ADP))(3 (2 (2 (2 (2 (PROPN))(2 (PROPN)))(2 (2 (SCONJ))(2 (2 (DET))(2 (2 (ADJ))(2 (NOUN))))))(2 (CCONJ)))(2 (2 (2 (PROPN))(2 (PROPN)))(2 (2 (SCONJ))(2 (2 (DET))(2 (1 (ADJ))(2 (2 (NOUN))(2 (NOUN))))))))))(2 (PUNCT)))) |ET| 
-1  |BT| (0 (2 (3 (VERB))(2 (2 (2 (2 (DET))(1 (NOUN)))(1 (SCONJ)))(2 (2 (ADP))(2 (NOUN)))))(2 (2 (3 (2 (2 (2 (NOUN))(2 (2 (ADP))(2 (2 (DET))(2 (NOUN)))))(2 (CCONJ)))(2 (ADV)))(2 (2 (2 (VERB))(3 (PRON)))(2 (2 (2 (DET))(2 (2 (DET))(2 (NOUN))))(2 (2 (ADP))(2 (2 (NOUN))(2 (NOUN)))))))(2 (PUNCT)))) |ET| 
1  |BT| (3 (4 (2 (PART))(4 (2 (2 (2 (2 (1 (2 (1 (2 (ADV))(3 (ADJ)))(2 (PUNCT)))(1 (1 (PART))(2 (2 (ADV))(3 (VERB)))))(2 (PUNCT)))(2 (1 (PART))(1 (2 (ADV))(2 (ADJ)))))(2 (PUNCT)))(2 (CCONJ)))(4 (3 (ADV))(4 (3 (3 (ADJ))(2 (CCONJ)))(4 (ADJ))))))(2 (PUNCT))) |ET| 
-1  |BT| (0 (3 (2 (1 (2 (0 (3 (PROPN))(1 (2 (PUNCT))(1 (2 (1 (ADJ))(2 (CCONJ)))(2 (ADJ)))))(2 (PUNCT)))(3 (2 (DET))(3 (3 (3 (ADJ))(2 (ADJ)))(2 (NOUN)))))(2 (PUNCT)))(1 (2 (CCONJ))(0 (2 (DET))(2 (1 (ADJ))(2 (NOUN))))))(2 (PUNCT))) |ET| 
1  |BT| (3 (2 (2 (DET))(2 (NOUN)))(1 (1 (2 (VERB))(1 (2 (ADP))(1 (2 (NOUN))(2 (2 (ADP))(2 (2 (2 (DET))(2 (NOUN)))(2 (2 (ADP))(2 (2 (DET))(2 (NOUN)))))))))(2 (PUNCT)))) |ET| 
-1  |BT| (1 (1 (2 (VERB))(2 (2 (ADP))(2 (1 (VERB))(2 (NOUN)))))(2 (2 (PUNCT))(2 (2 (2 (DET))(2 (2 (NOUN))(2 (ADV))))(2 (2 (ADV))(4 (3 (3 (2 (VERB))(2 (ADP)))(2 (2 (ADP))(3 (2 (2 (2 (DET))(2 (2 (2 (NOUN))(2 (CCONJ)))(2 (NOUN))))(2 (CCONJ)))(2 (2 (2 (NOUN))(2 (2 (ADP))(2 (2 (DET))(2 (NOUN)))))(2 (2 (PRON))(2 (2 (AUX))(2 (2 (DET))(2 (NOUN)))))))))(2 (PUNCT))))))) |ET| 
1  |BT| (3 (2 (3 (2 (DET))(2 (3 (ADJ))(2 (NOUN))))(2 (2 (ADP))(1 (1 (NOUN))(1 (2 (CCONJ))(1 (3 (ADJ))(1 (NOUN)))))))(2 (PUNCT))) |ET| 
-1  |BT| (1 (2 (3 (4 (3 (2 (2 (DET))(2 (NOUN)))(2 (2 (ADP))(1 (NOUN))))(4 (2 (ADV))(4 (ADJ))))(2 (PUNCT)))(0 (2 (PRON))(1 (2 (2 (VERB))(3 (ADV)))(1 (3 (VERB))(2 (2 (ADP))(1 (1 (1 (VERB))(2 (ADJ)))(2 (NOUN))))))))(2 (PUNCT))) |ET| 
1  |BT| (3 (2 (1 (PUNCT))(2 (2 (2 (PROPN))(2 (PART)))(1 (3 (PUNCT))(2 (4 (ADJ))(2 (2 (NOUN))(2 (2 (VERB))(2 (2 (ADV))(2 (1 (NOUN))(2 (2 (AUX))(2 (1 (2 (DET))(2 (2 (4 (ADJ))(2 (ADJ)))(2 (NOUN))))(2 (2 (SCONJ))(2 (ADJ)))))))))))))(2 (2 (PUNCT))(2 (2 (2 (2 (PROPN))(2 (NOUN)))(2 (VERB)))(2 (ADV))))) |ET| 
-1  |BT| (0 (1 (2 (PRON))(2 (2 (ADP))(2 (2 (2 (DET))(2 (NOUN)))(2 (2 (PUNCT))(2 (2 (2 (ADP))(3 (2 (2 (DET))(2 (2 (ADJ))(2 (NOUN))))(2 (2 (ADP))(2 (3 (2 (PROPN))(2 (2 (PROPN))(2 (PART))))(2 (NOUN))))))(2 (PUNCT)))))))(3 (4 (2 (AUX))(3 (ADJ)))(2 (PUNCT)))) |ET| 
1  |BT| (3 (2 (ADV))(2 (1 (ADV))(2 (2 (3 (ADJ))(0 (2 (SCONJ))(2 (3 (2 (ADV))(2 (2 (DET))(1 (3 (2 (ADV))(1 (ADJ)))(2 (2 (NOUN))(2 (NOUN))))))(1 (2 (VERB))(0 (1 (VERB))(0 (2 (2 (DET))(2 (2 (NOUN))(2 (VERB))))(0 (1 (ADJ))(1 (2 (PUNCT))(1 (1 (ADJ))(1 (2 (PUNCT))(1 (2 (CCONJ))(1 (2 (ADV))(1 (ADJ))))))))))))))(2 (PUNCT))))) |ET| 
-1  |BT| (1 (2 (2 (2 (2 (PRON))(2 (2 (2 (VERB))(2 (PART)))(2 (2 (VERB))(2 (2 (DET))(2 (ADJ))))))(2 (PUNCT)))(1 (2 (2 (DET))(2 (NOUN)))(2 (2 (AUX))(1 (2 (ADP))(2 (2 (2 (DET))(2 (2 (NOUN))(2 (NOUN))))(2 (2 (VERB))(2 (2 (ADP))(2 (2 (ADJ))(2 (NOUN))))))))))(2 (PUNCT))) |ET| 
1  |BT| (3 (2 (PRON))(2 (2 (1 (2 (1 (2 (2 (VERB))(1 (SCONJ)))(2 (2 (ADP))(2 (2 (DET))(2 (3 (PROPN))(2 (PROPN))))))(2 (2 (ADP))(2 (2 (ADJ))(2 (NOUN)))))(2 (PUNCT)))(2 (2 (1 (NOUN))(2 (2 (ADP))(2 (PROPN))))(3 (2 (VERB))(2 (2 (ADP))(2 (2 (2 (DET))(2 (NOUN)))(2 (2 (ADP))(2 (2 (NOUN))(2 (2 (ADP))(2 (2 (DET))(2 (NOUN)))))))))))(2 (PUNCT)))) |ET| 
-1  |BT| (1 (2 (2 (SCONJ))(2 (2 (2 (ADJ))(2 (2 (NOUN))(2 (NOUN))))(2 (VERB))))(3 (2 (PUNCT))(3 (2 (ADV))(2 (2 (2 (2 (3 (2 (2 (2 (2 (3 (2 (VERB))(2 (2 (DET))(2 (2 (ADJ))(2 (NOUN)))))(1 (ADV)))(2 (2 (ADP))(2 (2 (DET))(2 (2 (PROPN))(2 (PROPN))))))(2 (CCONJ)))(2 (2 (2 (VERB))(2 (PRON)))(2 (ADV))))(2 (PUNCT)))(2 (ADJ)))(2 (CCONJ)))(1 (2 (2 (2 (VERB))(2 (PUNCT)))(2 (2 (ADV))(2 (ADV))))(2 (2 (ADP))(2 (2 (DET))(2 (2 (PROPN))(2 (PROPN)))))))(2 (PUNCT)))))) |ET| 
1  |BT| (3 (2 (PROPN))(3 (2 (1 (2 (AUX))(1 (PART)))(0 (2 (DET))(0 (0 (ADJ))(2 (NOUN)))))(2 (PUNCT)))) |ET| 
-1  |BT| (1 (1 (1 (2 (DET))(1 (0 (2 (ADV))(0 (ADJ)))(3 (2 (NOUN))(3 (PUNCT)))))(3 (2 (CCONJ))(2 (PUNCT))))(2 (1 (2 (NOUN))(2 (2 (NOUN))(3 (2 (DET))(2 (2 (ADV))(3 (2 (2 (VERB))(1 (AUX)))(3 (2 (VERB))(4 (3 (2 (ADP))(3 (DET)))(2 (2 (NOUN))(2 (ADP))))))))))(2 (ADV)))) |ET| 
1  |BT| (3 (2 (NOUN))(1 (2 (2 (2 (VERB))(2 (2 (AUX))(2 (3 (ADV))(1 (2 (1 (3 (VERB))(0 (2 (ADP))(1 (1 (2 (2 (DET))(2 (2 (NOUN))(2 (PART))))(2 (1 (ADJ))(2 (NOUN))))(2 (2 (ADP))(3 (1 (2 (NOUN))(2 (CCONJ)))(3 (ADJ)))))))(2 (PUNCT)))(1 (2 (SCONJ))(1 (2 (2 (DET))(2 (2 (ADV))(2 (ADJ))))(1 (2 (PUNCT))(1 (2 (ADJ))(1 (1 (VERB))(2 (2 (AUX))(2 (2 (2 (VERB))(3 (3 (ADP))(2 (DET))))(2 (2 (ADJ))(2 (2 (2 (NOUN))(2 (ADP)))(2 (2 (DET))(2 (2 (NOUN))(2 (2 (DET))(2 (2 (VERB))(2 (2 (DET))(2 (2 (PUNCT))(2 (ADJ)))))))))))))))))))))(2 (NOUN)))(2 (NOUN)))) |ET| 
-1  |BT| (1 (3 (2 (SCONJ))(3 (2 (DET))(3 (3 (ADJ))(3 (NOUN)))))(2 (2 (PUNCT))(3 (2 (2 (ADV))(2 (2 (ADP))(2 (2 (DET))(2 (2 (NOUN))(2 (PROPN))))))(2 (2 (2 (VERB))(2 (2 (DET))(2 (2 (ADJ))(1 (NOUN)))))(2 (PUNCT)))))) |ET| 
1  |BT| (3 (2 (2 (DET))(2 (NOUN)))(3 (1 (2 (VERB))(3 (1 (1 (1 (2 (ADV))(2 (ADJ)))(2 (PUNCT)))(2 (CCONJ)))(3 (2 (ADV))(4 (ADJ)))))(2 (PUNCT)))) |ET| 
-1  |BT| (1 (2 (2 (NUM))(2 (2 (ADP))(2 (2 (2 (DET))(2 (NOUN)))(3 (2 (DET))(2 (2 (VERB))(2 (NOUN)))))))(1 (2 (2 (VERB))(2 (2 (ADP))(2 (2 (2 (NOUN))(2 (2 (ADP))(2 (2 (NOUN))(2 (NOUN)))))(2 (2 (PART))(3 (3 (2 (VERB))(3 (2 (DET))(3 (3 (ADJ))(3 (NOUN)))))(1 (2 (ADV))(1 (2 (PRON))(1 (2 (AUX))(3 (2 (1 (PRON))(2 (ADV)))(2 (2 (PART))(2 (VERB))))))))))))(2 (PUNCT)))) |ET| 
1  |BT| (4 (2 (2 (2 (PROPN))(2 (CCONJ)))(2 (2 (DET))(3 (NOUN))))(4 (4 (1 (2 (VERB))(2 (PART)))(2 (2 (AUX))(3 (2 (2 (VERB))(2 (2 (DET))(4 (ADV))))(2 (2 (ADP))(2 (2 (2 (VERB))(2 (2 (2 (DET))(2 (NOUN)))(2 (2 (ADP))(3 (PROPN)))))(2 (2 (PUNCT))(2 (2 (PROPN))(2 (2 (ADP))(2 (DET))))))))))(2 (ADJ)))) |ET| 
-1  |BT| (1 (2 (PUNCT))(2 (1 (2 (2 (DET))(2 (2 (ADJ))(2 (NOUN))))(2 (2 (2 (DET))(2 (NOUN)))(2 (VERB))))(3 (2 (2 (VERB))(2 (2 (2 (DET))(2 (NOUN)))(2 (2 (2 (VERB))(2 (2 (ADP))(2 (2 (DET))(2 (NOUN)))))(2 (2 (PART))(2 (2 (VERB))(2 (2 (DET))(2 (NOUN))))))))(2 (PUNCT))))) |ET| 
1  |BT| (3 (3 (1 (ADJ))(2 (2 (ADJ))(3 (1 (PUNCT))(2 (SCONJ)))))(1 (2 (1 (PUNCT))(2 (2 (NOUN))(2 (2 (ADJ))(1 (2 (NOUN))(1 (2 (VERB))(2 (1 (PART))(1 (2 (VERB))(1 (2 (ADP))(2 (2 (DET))(2 (2 (ADJ))(3 (PUNCT))))))))))))(2 (ADJ)))) |ET| 
-0.94231499559020770462325344851706  |BT| (1 (2 (2 (ADP))(2 (2 (ADJ))(2 (NOUN))))(1 (2 (PUNCT))(2 (2 (PRON))(2 (2 (2 (2 (AUX))(2 (ADV)))(2 (2 (DET))(2 (2 (NOUN))(2 (2 (NOUN))(2 (SYM))))))(2 (NOUN)))))) |ET| 
1  |BT| (3 (2 (2 (VERB))(2 (2 (ADP))(2 (PROPN))))(2 (2 (PUNCT))(1 (2 (2 (PUNCT))(2 (2 (NOUN))(2 (PUNCT))))(2 (1 (3 (VERB))(2 (2 (2 (DET))(2 (NOUN)))(1 (2 (ADP))(2 (2 (2 (DET))(2 (2 (ADJ))(2 (NOUN))))(1 (2 (ADV))(2 (2 (ADV))(2 (2 (ADV))(2 (2 (SCONJ))(2 (2 (PRON))(2 (4 (VERB))(2 (PRON))))))))))))(2 (PUNCT)))))) |ET| 
-1  |BT| (1 (1 (2 (ADP))(2 (2 (DET))(2 (NOUN))))(1 (2 (PUNCT))(0 (3 (2 (2 (2 (2 (2 (PROPN))(2 (PART)))(2 (2 (2 (NOUN))(2 (CCONJ)))(2 (NOUN))))(2 (PUNCT)))(2 (2 (ADV))(4 (3 (2 (3 (2 (DET))(2 (NOUN)))(2 (2 (ADP))(2 (2 (2 (VERB))(2 (ADP)))(3 (2 (ADP))(2 (NOUN))))))(2 (PUNCT)))(2 (2 (NOUN))(3 (2 (DET))(3 (3 (2 (VERB))(3 (2 (ADV))(3 (ADJ))))(2 (2 (ADP))(2 (2 (ADJ))(2 (NOUN))))))))))(2 (PUNCT)))(2 (0 (2 (VERB))(0 (1 (0 (ADJ))(2 (CCONJ)))(1 (ADJ))))(2 (PUNCT)))))) |ET| 
1  |BT| (3 (2 (2 (SCONJ))(1 (2 (2 (DET))(2 (NOUN)))(1 (2 (VERB))(1 (2 (AUX))(1 (2 (2 (DET))(2 (NOUN)))(1 (ADJ)))))))(3 (2 (PUNCT))(2 (2 (2 (DET))(2 (2 (ADJ))(2 (NOUN))))(3 (2 (3 (2 (AUX))(3 (2 (ADV))(3 (ADJ))))(1 (2 (SCONJ))(1 (2 (PRON))(1 (2 (2 (VERB))(2 (PART)))(3 (VERB))))))(2 (PUNCT)))))) |ET| 
-1  |BT| (1 (2 (PRON))(1 (0 (2 (2 (AUX))(2 (PART)))(4 (2 (VERB))(3 (2 (ADJ))(4 (2 (ADP))(3 (2 (2 (DET))(2 (NOUN)))(2 (2 (PRON))(3 (4 (VERB))(3 (2 (2 (DET))(2 (2 (1NUM))(2 (PROPN))))(3 (2 (VERB))(3 (2 (VERB))(2 (2 (DET))(2 (3 (ADJ))(2 (NOUN))))))))))))))(2 (PUNCT)))) |ET| 
1  |BT| (3 (2 (2 (2 (1 (ADJ))(2 (NOUN)))(2 (CCONJ)))(2 (3 (ADJ))(2 (NOUN))))(2 (2 (3 (2 (2 (VERB))(2 (2 (ADV))(3 (ADV))))(2 (2 (ADP))(2 (2 (2 (ADJ))(2 (2 (CCONJ))(2 (3 (ADJ))(2 (NOUN)))))(2 (2 (ADP))(2 (2 (DET))(2 (NOUN)))))))(0 (2 (SCONJ))(0 (2 (PRON))(1 (2 (2 (VERB))(2 (2 (DET))(2 (2 (ADJ))(2 (1 (ADJ))(2 (2 (ADJ))(2 (3 (NOUN))(2 (NOUN))))))))(2 (2 (SCONJ))(0 (2 (DET))(2 (2 (NOUN))(1 (NOUN)))))))))(2 (PUNCT)))) |ET| 
-1  |BT| (1 (1 (1 (2 (DET))(1 (2 (ADJ))(2 (NOUN))))(2 (2 (PUNCT))(2 (2 (2 (PRON))(2 (VERB)))(2 (PUNCT)))))(2 (2 (AUX))(1 (2 (2 (VERB))(2 (2 (PROPN))(2 (2 (SCONJ))(2 (2 (3 (2 (DET))(2 (3 (ADJ))(2 (NOUN))))(2 (CCONJ)))(2 (PROPN))))))(2 (2 (SCONJ))(3 (3 (3 (2 (DET))(2 (4 (ADJ))(2 (3 (NOUN))(2 (NOUN)))))(2 (PUNCT)))(2 (2 (ADV))(2 (2 (2 (AUX))(2 (2 (2 (PROPN))(2 (PROPN)))(2 (2 (SCONJ))(2 (2 (DET))(2 (2 (NOUN))(2 (NOUN)))))))(2 (PUNCT))))))))) |ET| 
0.20687448746548875444517534560873  |BT| (3 (3 (1 (1 (1 (3 (2 (2 (PROPN))(2 (PART)))(2 (2 (ADJ))(3 (2 (ADJ))(2 (NOUN)))))(2 (1 (1 (2 (AUX))(2 (PART)))(3 (2 (3 (2 (ADV))(3 (ADJ)))(2 (CCONJ)))(3 (2 (ADV))(4 (ADJ)))))(3 (2 (SCONJ))(2 (2 (PRON))(2 (2 (VERB))(3 (2 (NOUN))(2 (2 (DET))(2 (2 (NOUN))(2 (2 (DET))(2 (PRON)))))))))))(2 (VERB)))(2 (PUNCT)))(3 (2 (CCONJ))(3 (2 (2 (PRON))(2 (AUX)))(4 (3 (1 (ADV))(3 (ADV)))(2 (ADJ))))))(2 (NOUN))) |ET| 
-1  |BT| (0 (2 (PUNCT))(0 (1 (1 (2 (DET))(0 (3 (ADJ))(1 (NOUN))))(0 (2 (ADP))(0 (0 (2 (2 (DET))(2 (NOUN)))(1 (0 (1 (0 (1 (0 (2 (ADV))(0 (ADJ)))(2 (PUNCT)))(2 (2 (ADV))(1 (ADJ))))(2 (PUNCT)))(2 (ADV)))(1 (1 (ADV))(1 (ADJ)))))(2 (2 (SCONJ))(2 (2 (PRON))(2 (2 (2 (VERB))(2 (PART)))(2 (2 (VERB))(3 (2 (2 (2 (2 (DET))(2 (NOUN)))(2 (PUNCT)))(2 (2 (2 (ADJ))(2 (CCONJ)))(2 (ADJ))))(2 (PUNCT))))))))))(3 (4 (2 (VERB))(3 (3 (2 (AUX))(3 (2 (DET))(3 (3 (ADJ))(2 (NOUN)))))(2 (ADV))))(2 (PUNCT))))) |ET| 
1  |BT| (3 (3 (2 (ADP))(4 (4 (ADJ))(3 (NOUN))))(2 (2 (PUNCT))(2 (2 (2 (DET))(2 (NOUN)))(2 (2 (2 (2 (2 (VERB))(2 (2 (2 (PROPN))(2 (PART)))(2 (NOUN))))(2 (2 (ADV))(2 (2 (ADP))(2 (2 (2 (PROPN))(2 (CCONJ)))(2 (2 (DET))(2 (NOUN)))))))(2 (2 (ADV))(2 (2 (2 (2 (2 (2 (DET))(2 (NOUN)))(2 (PUNCT)))(2 (2 (PROPN))(2 (2 (PROPN))(2 (PROPN)))))(2 (PUNCT)))(2 (2 (ADV))(2 (VERB))))))(2 (PUNCT)))))) |ET| 
-1  |BT| (1 (2 (1 (ADJ))(2 (2 (ADP))(2 (2 (2 (2 (DET))(2 (2 (ADJ))(2 (NOUN))))(2 (PUNCT)))(2 (ADV)))))(3 (2 (SCONJ))(2 (PUNCT)))) |ET| 
0.919674569821893106436050402408  |BT| (3 (4 (2 (DET))(3 (3 (ADJ))(2 (NOUN))))(2 (3 (2 (VERB))(3 (3 (2 (VERB))(3 (ADJ)))(2 (2 (2 (DET))(2 (NOUN)))(1 (2 (PRON))(1 (2 (VERB))(1 (2 (VERB))(1 (1 (VERB))(2 (2 (PRON))(1 (ADJ))))))))))(2 (PUNCT)))) |ET| 
-1  |BT| (1 (2 (3 (3 (2 (2 (2 (DET))(1 (2 (NOUN))(2 (PART))))(2 (NOUN)))(3 (3 (2 (VERB))(2 (ADV)))(3 (2 (VERB))(3 (2 (PRON))(3 (ADJ))))))(2 (PUNCT)))(2 (2 (NOUN))(2 (2 (VERB))(1 (2 (VERB))(2 (2 (PRON))(2 (ADJ)))))))(2 (PUNCT))) |ET| 
1  |BT| (3 (2 (2 (2 (DET))(2 (2 (ADJ))(2 (NOUN))))(0 (2 (ADP))(2 (2 (2 (2 (2 (NUM))(2 (2 (NOUN))(2 (PART))))(2 (2 (ADJ))(2 (NOUN))))(2 (CCONJ)))(1 (2 (2 (2 (DET))(2 (2 (ADJ))(2 (NOUN))))(2 (PUNCT)))(2 (2 (2 (DET))(2 (2 (ADJ))(2 (NOUN))))(2 (2 (ADP))(2 (ADJ))))))))(2 (2 (1 (1 (NOUN))(4 (ADJ)))(2 (2 (ADP))(2 (3 (PROPN))(2 (PROPN)))))(2 (PUNCT)))) |ET| 
